FANN_FLO_2.1
num_layers=3
learning_rate=0.100000
connection_rate=1.000000
network_type=0
learning_momentum=0.000000
training_algorithm=2
train_error_function=1
train_stop_function=0
cascade_output_change_fraction=0.010000
quickprop_decay=-0.000100
quickprop_mu=1.750000
rprop_increase_factor=1.200000
rprop_decrease_factor=0.500000
rprop_delta_min=0.000000
rprop_delta_max=50.000000
rprop_delta_zero=0.100000
cascade_output_stagnation_epochs=12
cascade_candidate_change_fraction=0.010000
cascade_candidate_stagnation_epochs=12
cascade_max_out_epochs=150
cascade_min_out_epochs=50
cascade_max_cand_epochs=150
cascade_min_cand_epochs=50
cascade_num_candidate_groups=2
bit_fail_limit=3.49999994039535522461e-01
cascade_candidate_limit=1.00000000000000000000e+03
cascade_weight_multiplier=4.00000005960464477539e-01
cascade_activation_functions_count=10
cascade_activation_functions=3 5 7 8 10 11 14 15 16 17 
cascade_activation_steepnesses_count=4
cascade_activation_steepnesses=2.50000000000000000000e-01 5.00000000000000000000e-01 7.50000000000000000000e-01 1.00000000000000000000e+00 
layer_sizes=10 3 2 
scale_included=0
neurons (num_inputs, activation_function, activation_steepness)=(0, 0, 0.00000000000000000000e+00) (0, 0, 0.00000000000000000000e+00) (0, 0, 0.00000000000000000000e+00) (0, 0, 0.00000000000000000000e+00) (0, 0, 0.00000000000000000000e+00) (0, 0, 0.00000000000000000000e+00) (0, 0, 0.00000000000000000000e+00) (0, 0, 0.00000000000000000000e+00) (0, 0, 0.00000000000000000000e+00) (0, 0, 0.00000000000000000000e+00) (10, 3, 5.00000000000000000000e-01) (10, 3, 5.00000000000000000000e-01) (0, 3, 0.00000000000000000000e+00) (3, 0, 5.00000000000000000000e-01) (0, 0, 0.00000000000000000000e+00) 
connections (connected_to_neuron, weight)=(0, 7.98419713973999023438e-02) (1, 1.50820523500442504883e-01) (2, 3.78064736723899841309e-02) (3, 1.15605212748050689697e-01) (4, 1.64913028478622436523e-01) (5, 2.16984808444976806641e-01) (6, 1.70743763446807861328e-01) (7, 2.17434942722320556641e-01) (8, 1.06245949864387512207e-01) (9, 1.92088216543197631836e-01) (0, -9.46913436055183410645e-02) (1, -1.92256063222885131836e-01) (2, -1.46132364869117736816e-01) (3, -7.90319964289665222168e-02) (4, -2.53316983580589294434e-02) (5, -6.36747851967811584473e-02) (6, -1.34521111845970153809e-01) (7, -4.57854196429252624512e-02) (8, -1.71383336186408996582e-01) (9, -1.82064056396484375000e-01) (10, 1.84760808944702148438e-01) (11, 6.93224519491195678711e-02) (12, 7.91543126106262207031e-02) 
