FANN_FLO_2.1
num_layers=3
learning_rate=0.100000
connection_rate=1.000000
network_type=0
learning_momentum=0.000000
training_algorithm=2
train_error_function=1
train_stop_function=0
cascade_output_change_fraction=0.010000
quickprop_decay=-0.000100
quickprop_mu=1.750000
rprop_increase_factor=1.200000
rprop_decrease_factor=0.500000
rprop_delta_min=0.000000
rprop_delta_max=50.000000
rprop_delta_zero=0.100000
cascade_output_stagnation_epochs=12
cascade_candidate_change_fraction=0.010000
cascade_candidate_stagnation_epochs=12
cascade_max_out_epochs=150
cascade_min_out_epochs=50
cascade_max_cand_epochs=150
cascade_min_cand_epochs=50
cascade_num_candidate_groups=2
bit_fail_limit=3.49999994039535522461e-01
cascade_candidate_limit=1.00000000000000000000e+03
cascade_weight_multiplier=4.00000005960464477539e-01
cascade_activation_functions_count=10
cascade_activation_functions=3 5 7 8 10 11 14 15 16 17 
cascade_activation_steepnesses_count=4
cascade_activation_steepnesses=2.50000000000000000000e-01 5.00000000000000000000e-01 7.50000000000000000000e-01 1.00000000000000000000e+00 
layer_sizes=10 3 2 
scale_included=0
neurons (num_inputs, activation_function, activation_steepness)=(0, 0, 0.00000000000000000000e+00) (0, 0, 0.00000000000000000000e+00) (0, 0, 0.00000000000000000000e+00) (0, 0, 0.00000000000000000000e+00) (0, 0, 0.00000000000000000000e+00) (0, 0, 0.00000000000000000000e+00) (0, 0, 0.00000000000000000000e+00) (0, 0, 0.00000000000000000000e+00) (0, 0, 0.00000000000000000000e+00) (0, 0, 0.00000000000000000000e+00) (10, 3, 5.00000000000000000000e-01) (10, 3, 5.00000000000000000000e-01) (0, 3, 0.00000000000000000000e+00) (3, 0, 5.00000000000000000000e-01) (0, 0, 0.00000000000000000000e+00) 
connections (connected_to_neuron, weight)=(0, -9.69776883721351623535e-02) (1, -1.65224239230155944824e-01) (2, -1.83211952447891235352e-01) (3, -1.90073341131210327148e-01) (4, -1.83906421065330505371e-01) (5, -4.50711622834205627441e-02) (6, -1.89339935779571533203e-01) (7, -1.34138971567153930664e-01) (8, -2.55606248974800109863e-02) (9, -1.12104728817939758301e-01) (0, -5.38514927029609680176e-02) (1, -4.27797362208366394043e-02) (2, -2.15275526046752929688e-01) (3, -1.76737949252128601074e-01) (4, -1.64539784193038940430e-01) (5, -1.34753033518791198730e-01) (6, -9.87251996994018554688e-02) (7, -3.38104590773582458496e-02) (8, -1.10847733914852142334e-01) (9, -1.31761133670806884766e-01) (10, 7.49369412660598754883e-02) (11, 3.84652987122535705566e-02) (12, 7.66007602214813232422e-02) 
