FANN_FLO_2.1
num_layers=3
learning_rate=0.100000
connection_rate=1.000000
network_type=0
learning_momentum=0.000000
training_algorithm=2
train_error_function=1
train_stop_function=0
cascade_output_change_fraction=0.010000
quickprop_decay=-0.000100
quickprop_mu=1.750000
rprop_increase_factor=1.200000
rprop_decrease_factor=0.500000
rprop_delta_min=0.000000
rprop_delta_max=50.000000
rprop_delta_zero=0.100000
cascade_output_stagnation_epochs=12
cascade_candidate_change_fraction=0.010000
cascade_candidate_stagnation_epochs=12
cascade_max_out_epochs=150
cascade_min_out_epochs=50
cascade_max_cand_epochs=150
cascade_min_cand_epochs=50
cascade_num_candidate_groups=2
bit_fail_limit=3.49999994039535522461e-01
cascade_candidate_limit=1.00000000000000000000e+03
cascade_weight_multiplier=4.00000005960464477539e-01
cascade_activation_functions_count=10
cascade_activation_functions=3 5 7 8 10 11 14 15 16 17 
cascade_activation_steepnesses_count=4
cascade_activation_steepnesses=2.50000000000000000000e-01 5.00000000000000000000e-01 7.50000000000000000000e-01 1.00000000000000000000e+00 
layer_sizes=19 3 3 
scale_included=0
neurons (num_inputs, activation_function, activation_steepness)=(0, 0, 0.00000000000000000000e+00) (0, 0, 0.00000000000000000000e+00) (0, 0, 0.00000000000000000000e+00) (0, 0, 0.00000000000000000000e+00) (0, 0, 0.00000000000000000000e+00) (0, 0, 0.00000000000000000000e+00) (0, 0, 0.00000000000000000000e+00) (0, 0, 0.00000000000000000000e+00) (0, 0, 0.00000000000000000000e+00) (0, 0, 0.00000000000000000000e+00) (0, 0, 0.00000000000000000000e+00) (0, 0, 0.00000000000000000000e+00) (0, 0, 0.00000000000000000000e+00) (0, 0, 0.00000000000000000000e+00) (0, 0, 0.00000000000000000000e+00) (0, 0, 0.00000000000000000000e+00) (0, 0, 0.00000000000000000000e+00) (0, 0, 0.00000000000000000000e+00) (0, 0, 0.00000000000000000000e+00) (19, 3, 5.00000000000000000000e-01) (19, 3, 5.00000000000000000000e-01) (0, 3, 0.00000000000000000000e+00) (3, 0, 5.00000000000000000000e-01) (3, 0, 5.00000000000000000000e-01) (0, 0, 0.00000000000000000000e+00) 
connections (connected_to_neuron, weight)=(0, -9.79250222444534301758e-02) (1, -1.69402837753295898438e-01) (2, -3.22342440485954284668e-02) (3, -1.51111081242561340332e-01) (4, -7.01762363314628601074e-02) (5, -9.13068875670433044434e-02) (6, -2.16253250837326049805e-01) (7, -1.86990037560462951660e-01) (8, -4.27558049559593200684e-02) (9, -1.54666006565093994141e-01) (10, -2.17598378658294677734e-01) (11, -1.95996582508087158203e-01) (12, -1.31378173828125000000e-01) (13, -1.16697311401367187500e-01) (14, -4.58153858780860900879e-02) (15, -3.14106568694114685059e-02) (16, -1.93344205617904663086e-01) (17, -1.35849803686141967773e-01) (18, -6.54923990368843078613e-02) (0, 2.12977901101112365723e-02) (1, 2.19327569007873535156e-01) (2, 2.19994664192199707031e-01) (3, 1.85788601636886596680e-01) (4, 1.03825077414512634277e-01) (5, 6.32855296134948730469e-02) (6, 2.09556013345718383789e-01) (7, 1.46874099969863891602e-01) (8, 1.06959991157054901123e-01) (9, 6.83161988854408264160e-02) (10, 4.63500022888183593750e-02) (11, 6.52298182249069213867e-02) (12, 1.90391182899475097656e-01) (13, 9.69471782445907592773e-02) (14, 5.29955849051475524902e-02) (15, 5.92801012098789215088e-02) (16, 4.67709302902221679688e-02) (17, 1.81688696146011352539e-01) (18, 6.30268454551696777344e-02) (19, 7.97808989882469177246e-02) (20, 1.58932894468307495117e-01) (21, 1.28360852599143981934e-01) (19, 8.21825191378593444824e-02) (20, 1.82936310768127441406e-01) (21, 2.16982692480087280273e-01) 
