FANN_FLO_2.1
num_layers=3
learning_rate=0.100000
connection_rate=1.000000
network_type=0
learning_momentum=0.000000
training_algorithm=2
train_error_function=1
train_stop_function=0
cascade_output_change_fraction=0.010000
quickprop_decay=-0.000100
quickprop_mu=1.750000
rprop_increase_factor=1.200000
rprop_decrease_factor=0.500000
rprop_delta_min=0.000000
rprop_delta_max=50.000000
rprop_delta_zero=0.100000
cascade_output_stagnation_epochs=12
cascade_candidate_change_fraction=0.010000
cascade_candidate_stagnation_epochs=12
cascade_max_out_epochs=150
cascade_min_out_epochs=50
cascade_max_cand_epochs=150
cascade_min_cand_epochs=50
cascade_num_candidate_groups=2
bit_fail_limit=3.49999994039535522461e-01
cascade_candidate_limit=1.00000000000000000000e+03
cascade_weight_multiplier=4.00000005960464477539e-01
cascade_activation_functions_count=10
cascade_activation_functions=3 5 7 8 10 11 14 15 16 17 
cascade_activation_steepnesses_count=4
cascade_activation_steepnesses=2.50000000000000000000e-01 5.00000000000000000000e-01 7.50000000000000000000e-01 1.00000000000000000000e+00 
layer_sizes=10 3 2 
scale_included=0
neurons (num_inputs, activation_function, activation_steepness)=(0, 0, 0.00000000000000000000e+00) (0, 0, 0.00000000000000000000e+00) (0, 0, 0.00000000000000000000e+00) (0, 0, 0.00000000000000000000e+00) (0, 0, 0.00000000000000000000e+00) (0, 0, 0.00000000000000000000e+00) (0, 0, 0.00000000000000000000e+00) (0, 0, 0.00000000000000000000e+00) (0, 0, 0.00000000000000000000e+00) (0, 0, 0.00000000000000000000e+00) (10, 3, 5.00000000000000000000e-01) (10, 3, 5.00000000000000000000e-01) (0, 3, 0.00000000000000000000e+00) (3, 0, 5.00000000000000000000e-01) (0, 0, 0.00000000000000000000e+00) 
connections (connected_to_neuron, weight)=(0, -2.20166221261024475098e-02) (1, -5.50566837191581726074e-02) (2, -7.93626382946968078613e-02) (3, -1.17852881550788879395e-01) (4, -1.14825069904327392578e-01) (5, -1.00412867963314056396e-01) (6, -1.71777248382568359375e-01) (7, -4.73396107554435729980e-02) (8, -1.98288410902023315430e-01) (9, -1.97890102863311767578e-01) (0, -2.11203262209892272949e-01) (1, -1.56859308481216430664e-01) (2, -5.95125332474708557129e-02) (3, -8.48786160349845886230e-02) (4, -1.38734519481658935547e-01) (5, -2.16573685407638549805e-01) (6, -1.42477244138717651367e-01) (7, -1.61017805337905883789e-01) (8, -4.90821525454521179199e-02) (9, -1.54896110296249389648e-01) (10, 9.54799875617027282715e-02) (11, 1.12510971724987030029e-01) (12, 1.28111213445663452148e-01) 
