FANN_FLO_2.1
num_layers=3
learning_rate=0.100000
connection_rate=1.000000
network_type=0
learning_momentum=0.000000
training_algorithm=2
train_error_function=1
train_stop_function=0
cascade_output_change_fraction=0.010000
quickprop_decay=-0.000100
quickprop_mu=1.750000
rprop_increase_factor=1.200000
rprop_decrease_factor=0.500000
rprop_delta_min=0.000000
rprop_delta_max=50.000000
rprop_delta_zero=0.100000
cascade_output_stagnation_epochs=12
cascade_candidate_change_fraction=0.010000
cascade_candidate_stagnation_epochs=12
cascade_max_out_epochs=150
cascade_min_out_epochs=50
cascade_max_cand_epochs=150
cascade_min_cand_epochs=50
cascade_num_candidate_groups=2
bit_fail_limit=3.49999994039535522461e-01
cascade_candidate_limit=1.00000000000000000000e+03
cascade_weight_multiplier=4.00000005960464477539e-01
cascade_activation_functions_count=10
cascade_activation_functions=3 5 7 8 10 11 14 15 16 17 
cascade_activation_steepnesses_count=4
cascade_activation_steepnesses=2.50000000000000000000e-01 5.00000000000000000000e-01 7.50000000000000000000e-01 1.00000000000000000000e+00 
layer_sizes=19 3 3 
scale_included=0
neurons (num_inputs, activation_function, activation_steepness)=(0, 0, 0.00000000000000000000e+00) (0, 0, 0.00000000000000000000e+00) (0, 0, 0.00000000000000000000e+00) (0, 0, 0.00000000000000000000e+00) (0, 0, 0.00000000000000000000e+00) (0, 0, 0.00000000000000000000e+00) (0, 0, 0.00000000000000000000e+00) (0, 0, 0.00000000000000000000e+00) (0, 0, 0.00000000000000000000e+00) (0, 0, 0.00000000000000000000e+00) (0, 0, 0.00000000000000000000e+00) (0, 0, 0.00000000000000000000e+00) (0, 0, 0.00000000000000000000e+00) (0, 0, 0.00000000000000000000e+00) (0, 0, 0.00000000000000000000e+00) (0, 0, 0.00000000000000000000e+00) (0, 0, 0.00000000000000000000e+00) (0, 0, 0.00000000000000000000e+00) (0, 0, 0.00000000000000000000e+00) (19, 3, 5.00000000000000000000e-01) (19, 3, 5.00000000000000000000e-01) (0, 3, 0.00000000000000000000e+00) (3, 0, 5.00000000000000000000e-01) (3, 0, 5.00000000000000000000e-01) (0, 0, 0.00000000000000000000e+00) 
connections (connected_to_neuron, weight)=(0, 1.37984171509742736816e-01) (1, -3.54211255908012390137e-02) (2, 7.36320316791534423828e-02) (3, 1.04859463870525360107e-01) (4, -5.88925257325172424316e-02) (5, 1.56899809837341308594e-01) (6, 1.11332193017005920410e-01) (7, 1.37258574366569519043e-01) (8, -1.63984030485153198242e-01) (9, 5.56229054927825927734e-02) (10, 1.07540376484394073486e-01) (11, -1.61552459001541137695e-01) (12, 2.91818007826805114746e-02) (13, 1.84548705816268920898e-01) (14, 1.38472974300384521484e-01) (15, 1.95206224918365478516e-01) (16, 6.19136840105056762695e-02) (17, -1.05922639369964599609e-01) (18, 2.09334969520568847656e-01) (0, -1.24778732657432556152e-01) (1, -1.85900583863258361816e-01) (2, -1.43812030553817749023e-01) (3, -1.95050165057182312012e-01) (4, -9.85892564058303833008e-02) (5, -1.68158382177352905273e-01) (6, -3.40025201439857482910e-02) (7, -1.61063671112060546875e-01) (8, -6.77076503634452819824e-02) (9, -4.24749478697776794434e-02) (10, -2.02301561832427978516e-01) (11, -5.84662184119224548340e-02) (12, -1.24490790069103240967e-01) (13, -2.17722684144973754883e-01) (14, -2.04834192991256713867e-01) (15, -3.96313294768333435059e-02) (16, -5.66152110695838928223e-02) (17, -6.79343864321708679199e-02) (18, -1.48299127817153930664e-01) (19, 1.00643381476402282715e-01) (20, 2.80815958976745605469e-02) (21, 1.27323776483535766602e-01) (19, 1.88183754682540893555e-01) (20, 8.65291506052017211914e-02) (21, 1.36505573987960815430e-01) 
