FANN_FLO_2.1
num_layers=3
learning_rate=0.100000
connection_rate=1.000000
network_type=0
learning_momentum=0.000000
training_algorithm=2
train_error_function=1
train_stop_function=0
cascade_output_change_fraction=0.010000
quickprop_decay=-0.000100
quickprop_mu=1.750000
rprop_increase_factor=1.200000
rprop_decrease_factor=0.500000
rprop_delta_min=0.000000
rprop_delta_max=50.000000
rprop_delta_zero=0.100000
cascade_output_stagnation_epochs=12
cascade_candidate_change_fraction=0.010000
cascade_candidate_stagnation_epochs=12
cascade_max_out_epochs=150
cascade_min_out_epochs=50
cascade_max_cand_epochs=150
cascade_min_cand_epochs=50
cascade_num_candidate_groups=2
bit_fail_limit=3.49999994039535522461e-01
cascade_candidate_limit=1.00000000000000000000e+03
cascade_weight_multiplier=4.00000005960464477539e-01
cascade_activation_functions_count=10
cascade_activation_functions=3 5 7 8 10 11 14 15 16 17 
cascade_activation_steepnesses_count=4
cascade_activation_steepnesses=2.50000000000000000000e-01 5.00000000000000000000e-01 7.50000000000000000000e-01 1.00000000000000000000e+00 
layer_sizes=10 3 2 
scale_included=0
neurons (num_inputs, activation_function, activation_steepness)=(0, 0, 0.00000000000000000000e+00) (0, 0, 0.00000000000000000000e+00) (0, 0, 0.00000000000000000000e+00) (0, 0, 0.00000000000000000000e+00) (0, 0, 0.00000000000000000000e+00) (0, 0, 0.00000000000000000000e+00) (0, 0, 0.00000000000000000000e+00) (0, 0, 0.00000000000000000000e+00) (0, 0, 0.00000000000000000000e+00) (0, 0, 0.00000000000000000000e+00) (10, 3, 5.00000000000000000000e-01) (10, 3, 5.00000000000000000000e-01) (0, 3, 0.00000000000000000000e+00) (3, 0, 5.00000000000000000000e-01) (0, 0, 0.00000000000000000000e+00) 
connections (connected_to_neuron, weight)=(0, -9.00904312729835510254e-02) (1, -4.09466400742530822754e-02) (2, -4.01143804192543029785e-02) (3, -6.44424483180046081543e-02) (4, -2.08719149231910705566e-01) (5, -1.19385436177253723145e-01) (6, -2.32790336012840270996e-02) (7, -1.26021474599838256836e-01) (8, -1.97396233677864074707e-01) (9, -1.29992246627807617188e-01) (0, -1.26621693372726440430e-01) (1, -1.06643155217170715332e-01) (2, -2.68726274371147155762e-02) (3, -1.82897225022315979004e-01) (4, -9.43715497851371765137e-02) (5, -9.80267301201820373535e-02) (6, -1.51622235774993896484e-01) (7, -2.16405406594276428223e-01) (8, -8.57648774981498718262e-02) (9, -1.47253960371017456055e-01) (10, 2.90100425481796264648e-02) (11, 1.15000471472740173340e-01) (12, 8.91563668847084045410e-02) 
