FANN_FLO_2.1
num_layers=3
learning_rate=0.100000
connection_rate=1.000000
network_type=0
learning_momentum=0.000000
training_algorithm=2
train_error_function=1
train_stop_function=0
cascade_output_change_fraction=0.010000
quickprop_decay=-0.000100
quickprop_mu=1.750000
rprop_increase_factor=1.200000
rprop_decrease_factor=0.500000
rprop_delta_min=0.000000
rprop_delta_max=50.000000
rprop_delta_zero=0.100000
cascade_output_stagnation_epochs=12
cascade_candidate_change_fraction=0.010000
cascade_candidate_stagnation_epochs=12
cascade_max_out_epochs=150
cascade_min_out_epochs=50
cascade_max_cand_epochs=150
cascade_min_cand_epochs=50
cascade_num_candidate_groups=2
bit_fail_limit=3.49999994039535522461e-01
cascade_candidate_limit=1.00000000000000000000e+03
cascade_weight_multiplier=4.00000005960464477539e-01
cascade_activation_functions_count=10
cascade_activation_functions=3 5 7 8 10 11 14 15 16 17 
cascade_activation_steepnesses_count=4
cascade_activation_steepnesses=2.50000000000000000000e-01 5.00000000000000000000e-01 7.50000000000000000000e-01 1.00000000000000000000e+00 
layer_sizes=19 3 3 
scale_included=0
neurons (num_inputs, activation_function, activation_steepness)=(0, 0, 0.00000000000000000000e+00) (0, 0, 0.00000000000000000000e+00) (0, 0, 0.00000000000000000000e+00) (0, 0, 0.00000000000000000000e+00) (0, 0, 0.00000000000000000000e+00) (0, 0, 0.00000000000000000000e+00) (0, 0, 0.00000000000000000000e+00) (0, 0, 0.00000000000000000000e+00) (0, 0, 0.00000000000000000000e+00) (0, 0, 0.00000000000000000000e+00) (0, 0, 0.00000000000000000000e+00) (0, 0, 0.00000000000000000000e+00) (0, 0, 0.00000000000000000000e+00) (0, 0, 0.00000000000000000000e+00) (0, 0, 0.00000000000000000000e+00) (0, 0, 0.00000000000000000000e+00) (0, 0, 0.00000000000000000000e+00) (0, 0, 0.00000000000000000000e+00) (0, 0, 0.00000000000000000000e+00) (19, 3, 5.00000000000000000000e-01) (19, 3, 5.00000000000000000000e-01) (0, 3, 0.00000000000000000000e+00) (3, 0, 5.00000000000000000000e-01) (3, 0, 5.00000000000000000000e-01) (0, 0, 0.00000000000000000000e+00) 
connections (connected_to_neuron, weight)=(0, -2.07120329141616821289e-01) (1, -1.28613233566284179688e-01) (2, -1.52649044990539550781e-01) (3, -4.18161526322364807129e-02) (4, -1.72174736857414245605e-01) (5, -4.43413779139518737793e-02) (6, -1.47147238254547119141e-01) (7, -1.96337655186653137207e-01) (8, -2.11278408765792846680e-01) (9, -7.29978308081626892090e-02) (10, -4.16377708315849304199e-02) (11, -1.19603611528873443604e-01) (12, -1.79094105958938598633e-01) (13, -9.41378995776176452637e-02) (14, -2.14075416326522827148e-01) (15, -1.51097983121871948242e-01) (16, -6.65524676442146301270e-02) (17, -1.55019372701644897461e-01) (18, -2.10466995835304260254e-01) (0, -2.40495875477790832520e-02) (1, -2.43785753846168518066e-02) (2, -2.56816372275352478027e-02) (3, -1.24889954924583435059e-01) (4, -1.81559249758720397949e-01) (5, -8.40381309390068054199e-02) (6, -9.26924571394920349121e-02) (7, -5.84704652428627014160e-02) (8, -1.94744735956192016602e-01) (9, -1.80713534355163574219e-01) (10, -8.87316539883613586426e-02) (11, -4.65726330876350402832e-02) (12, -1.67833849787712097168e-01) (13, -1.97344899177551269531e-01) (14, -1.79221689701080322266e-01) (15, -1.89649999141693115234e-01) (16, -1.49519622325897216797e-01) (17, -2.03563064336776733398e-01) (18, -1.16797231137752532959e-01) (19, 1.14142730832099914551e-01) (20, 4.51585426926612854004e-02) (21, 7.02049434185028076172e-02) (19, 9.25049781799316406250e-02) (20, 1.45554929971694946289e-01) (21, 1.11110851168632507324e-01) 
