FANN_FLO_2.1
num_layers=3
learning_rate=0.100000
connection_rate=1.000000
network_type=0
learning_momentum=0.000000
training_algorithm=2
train_error_function=1
train_stop_function=0
cascade_output_change_fraction=0.010000
quickprop_decay=-0.000100
quickprop_mu=1.750000
rprop_increase_factor=1.200000
rprop_decrease_factor=0.500000
rprop_delta_min=0.000000
rprop_delta_max=50.000000
rprop_delta_zero=0.100000
cascade_output_stagnation_epochs=12
cascade_candidate_change_fraction=0.010000
cascade_candidate_stagnation_epochs=12
cascade_max_out_epochs=150
cascade_min_out_epochs=50
cascade_max_cand_epochs=150
cascade_min_cand_epochs=50
cascade_num_candidate_groups=2
bit_fail_limit=3.49999994039535522461e-01
cascade_candidate_limit=1.00000000000000000000e+03
cascade_weight_multiplier=4.00000005960464477539e-01
cascade_activation_functions_count=10
cascade_activation_functions=3 5 7 8 10 11 14 15 16 17 
cascade_activation_steepnesses_count=4
cascade_activation_steepnesses=2.50000000000000000000e-01 5.00000000000000000000e-01 7.50000000000000000000e-01 1.00000000000000000000e+00 
layer_sizes=19 3 3 
scale_included=0
neurons (num_inputs, activation_function, activation_steepness)=(0, 0, 0.00000000000000000000e+00) (0, 0, 0.00000000000000000000e+00) (0, 0, 0.00000000000000000000e+00) (0, 0, 0.00000000000000000000e+00) (0, 0, 0.00000000000000000000e+00) (0, 0, 0.00000000000000000000e+00) (0, 0, 0.00000000000000000000e+00) (0, 0, 0.00000000000000000000e+00) (0, 0, 0.00000000000000000000e+00) (0, 0, 0.00000000000000000000e+00) (0, 0, 0.00000000000000000000e+00) (0, 0, 0.00000000000000000000e+00) (0, 0, 0.00000000000000000000e+00) (0, 0, 0.00000000000000000000e+00) (0, 0, 0.00000000000000000000e+00) (0, 0, 0.00000000000000000000e+00) (0, 0, 0.00000000000000000000e+00) (0, 0, 0.00000000000000000000e+00) (0, 0, 0.00000000000000000000e+00) (19, 3, 5.00000000000000000000e-01) (19, 3, 5.00000000000000000000e-01) (0, 3, 0.00000000000000000000e+00) (3, 0, 5.00000000000000000000e-01) (3, 0, 5.00000000000000000000e-01) (0, 0, 0.00000000000000000000e+00) 
connections (connected_to_neuron, weight)=(0, -1.27280578017234802246e-01) (1, -1.76938980817794799805e-01) (2, -1.49606749415397644043e-01) (3, -1.46663814783096313477e-01) (4, -1.48755937814712524414e-01) (5, -2.14985668659210205078e-01) (6, -2.02213227748870849609e-01) (7, -1.56091421842575073242e-01) (8, -7.75144621729850769043e-02) (9, -5.33128455281257629395e-02) (10, -5.50535693764686584473e-02) (11, -1.77319467067718505859e-01) (12, -7.16175362467765808105e-02) (13, -7.78488889336585998535e-02) (14, -1.13681435585021972656e-01) (15, -1.88987821340560913086e-01) (16, -1.56528621912002563477e-01) (17, -2.33718827366828918457e-02) (18, -1.83237731456756591797e-01) (0, -3.77588793635368347168e-02) (1, 5.25830090045928955078e-02) (2, -1.89333394169807434082e-01) (3, -2.03084141016006469727e-01) (4, -2.00244009494781494141e-01) (5, 1.87204122543334960938e-01) (6, -2.19259023666381835938e-01) (7, 6.03216215968132019043e-02) (8, -1.20506674051284790039e-01) (9, -2.32059285044670104980e-02) (10, -1.22251830995082855225e-01) (11, 1.95490181446075439453e-01) (12, 1.09513498842716217041e-01) (13, 1.60809218883514404297e-01) (14, -1.74116566777229309082e-01) (15, -5.71503266692161560059e-02) (16, 3.20532768964767456055e-02) (17, 7.08977803587913513184e-02) (18, -3.93635407090187072754e-02) (19, 9.59618538618087768555e-02) (20, 2.13383316993713378906e-01) (21, 1.67323619127273559570e-01) (19, 6.09082952141761779785e-02) (20, 5.60638457536697387695e-02) (21, 1.15706086158752441406e-01) 
