FANN_FLO_2.1
num_layers=3
learning_rate=0.100000
connection_rate=1.000000
network_type=0
learning_momentum=0.000000
training_algorithm=2
train_error_function=1
train_stop_function=0
cascade_output_change_fraction=0.010000
quickprop_decay=-0.000100
quickprop_mu=1.750000
rprop_increase_factor=1.200000
rprop_decrease_factor=0.500000
rprop_delta_min=0.000000
rprop_delta_max=50.000000
rprop_delta_zero=0.100000
cascade_output_stagnation_epochs=12
cascade_candidate_change_fraction=0.010000
cascade_candidate_stagnation_epochs=12
cascade_max_out_epochs=150
cascade_min_out_epochs=50
cascade_max_cand_epochs=150
cascade_min_cand_epochs=50
cascade_num_candidate_groups=2
bit_fail_limit=3.49999994039535522461e-01
cascade_candidate_limit=1.00000000000000000000e+03
cascade_weight_multiplier=4.00000005960464477539e-01
cascade_activation_functions_count=10
cascade_activation_functions=3 5 7 8 10 11 14 15 16 17 
cascade_activation_steepnesses_count=4
cascade_activation_steepnesses=2.50000000000000000000e-01 5.00000000000000000000e-01 7.50000000000000000000e-01 1.00000000000000000000e+00 
layer_sizes=19 3 3 
scale_included=0
neurons (num_inputs, activation_function, activation_steepness)=(0, 0, 0.00000000000000000000e+00) (0, 0, 0.00000000000000000000e+00) (0, 0, 0.00000000000000000000e+00) (0, 0, 0.00000000000000000000e+00) (0, 0, 0.00000000000000000000e+00) (0, 0, 0.00000000000000000000e+00) (0, 0, 0.00000000000000000000e+00) (0, 0, 0.00000000000000000000e+00) (0, 0, 0.00000000000000000000e+00) (0, 0, 0.00000000000000000000e+00) (0, 0, 0.00000000000000000000e+00) (0, 0, 0.00000000000000000000e+00) (0, 0, 0.00000000000000000000e+00) (0, 0, 0.00000000000000000000e+00) (0, 0, 0.00000000000000000000e+00) (0, 0, 0.00000000000000000000e+00) (0, 0, 0.00000000000000000000e+00) (0, 0, 0.00000000000000000000e+00) (0, 0, 0.00000000000000000000e+00) (19, 3, 5.00000000000000000000e-01) (19, 3, 5.00000000000000000000e-01) (0, 3, 0.00000000000000000000e+00) (3, 0, 5.00000000000000000000e-01) (3, 0, 5.00000000000000000000e-01) (0, 0, 0.00000000000000000000e+00) 
connections (connected_to_neuron, weight)=(0, 1.31230950355529785156e-01) (1, 4.56987619400024414062e-02) (2, 1.67646825313568115234e-01) (3, 5.14016300439834594727e-02) (4, 1.98455482721328735352e-01) (5, 1.19662940502166748047e-01) (6, 2.19853967428207397461e-01) (7, 8.54751989245414733887e-02) (8, 6.93165212869644165039e-02) (9, 1.88475847244262695312e-01) (10, 4.88724336028099060059e-02) (11, 2.04210758209228515625e-01) (12, 2.56838649511337280273e-02) (13, 1.45832121372222900391e-01) (14, 8.72643738985061645508e-02) (15, 1.47607296705245971680e-01) (16, 1.26331835985183715820e-01) (17, 2.04615920782089233398e-01) (18, 6.33248537778854370117e-02) (0, 1.85599178075790405273e-01) (1, 5.95255233347415924072e-02) (2, 4.67528104782104492188e-02) (3, 6.97949230670928955078e-02) (4, 3.13917472958564758301e-02) (5, 1.63929998874664306641e-01) (6, 1.59401476383209228516e-01) (7, 9.74643975496292114258e-02) (8, 6.28478154540061950684e-02) (9, 3.94389554858207702637e-02) (10, 1.08699902892112731934e-01) (11, 2.56788060069084167480e-02) (12, 1.50669902563095092773e-01) (13, 1.34398669004440307617e-01) (14, 1.73325628042221069336e-01) (15, 1.82071536779403686523e-01) (16, 1.12854138016700744629e-01) (17, 7.29885697364807128906e-02) (18, 1.81925475597381591797e-01) (19, 1.78329348564147949219e-01) (20, 1.22305080294609069824e-01) (21, 1.50401324033737182617e-01) (19, 2.07201749086380004883e-01) (20, 1.06515839695930480957e-01) (21, 1.56085193157196044922e-01) 
