FANN_FLO_2.1
num_layers=3
learning_rate=0.100000
connection_rate=1.000000
network_type=0
learning_momentum=0.000000
training_algorithm=2
train_error_function=1
train_stop_function=0
cascade_output_change_fraction=0.010000
quickprop_decay=-0.000100
quickprop_mu=1.750000
rprop_increase_factor=1.200000
rprop_decrease_factor=0.500000
rprop_delta_min=0.000000
rprop_delta_max=50.000000
rprop_delta_zero=0.100000
cascade_output_stagnation_epochs=12
cascade_candidate_change_fraction=0.010000
cascade_candidate_stagnation_epochs=12
cascade_max_out_epochs=150
cascade_min_out_epochs=50
cascade_max_cand_epochs=150
cascade_min_cand_epochs=50
cascade_num_candidate_groups=2
bit_fail_limit=3.49999994039535522461e-01
cascade_candidate_limit=1.00000000000000000000e+03
cascade_weight_multiplier=4.00000005960464477539e-01
cascade_activation_functions_count=10
cascade_activation_functions=3 5 7 8 10 11 14 15 16 17 
cascade_activation_steepnesses_count=4
cascade_activation_steepnesses=2.50000000000000000000e-01 5.00000000000000000000e-01 7.50000000000000000000e-01 1.00000000000000000000e+00 
layer_sizes=10 3 2 
scale_included=0
neurons (num_inputs, activation_function, activation_steepness)=(0, 0, 0.00000000000000000000e+00) (0, 0, 0.00000000000000000000e+00) (0, 0, 0.00000000000000000000e+00) (0, 0, 0.00000000000000000000e+00) (0, 0, 0.00000000000000000000e+00) (0, 0, 0.00000000000000000000e+00) (0, 0, 0.00000000000000000000e+00) (0, 0, 0.00000000000000000000e+00) (0, 0, 0.00000000000000000000e+00) (0, 0, 0.00000000000000000000e+00) (10, 3, 5.00000000000000000000e-01) (10, 3, 5.00000000000000000000e-01) (0, 3, 0.00000000000000000000e+00) (3, 0, 5.00000000000000000000e-01) (0, 0, 0.00000000000000000000e+00) 
connections (connected_to_neuron, weight)=(0, -1.38469934463500976562e-01) (1, -2.18399599194526672363e-01) (2, -9.65901017189025878906e-02) (3, -1.08194887638092041016e-01) (4, -1.18223145604133605957e-01) (5, -1.20269939303398132324e-01) (6, -1.49046391248703002930e-01) (7, -9.36900302767753601074e-02) (8, -1.06704831123352050781e-01) (9, -1.69823020696640014648e-01) (0, 9.32089611887931823730e-02) (1, 7.52888843417167663574e-02) (2, 1.91011607646942138672e-01) (3, 3.07321622967720031738e-02) (4, 9.54618677496910095215e-02) (5, 1.78455352783203125000e-01) (6, 3.19508910179138183594e-02) (7, 8.34116339683532714844e-02) (8, 1.92954570055007934570e-01) (9, 2.45849713683128356934e-02) (10, 7.35940188169479370117e-02) (11, 1.64044141769409179688e-01) (12, 8.18461030721664428711e-02) 
