FANN_FLO_2.1
num_layers=3
learning_rate=0.100000
connection_rate=1.000000
network_type=0
learning_momentum=0.000000
training_algorithm=2
train_error_function=1
train_stop_function=0
cascade_output_change_fraction=0.010000
quickprop_decay=-0.000100
quickprop_mu=1.750000
rprop_increase_factor=1.200000
rprop_decrease_factor=0.500000
rprop_delta_min=0.000000
rprop_delta_max=50.000000
rprop_delta_zero=0.100000
cascade_output_stagnation_epochs=12
cascade_candidate_change_fraction=0.010000
cascade_candidate_stagnation_epochs=12
cascade_max_out_epochs=150
cascade_min_out_epochs=50
cascade_max_cand_epochs=150
cascade_min_cand_epochs=50
cascade_num_candidate_groups=2
bit_fail_limit=3.49999994039535522461e-01
cascade_candidate_limit=1.00000000000000000000e+03
cascade_weight_multiplier=4.00000005960464477539e-01
cascade_activation_functions_count=10
cascade_activation_functions=3 5 7 8 10 11 14 15 16 17 
cascade_activation_steepnesses_count=4
cascade_activation_steepnesses=2.50000000000000000000e-01 5.00000000000000000000e-01 7.50000000000000000000e-01 1.00000000000000000000e+00 
layer_sizes=19 3 3 
scale_included=0
neurons (num_inputs, activation_function, activation_steepness)=(0, 0, 0.00000000000000000000e+00) (0, 0, 0.00000000000000000000e+00) (0, 0, 0.00000000000000000000e+00) (0, 0, 0.00000000000000000000e+00) (0, 0, 0.00000000000000000000e+00) (0, 0, 0.00000000000000000000e+00) (0, 0, 0.00000000000000000000e+00) (0, 0, 0.00000000000000000000e+00) (0, 0, 0.00000000000000000000e+00) (0, 0, 0.00000000000000000000e+00) (0, 0, 0.00000000000000000000e+00) (0, 0, 0.00000000000000000000e+00) (0, 0, 0.00000000000000000000e+00) (0, 0, 0.00000000000000000000e+00) (0, 0, 0.00000000000000000000e+00) (0, 0, 0.00000000000000000000e+00) (0, 0, 0.00000000000000000000e+00) (0, 0, 0.00000000000000000000e+00) (0, 0, 0.00000000000000000000e+00) (19, 3, 5.00000000000000000000e-01) (19, 3, 5.00000000000000000000e-01) (0, 3, 0.00000000000000000000e+00) (3, 0, 5.00000000000000000000e-01) (3, 0, 5.00000000000000000000e-01) (0, 0, 0.00000000000000000000e+00) 
connections (connected_to_neuron, weight)=(0, -4.25402447581291198730e-02) (1, -1.01325377821922302246e-01) (2, -1.41960576176643371582e-01) (3, 1.50603711605072021484e-01) (4, 9.57285389304161071777e-02) (5, -8.61802026629447937012e-02) (6, -1.86298549175262451172e-01) (7, -3.08338180184364318848e-02) (8, -1.08617387712001800537e-01) (9, -1.56264394521713256836e-01) (10, -4.92649301886558532715e-02) (11, -1.03002831339836120605e-01) (12, -2.07969963550567626953e-01) (13, -4.00098189711570739746e-02) (14, -2.02297583222389221191e-01) (15, 2.18263447284698486328e-01) (16, -4.28370162844657897949e-02) (17, -2.01063111424446105957e-01) (18, -6.01698681712150573730e-02) (0, -1.36398881673812866211e-01) (1, -7.91456624865531921387e-02) (2, -6.04458525776863098145e-02) (3, -8.74171629548072814941e-02) (4, -1.66779428720474243164e-01) (5, -1.15684866905212402344e-01) (6, -1.67917758226394653320e-01) (7, -2.75991931557655334473e-02) (8, -1.04454711079597473145e-01) (9, -5.62108829617500305176e-02) (10, -1.87564015388488769531e-01) (11, -4.37580570578575134277e-02) (12, -7.87511244416236877441e-02) (13, -6.88893720507621765137e-02) (14, -1.65718629956245422363e-01) (15, -1.48147404193878173828e-01) (16, -1.93160846829414367676e-01) (17, -3.18988338112831115723e-02) (18, -1.14445962011814117432e-01) (19, 3.60053479671478271484e-02) (20, 1.19483791291713714600e-01) (21, 1.89289659261703491211e-01) (19, 2.06740438938140869141e-01) (20, 3.64809706807136535645e-02) (21, 2.01319724321365356445e-01) 
