FANN_FLO_2.1
num_layers=3
learning_rate=0.100000
connection_rate=1.000000
network_type=0
learning_momentum=0.000000
training_algorithm=2
train_error_function=1
train_stop_function=0
cascade_output_change_fraction=0.010000
quickprop_decay=-0.000100
quickprop_mu=1.750000
rprop_increase_factor=1.200000
rprop_decrease_factor=0.500000
rprop_delta_min=0.000000
rprop_delta_max=50.000000
rprop_delta_zero=0.100000
cascade_output_stagnation_epochs=12
cascade_candidate_change_fraction=0.010000
cascade_candidate_stagnation_epochs=12
cascade_max_out_epochs=150
cascade_min_out_epochs=50
cascade_max_cand_epochs=150
cascade_min_cand_epochs=50
cascade_num_candidate_groups=2
bit_fail_limit=3.49999994039535522461e-01
cascade_candidate_limit=1.00000000000000000000e+03
cascade_weight_multiplier=4.00000005960464477539e-01
cascade_activation_functions_count=10
cascade_activation_functions=3 5 7 8 10 11 14 15 16 17 
cascade_activation_steepnesses_count=4
cascade_activation_steepnesses=2.50000000000000000000e-01 5.00000000000000000000e-01 7.50000000000000000000e-01 1.00000000000000000000e+00 
layer_sizes=19 3 3 
scale_included=0
neurons (num_inputs, activation_function, activation_steepness)=(0, 0, 0.00000000000000000000e+00) (0, 0, 0.00000000000000000000e+00) (0, 0, 0.00000000000000000000e+00) (0, 0, 0.00000000000000000000e+00) (0, 0, 0.00000000000000000000e+00) (0, 0, 0.00000000000000000000e+00) (0, 0, 0.00000000000000000000e+00) (0, 0, 0.00000000000000000000e+00) (0, 0, 0.00000000000000000000e+00) (0, 0, 0.00000000000000000000e+00) (0, 0, 0.00000000000000000000e+00) (0, 0, 0.00000000000000000000e+00) (0, 0, 0.00000000000000000000e+00) (0, 0, 0.00000000000000000000e+00) (0, 0, 0.00000000000000000000e+00) (0, 0, 0.00000000000000000000e+00) (0, 0, 0.00000000000000000000e+00) (0, 0, 0.00000000000000000000e+00) (0, 0, 0.00000000000000000000e+00) (19, 3, 5.00000000000000000000e-01) (19, 3, 5.00000000000000000000e-01) (0, 3, 0.00000000000000000000e+00) (3, 0, 5.00000000000000000000e-01) (3, 0, 5.00000000000000000000e-01) (0, 0, 0.00000000000000000000e+00) 
connections (connected_to_neuron, weight)=(0, -1.43025755882263183594e-01) (1, 2.16608166694641113281e-01) (2, -1.91532000899314880371e-01) (3, 1.51250869035720825195e-01) (4, -1.11356675624847412109e-01) (5, -1.39308214187622070312e-01) (6, -1.91706031560897827148e-01) (7, 1.28784626722335815430e-01) (8, -2.88448855280876159668e-02) (9, -1.05788089334964752197e-01) (10, -1.86107665300369262695e-01) (11, -3.24211642146110534668e-02) (12, -4.58552613854408264160e-02) (13, -1.11084662377834320068e-01) (14, -4.65383008122444152832e-02) (15, 8.63356143236160278320e-02) (16, -2.02456369996070861816e-01) (17, 1.59552514553070068359e-01) (18, -1.48831382393836975098e-01) (0, -1.55992358922958374023e-01) (1, -2.10013464093208312988e-01) (2, -1.69752210378646850586e-01) (3, -1.30399093031883239746e-01) (4, -1.87079027295112609863e-01) (5, -2.09134563803672790527e-01) (6, -1.86057433485984802246e-01) (7, -4.96040955185890197754e-02) (8, -1.98504984378814697266e-01) (9, -1.11201904714107513428e-01) (10, -6.67015835642814636230e-02) (11, -2.00508758425712585449e-02) (12, -3.42276617884635925293e-02) (13, -7.00934305787086486816e-02) (14, -1.91582873463630676270e-01) (15, -1.02976799011230468750e-01) (16, -1.61450102925300598145e-01) (17, -1.10891088843345642090e-01) (18, -7.46828243136405944824e-02) (19, 1.87334537506103515625e-01) (20, 1.20264030992984771729e-01) (21, 7.95290917158126831055e-02) (19, 2.12268754839897155762e-02) (20, 1.07842870056629180908e-01) (21, 5.36738410592079162598e-02) 
