FANN_FLO_2.1
num_layers=3
learning_rate=0.100000
connection_rate=1.000000
network_type=0
learning_momentum=0.000000
training_algorithm=2
train_error_function=1
train_stop_function=0
cascade_output_change_fraction=0.010000
quickprop_decay=-0.000100
quickprop_mu=1.750000
rprop_increase_factor=1.200000
rprop_decrease_factor=0.500000
rprop_delta_min=0.000000
rprop_delta_max=50.000000
rprop_delta_zero=0.100000
cascade_output_stagnation_epochs=12
cascade_candidate_change_fraction=0.010000
cascade_candidate_stagnation_epochs=12
cascade_max_out_epochs=150
cascade_min_out_epochs=50
cascade_max_cand_epochs=150
cascade_min_cand_epochs=50
cascade_num_candidate_groups=2
bit_fail_limit=3.49999994039535522461e-01
cascade_candidate_limit=1.00000000000000000000e+03
cascade_weight_multiplier=4.00000005960464477539e-01
cascade_activation_functions_count=10
cascade_activation_functions=3 5 7 8 10 11 14 15 16 17 
cascade_activation_steepnesses_count=4
cascade_activation_steepnesses=2.50000000000000000000e-01 5.00000000000000000000e-01 7.50000000000000000000e-01 1.00000000000000000000e+00 
layer_sizes=19 3 3 
scale_included=0
neurons (num_inputs, activation_function, activation_steepness)=(0, 0, 0.00000000000000000000e+00) (0, 0, 0.00000000000000000000e+00) (0, 0, 0.00000000000000000000e+00) (0, 0, 0.00000000000000000000e+00) (0, 0, 0.00000000000000000000e+00) (0, 0, 0.00000000000000000000e+00) (0, 0, 0.00000000000000000000e+00) (0, 0, 0.00000000000000000000e+00) (0, 0, 0.00000000000000000000e+00) (0, 0, 0.00000000000000000000e+00) (0, 0, 0.00000000000000000000e+00) (0, 0, 0.00000000000000000000e+00) (0, 0, 0.00000000000000000000e+00) (0, 0, 0.00000000000000000000e+00) (0, 0, 0.00000000000000000000e+00) (0, 0, 0.00000000000000000000e+00) (0, 0, 0.00000000000000000000e+00) (0, 0, 0.00000000000000000000e+00) (0, 0, 0.00000000000000000000e+00) (19, 3, 5.00000000000000000000e-01) (19, 3, 5.00000000000000000000e-01) (0, 3, 0.00000000000000000000e+00) (3, 0, 5.00000000000000000000e-01) (3, 0, 5.00000000000000000000e-01) (0, 0, 0.00000000000000000000e+00) 
connections (connected_to_neuron, weight)=(0, -5.46986833214759826660e-02) (1, -1.38407275080680847168e-01) (2, -1.51980653405189514160e-01) (3, -5.87784722447395324707e-02) (4, -2.07087635993957519531e-01) (5, -1.74084022641181945801e-01) (6, 1.84233486652374267578e-01) (7, -1.33649095892906188965e-01) (8, -2.12759852409362792969e-01) (9, -6.19420036673545837402e-02) (10, -1.60642951726913452148e-01) (11, -1.82748898863792419434e-01) (12, -1.75505876541137695312e-01) (13, -7.69703909754753112793e-02) (14, 9.21738222241401672363e-02) (15, -1.78204834461212158203e-01) (16, -1.55826300382614135742e-01) (17, -2.07087025046348571777e-01) (18, -1.50401815772056579590e-01) (0, 1.59209549427032470703e-01) (1, -1.91154748201370239258e-01) (2, 9.26425009965896606445e-02) (3, -2.51699462532997131348e-02) (4, -1.16110242903232574463e-01) (5, -1.85747474431991577148e-01) (6, -1.49406149983406066895e-01) (7, -3.61614897847175598145e-02) (8, -7.61643722653388977051e-02) (9, -4.90654632449150085449e-02) (10, -3.19441035389900207520e-02) (11, -6.62353709340095520020e-02) (12, -8.37641283869743347168e-02) (13, 8.96486341953277587891e-02) (14, -1.98216035962104797363e-01) (15, -1.22542612254619598389e-01) (16, -1.37438997626304626465e-01) (17, -1.52300044894218444824e-01) (18, -1.58309131860733032227e-01) (19, 1.88911914825439453125e-01) (20, 9.49401110410690307617e-02) (21, 3.97488623857498168945e-02) (19, 4.82689887285232543945e-02) (20, 1.32191225886344909668e-01) (21, 8.42429995536804199219e-02) 
