FANN_FLO_2.1
num_layers=3
learning_rate=0.100000
connection_rate=1.000000
network_type=0
learning_momentum=0.000000
training_algorithm=2
train_error_function=1
train_stop_function=0
cascade_output_change_fraction=0.010000
quickprop_decay=-0.000100
quickprop_mu=1.750000
rprop_increase_factor=1.200000
rprop_decrease_factor=0.500000
rprop_delta_min=0.000000
rprop_delta_max=50.000000
rprop_delta_zero=0.100000
cascade_output_stagnation_epochs=12
cascade_candidate_change_fraction=0.010000
cascade_candidate_stagnation_epochs=12
cascade_max_out_epochs=150
cascade_min_out_epochs=50
cascade_max_cand_epochs=150
cascade_min_cand_epochs=50
cascade_num_candidate_groups=2
bit_fail_limit=3.49999994039535522461e-01
cascade_candidate_limit=1.00000000000000000000e+03
cascade_weight_multiplier=4.00000005960464477539e-01
cascade_activation_functions_count=10
cascade_activation_functions=3 5 7 8 10 11 14 15 16 17 
cascade_activation_steepnesses_count=4
cascade_activation_steepnesses=2.50000000000000000000e-01 5.00000000000000000000e-01 7.50000000000000000000e-01 1.00000000000000000000e+00 
layer_sizes=19 3 3 
scale_included=0
neurons (num_inputs, activation_function, activation_steepness)=(0, 0, 0.00000000000000000000e+00) (0, 0, 0.00000000000000000000e+00) (0, 0, 0.00000000000000000000e+00) (0, 0, 0.00000000000000000000e+00) (0, 0, 0.00000000000000000000e+00) (0, 0, 0.00000000000000000000e+00) (0, 0, 0.00000000000000000000e+00) (0, 0, 0.00000000000000000000e+00) (0, 0, 0.00000000000000000000e+00) (0, 0, 0.00000000000000000000e+00) (0, 0, 0.00000000000000000000e+00) (0, 0, 0.00000000000000000000e+00) (0, 0, 0.00000000000000000000e+00) (0, 0, 0.00000000000000000000e+00) (0, 0, 0.00000000000000000000e+00) (0, 0, 0.00000000000000000000e+00) (0, 0, 0.00000000000000000000e+00) (0, 0, 0.00000000000000000000e+00) (0, 0, 0.00000000000000000000e+00) (19, 3, 5.00000000000000000000e-01) (19, 3, 5.00000000000000000000e-01) (0, 3, 0.00000000000000000000e+00) (3, 0, 5.00000000000000000000e-01) (3, 0, 5.00000000000000000000e-01) (0, 0, 0.00000000000000000000e+00) 
connections (connected_to_neuron, weight)=(0, -1.23199269175529479980e-01) (1, -6.55364766716957092285e-02) (2, -1.40776515007019042969e-01) (3, -1.14659406244754791260e-01) (4, -8.13780054450035095215e-02) (5, -1.20801106095314025879e-01) (6, -3.49163040518760681152e-02) (7, -3.70920225977897644043e-02) (8, -2.03735426068305969238e-01) (9, -5.53796216845512390137e-02) (10, -9.22565534710884094238e-02) (11, -6.06972798705101013184e-02) (12, -6.77366927266120910645e-02) (13, -4.80740591883659362793e-02) (14, -1.94061264395713806152e-01) (15, -1.57701224088668823242e-01) (16, -8.51280763745307922363e-02) (17, -1.70618534088134765625e-01) (18, -1.77671670913696289062e-01) (0, -1.51751697063446044922e-01) (1, -1.34664237499237060547e-01) (2, -6.04211017489433288574e-02) (3, -1.45755916833877563477e-01) (4, -4.04316261410713195801e-02) (5, -5.63915744423866271973e-02) (6, -6.81109353899955749512e-02) (7, -1.73295274376869201660e-01) (8, -7.89403244853019714355e-02) (9, -1.26209393143653869629e-01) (10, -1.88843548297882080078e-01) (11, -1.39182001352310180664e-01) (12, -2.94086560606956481934e-02) (13, -3.43800261616706848145e-02) (14, -5.99585101008415222168e-02) (15, -1.24068051576614379883e-01) (16, -9.57580357789993286133e-02) (17, -1.60759612917900085449e-01) (18, -1.38984352350234985352e-01) (19, 1.27149954438209533691e-01) (20, 9.55049768090248107910e-02) (21, 6.56360238790512084961e-02) (19, 5.48934042453765869141e-02) (20, 5.48076927661895751953e-02) (21, 2.17899322509765625000e-01) 
