FANN_FLO_2.1
num_layers=3
learning_rate=0.100000
connection_rate=1.000000
network_type=0
learning_momentum=0.000000
training_algorithm=2
train_error_function=1
train_stop_function=0
cascade_output_change_fraction=0.010000
quickprop_decay=-0.000100
quickprop_mu=1.750000
rprop_increase_factor=1.200000
rprop_decrease_factor=0.500000
rprop_delta_min=0.000000
rprop_delta_max=50.000000
rprop_delta_zero=0.100000
cascade_output_stagnation_epochs=12
cascade_candidate_change_fraction=0.010000
cascade_candidate_stagnation_epochs=12
cascade_max_out_epochs=150
cascade_min_out_epochs=50
cascade_max_cand_epochs=150
cascade_min_cand_epochs=50
cascade_num_candidate_groups=2
bit_fail_limit=3.49999994039535522461e-01
cascade_candidate_limit=1.00000000000000000000e+03
cascade_weight_multiplier=4.00000005960464477539e-01
cascade_activation_functions_count=10
cascade_activation_functions=3 5 7 8 10 11 14 15 16 17 
cascade_activation_steepnesses_count=4
cascade_activation_steepnesses=2.50000000000000000000e-01 5.00000000000000000000e-01 7.50000000000000000000e-01 1.00000000000000000000e+00 
layer_sizes=10 3 2 
scale_included=0
neurons (num_inputs, activation_function, activation_steepness)=(0, 0, 0.00000000000000000000e+00) (0, 0, 0.00000000000000000000e+00) (0, 0, 0.00000000000000000000e+00) (0, 0, 0.00000000000000000000e+00) (0, 0, 0.00000000000000000000e+00) (0, 0, 0.00000000000000000000e+00) (0, 0, 0.00000000000000000000e+00) (0, 0, 0.00000000000000000000e+00) (0, 0, 0.00000000000000000000e+00) (0, 0, 0.00000000000000000000e+00) (10, 3, 5.00000000000000000000e-01) (10, 3, 5.00000000000000000000e-01) (0, 3, 0.00000000000000000000e+00) (3, 0, 5.00000000000000000000e-01) (0, 0, 0.00000000000000000000e+00) 
connections (connected_to_neuron, weight)=(0, -9.13498327136039733887e-02) (1, -2.18762755393981933594e-01) (2, -1.49765804409980773926e-01) (3, -1.69080361723899841309e-01) (4, -1.94289743900299072266e-01) (5, -8.15601423382759094238e-02) (6, -1.07331573963165283203e-01) (7, -4.81769070029258728027e-02) (8, -1.87094464898109436035e-01) (9, -5.50297424197196960449e-02) (0, -3.45677658915519714355e-02) (1, -1.48767203092575073242e-01) (2, -1.61542296409606933594e-01) (3, -5.18134757876396179199e-02) (4, -1.42624258995056152344e-01) (5, -7.79592469334602355957e-02) (6, -2.08590090274810791016e-01) (7, -7.98544064164161682129e-02) (8, -1.98569029569625854492e-01) (9, -2.70605459809303283691e-02) (10, 8.42615813016891479492e-02) (11, 1.04714572429656982422e-01) (12, 8.95364433526992797852e-02) 
