FANN_FLO_2.1
num_layers=3
learning_rate=0.100000
connection_rate=1.000000
network_type=0
learning_momentum=0.000000
training_algorithm=2
train_error_function=1
train_stop_function=0
cascade_output_change_fraction=0.010000
quickprop_decay=-0.000100
quickprop_mu=1.750000
rprop_increase_factor=1.200000
rprop_decrease_factor=0.500000
rprop_delta_min=0.000000
rprop_delta_max=50.000000
rprop_delta_zero=0.100000
cascade_output_stagnation_epochs=12
cascade_candidate_change_fraction=0.010000
cascade_candidate_stagnation_epochs=12
cascade_max_out_epochs=150
cascade_min_out_epochs=50
cascade_max_cand_epochs=150
cascade_min_cand_epochs=50
cascade_num_candidate_groups=2
bit_fail_limit=3.49999994039535522461e-01
cascade_candidate_limit=1.00000000000000000000e+03
cascade_weight_multiplier=4.00000005960464477539e-01
cascade_activation_functions_count=10
cascade_activation_functions=3 5 7 8 10 11 14 15 16 17 
cascade_activation_steepnesses_count=4
cascade_activation_steepnesses=2.50000000000000000000e-01 5.00000000000000000000e-01 7.50000000000000000000e-01 1.00000000000000000000e+00 
layer_sizes=19 3 3 
scale_included=0
neurons (num_inputs, activation_function, activation_steepness)=(0, 0, 0.00000000000000000000e+00) (0, 0, 0.00000000000000000000e+00) (0, 0, 0.00000000000000000000e+00) (0, 0, 0.00000000000000000000e+00) (0, 0, 0.00000000000000000000e+00) (0, 0, 0.00000000000000000000e+00) (0, 0, 0.00000000000000000000e+00) (0, 0, 0.00000000000000000000e+00) (0, 0, 0.00000000000000000000e+00) (0, 0, 0.00000000000000000000e+00) (0, 0, 0.00000000000000000000e+00) (0, 0, 0.00000000000000000000e+00) (0, 0, 0.00000000000000000000e+00) (0, 0, 0.00000000000000000000e+00) (0, 0, 0.00000000000000000000e+00) (0, 0, 0.00000000000000000000e+00) (0, 0, 0.00000000000000000000e+00) (0, 0, 0.00000000000000000000e+00) (0, 0, 0.00000000000000000000e+00) (19, 3, 5.00000000000000000000e-01) (19, 3, 5.00000000000000000000e-01) (0, 3, 0.00000000000000000000e+00) (3, 0, 5.00000000000000000000e-01) (3, 0, 5.00000000000000000000e-01) (0, 0, 0.00000000000000000000e+00) 
connections (connected_to_neuron, weight)=(0, -1.85435265302658081055e-01) (1, -2.00864642858505249023e-01) (2, -2.02415838837623596191e-01) (3, -7.43298158049583435059e-02) (4, 2.02361226081848144531e-01) (5, -1.72360837459564208984e-01) (6, -2.47193798422813415527e-02) (7, -1.74685686826705932617e-01) (8, 1.89136147499084472656e-01) (9, -2.12331756949424743652e-01) (10, -8.15349891781806945801e-02) (11, -4.10046800971031188965e-02) (12, -5.24962916970252990723e-02) (13, -9.55044627189636230469e-02) (14, -1.42548471689224243164e-01) (15, -4.01523932814598083496e-02) (16, -2.35202834010124206543e-02) (17, -2.18522071838378906250e-01) (18, -1.80958032608032226562e-01) (0, 4.57683354616165161133e-02) (1, 1.09350048005580902100e-01) (2, 1.90049022436141967773e-01) (3, 1.36626392602920532227e-01) (4, 1.57886892557144165039e-01) (5, 2.00251340866088867188e-02) (6, 2.10635364055633544922e-01) (7, 1.93311870098114013672e-01) (8, 1.50325864553451538086e-01) (9, 8.81436243653297424316e-02) (10, 2.00577139854431152344e-01) (11, 1.70114755630493164062e-01) (12, 1.22708357870578765869e-01) (13, 2.19712495803833007812e-01) (14, 1.87698930501937866211e-01) (15, 6.83785527944564819336e-02) (16, 2.02073752880096435547e-01) (17, 3.53381112217903137207e-02) (18, 6.36591762304306030273e-02) (19, 4.73880693316459655762e-02) (20, 2.04474240541458129883e-01) (21, 7.13274180889129638672e-02) (19, 1.85853064060211181641e-01) (20, 1.83469563722610473633e-01) (21, 3.88311445713043212891e-02) 
