FANN_FLO_2.1
num_layers=3
learning_rate=0.100000
connection_rate=1.000000
network_type=0
learning_momentum=0.000000
training_algorithm=2
train_error_function=1
train_stop_function=0
cascade_output_change_fraction=0.010000
quickprop_decay=-0.000100
quickprop_mu=1.750000
rprop_increase_factor=1.200000
rprop_decrease_factor=0.500000
rprop_delta_min=0.000000
rprop_delta_max=50.000000
rprop_delta_zero=0.100000
cascade_output_stagnation_epochs=12
cascade_candidate_change_fraction=0.010000
cascade_candidate_stagnation_epochs=12
cascade_max_out_epochs=150
cascade_min_out_epochs=50
cascade_max_cand_epochs=150
cascade_min_cand_epochs=50
cascade_num_candidate_groups=2
bit_fail_limit=3.49999994039535522461e-01
cascade_candidate_limit=1.00000000000000000000e+03
cascade_weight_multiplier=4.00000005960464477539e-01
cascade_activation_functions_count=10
cascade_activation_functions=3 5 7 8 10 11 14 15 16 17 
cascade_activation_steepnesses_count=4
cascade_activation_steepnesses=2.50000000000000000000e-01 5.00000000000000000000e-01 7.50000000000000000000e-01 1.00000000000000000000e+00 
layer_sizes=19 3 3 
scale_included=0
neurons (num_inputs, activation_function, activation_steepness)=(0, 0, 0.00000000000000000000e+00) (0, 0, 0.00000000000000000000e+00) (0, 0, 0.00000000000000000000e+00) (0, 0, 0.00000000000000000000e+00) (0, 0, 0.00000000000000000000e+00) (0, 0, 0.00000000000000000000e+00) (0, 0, 0.00000000000000000000e+00) (0, 0, 0.00000000000000000000e+00) (0, 0, 0.00000000000000000000e+00) (0, 0, 0.00000000000000000000e+00) (0, 0, 0.00000000000000000000e+00) (0, 0, 0.00000000000000000000e+00) (0, 0, 0.00000000000000000000e+00) (0, 0, 0.00000000000000000000e+00) (0, 0, 0.00000000000000000000e+00) (0, 0, 0.00000000000000000000e+00) (0, 0, 0.00000000000000000000e+00) (0, 0, 0.00000000000000000000e+00) (0, 0, 0.00000000000000000000e+00) (19, 3, 5.00000000000000000000e-01) (19, 3, 5.00000000000000000000e-01) (0, 3, 0.00000000000000000000e+00) (3, 0, 5.00000000000000000000e-01) (3, 0, 5.00000000000000000000e-01) (0, 0, 0.00000000000000000000e+00) 
connections (connected_to_neuron, weight)=(0, 1.11865334212779998779e-01) (1, 9.19663161039352416992e-02) (2, 1.35685712099075317383e-01) (3, 2.86740735173225402832e-02) (4, 1.30241647362709045410e-01) (5, 1.65450841188430786133e-01) (6, 1.31987988948822021484e-01) (7, 1.95092618465423583984e-01) (8, 1.11626729369163513184e-01) (9, 1.17509767413139343262e-01) (10, 1.39019608497619628906e-01) (11, 1.84487372636795043945e-01) (12, 1.43512040376663208008e-01) (13, 1.82391047477722167969e-01) (14, 2.14525997638702392578e-01) (15, 1.14438563585281372070e-01) (16, 1.07270397245883941650e-01) (17, -9.28345099091529846191e-02) (18, 1.30652710795402526855e-01) (0, 1.37637570500373840332e-01) (1, 4.34274971485137939453e-02) (2, 7.38519132137298583984e-02) (3, 2.19722449779510498047e-01) (4, 7.20770955085754394531e-02) (5, 1.84821218252182006836e-01) (6, 3.77746745944023132324e-02) (7, 1.80549085140228271484e-01) (8, 1.94513142108917236328e-01) (9, 9.82930809259414672852e-02) (10, 1.12007476389408111572e-01) (11, 5.41715025901794433594e-02) (12, 1.90158426761627197266e-01) (13, 1.83973789215087890625e-01) (14, 1.69857203960418701172e-01) (15, 1.98832482099533081055e-01) (16, 9.42154154181480407715e-02) (17, 1.15308046340942382812e-01) (18, 1.10820472240447998047e-01) (19, 6.93080425262451171875e-02) (20, 2.06934750080108642578e-01) (21, 2.08330243825912475586e-01) (19, 1.88327640295028686523e-01) (20, 1.71422123908996582031e-01) (21, 1.31842285394668579102e-01) 
