FANN_FLO_2.1
num_layers=3
learning_rate=0.100000
connection_rate=1.000000
network_type=0
learning_momentum=0.000000
training_algorithm=2
train_error_function=1
train_stop_function=0
cascade_output_change_fraction=0.010000
quickprop_decay=-0.000100
quickprop_mu=1.750000
rprop_increase_factor=1.200000
rprop_decrease_factor=0.500000
rprop_delta_min=0.000000
rprop_delta_max=50.000000
rprop_delta_zero=0.100000
cascade_output_stagnation_epochs=12
cascade_candidate_change_fraction=0.010000
cascade_candidate_stagnation_epochs=12
cascade_max_out_epochs=150
cascade_min_out_epochs=50
cascade_max_cand_epochs=150
cascade_min_cand_epochs=50
cascade_num_candidate_groups=2
bit_fail_limit=3.49999994039535522461e-01
cascade_candidate_limit=1.00000000000000000000e+03
cascade_weight_multiplier=4.00000005960464477539e-01
cascade_activation_functions_count=10
cascade_activation_functions=3 5 7 8 10 11 14 15 16 17 
cascade_activation_steepnesses_count=4
cascade_activation_steepnesses=2.50000000000000000000e-01 5.00000000000000000000e-01 7.50000000000000000000e-01 1.00000000000000000000e+00 
layer_sizes=10 3 2 
scale_included=0
neurons (num_inputs, activation_function, activation_steepness)=(0, 0, 0.00000000000000000000e+00) (0, 0, 0.00000000000000000000e+00) (0, 0, 0.00000000000000000000e+00) (0, 0, 0.00000000000000000000e+00) (0, 0, 0.00000000000000000000e+00) (0, 0, 0.00000000000000000000e+00) (0, 0, 0.00000000000000000000e+00) (0, 0, 0.00000000000000000000e+00) (0, 0, 0.00000000000000000000e+00) (0, 0, 0.00000000000000000000e+00) (10, 3, 5.00000000000000000000e-01) (10, 3, 5.00000000000000000000e-01) (0, 3, 0.00000000000000000000e+00) (3, 0, 5.00000000000000000000e-01) (0, 0, 0.00000000000000000000e+00) 
connections (connected_to_neuron, weight)=(0, -1.64545089006423950195e-01) (1, -2.92637273669242858887e-02) (2, -2.02434539794921875000e-01) (3, -1.85070574283599853516e-01) (4, -6.55303522944450378418e-02) (5, -7.14851543307304382324e-02) (6, -9.96592491865158081055e-02) (7, -2.10982322692871093750e-01) (8, -4.90181520581245422363e-02) (9, -2.10485696792602539062e-01) (0, -1.55043393373489379883e-01) (1, -5.76121434569358825684e-02) (2, -1.50531202554702758789e-01) (3, -2.17540085315704345703e-01) (4, -9.93640571832656860352e-02) (5, -5.04223927855491638184e-02) (6, -1.26899182796478271484e-01) (7, -1.98772460222244262695e-01) (8, -1.61902770400047302246e-01) (9, -8.10257121920585632324e-02) (10, 8.85725766420364379883e-02) (11, 4.79772910475730895996e-02) (12, 1.34918719530105590820e-01) 
