FANN_FLO_2.1
num_layers=3
learning_rate=0.100000
connection_rate=1.000000
network_type=0
learning_momentum=0.000000
training_algorithm=2
train_error_function=1
train_stop_function=0
cascade_output_change_fraction=0.010000
quickprop_decay=-0.000100
quickprop_mu=1.750000
rprop_increase_factor=1.200000
rprop_decrease_factor=0.500000
rprop_delta_min=0.000000
rprop_delta_max=50.000000
rprop_delta_zero=0.100000
cascade_output_stagnation_epochs=12
cascade_candidate_change_fraction=0.010000
cascade_candidate_stagnation_epochs=12
cascade_max_out_epochs=150
cascade_min_out_epochs=50
cascade_max_cand_epochs=150
cascade_min_cand_epochs=50
cascade_num_candidate_groups=2
bit_fail_limit=3.49999994039535522461e-01
cascade_candidate_limit=1.00000000000000000000e+03
cascade_weight_multiplier=4.00000005960464477539e-01
cascade_activation_functions_count=10
cascade_activation_functions=3 5 7 8 10 11 14 15 16 17 
cascade_activation_steepnesses_count=4
cascade_activation_steepnesses=2.50000000000000000000e-01 5.00000000000000000000e-01 7.50000000000000000000e-01 1.00000000000000000000e+00 
layer_sizes=10 3 2 
scale_included=0
neurons (num_inputs, activation_function, activation_steepness)=(0, 0, 0.00000000000000000000e+00) (0, 0, 0.00000000000000000000e+00) (0, 0, 0.00000000000000000000e+00) (0, 0, 0.00000000000000000000e+00) (0, 0, 0.00000000000000000000e+00) (0, 0, 0.00000000000000000000e+00) (0, 0, 0.00000000000000000000e+00) (0, 0, 0.00000000000000000000e+00) (0, 0, 0.00000000000000000000e+00) (0, 0, 0.00000000000000000000e+00) (10, 3, 5.00000000000000000000e-01) (10, 3, 5.00000000000000000000e-01) (0, 3, 0.00000000000000000000e+00) (3, 0, 5.00000000000000000000e-01) (0, 0, 0.00000000000000000000e+00) 
connections (connected_to_neuron, weight)=(0, 1.87685906887054443359e-01) (1, 1.88402593135833740234e-01) (2, 1.01851806044578552246e-01) (3, 1.76078200340270996094e-01) (4, 1.61417990922927856445e-01) (5, 1.45724594593048095703e-01) (6, 9.34847444295883178711e-02) (7, 1.55263543128967285156e-01) (8, 1.19157321751117706299e-01) (9, 2.37734094262123107910e-02) (0, 2.17729955911636352539e-01) (1, 1.45983695983886718750e-01) (2, 1.08906194567680358887e-01) (3, 2.02050864696502685547e-01) (4, 1.05653479695320129395e-01) (5, 6.22029155492782592773e-02) (6, 9.74824428558349609375e-02) (7, 7.37972185015678405762e-02) (8, 5.06754890084266662598e-02) (9, 1.51890695095062255859e-01) (10, 1.47596538066864013672e-01) (11, 1.94474935531616210938e-01) (12, 1.31491854786872863770e-01) 
