FANN_FLO_2.1
num_layers=3
learning_rate=0.100000
connection_rate=1.000000
network_type=0
learning_momentum=0.000000
training_algorithm=2
train_error_function=1
train_stop_function=0
cascade_output_change_fraction=0.010000
quickprop_decay=-0.000100
quickprop_mu=1.750000
rprop_increase_factor=1.200000
rprop_decrease_factor=0.500000
rprop_delta_min=0.000000
rprop_delta_max=50.000000
rprop_delta_zero=0.100000
cascade_output_stagnation_epochs=12
cascade_candidate_change_fraction=0.010000
cascade_candidate_stagnation_epochs=12
cascade_max_out_epochs=150
cascade_min_out_epochs=50
cascade_max_cand_epochs=150
cascade_min_cand_epochs=50
cascade_num_candidate_groups=2
bit_fail_limit=3.49999994039535522461e-01
cascade_candidate_limit=1.00000000000000000000e+03
cascade_weight_multiplier=4.00000005960464477539e-01
cascade_activation_functions_count=10
cascade_activation_functions=3 5 7 8 10 11 14 15 16 17 
cascade_activation_steepnesses_count=4
cascade_activation_steepnesses=2.50000000000000000000e-01 5.00000000000000000000e-01 7.50000000000000000000e-01 1.00000000000000000000e+00 
layer_sizes=10 3 2 
scale_included=0
neurons (num_inputs, activation_function, activation_steepness)=(0, 0, 0.00000000000000000000e+00) (0, 0, 0.00000000000000000000e+00) (0, 0, 0.00000000000000000000e+00) (0, 0, 0.00000000000000000000e+00) (0, 0, 0.00000000000000000000e+00) (0, 0, 0.00000000000000000000e+00) (0, 0, 0.00000000000000000000e+00) (0, 0, 0.00000000000000000000e+00) (0, 0, 0.00000000000000000000e+00) (0, 0, 0.00000000000000000000e+00) (10, 3, 5.00000000000000000000e-01) (10, 3, 5.00000000000000000000e-01) (0, 3, 0.00000000000000000000e+00) (3, 0, 5.00000000000000000000e-01) (0, 0, 0.00000000000000000000e+00) 
connections (connected_to_neuron, weight)=(0, 2.00516432523727416992e-01) (1, 1.21242523193359375000e-01) (2, 1.89217031002044677734e-01) (3, 1.82115465402603149414e-01) (4, 1.96108162403106689453e-01) (5, 1.17512404918670654297e-01) (6, 5.46664148569107055664e-02) (7, 1.59444659948348999023e-01) (8, 5.27624711394309997559e-02) (9, 1.86980307102203369141e-01) (0, 1.39033049345016479492e-01) (1, 1.08193576335906982422e-01) (2, 2.10683971643447875977e-01) (3, 1.61901444196701049805e-01) (4, 1.39480039477348327637e-01) (5, 1.29179909825325012207e-01) (6, 4.01827245950698852539e-02) (7, 1.80298596620559692383e-01) (8, 4.74352017045021057129e-02) (9, 9.62635576725006103516e-02) (10, 1.46052509546279907227e-01) (11, 1.65939062833786010742e-01) (12, 2.04057961702346801758e-01) 
