FANN_FLO_2.1
num_layers=3
learning_rate=0.100000
connection_rate=1.000000
network_type=0
learning_momentum=0.000000
training_algorithm=2
train_error_function=1
train_stop_function=0
cascade_output_change_fraction=0.010000
quickprop_decay=-0.000100
quickprop_mu=1.750000
rprop_increase_factor=1.200000
rprop_decrease_factor=0.500000
rprop_delta_min=0.000000
rprop_delta_max=50.000000
rprop_delta_zero=0.100000
cascade_output_stagnation_epochs=12
cascade_candidate_change_fraction=0.010000
cascade_candidate_stagnation_epochs=12
cascade_max_out_epochs=150
cascade_min_out_epochs=50
cascade_max_cand_epochs=150
cascade_min_cand_epochs=50
cascade_num_candidate_groups=2
bit_fail_limit=3.49999994039535522461e-01
cascade_candidate_limit=1.00000000000000000000e+03
cascade_weight_multiplier=4.00000005960464477539e-01
cascade_activation_functions_count=10
cascade_activation_functions=3 5 7 8 10 11 14 15 16 17 
cascade_activation_steepnesses_count=4
cascade_activation_steepnesses=2.50000000000000000000e-01 5.00000000000000000000e-01 7.50000000000000000000e-01 1.00000000000000000000e+00 
layer_sizes=10 3 2 
scale_included=0
neurons (num_inputs, activation_function, activation_steepness)=(0, 0, 0.00000000000000000000e+00) (0, 0, 0.00000000000000000000e+00) (0, 0, 0.00000000000000000000e+00) (0, 0, 0.00000000000000000000e+00) (0, 0, 0.00000000000000000000e+00) (0, 0, 0.00000000000000000000e+00) (0, 0, 0.00000000000000000000e+00) (0, 0, 0.00000000000000000000e+00) (0, 0, 0.00000000000000000000e+00) (0, 0, 0.00000000000000000000e+00) (10, 3, 5.00000000000000000000e-01) (10, 3, 5.00000000000000000000e-01) (0, 3, 0.00000000000000000000e+00) (3, 0, 5.00000000000000000000e-01) (0, 0, 0.00000000000000000000e+00) 
connections (connected_to_neuron, weight)=(0, 2.17628747224807739258e-01) (1, 3.56971845030784606934e-02) (2, 2.17932835221290588379e-02) (3, 7.19396695494651794434e-02) (4, 3.15888375043869018555e-02) (5, 1.97214066982269287109e-01) (6, 8.50895792245864868164e-02) (7, 1.81956738233566284180e-01) (8, 8.36680680513381958008e-02) (9, 2.86864489316940307617e-02) (0, 3.19021195173263549805e-02) (1, 5.45379146933555603027e-02) (2, 6.28342032432556152344e-02) (3, 8.42393711209297180176e-02) (4, 1.68497443199157714844e-01) (5, 1.10637657344341278076e-01) (6, 1.01383253931999206543e-01) (7, 6.18646442890167236328e-02) (8, 2.16574013233184814453e-01) (9, 1.47760093212127685547e-01) (10, 1.42234534025192260742e-01) (11, 1.31634682416915893555e-01) (12, 1.73974335193634033203e-01) 
