FANN_FLO_2.1
num_layers=3
learning_rate=0.100000
connection_rate=1.000000
network_type=0
learning_momentum=0.000000
training_algorithm=2
train_error_function=1
train_stop_function=0
cascade_output_change_fraction=0.010000
quickprop_decay=-0.000100
quickprop_mu=1.750000
rprop_increase_factor=1.200000
rprop_decrease_factor=0.500000
rprop_delta_min=0.000000
rprop_delta_max=50.000000
rprop_delta_zero=0.100000
cascade_output_stagnation_epochs=12
cascade_candidate_change_fraction=0.010000
cascade_candidate_stagnation_epochs=12
cascade_max_out_epochs=150
cascade_min_out_epochs=50
cascade_max_cand_epochs=150
cascade_min_cand_epochs=50
cascade_num_candidate_groups=2
bit_fail_limit=3.49999994039535522461e-01
cascade_candidate_limit=1.00000000000000000000e+03
cascade_weight_multiplier=4.00000005960464477539e-01
cascade_activation_functions_count=10
cascade_activation_functions=3 5 7 8 10 11 14 15 16 17 
cascade_activation_steepnesses_count=4
cascade_activation_steepnesses=2.50000000000000000000e-01 5.00000000000000000000e-01 7.50000000000000000000e-01 1.00000000000000000000e+00 
layer_sizes=10 3 2 
scale_included=0
neurons (num_inputs, activation_function, activation_steepness)=(0, 0, 0.00000000000000000000e+00) (0, 0, 0.00000000000000000000e+00) (0, 0, 0.00000000000000000000e+00) (0, 0, 0.00000000000000000000e+00) (0, 0, 0.00000000000000000000e+00) (0, 0, 0.00000000000000000000e+00) (0, 0, 0.00000000000000000000e+00) (0, 0, 0.00000000000000000000e+00) (0, 0, 0.00000000000000000000e+00) (0, 0, 0.00000000000000000000e+00) (10, 3, 5.00000000000000000000e-01) (10, 3, 5.00000000000000000000e-01) (0, 3, 0.00000000000000000000e+00) (3, 0, 5.00000000000000000000e-01) (0, 0, 0.00000000000000000000e+00) 
connections (connected_to_neuron, weight)=(0, -3.27414050698280334473e-02) (1, -1.66811078786849975586e-01) (2, -1.23993858695030212402e-01) (3, -1.64993137121200561523e-01) (4, -1.70176535844802856445e-01) (5, -8.52982327342033386230e-02) (6, -1.52249380946159362793e-01) (7, -1.16906881332397460938e-01) (8, -2.03432932496070861816e-01) (9, -1.35677516460418701172e-01) (0, -1.64691597223281860352e-01) (1, -2.19167292118072509766e-01) (2, -7.50178322196006774902e-02) (3, -1.88516825437545776367e-01) (4, -1.06168352067470550537e-01) (5, -2.11482375860214233398e-01) (6, -1.36704400181770324707e-01) (7, -3.52203175425529479980e-02) (8, -1.95697993040084838867e-01) (9, -4.18750122189521789551e-02) (10, 4.81959953904151916504e-02) (11, 9.72316116094589233398e-02) (12, 1.47538214921951293945e-01) 
