FANN_FLO_2.1
num_layers=3
learning_rate=0.100000
connection_rate=1.000000
network_type=0
learning_momentum=0.000000
training_algorithm=2
train_error_function=1
train_stop_function=0
cascade_output_change_fraction=0.010000
quickprop_decay=-0.000100
quickprop_mu=1.750000
rprop_increase_factor=1.200000
rprop_decrease_factor=0.500000
rprop_delta_min=0.000000
rprop_delta_max=50.000000
rprop_delta_zero=0.100000
cascade_output_stagnation_epochs=12
cascade_candidate_change_fraction=0.010000
cascade_candidate_stagnation_epochs=12
cascade_max_out_epochs=150
cascade_min_out_epochs=50
cascade_max_cand_epochs=150
cascade_min_cand_epochs=50
cascade_num_candidate_groups=2
bit_fail_limit=3.49999994039535522461e-01
cascade_candidate_limit=1.00000000000000000000e+03
cascade_weight_multiplier=4.00000005960464477539e-01
cascade_activation_functions_count=10
cascade_activation_functions=3 5 7 8 10 11 14 15 16 17 
cascade_activation_steepnesses_count=4
cascade_activation_steepnesses=2.50000000000000000000e-01 5.00000000000000000000e-01 7.50000000000000000000e-01 1.00000000000000000000e+00 
layer_sizes=10 3 2 
scale_included=0
neurons (num_inputs, activation_function, activation_steepness)=(0, 0, 0.00000000000000000000e+00) (0, 0, 0.00000000000000000000e+00) (0, 0, 0.00000000000000000000e+00) (0, 0, 0.00000000000000000000e+00) (0, 0, 0.00000000000000000000e+00) (0, 0, 0.00000000000000000000e+00) (0, 0, 0.00000000000000000000e+00) (0, 0, 0.00000000000000000000e+00) (0, 0, 0.00000000000000000000e+00) (0, 0, 0.00000000000000000000e+00) (10, 3, 5.00000000000000000000e-01) (10, 3, 5.00000000000000000000e-01) (0, 3, 0.00000000000000000000e+00) (3, 0, 5.00000000000000000000e-01) (0, 0, 0.00000000000000000000e+00) 
connections (connected_to_neuron, weight)=(0, 1.79956167936325073242e-01) (1, 2.11900264024734497070e-01) (2, 1.83025807142257690430e-01) (3, 1.36268287897109985352e-01) (4, 2.46168896555900573730e-02) (5, 1.54235005378723144531e-01) (6, 7.85380303859710693359e-02) (7, 1.96962296962738037109e-01) (8, 2.08499804139137268066e-02) (9, 1.45679563283920288086e-01) (0, 8.46879705786705017090e-02) (1, 8.38397890329360961914e-02) (2, 1.92737698554992675781e-01) (3, 3.59194576740264892578e-02) (4, 1.72033131122589111328e-01) (5, 1.61447465419769287109e-01) (6, 1.57133132219314575195e-01) (7, 1.38657465577125549316e-01) (8, 5.43698966503143310547e-02) (9, 7.52343237400054931641e-02) (10, 1.36122867465019226074e-01) (11, 1.65028899908065795898e-01) (12, 8.09144377708435058594e-02) 
