FANN_FLO_2.1
num_layers=3
learning_rate=0.100000
connection_rate=1.000000
network_type=0
learning_momentum=0.000000
training_algorithm=2
train_error_function=1
train_stop_function=0
cascade_output_change_fraction=0.010000
quickprop_decay=-0.000100
quickprop_mu=1.750000
rprop_increase_factor=1.200000
rprop_decrease_factor=0.500000
rprop_delta_min=0.000000
rprop_delta_max=50.000000
rprop_delta_zero=0.100000
cascade_output_stagnation_epochs=12
cascade_candidate_change_fraction=0.010000
cascade_candidate_stagnation_epochs=12
cascade_max_out_epochs=150
cascade_min_out_epochs=50
cascade_max_cand_epochs=150
cascade_min_cand_epochs=50
cascade_num_candidate_groups=2
bit_fail_limit=3.49999994039535522461e-01
cascade_candidate_limit=1.00000000000000000000e+03
cascade_weight_multiplier=4.00000005960464477539e-01
cascade_activation_functions_count=10
cascade_activation_functions=3 5 7 8 10 11 14 15 16 17 
cascade_activation_steepnesses_count=4
cascade_activation_steepnesses=2.50000000000000000000e-01 5.00000000000000000000e-01 7.50000000000000000000e-01 1.00000000000000000000e+00 
layer_sizes=10 3 2 
scale_included=0
neurons (num_inputs, activation_function, activation_steepness)=(0, 0, 0.00000000000000000000e+00) (0, 0, 0.00000000000000000000e+00) (0, 0, 0.00000000000000000000e+00) (0, 0, 0.00000000000000000000e+00) (0, 0, 0.00000000000000000000e+00) (0, 0, 0.00000000000000000000e+00) (0, 0, 0.00000000000000000000e+00) (0, 0, 0.00000000000000000000e+00) (0, 0, 0.00000000000000000000e+00) (0, 0, 0.00000000000000000000e+00) (10, 3, 5.00000000000000000000e-01) (10, 3, 5.00000000000000000000e-01) (0, 3, 0.00000000000000000000e+00) (3, 0, 5.00000000000000000000e-01) (0, 0, 0.00000000000000000000e+00) 
connections (connected_to_neuron, weight)=(0, -2.02838897705078125000e-01) (1, -3.30634638667106628418e-02) (2, -2.05915018916130065918e-01) (3, -1.56916260719299316406e-01) (4, -1.45985573530197143555e-01) (5, -1.36679857969284057617e-01) (6, -1.07689872384071350098e-01) (7, -8.40722844004631042480e-02) (8, -1.06749750673770904541e-01) (9, -1.20184943079948425293e-01) (0, -1.73637300729751586914e-01) (1, -9.26158800721168518066e-02) (2, -1.88691854476928710938e-01) (3, -2.17090219259262084961e-01) (4, -2.41754576563835144043e-02) (5, -1.92616194486618041992e-01) (6, -1.27957910299301147461e-01) (7, -2.51219943165779113770e-02) (8, -1.39409348368644714355e-01) (9, -1.48280665278434753418e-01) (10, 8.86699855327606201172e-02) (11, 2.46745869517326354980e-02) (12, 1.15091249346733093262e-01) 
