FANN_FLO_2.1
num_layers=3
learning_rate=0.100000
connection_rate=1.000000
network_type=0
learning_momentum=0.000000
training_algorithm=2
train_error_function=1
train_stop_function=0
cascade_output_change_fraction=0.010000
quickprop_decay=-0.000100
quickprop_mu=1.750000
rprop_increase_factor=1.200000
rprop_decrease_factor=0.500000
rprop_delta_min=0.000000
rprop_delta_max=50.000000
rprop_delta_zero=0.100000
cascade_output_stagnation_epochs=12
cascade_candidate_change_fraction=0.010000
cascade_candidate_stagnation_epochs=12
cascade_max_out_epochs=150
cascade_min_out_epochs=50
cascade_max_cand_epochs=150
cascade_min_cand_epochs=50
cascade_num_candidate_groups=2
bit_fail_limit=3.49999994039535522461e-01
cascade_candidate_limit=1.00000000000000000000e+03
cascade_weight_multiplier=4.00000005960464477539e-01
cascade_activation_functions_count=10
cascade_activation_functions=3 5 7 8 10 11 14 15 16 17 
cascade_activation_steepnesses_count=4
cascade_activation_steepnesses=2.50000000000000000000e-01 5.00000000000000000000e-01 7.50000000000000000000e-01 1.00000000000000000000e+00 
layer_sizes=10 3 2 
scale_included=0
neurons (num_inputs, activation_function, activation_steepness)=(0, 0, 0.00000000000000000000e+00) (0, 0, 0.00000000000000000000e+00) (0, 0, 0.00000000000000000000e+00) (0, 0, 0.00000000000000000000e+00) (0, 0, 0.00000000000000000000e+00) (0, 0, 0.00000000000000000000e+00) (0, 0, 0.00000000000000000000e+00) (0, 0, 0.00000000000000000000e+00) (0, 0, 0.00000000000000000000e+00) (0, 0, 0.00000000000000000000e+00) (10, 3, 5.00000000000000000000e-01) (10, 3, 5.00000000000000000000e-01) (0, 3, 0.00000000000000000000e+00) (3, 0, 5.00000000000000000000e-01) (0, 0, 0.00000000000000000000e+00) 
connections (connected_to_neuron, weight)=(0, -5.85945472121238708496e-02) (1, -8.27101692557334899902e-02) (2, -5.09284511208534240723e-02) (3, -1.10283456742763519287e-01) (4, -1.41265526413917541504e-01) (5, -1.80173411965370178223e-01) (6, -1.48564338684082031250e-01) (7, -1.02383270859718322754e-01) (8, -1.66875153779983520508e-01) (9, -5.32794520258903503418e-02) (0, -9.33439359068870544434e-02) (1, -4.27569970488548278809e-02) (2, -1.29738509654998779297e-01) (3, -2.12462335824966430664e-01) (4, -1.49182602763175964355e-01) (5, -1.55814856290817260742e-01) (6, -1.10357686877250671387e-01) (7, -2.08198681473731994629e-01) (8, -8.99248495697975158691e-02) (9, -2.11530983448028564453e-01) (10, 9.37515944242477416992e-02) (11, 8.75227525830268859863e-02) (12, 6.37621507048606872559e-02) 
