FANN_FLO_2.1
num_layers=3
learning_rate=0.100000
connection_rate=1.000000
network_type=0
learning_momentum=0.000000
training_algorithm=2
train_error_function=1
train_stop_function=0
cascade_output_change_fraction=0.010000
quickprop_decay=-0.000100
quickprop_mu=1.750000
rprop_increase_factor=1.200000
rprop_decrease_factor=0.500000
rprop_delta_min=0.000000
rprop_delta_max=50.000000
rprop_delta_zero=0.100000
cascade_output_stagnation_epochs=12
cascade_candidate_change_fraction=0.010000
cascade_candidate_stagnation_epochs=12
cascade_max_out_epochs=150
cascade_min_out_epochs=50
cascade_max_cand_epochs=150
cascade_min_cand_epochs=50
cascade_num_candidate_groups=2
bit_fail_limit=3.49999994039535522461e-01
cascade_candidate_limit=1.00000000000000000000e+03
cascade_weight_multiplier=4.00000005960464477539e-01
cascade_activation_functions_count=10
cascade_activation_functions=3 5 7 8 10 11 14 15 16 17 
cascade_activation_steepnesses_count=4
cascade_activation_steepnesses=2.50000000000000000000e-01 5.00000000000000000000e-01 7.50000000000000000000e-01 1.00000000000000000000e+00 
layer_sizes=10 3 2 
scale_included=0
neurons (num_inputs, activation_function, activation_steepness)=(0, 0, 0.00000000000000000000e+00) (0, 0, 0.00000000000000000000e+00) (0, 0, 0.00000000000000000000e+00) (0, 0, 0.00000000000000000000e+00) (0, 0, 0.00000000000000000000e+00) (0, 0, 0.00000000000000000000e+00) (0, 0, 0.00000000000000000000e+00) (0, 0, 0.00000000000000000000e+00) (0, 0, 0.00000000000000000000e+00) (0, 0, 0.00000000000000000000e+00) (10, 3, 5.00000000000000000000e-01) (10, 3, 5.00000000000000000000e-01) (0, 3, 0.00000000000000000000e+00) (3, 0, 5.00000000000000000000e-01) (0, 0, 0.00000000000000000000e+00) 
connections (connected_to_neuron, weight)=(0, 1.40423104166984558105e-01) (1, 2.00709819793701171875e-01) (2, 1.63319438695907592773e-01) (3, 5.98631389439105987549e-02) (4, 1.68079227209091186523e-01) (5, 1.01240314543247222900e-01) (6, 2.01949626207351684570e-02) (7, 7.35163241624832153320e-02) (8, 1.66332602500915527344e-01) (9, 1.41953378915786743164e-01) (0, 7.99947381019592285156e-02) (1, 5.59382289648056030273e-02) (2, 2.27458029985427856445e-02) (3, 1.86092138290405273438e-01) (4, 2.04997658729553222656e-01) (5, 1.98303312063217163086e-01) (6, 7.33963847160339355469e-02) (7, 1.03273034095764160156e-01) (8, 2.00915515422821044922e-01) (9, 1.56429439783096313477e-01) (10, 1.51020973920822143555e-01) (11, 1.49800658226013183594e-01) (12, 6.28618150949478149414e-02) 
