FANN_FLO_2.1
num_layers=3
learning_rate=0.100000
connection_rate=1.000000
network_type=0
learning_momentum=0.000000
training_algorithm=2
train_error_function=1
train_stop_function=0
cascade_output_change_fraction=0.010000
quickprop_decay=-0.000100
quickprop_mu=1.750000
rprop_increase_factor=1.200000
rprop_decrease_factor=0.500000
rprop_delta_min=0.000000
rprop_delta_max=50.000000
rprop_delta_zero=0.100000
cascade_output_stagnation_epochs=12
cascade_candidate_change_fraction=0.010000
cascade_candidate_stagnation_epochs=12
cascade_max_out_epochs=150
cascade_min_out_epochs=50
cascade_max_cand_epochs=150
cascade_min_cand_epochs=50
cascade_num_candidate_groups=2
bit_fail_limit=3.49999994039535522461e-01
cascade_candidate_limit=1.00000000000000000000e+03
cascade_weight_multiplier=4.00000005960464477539e-01
cascade_activation_functions_count=10
cascade_activation_functions=3 5 7 8 10 11 14 15 16 17 
cascade_activation_steepnesses_count=4
cascade_activation_steepnesses=2.50000000000000000000e-01 5.00000000000000000000e-01 7.50000000000000000000e-01 1.00000000000000000000e+00 
layer_sizes=19 3 3 
scale_included=0
neurons (num_inputs, activation_function, activation_steepness)=(0, 0, 0.00000000000000000000e+00) (0, 0, 0.00000000000000000000e+00) (0, 0, 0.00000000000000000000e+00) (0, 0, 0.00000000000000000000e+00) (0, 0, 0.00000000000000000000e+00) (0, 0, 0.00000000000000000000e+00) (0, 0, 0.00000000000000000000e+00) (0, 0, 0.00000000000000000000e+00) (0, 0, 0.00000000000000000000e+00) (0, 0, 0.00000000000000000000e+00) (0, 0, 0.00000000000000000000e+00) (0, 0, 0.00000000000000000000e+00) (0, 0, 0.00000000000000000000e+00) (0, 0, 0.00000000000000000000e+00) (0, 0, 0.00000000000000000000e+00) (0, 0, 0.00000000000000000000e+00) (0, 0, 0.00000000000000000000e+00) (0, 0, 0.00000000000000000000e+00) (0, 0, 0.00000000000000000000e+00) (19, 3, 5.00000000000000000000e-01) (19, 3, 5.00000000000000000000e-01) (0, 3, 0.00000000000000000000e+00) (3, 0, 5.00000000000000000000e-01) (3, 0, 5.00000000000000000000e-01) (0, 0, 0.00000000000000000000e+00) 
connections (connected_to_neuron, weight)=(0, -8.89711901545524597168e-02) (1, 2.57765129208564758301e-02) (2, 2.01041400432586669922e-01) (3, -1.27510100603103637695e-01) (4, -5.70702329277992248535e-02) (5, -1.60987198352813720703e-01) (6, 1.34759128093719482422e-01) (7, -2.19062507152557373047e-01) (8, -7.82237425446510314941e-02) (9, -7.42459669709205627441e-02) (10, -1.22397758066654205322e-01) (11, 1.22235223650932312012e-01) (12, -1.92310333251953125000e-01) (13, -6.36890456080436706543e-02) (14, -7.21220299601554870605e-02) (15, -1.49278685450553894043e-01) (16, -7.48600885272026062012e-02) (17, -1.71132951974868774414e-01) (18, -1.83477342128753662109e-01) (0, -1.94398239254951477051e-01) (1, 6.96725994348526000977e-02) (2, 1.01641938090324401855e-01) (3, -4.38268408179283142090e-02) (4, -1.43450438976287841797e-01) (5, -1.94212213158607482910e-01) (6, -1.95374429225921630859e-01) (7, -1.06085717678070068359e-01) (8, -8.34490582346916198730e-02) (9, -9.84970331192016601562e-02) (10, -5.15486970543861389160e-02) (11, -6.90340921282768249512e-02) (12, -1.67468205094337463379e-01) (13, -4.57721874117851257324e-02) (14, -8.79927054047584533691e-02) (15, -7.49782994389533996582e-02) (16, -8.28424170613288879395e-02) (17, -2.89798900485038757324e-02) (18, -1.60219177603721618652e-01) (19, 1.58095091581344604492e-01) (20, 1.52796387672424316406e-01) (21, 2.55348756909370422363e-02) (19, 5.56973442435264587402e-02) (20, 5.50315976142883300781e-02) (21, 5.32245561480522155762e-02) 
