FANN_FLO_2.1
num_layers=3
learning_rate=0.100000
connection_rate=1.000000
network_type=0
learning_momentum=0.000000
training_algorithm=2
train_error_function=1
train_stop_function=0
cascade_output_change_fraction=0.010000
quickprop_decay=-0.000100
quickprop_mu=1.750000
rprop_increase_factor=1.200000
rprop_decrease_factor=0.500000
rprop_delta_min=0.000000
rprop_delta_max=50.000000
rprop_delta_zero=0.100000
cascade_output_stagnation_epochs=12
cascade_candidate_change_fraction=0.010000
cascade_candidate_stagnation_epochs=12
cascade_max_out_epochs=150
cascade_min_out_epochs=50
cascade_max_cand_epochs=150
cascade_min_cand_epochs=50
cascade_num_candidate_groups=2
bit_fail_limit=3.49999994039535522461e-01
cascade_candidate_limit=1.00000000000000000000e+03
cascade_weight_multiplier=4.00000005960464477539e-01
cascade_activation_functions_count=10
cascade_activation_functions=3 5 7 8 10 11 14 15 16 17 
cascade_activation_steepnesses_count=4
cascade_activation_steepnesses=2.50000000000000000000e-01 5.00000000000000000000e-01 7.50000000000000000000e-01 1.00000000000000000000e+00 
layer_sizes=19 3 3 
scale_included=0
neurons (num_inputs, activation_function, activation_steepness)=(0, 0, 0.00000000000000000000e+00) (0, 0, 0.00000000000000000000e+00) (0, 0, 0.00000000000000000000e+00) (0, 0, 0.00000000000000000000e+00) (0, 0, 0.00000000000000000000e+00) (0, 0, 0.00000000000000000000e+00) (0, 0, 0.00000000000000000000e+00) (0, 0, 0.00000000000000000000e+00) (0, 0, 0.00000000000000000000e+00) (0, 0, 0.00000000000000000000e+00) (0, 0, 0.00000000000000000000e+00) (0, 0, 0.00000000000000000000e+00) (0, 0, 0.00000000000000000000e+00) (0, 0, 0.00000000000000000000e+00) (0, 0, 0.00000000000000000000e+00) (0, 0, 0.00000000000000000000e+00) (0, 0, 0.00000000000000000000e+00) (0, 0, 0.00000000000000000000e+00) (0, 0, 0.00000000000000000000e+00) (19, 3, 5.00000000000000000000e-01) (19, 3, 5.00000000000000000000e-01) (0, 3, 0.00000000000000000000e+00) (3, 0, 5.00000000000000000000e-01) (3, 0, 5.00000000000000000000e-01) (0, 0, 0.00000000000000000000e+00) 
connections (connected_to_neuron, weight)=(0, -9.32129696011543273926e-02) (1, -9.32983085513114929199e-02) (2, -1.51172429323196411133e-01) (3, -1.26912295818328857422e-01) (4, -1.61028489470481872559e-01) (5, -1.34109362959861755371e-01) (6, -2.17083215713500976562e-01) (7, -7.95907899737358093262e-02) (8, -1.33029609918594360352e-01) (9, -1.33025035262107849121e-01) (10, -7.72392079234123229980e-02) (11, -2.58880928158760070801e-02) (12, -1.00140906870365142822e-01) (13, -4.83850911259651184082e-02) (14, -2.67434641718864440918e-02) (15, -1.50616854429244995117e-01) (16, -1.39305233955383300781e-01) (17, 1.88898921012878417969e-01) (18, -2.20180675387382507324e-02) (0, -9.73481386899948120117e-02) (1, -9.35684815049171447754e-02) (2, -5.24130836129188537598e-02) (3, -2.02777951955795288086e-01) (4, -2.02225983142852783203e-01) (5, -1.58486694097518920898e-01) (6, -1.53836533427238464355e-01) (7, -2.55834385752677917480e-02) (8, -1.56860813498497009277e-01) (9, -2.06096097826957702637e-02) (10, -2.03168019652366638184e-02) (11, -2.07513272762298583984e-01) (12, -9.38225910067558288574e-02) (13, -9.36151072382926940918e-02) (14, -1.38685703277587890625e-01) (15, -2.00734883546829223633e-01) (16, -3.46435829997062683105e-02) (17, -5.27950599789619445801e-02) (18, -1.97818070650100708008e-01) (19, 1.45765632390975952148e-01) (20, 7.41753280162811279297e-02) (21, 1.29156902432441711426e-01) (19, 8.85264277458190917969e-02) (20, 6.82872384786605834961e-02) (21, 4.90160062909126281738e-02) 
