FANN_FLO_2.1
num_layers=3
learning_rate=0.100000
connection_rate=1.000000
network_type=0
learning_momentum=0.000000
training_algorithm=2
train_error_function=1
train_stop_function=0
cascade_output_change_fraction=0.010000
quickprop_decay=-0.000100
quickprop_mu=1.750000
rprop_increase_factor=1.200000
rprop_decrease_factor=0.500000
rprop_delta_min=0.000000
rprop_delta_max=50.000000
rprop_delta_zero=0.100000
cascade_output_stagnation_epochs=12
cascade_candidate_change_fraction=0.010000
cascade_candidate_stagnation_epochs=12
cascade_max_out_epochs=150
cascade_min_out_epochs=50
cascade_max_cand_epochs=150
cascade_min_cand_epochs=50
cascade_num_candidate_groups=2
bit_fail_limit=3.49999994039535522461e-01
cascade_candidate_limit=1.00000000000000000000e+03
cascade_weight_multiplier=4.00000005960464477539e-01
cascade_activation_functions_count=10
cascade_activation_functions=3 5 7 8 10 11 14 15 16 17 
cascade_activation_steepnesses_count=4
cascade_activation_steepnesses=2.50000000000000000000e-01 5.00000000000000000000e-01 7.50000000000000000000e-01 1.00000000000000000000e+00 
layer_sizes=10 3 2 
scale_included=0
neurons (num_inputs, activation_function, activation_steepness)=(0, 0, 0.00000000000000000000e+00) (0, 0, 0.00000000000000000000e+00) (0, 0, 0.00000000000000000000e+00) (0, 0, 0.00000000000000000000e+00) (0, 0, 0.00000000000000000000e+00) (0, 0, 0.00000000000000000000e+00) (0, 0, 0.00000000000000000000e+00) (0, 0, 0.00000000000000000000e+00) (0, 0, 0.00000000000000000000e+00) (0, 0, 0.00000000000000000000e+00) (10, 3, 5.00000000000000000000e-01) (10, 3, 5.00000000000000000000e-01) (0, 3, 0.00000000000000000000e+00) (3, 0, 5.00000000000000000000e-01) (0, 0, 0.00000000000000000000e+00) 
connections (connected_to_neuron, weight)=(0, -2.08385944366455078125e-01) (1, -6.62412717938423156738e-02) (2, -1.15690208971500396729e-01) (3, -1.21568992733955383301e-01) (4, -1.16557285189628601074e-01) (5, -3.09989228844642639160e-02) (6, -1.50228828191757202148e-01) (7, -1.13795042037963867188e-01) (8, -1.44471973180770874023e-01) (9, -1.86399951577186584473e-01) (0, -1.19463369250297546387e-01) (1, -1.75932377576828002930e-01) (2, -9.09846350550651550293e-02) (3, -3.28782722353935241699e-02) (4, -1.81953445076942443848e-01) (5, -1.56042188405990600586e-01) (6, -1.12361595034599304199e-01) (7, -3.79022732377052307129e-02) (8, -1.67024433612823486328e-01) (9, -1.87618553638458251953e-01) (10, 5.63771575689315795898e-02) (11, 6.52310103178024291992e-02) (12, 5.57823479175567626953e-02) 
