FANN_FLO_2.1
num_layers=3
learning_rate=0.100000
connection_rate=1.000000
network_type=0
learning_momentum=0.000000
training_algorithm=2
train_error_function=1
train_stop_function=0
cascade_output_change_fraction=0.010000
quickprop_decay=-0.000100
quickprop_mu=1.750000
rprop_increase_factor=1.200000
rprop_decrease_factor=0.500000
rprop_delta_min=0.000000
rprop_delta_max=50.000000
rprop_delta_zero=0.100000
cascade_output_stagnation_epochs=12
cascade_candidate_change_fraction=0.010000
cascade_candidate_stagnation_epochs=12
cascade_max_out_epochs=150
cascade_min_out_epochs=50
cascade_max_cand_epochs=150
cascade_min_cand_epochs=50
cascade_num_candidate_groups=2
bit_fail_limit=3.49999994039535522461e-01
cascade_candidate_limit=1.00000000000000000000e+03
cascade_weight_multiplier=4.00000005960464477539e-01
cascade_activation_functions_count=10
cascade_activation_functions=3 5 7 8 10 11 14 15 16 17 
cascade_activation_steepnesses_count=4
cascade_activation_steepnesses=2.50000000000000000000e-01 5.00000000000000000000e-01 7.50000000000000000000e-01 1.00000000000000000000e+00 
layer_sizes=19 3 3 
scale_included=0
neurons (num_inputs, activation_function, activation_steepness)=(0, 0, 0.00000000000000000000e+00) (0, 0, 0.00000000000000000000e+00) (0, 0, 0.00000000000000000000e+00) (0, 0, 0.00000000000000000000e+00) (0, 0, 0.00000000000000000000e+00) (0, 0, 0.00000000000000000000e+00) (0, 0, 0.00000000000000000000e+00) (0, 0, 0.00000000000000000000e+00) (0, 0, 0.00000000000000000000e+00) (0, 0, 0.00000000000000000000e+00) (0, 0, 0.00000000000000000000e+00) (0, 0, 0.00000000000000000000e+00) (0, 0, 0.00000000000000000000e+00) (0, 0, 0.00000000000000000000e+00) (0, 0, 0.00000000000000000000e+00) (0, 0, 0.00000000000000000000e+00) (0, 0, 0.00000000000000000000e+00) (0, 0, 0.00000000000000000000e+00) (0, 0, 0.00000000000000000000e+00) (19, 3, 5.00000000000000000000e-01) (19, 3, 5.00000000000000000000e-01) (0, 3, 0.00000000000000000000e+00) (3, 0, 5.00000000000000000000e-01) (3, 0, 5.00000000000000000000e-01) (0, 0, 0.00000000000000000000e+00) 
connections (connected_to_neuron, weight)=(0, -1.29522517323493957520e-01) (1, -2.04479157924652099609e-01) (2, -1.89933434128761291504e-01) (3, -1.78061217069625854492e-01) (4, -3.62722203135490417480e-02) (5, -1.50912135839462280273e-01) (6, -1.87940701842308044434e-01) (7, -2.81005278229713439941e-02) (8, -2.06591412425041198730e-02) (9, -2.01366677880287170410e-01) (10, -6.83185234665870666504e-02) (11, -1.50827810168266296387e-01) (12, 2.58714556694030761719e-02) (13, -1.81762009859085083008e-01) (14, -2.96999588608741760254e-02) (15, -3.69094088673591613770e-02) (16, -1.10447444021701812744e-01) (17, -2.47159674763679504395e-02) (18, -1.21420323848724365234e-01) (0, -1.20746485888957977295e-01) (1, -1.76421135663986206055e-01) (2, -2.06204622983932495117e-01) (3, 1.43801361322402954102e-01) (4, 5.16393706202507019043e-02) (5, 1.16910062730312347412e-01) (6, -7.44659379124641418457e-02) (7, -2.01174646615982055664e-01) (8, 1.48840814828872680664e-01) (9, 1.72031104564666748047e-01) (10, -2.07100212574005126953e-01) (11, -4.78395745158195495605e-02) (12, 6.25085830688476562500e-02) (13, 4.84206527471542358398e-02) (14, -2.17773020267486572266e-01) (15, 1.04447372257709503174e-01) (16, -2.07851588726043701172e-01) (17, -1.48685142397880554199e-01) (18, -1.03493332862854003906e-01) (19, 2.40479111671447753906e-02) (20, 9.06557366251945495605e-02) (21, 1.55140012502670288086e-01) (19, 1.75729393959045410156e-01) (20, 1.59827917814254760742e-01) (21, 1.61011457443237304688e-01) 
