FANN_FLO_2.1
num_layers=3
learning_rate=0.100000
connection_rate=1.000000
network_type=0
learning_momentum=0.000000
training_algorithm=2
train_error_function=1
train_stop_function=0
cascade_output_change_fraction=0.010000
quickprop_decay=-0.000100
quickprop_mu=1.750000
rprop_increase_factor=1.200000
rprop_decrease_factor=0.500000
rprop_delta_min=0.000000
rprop_delta_max=50.000000
rprop_delta_zero=0.100000
cascade_output_stagnation_epochs=12
cascade_candidate_change_fraction=0.010000
cascade_candidate_stagnation_epochs=12
cascade_max_out_epochs=150
cascade_min_out_epochs=50
cascade_max_cand_epochs=150
cascade_min_cand_epochs=50
cascade_num_candidate_groups=2
bit_fail_limit=3.49999994039535522461e-01
cascade_candidate_limit=1.00000000000000000000e+03
cascade_weight_multiplier=4.00000005960464477539e-01
cascade_activation_functions_count=10
cascade_activation_functions=3 5 7 8 10 11 14 15 16 17 
cascade_activation_steepnesses_count=4
cascade_activation_steepnesses=2.50000000000000000000e-01 5.00000000000000000000e-01 7.50000000000000000000e-01 1.00000000000000000000e+00 
layer_sizes=10 3 2 
scale_included=0
neurons (num_inputs, activation_function, activation_steepness)=(0, 0, 0.00000000000000000000e+00) (0, 0, 0.00000000000000000000e+00) (0, 0, 0.00000000000000000000e+00) (0, 0, 0.00000000000000000000e+00) (0, 0, 0.00000000000000000000e+00) (0, 0, 0.00000000000000000000e+00) (0, 0, 0.00000000000000000000e+00) (0, 0, 0.00000000000000000000e+00) (0, 0, 0.00000000000000000000e+00) (0, 0, 0.00000000000000000000e+00) (10, 3, 5.00000000000000000000e-01) (10, 3, 5.00000000000000000000e-01) (0, 3, 0.00000000000000000000e+00) (3, 0, 5.00000000000000000000e-01) (0, 0, 0.00000000000000000000e+00) 
connections (connected_to_neuron, weight)=(0, -1.92874386906623840332e-01) (1, -1.10555909574031829834e-01) (2, -1.85779079794883728027e-01) (3, -1.69527485966682434082e-01) (4, -3.22515293955802917480e-02) (5, -1.12052366137504577637e-01) (6, -2.95287296175956726074e-02) (7, -9.82978790998458862305e-02) (8, -2.09767192602157592773e-01) (9, -6.78850933909416198730e-02) (0, 2.09880650043487548828e-01) (1, 2.03785985708236694336e-01) (2, 1.90663963556289672852e-01) (3, 3.20340916514396667480e-02) (4, 2.75159552693367004395e-02) (5, 8.52268934249877929688e-02) (6, 1.26448795199394226074e-01) (7, 1.05896025896072387695e-01) (8, 2.17016160488128662109e-01) (9, 2.14866578578948974609e-01) (10, 5.31182661652565002441e-02) (11, 1.86002254486083984375e-01) (12, 2.42130607366561889648e-02) 
