FANN_FLO_2.1
num_layers=3
learning_rate=0.100000
connection_rate=1.000000
network_type=0
learning_momentum=0.000000
training_algorithm=2
train_error_function=1
train_stop_function=0
cascade_output_change_fraction=0.010000
quickprop_decay=-0.000100
quickprop_mu=1.750000
rprop_increase_factor=1.200000
rprop_decrease_factor=0.500000
rprop_delta_min=0.000000
rprop_delta_max=50.000000
rprop_delta_zero=0.100000
cascade_output_stagnation_epochs=12
cascade_candidate_change_fraction=0.010000
cascade_candidate_stagnation_epochs=12
cascade_max_out_epochs=150
cascade_min_out_epochs=50
cascade_max_cand_epochs=150
cascade_min_cand_epochs=50
cascade_num_candidate_groups=2
bit_fail_limit=3.49999994039535522461e-01
cascade_candidate_limit=1.00000000000000000000e+03
cascade_weight_multiplier=4.00000005960464477539e-01
cascade_activation_functions_count=10
cascade_activation_functions=3 5 7 8 10 11 14 15 16 17 
cascade_activation_steepnesses_count=4
cascade_activation_steepnesses=2.50000000000000000000e-01 5.00000000000000000000e-01 7.50000000000000000000e-01 1.00000000000000000000e+00 
layer_sizes=19 3 3 
scale_included=0
neurons (num_inputs, activation_function, activation_steepness)=(0, 0, 0.00000000000000000000e+00) (0, 0, 0.00000000000000000000e+00) (0, 0, 0.00000000000000000000e+00) (0, 0, 0.00000000000000000000e+00) (0, 0, 0.00000000000000000000e+00) (0, 0, 0.00000000000000000000e+00) (0, 0, 0.00000000000000000000e+00) (0, 0, 0.00000000000000000000e+00) (0, 0, 0.00000000000000000000e+00) (0, 0, 0.00000000000000000000e+00) (0, 0, 0.00000000000000000000e+00) (0, 0, 0.00000000000000000000e+00) (0, 0, 0.00000000000000000000e+00) (0, 0, 0.00000000000000000000e+00) (0, 0, 0.00000000000000000000e+00) (0, 0, 0.00000000000000000000e+00) (0, 0, 0.00000000000000000000e+00) (0, 0, 0.00000000000000000000e+00) (0, 0, 0.00000000000000000000e+00) (19, 3, 5.00000000000000000000e-01) (19, 3, 5.00000000000000000000e-01) (0, 3, 0.00000000000000000000e+00) (3, 0, 5.00000000000000000000e-01) (3, 0, 5.00000000000000000000e-01) (0, 0, 0.00000000000000000000e+00) 
connections (connected_to_neuron, weight)=(0, -1.78627014160156250000e-01) (1, -3.60886678099632263184e-02) (2, -4.40685227513313293457e-02) (3, -2.38031074404716491699e-02) (4, -2.02047243714332580566e-01) (5, -1.45358085632324218750e-01) (6, -2.85350456833839416504e-02) (7, -2.04688787460327148438e-01) (8, -2.04313933849334716797e-01) (9, -6.60815015435218811035e-02) (10, -8.19543376564979553223e-02) (11, -2.12674885988235473633e-01) (12, -1.98685035109519958496e-01) (13, 3.83584201335906982422e-02) (14, -1.79952889680862426758e-01) (15, -1.69974505901336669922e-01) (16, -1.35959565639495849609e-01) (17, -5.53954467177391052246e-02) (18, -1.43406063318252563477e-01) (0, -1.12741425633430480957e-01) (1, -2.05982208251953125000e-01) (2, -1.62766724824905395508e-01) (3, -7.24354907870292663574e-02) (4, -1.27654224634170532227e-01) (5, -6.45095929503440856934e-02) (6, -1.73048794269561767578e-01) (7, -1.77432656288146972656e-01) (8, -1.87473475933074951172e-01) (9, -6.07923641800880432129e-02) (10, -2.89342328906059265137e-02) (11, -6.27144053578376770020e-02) (12, -2.19419389963150024414e-01) (13, -4.50228974223136901855e-02) (14, -8.67829248309135437012e-02) (15, -2.32224836945533752441e-02) (16, -2.70701572299003601074e-02) (17, -2.12141007184982299805e-01) (18, -3.17575260996818542480e-02) (19, 2.82410681247711181641e-02) (20, 4.35450673103332519531e-02) (21, 1.62160992622375488281e-01) (19, 1.66286736726760864258e-01) (20, 5.08701950311660766602e-02) (21, 1.83475971221923828125e-01) 
