FANN_FLO_2.1
num_layers=3
learning_rate=0.100000
connection_rate=1.000000
network_type=0
learning_momentum=0.000000
training_algorithm=2
train_error_function=1
train_stop_function=0
cascade_output_change_fraction=0.010000
quickprop_decay=-0.000100
quickprop_mu=1.750000
rprop_increase_factor=1.200000
rprop_decrease_factor=0.500000
rprop_delta_min=0.000000
rprop_delta_max=50.000000
rprop_delta_zero=0.100000
cascade_output_stagnation_epochs=12
cascade_candidate_change_fraction=0.010000
cascade_candidate_stagnation_epochs=12
cascade_max_out_epochs=150
cascade_min_out_epochs=50
cascade_max_cand_epochs=150
cascade_min_cand_epochs=50
cascade_num_candidate_groups=2
bit_fail_limit=3.49999994039535522461e-01
cascade_candidate_limit=1.00000000000000000000e+03
cascade_weight_multiplier=4.00000005960464477539e-01
cascade_activation_functions_count=10
cascade_activation_functions=3 5 7 8 10 11 14 15 16 17 
cascade_activation_steepnesses_count=4
cascade_activation_steepnesses=2.50000000000000000000e-01 5.00000000000000000000e-01 7.50000000000000000000e-01 1.00000000000000000000e+00 
layer_sizes=19 3 3 
scale_included=0
neurons (num_inputs, activation_function, activation_steepness)=(0, 0, 0.00000000000000000000e+00) (0, 0, 0.00000000000000000000e+00) (0, 0, 0.00000000000000000000e+00) (0, 0, 0.00000000000000000000e+00) (0, 0, 0.00000000000000000000e+00) (0, 0, 0.00000000000000000000e+00) (0, 0, 0.00000000000000000000e+00) (0, 0, 0.00000000000000000000e+00) (0, 0, 0.00000000000000000000e+00) (0, 0, 0.00000000000000000000e+00) (0, 0, 0.00000000000000000000e+00) (0, 0, 0.00000000000000000000e+00) (0, 0, 0.00000000000000000000e+00) (0, 0, 0.00000000000000000000e+00) (0, 0, 0.00000000000000000000e+00) (0, 0, 0.00000000000000000000e+00) (0, 0, 0.00000000000000000000e+00) (0, 0, 0.00000000000000000000e+00) (0, 0, 0.00000000000000000000e+00) (19, 3, 5.00000000000000000000e-01) (19, 3, 5.00000000000000000000e-01) (0, 3, 0.00000000000000000000e+00) (3, 0, 5.00000000000000000000e-01) (3, 0, 5.00000000000000000000e-01) (0, 0, 0.00000000000000000000e+00) 
connections (connected_to_neuron, weight)=(0, 1.57693922519683837891e-01) (1, 1.90837919712066650391e-01) (2, 4.92338538169860839844e-02) (3, 6.49998784065246582031e-02) (4, 1.54390186071395874023e-01) (5, 3.04571390151977539062e-02) (6, 2.06818401813507080078e-01) (7, 6.31822645664215087891e-02) (8, 6.52474164962768554688e-02) (9, 5.91163076460361480713e-02) (10, 1.11791618168354034424e-01) (11, 1.07791110873222351074e-01) (12, 6.94838091731071472168e-02) (13, 3.95352244377136230469e-02) (14, 1.63734078407287597656e-01) (15, 6.10636807978153228760e-02) (16, 1.69254451990127563477e-01) (17, 9.35638770461082458496e-02) (18, 1.70926511287689208984e-01) (0, 7.99794793128967285156e-02) (1, -1.29689916968345642090e-01) (2, 1.51309907436370849609e-01) (3, 1.58057093620300292969e-01) (4, -1.79058000445365905762e-01) (5, -1.61142662167549133301e-01) (6, 6.20438382029533386230e-02) (7, -2.57171913981437683105e-02) (8, 4.88210693001747131348e-02) (9, 2.14076966047286987305e-01) (10, 6.71382993459701538086e-02) (11, 9.59055721759796142578e-02) (12, 1.51770859956741333008e-01) (13, 3.79762127995491027832e-02) (14, 1.25139415264129638672e-01) (15, -4.32292744517326354980e-02) (16, -6.76336064934730529785e-02) (17, 1.35596558451652526855e-01) (18, -5.64108863472938537598e-02) (19, 2.15548664331436157227e-01) (20, 1.80843979120254516602e-01) (21, 2.27054208517074584961e-02) (19, 1.07340283691883087158e-01) (20, 6.86350762844085693359e-02) (21, 7.21892267465591430664e-02) 
