FANN_FLO_2.1
num_layers=3
learning_rate=0.100000
connection_rate=1.000000
network_type=0
learning_momentum=0.000000
training_algorithm=2
train_error_function=1
train_stop_function=0
cascade_output_change_fraction=0.010000
quickprop_decay=-0.000100
quickprop_mu=1.750000
rprop_increase_factor=1.200000
rprop_decrease_factor=0.500000
rprop_delta_min=0.000000
rprop_delta_max=50.000000
rprop_delta_zero=0.100000
cascade_output_stagnation_epochs=12
cascade_candidate_change_fraction=0.010000
cascade_candidate_stagnation_epochs=12
cascade_max_out_epochs=150
cascade_min_out_epochs=50
cascade_max_cand_epochs=150
cascade_min_cand_epochs=50
cascade_num_candidate_groups=2
bit_fail_limit=3.49999994039535522461e-01
cascade_candidate_limit=1.00000000000000000000e+03
cascade_weight_multiplier=4.00000005960464477539e-01
cascade_activation_functions_count=10
cascade_activation_functions=3 5 7 8 10 11 14 15 16 17 
cascade_activation_steepnesses_count=4
cascade_activation_steepnesses=2.50000000000000000000e-01 5.00000000000000000000e-01 7.50000000000000000000e-01 1.00000000000000000000e+00 
layer_sizes=19 3 3 
scale_included=0
neurons (num_inputs, activation_function, activation_steepness)=(0, 0, 0.00000000000000000000e+00) (0, 0, 0.00000000000000000000e+00) (0, 0, 0.00000000000000000000e+00) (0, 0, 0.00000000000000000000e+00) (0, 0, 0.00000000000000000000e+00) (0, 0, 0.00000000000000000000e+00) (0, 0, 0.00000000000000000000e+00) (0, 0, 0.00000000000000000000e+00) (0, 0, 0.00000000000000000000e+00) (0, 0, 0.00000000000000000000e+00) (0, 0, 0.00000000000000000000e+00) (0, 0, 0.00000000000000000000e+00) (0, 0, 0.00000000000000000000e+00) (0, 0, 0.00000000000000000000e+00) (0, 0, 0.00000000000000000000e+00) (0, 0, 0.00000000000000000000e+00) (0, 0, 0.00000000000000000000e+00) (0, 0, 0.00000000000000000000e+00) (0, 0, 0.00000000000000000000e+00) (19, 3, 5.00000000000000000000e-01) (19, 3, 5.00000000000000000000e-01) (0, 3, 0.00000000000000000000e+00) (3, 0, 5.00000000000000000000e-01) (3, 0, 5.00000000000000000000e-01) (0, 0, 0.00000000000000000000e+00) 
connections (connected_to_neuron, weight)=(0, 6.75857886672019958496e-02) (1, -2.18316853046417236328e-01) (2, 1.00942060351371765137e-01) (3, 1.59588932991027832031e-01) (4, 8.19229185581207275391e-02) (5, 1.80063009262084960938e-01) (6, -3.31285521388053894043e-02) (7, 2.05879718065261840820e-01) (8, 1.36196240782737731934e-01) (9, 1.73756420612335205078e-01) (10, 1.72137439250946044922e-01) (11, -1.23770803213119506836e-01) (12, 1.26373916864395141602e-01) (13, 1.65036022663116455078e-01) (14, 1.14063397049903869629e-01) (15, -2.12607234716415405273e-01) (16, 2.04626619815826416016e-01) (17, 1.24103806912899017334e-01) (18, 7.73459374904632568359e-02) (0, 7.16919600963592529297e-02) (1, 1.23539820313453674316e-01) (2, 1.11347146332263946533e-01) (3, 2.06391721963882446289e-01) (4, 2.58388742804527282715e-02) (5, 1.53501451015472412109e-01) (6, 2.19333022832870483398e-02) (7, 1.40152916312217712402e-01) (8, 1.99655890464782714844e-01) (9, 5.45871555805206298828e-02) (10, 2.11620569229125976562e-01) (11, 3.97920459508895874023e-02) (12, 1.02172940969467163086e-01) (13, 2.13303685188293457031e-01) (14, 1.20734095573425292969e-01) (15, 4.17618751525878906250e-02) (16, 7.52266198396682739258e-02) (17, 8.07971209287643432617e-02) (18, 2.86333337426185607910e-02) (19, 6.11063428223133087158e-02) (20, 1.96993350982666015625e-01) (21, 1.82389736175537109375e-01) (19, 2.13243782520294189453e-01) (20, 9.32225659489631652832e-02) (21, 8.87636542320251464844e-02) 
