FANN_FLO_2.1
num_layers=3
learning_rate=0.100000
connection_rate=1.000000
network_type=0
learning_momentum=0.000000
training_algorithm=2
train_error_function=1
train_stop_function=0
cascade_output_change_fraction=0.010000
quickprop_decay=-0.000100
quickprop_mu=1.750000
rprop_increase_factor=1.200000
rprop_decrease_factor=0.500000
rprop_delta_min=0.000000
rprop_delta_max=50.000000
rprop_delta_zero=0.100000
cascade_output_stagnation_epochs=12
cascade_candidate_change_fraction=0.010000
cascade_candidate_stagnation_epochs=12
cascade_max_out_epochs=150
cascade_min_out_epochs=50
cascade_max_cand_epochs=150
cascade_min_cand_epochs=50
cascade_num_candidate_groups=2
bit_fail_limit=3.49999994039535522461e-01
cascade_candidate_limit=1.00000000000000000000e+03
cascade_weight_multiplier=4.00000005960464477539e-01
cascade_activation_functions_count=10
cascade_activation_functions=3 5 7 8 10 11 14 15 16 17 
cascade_activation_steepnesses_count=4
cascade_activation_steepnesses=2.50000000000000000000e-01 5.00000000000000000000e-01 7.50000000000000000000e-01 1.00000000000000000000e+00 
layer_sizes=19 3 3 
scale_included=0
neurons (num_inputs, activation_function, activation_steepness)=(0, 0, 0.00000000000000000000e+00) (0, 0, 0.00000000000000000000e+00) (0, 0, 0.00000000000000000000e+00) (0, 0, 0.00000000000000000000e+00) (0, 0, 0.00000000000000000000e+00) (0, 0, 0.00000000000000000000e+00) (0, 0, 0.00000000000000000000e+00) (0, 0, 0.00000000000000000000e+00) (0, 0, 0.00000000000000000000e+00) (0, 0, 0.00000000000000000000e+00) (0, 0, 0.00000000000000000000e+00) (0, 0, 0.00000000000000000000e+00) (0, 0, 0.00000000000000000000e+00) (0, 0, 0.00000000000000000000e+00) (0, 0, 0.00000000000000000000e+00) (0, 0, 0.00000000000000000000e+00) (0, 0, 0.00000000000000000000e+00) (0, 0, 0.00000000000000000000e+00) (0, 0, 0.00000000000000000000e+00) (19, 3, 5.00000000000000000000e-01) (19, 3, 5.00000000000000000000e-01) (0, 3, 0.00000000000000000000e+00) (3, 0, 5.00000000000000000000e-01) (3, 0, 5.00000000000000000000e-01) (0, 0, 0.00000000000000000000e+00) 
connections (connected_to_neuron, weight)=(0, 6.79802596569061279297e-02) (1, 1.01492747664451599121e-01) (2, 1.20375968515872955322e-01) (3, 9.70784872770309448242e-02) (4, 1.19568333029747009277e-01) (5, 5.10879531502723693848e-02) (6, 8.51213485002517700195e-02) (7, 2.08407729864120483398e-01) (8, 2.36478075385093688965e-02) (9, 1.53799653053283691406e-01) (10, 1.72345817089080810547e-01) (11, 2.04449474811553955078e-01) (12, 1.18464052677154541016e-01) (13, 8.65167528390884399414e-02) (14, 1.07023730874061584473e-01) (15, 1.79185569286346435547e-01) (16, 1.38531103730201721191e-01) (17, 1.20098933577537536621e-01) (18, 5.10317385196685791016e-02) (0, 6.95668160915374755859e-02) (1, 1.44453734159469604492e-01) (2, 8.11883658170700073242e-02) (3, 9.06108543276786804199e-02) (4, 4.52806055545806884766e-02) (5, 6.30266666412353515625e-02) (6, 1.27039283514022827148e-01) (7, 1.24427340924739837646e-01) (8, 2.14842766523361206055e-01) (9, 5.69603517651557922363e-02) (10, 2.08716809749603271484e-01) (11, 3.79439219832420349121e-02) (12, 1.04940608143806457520e-01) (13, 9.02095437049865722656e-02) (14, 1.38319879770278930664e-01) (15, 1.82019084692001342773e-01) (16, 1.89777880907058715820e-01) (17, 1.69407844543457031250e-01) (18, 4.71404269337654113770e-02) (19, 1.78185582160949707031e-01) (20, 1.73055648803710937500e-01) (21, 1.80940091609954833984e-01) (19, 1.30531400442123413086e-01) (20, 1.57505095005035400391e-01) (21, 7.94041156768798828125e-02) 
