FANN_FLO_2.1
num_layers=3
learning_rate=0.100000
connection_rate=1.000000
network_type=0
learning_momentum=0.000000
training_algorithm=2
train_error_function=1
train_stop_function=0
cascade_output_change_fraction=0.010000
quickprop_decay=-0.000100
quickprop_mu=1.750000
rprop_increase_factor=1.200000
rprop_decrease_factor=0.500000
rprop_delta_min=0.000000
rprop_delta_max=50.000000
rprop_delta_zero=0.100000
cascade_output_stagnation_epochs=12
cascade_candidate_change_fraction=0.010000
cascade_candidate_stagnation_epochs=12
cascade_max_out_epochs=150
cascade_min_out_epochs=50
cascade_max_cand_epochs=150
cascade_min_cand_epochs=50
cascade_num_candidate_groups=2
bit_fail_limit=3.49999994039535522461e-01
cascade_candidate_limit=1.00000000000000000000e+03
cascade_weight_multiplier=4.00000005960464477539e-01
cascade_activation_functions_count=10
cascade_activation_functions=3 5 7 8 10 11 14 15 16 17 
cascade_activation_steepnesses_count=4
cascade_activation_steepnesses=2.50000000000000000000e-01 5.00000000000000000000e-01 7.50000000000000000000e-01 1.00000000000000000000e+00 
layer_sizes=10 3 2 
scale_included=0
neurons (num_inputs, activation_function, activation_steepness)=(0, 0, 0.00000000000000000000e+00) (0, 0, 0.00000000000000000000e+00) (0, 0, 0.00000000000000000000e+00) (0, 0, 0.00000000000000000000e+00) (0, 0, 0.00000000000000000000e+00) (0, 0, 0.00000000000000000000e+00) (0, 0, 0.00000000000000000000e+00) (0, 0, 0.00000000000000000000e+00) (0, 0, 0.00000000000000000000e+00) (0, 0, 0.00000000000000000000e+00) (10, 3, 5.00000000000000000000e-01) (10, 3, 5.00000000000000000000e-01) (0, 3, 0.00000000000000000000e+00) (3, 0, 5.00000000000000000000e-01) (0, 0, 0.00000000000000000000e+00) 
connections (connected_to_neuron, weight)=(0, -2.05481916666030883789e-01) (1, -1.97504639625549316406e-01) (2, -1.64469599723815917969e-01) (3, -6.56413957476615905762e-02) (4, -1.60808876156806945801e-01) (5, -5.79656586050987243652e-02) (6, -2.19961330294609069824e-02) (7, -1.24313153326511383057e-01) (8, -2.06807792186737060547e-01) (9, -1.28143802285194396973e-01) (0, 1.74272656440734863281e-01) (1, 2.07173168659210205078e-01) (2, 1.76847755908966064453e-01) (3, 1.94815754890441894531e-01) (4, 8.05582702159881591797e-02) (5, 1.94175302982330322266e-01) (6, 1.50910645723342895508e-01) (7, 2.72571966052055358887e-02) (8, 1.96051776409149169922e-01) (9, 3.34486812353134155273e-02) (10, 1.04845121502876281738e-01) (11, 1.43490418791770935059e-01) (12, 1.02237597107887268066e-01) 
