FANN_FLO_2.1
num_layers=3
learning_rate=0.100000
connection_rate=1.000000
network_type=0
learning_momentum=0.000000
training_algorithm=2
train_error_function=1
train_stop_function=0
cascade_output_change_fraction=0.010000
quickprop_decay=-0.000100
quickprop_mu=1.750000
rprop_increase_factor=1.200000
rprop_decrease_factor=0.500000
rprop_delta_min=0.000000
rprop_delta_max=50.000000
rprop_delta_zero=0.100000
cascade_output_stagnation_epochs=12
cascade_candidate_change_fraction=0.010000
cascade_candidate_stagnation_epochs=12
cascade_max_out_epochs=150
cascade_min_out_epochs=50
cascade_max_cand_epochs=150
cascade_min_cand_epochs=50
cascade_num_candidate_groups=2
bit_fail_limit=3.49999994039535522461e-01
cascade_candidate_limit=1.00000000000000000000e+03
cascade_weight_multiplier=4.00000005960464477539e-01
cascade_activation_functions_count=10
cascade_activation_functions=3 5 7 8 10 11 14 15 16 17 
cascade_activation_steepnesses_count=4
cascade_activation_steepnesses=2.50000000000000000000e-01 5.00000000000000000000e-01 7.50000000000000000000e-01 1.00000000000000000000e+00 
layer_sizes=10 3 2 
scale_included=0
neurons (num_inputs, activation_function, activation_steepness)=(0, 0, 0.00000000000000000000e+00) (0, 0, 0.00000000000000000000e+00) (0, 0, 0.00000000000000000000e+00) (0, 0, 0.00000000000000000000e+00) (0, 0, 0.00000000000000000000e+00) (0, 0, 0.00000000000000000000e+00) (0, 0, 0.00000000000000000000e+00) (0, 0, 0.00000000000000000000e+00) (0, 0, 0.00000000000000000000e+00) (0, 0, 0.00000000000000000000e+00) (10, 3, 5.00000000000000000000e-01) (10, 3, 5.00000000000000000000e-01) (0, 3, 0.00000000000000000000e+00) (3, 0, 5.00000000000000000000e-01) (0, 0, 0.00000000000000000000e+00) 
connections (connected_to_neuron, weight)=(0, -2.07748487591743469238e-02) (1, -9.98601168394088745117e-02) (2, -1.95992842316627502441e-01) (3, -1.23607769608497619629e-01) (4, -5.66045865416526794434e-02) (5, -1.24986954033374786377e-01) (6, -2.48961672186851501465e-02) (7, -1.82981178164482116699e-01) (8, -1.36486083269119262695e-01) (9, -1.91547200083732604980e-01) (0, 1.78463637828826904297e-01) (1, 2.16948390007019042969e-01) (2, 1.47411644458770751953e-01) (3, 8.62665846943855285645e-02) (4, 1.13374121487140655518e-01) (5, 2.14726775884628295898e-01) (6, 2.39945575594902038574e-02) (7, 4.76278066635131835938e-02) (8, 9.00870412588119506836e-02) (9, 1.44633442163467407227e-01) (10, 2.29724496603012084961e-02) (11, 2.05906867980957031250e-01) (12, 1.38019487261772155762e-01) 
