FANN_FLO_2.1
num_layers=3
learning_rate=0.100000
connection_rate=1.000000
network_type=0
learning_momentum=0.000000
training_algorithm=2
train_error_function=1
train_stop_function=0
cascade_output_change_fraction=0.010000
quickprop_decay=-0.000100
quickprop_mu=1.750000
rprop_increase_factor=1.200000
rprop_decrease_factor=0.500000
rprop_delta_min=0.000000
rprop_delta_max=50.000000
rprop_delta_zero=0.100000
cascade_output_stagnation_epochs=12
cascade_candidate_change_fraction=0.010000
cascade_candidate_stagnation_epochs=12
cascade_max_out_epochs=150
cascade_min_out_epochs=50
cascade_max_cand_epochs=150
cascade_min_cand_epochs=50
cascade_num_candidate_groups=2
bit_fail_limit=3.49999994039535522461e-01
cascade_candidate_limit=1.00000000000000000000e+03
cascade_weight_multiplier=4.00000005960464477539e-01
cascade_activation_functions_count=10
cascade_activation_functions=3 5 7 8 10 11 14 15 16 17 
cascade_activation_steepnesses_count=4
cascade_activation_steepnesses=2.50000000000000000000e-01 5.00000000000000000000e-01 7.50000000000000000000e-01 1.00000000000000000000e+00 
layer_sizes=19 3 3 
scale_included=0
neurons (num_inputs, activation_function, activation_steepness)=(0, 0, 0.00000000000000000000e+00) (0, 0, 0.00000000000000000000e+00) (0, 0, 0.00000000000000000000e+00) (0, 0, 0.00000000000000000000e+00) (0, 0, 0.00000000000000000000e+00) (0, 0, 0.00000000000000000000e+00) (0, 0, 0.00000000000000000000e+00) (0, 0, 0.00000000000000000000e+00) (0, 0, 0.00000000000000000000e+00) (0, 0, 0.00000000000000000000e+00) (0, 0, 0.00000000000000000000e+00) (0, 0, 0.00000000000000000000e+00) (0, 0, 0.00000000000000000000e+00) (0, 0, 0.00000000000000000000e+00) (0, 0, 0.00000000000000000000e+00) (0, 0, 0.00000000000000000000e+00) (0, 0, 0.00000000000000000000e+00) (0, 0, 0.00000000000000000000e+00) (0, 0, 0.00000000000000000000e+00) (19, 3, 5.00000000000000000000e-01) (19, 3, 5.00000000000000000000e-01) (0, 3, 0.00000000000000000000e+00) (3, 0, 5.00000000000000000000e-01) (3, 0, 5.00000000000000000000e-01) (0, 0, 0.00000000000000000000e+00) 
connections (connected_to_neuron, weight)=(0, -2.04964697360992431641e-01) (1, -1.54820293188095092773e-01) (2, -1.58846259117126464844e-01) (3, -1.96178793907165527344e-01) (4, -5.46576604247093200684e-02) (5, -1.85446858406066894531e-01) (6, -1.91487640142440795898e-01) (7, -2.01367378234863281250e-01) (8, -2.17121481895446777344e-01) (9, -1.87233626842498779297e-01) (10, -3.02119180560111999512e-02) (11, -1.41330614686012268066e-01) (12, -1.12359881401062011719e-01) (13, -9.98688563704490661621e-02) (14, -1.90595999360084533691e-01) (15, -4.54429015517234802246e-02) (16, -1.02431990206241607666e-01) (17, -2.01981365680694580078e-01) (18, -8.24806764721870422363e-02) (0, -1.03534959256649017334e-01) (1, -1.52732595801353454590e-01) (2, -5.75788989663124084473e-02) (3, -1.24081380665302276611e-01) (4, -1.41546249389648437500e-01) (5, -1.80897727608680725098e-01) (6, -1.22615106403827667236e-01) (7, -1.92474424839019775391e-01) (8, -4.73809167742729187012e-02) (9, -1.44312888383865356445e-01) (10, -2.06925153732299804688e-01) (11, -7.33800157904624938965e-02) (12, -1.29277586936950683594e-01) (13, -1.41745448112487792969e-01) (14, -2.12226271629333496094e-01) (15, -1.05456374585628509521e-01) (16, -1.76403090357780456543e-01) (17, -1.77673116326332092285e-01) (18, -7.69440010190010070801e-02) (19, 8.22295472025871276855e-02) (20, 6.52054250240325927734e-02) (21, 1.95822387933731079102e-01) (19, 7.20176398754119873047e-02) (20, 1.43874824047088623047e-01) (21, 1.03462509810924530029e-01) 
