FANN_FLO_2.1
num_layers=3
learning_rate=0.100000
connection_rate=1.000000
network_type=0
learning_momentum=0.000000
training_algorithm=2
train_error_function=1
train_stop_function=0
cascade_output_change_fraction=0.010000
quickprop_decay=-0.000100
quickprop_mu=1.750000
rprop_increase_factor=1.200000
rprop_decrease_factor=0.500000
rprop_delta_min=0.000000
rprop_delta_max=50.000000
rprop_delta_zero=0.100000
cascade_output_stagnation_epochs=12
cascade_candidate_change_fraction=0.010000
cascade_candidate_stagnation_epochs=12
cascade_max_out_epochs=150
cascade_min_out_epochs=50
cascade_max_cand_epochs=150
cascade_min_cand_epochs=50
cascade_num_candidate_groups=2
bit_fail_limit=3.49999994039535522461e-01
cascade_candidate_limit=1.00000000000000000000e+03
cascade_weight_multiplier=4.00000005960464477539e-01
cascade_activation_functions_count=10
cascade_activation_functions=3 5 7 8 10 11 14 15 16 17 
cascade_activation_steepnesses_count=4
cascade_activation_steepnesses=2.50000000000000000000e-01 5.00000000000000000000e-01 7.50000000000000000000e-01 1.00000000000000000000e+00 
layer_sizes=19 3 3 
scale_included=0
neurons (num_inputs, activation_function, activation_steepness)=(0, 0, 0.00000000000000000000e+00) (0, 0, 0.00000000000000000000e+00) (0, 0, 0.00000000000000000000e+00) (0, 0, 0.00000000000000000000e+00) (0, 0, 0.00000000000000000000e+00) (0, 0, 0.00000000000000000000e+00) (0, 0, 0.00000000000000000000e+00) (0, 0, 0.00000000000000000000e+00) (0, 0, 0.00000000000000000000e+00) (0, 0, 0.00000000000000000000e+00) (0, 0, 0.00000000000000000000e+00) (0, 0, 0.00000000000000000000e+00) (0, 0, 0.00000000000000000000e+00) (0, 0, 0.00000000000000000000e+00) (0, 0, 0.00000000000000000000e+00) (0, 0, 0.00000000000000000000e+00) (0, 0, 0.00000000000000000000e+00) (0, 0, 0.00000000000000000000e+00) (0, 0, 0.00000000000000000000e+00) (19, 3, 5.00000000000000000000e-01) (19, 3, 5.00000000000000000000e-01) (0, 3, 0.00000000000000000000e+00) (3, 0, 5.00000000000000000000e-01) (3, 0, 5.00000000000000000000e-01) (0, 0, 0.00000000000000000000e+00) 
connections (connected_to_neuron, weight)=(0, 1.46069973707199096680e-01) (1, 6.69392272830009460449e-02) (2, 3.53499054908752441406e-02) (3, 4.99409660696983337402e-02) (4, 2.15941667556762695312e-01) (5, 8.42757746577262878418e-02) (6, 9.80738848447799682617e-02) (7, 3.85096371173858642578e-02) (8, 2.19675242900848388672e-01) (9, 9.61520001292228698730e-02) (10, 1.44267171621322631836e-01) (11, 1.08349941670894622803e-01) (12, 1.65553748607635498047e-01) (13, 1.52550160884857177734e-01) (14, 1.84407889842987060547e-01) (15, 1.27967447042465209961e-01) (16, 1.51028752326965332031e-01) (17, 6.31467103958129882812e-02) (18, 1.22739017009735107422e-01) (0, -1.93514704704284667969e-01) (1, -7.22175016999244689941e-02) (2, -1.16648018360137939453e-01) (3, -4.07686159014701843262e-02) (4, -5.23267313838005065918e-02) (5, -2.00670391321182250977e-01) (6, -4.67063710093498229980e-02) (7, -1.18256486952304840088e-01) (8, -1.21053174138069152832e-01) (9, -1.71604886651039123535e-01) (10, -9.67354625463485717773e-02) (11, -1.87250196933746337891e-01) (12, -4.55349013209342956543e-02) (13, -4.97962310910224914551e-02) (14, -1.71900287270545959473e-01) (15, -2.15593934059143066406e-01) (16, -5.38545623421669006348e-02) (17, -1.07624515891075134277e-01) (18, -1.37520059943199157715e-01) (19, 2.04655081033706665039e-01) (20, 1.32050722837448120117e-01) (21, 1.78631931543350219727e-01) (19, 1.28922253847122192383e-01) (20, 2.04006582498550415039e-02) (21, 1.24185666441917419434e-01) 
