FANN_FLO_2.1
num_layers=3
learning_rate=0.100000
connection_rate=1.000000
network_type=0
learning_momentum=0.000000
training_algorithm=2
train_error_function=1
train_stop_function=0
cascade_output_change_fraction=0.010000
quickprop_decay=-0.000100
quickprop_mu=1.750000
rprop_increase_factor=1.200000
rprop_decrease_factor=0.500000
rprop_delta_min=0.000000
rprop_delta_max=50.000000
rprop_delta_zero=0.100000
cascade_output_stagnation_epochs=12
cascade_candidate_change_fraction=0.010000
cascade_candidate_stagnation_epochs=12
cascade_max_out_epochs=150
cascade_min_out_epochs=50
cascade_max_cand_epochs=150
cascade_min_cand_epochs=50
cascade_num_candidate_groups=2
bit_fail_limit=3.49999994039535522461e-01
cascade_candidate_limit=1.00000000000000000000e+03
cascade_weight_multiplier=4.00000005960464477539e-01
cascade_activation_functions_count=10
cascade_activation_functions=3 5 7 8 10 11 14 15 16 17 
cascade_activation_steepnesses_count=4
cascade_activation_steepnesses=2.50000000000000000000e-01 5.00000000000000000000e-01 7.50000000000000000000e-01 1.00000000000000000000e+00 
layer_sizes=10 3 2 
scale_included=0
neurons (num_inputs, activation_function, activation_steepness)=(0, 0, 0.00000000000000000000e+00) (0, 0, 0.00000000000000000000e+00) (0, 0, 0.00000000000000000000e+00) (0, 0, 0.00000000000000000000e+00) (0, 0, 0.00000000000000000000e+00) (0, 0, 0.00000000000000000000e+00) (0, 0, 0.00000000000000000000e+00) (0, 0, 0.00000000000000000000e+00) (0, 0, 0.00000000000000000000e+00) (0, 0, 0.00000000000000000000e+00) (10, 3, 5.00000000000000000000e-01) (10, 3, 5.00000000000000000000e-01) (0, 3, 0.00000000000000000000e+00) (3, 0, 5.00000000000000000000e-01) (0, 0, 0.00000000000000000000e+00) 
connections (connected_to_neuron, weight)=(0, 1.33299678564071655273e-01) (1, 1.99280768632888793945e-01) (2, 4.95469048619270324707e-02) (3, 1.39828696846961975098e-01) (4, 1.03867702186107635498e-01) (5, 7.49829038977622985840e-02) (6, 1.57576799392700195312e-01) (7, 6.91437348723411560059e-02) (8, 5.40900751948356628418e-02) (9, 8.49728509783744812012e-02) (0, 7.98548310995101928711e-02) (1, 1.26941457390785217285e-01) (2, 9.12027806043624877930e-02) (3, 3.66010889410972595215e-02) (4, 1.64902120828628540039e-01) (5, 1.80530875921249389648e-01) (6, 1.42305448651313781738e-01) (7, 2.00019121170043945312e-01) (8, 1.67989373207092285156e-01) (9, 1.88818037509918212891e-01) (10, 1.39566957950592041016e-01) (11, 1.96267068386077880859e-01) (12, 1.09487414360046386719e-01) 
