FANN_FLO_2.1
num_layers=3
learning_rate=0.100000
connection_rate=1.000000
network_type=0
learning_momentum=0.000000
training_algorithm=2
train_error_function=1
train_stop_function=0
cascade_output_change_fraction=0.010000
quickprop_decay=-0.000100
quickprop_mu=1.750000
rprop_increase_factor=1.200000
rprop_decrease_factor=0.500000
rprop_delta_min=0.000000
rprop_delta_max=50.000000
rprop_delta_zero=0.100000
cascade_output_stagnation_epochs=12
cascade_candidate_change_fraction=0.010000
cascade_candidate_stagnation_epochs=12
cascade_max_out_epochs=150
cascade_min_out_epochs=50
cascade_max_cand_epochs=150
cascade_min_cand_epochs=50
cascade_num_candidate_groups=2
bit_fail_limit=3.49999994039535522461e-01
cascade_candidate_limit=1.00000000000000000000e+03
cascade_weight_multiplier=4.00000005960464477539e-01
cascade_activation_functions_count=10
cascade_activation_functions=3 5 7 8 10 11 14 15 16 17 
cascade_activation_steepnesses_count=4
cascade_activation_steepnesses=2.50000000000000000000e-01 5.00000000000000000000e-01 7.50000000000000000000e-01 1.00000000000000000000e+00 
layer_sizes=10 3 2 
scale_included=0
neurons (num_inputs, activation_function, activation_steepness)=(0, 0, 0.00000000000000000000e+00) (0, 0, 0.00000000000000000000e+00) (0, 0, 0.00000000000000000000e+00) (0, 0, 0.00000000000000000000e+00) (0, 0, 0.00000000000000000000e+00) (0, 0, 0.00000000000000000000e+00) (0, 0, 0.00000000000000000000e+00) (0, 0, 0.00000000000000000000e+00) (0, 0, 0.00000000000000000000e+00) (0, 0, 0.00000000000000000000e+00) (10, 3, 5.00000000000000000000e-01) (10, 3, 5.00000000000000000000e-01) (0, 3, 0.00000000000000000000e+00) (3, 0, 5.00000000000000000000e-01) (0, 0, 0.00000000000000000000e+00) 
connections (connected_to_neuron, weight)=(0, 1.21266722679138183594e-01) (1, 3.23351174592971801758e-02) (2, 6.08682371675968170166e-02) (3, 3.74512001872062683105e-02) (4, 1.72278970479965209961e-01) (5, 2.35789045691490173340e-02) (6, 4.75735887885093688965e-02) (7, 7.56104514002799987793e-02) (8, 9.77448076009750366211e-02) (9, 1.56701892614364624023e-01) (0, -1.10381171107292175293e-01) (1, -2.11431086063385009766e-01) (2, -9.23472568392753601074e-02) (3, -3.42758968472480773926e-02) (4, -4.54796031117439270020e-02) (5, -1.44540578126907348633e-01) (6, -7.52540454268455505371e-02) (7, -8.08244124054908752441e-02) (8, -1.66414827108383178711e-01) (9, -6.14045634865760803223e-02) (10, 2.18485563993453979492e-01) (11, 3.89787107706069946289e-02) (12, 4.38287556171417236328e-02) 
