FANN_FLO_2.1
num_layers=3
learning_rate=0.100000
connection_rate=1.000000
network_type=0
learning_momentum=0.000000
training_algorithm=2
train_error_function=1
train_stop_function=0
cascade_output_change_fraction=0.010000
quickprop_decay=-0.000100
quickprop_mu=1.750000
rprop_increase_factor=1.200000
rprop_decrease_factor=0.500000
rprop_delta_min=0.000000
rprop_delta_max=50.000000
rprop_delta_zero=0.100000
cascade_output_stagnation_epochs=12
cascade_candidate_change_fraction=0.010000
cascade_candidate_stagnation_epochs=12
cascade_max_out_epochs=150
cascade_min_out_epochs=50
cascade_max_cand_epochs=150
cascade_min_cand_epochs=50
cascade_num_candidate_groups=2
bit_fail_limit=3.49999994039535522461e-01
cascade_candidate_limit=1.00000000000000000000e+03
cascade_weight_multiplier=4.00000005960464477539e-01
cascade_activation_functions_count=10
cascade_activation_functions=3 5 7 8 10 11 14 15 16 17 
cascade_activation_steepnesses_count=4
cascade_activation_steepnesses=2.50000000000000000000e-01 5.00000000000000000000e-01 7.50000000000000000000e-01 1.00000000000000000000e+00 
layer_sizes=19 3 3 
scale_included=0
neurons (num_inputs, activation_function, activation_steepness)=(0, 0, 0.00000000000000000000e+00) (0, 0, 0.00000000000000000000e+00) (0, 0, 0.00000000000000000000e+00) (0, 0, 0.00000000000000000000e+00) (0, 0, 0.00000000000000000000e+00) (0, 0, 0.00000000000000000000e+00) (0, 0, 0.00000000000000000000e+00) (0, 0, 0.00000000000000000000e+00) (0, 0, 0.00000000000000000000e+00) (0, 0, 0.00000000000000000000e+00) (0, 0, 0.00000000000000000000e+00) (0, 0, 0.00000000000000000000e+00) (0, 0, 0.00000000000000000000e+00) (0, 0, 0.00000000000000000000e+00) (0, 0, 0.00000000000000000000e+00) (0, 0, 0.00000000000000000000e+00) (0, 0, 0.00000000000000000000e+00) (0, 0, 0.00000000000000000000e+00) (0, 0, 0.00000000000000000000e+00) (19, 3, 5.00000000000000000000e-01) (19, 3, 5.00000000000000000000e-01) (0, 3, 0.00000000000000000000e+00) (3, 0, 5.00000000000000000000e-01) (3, 0, 5.00000000000000000000e-01) (0, 0, 0.00000000000000000000e+00) 
connections (connected_to_neuron, weight)=(0, -1.41217142343521118164e-01) (1, -2.12275236845016479492e-01) (2, -8.92702415585517883301e-02) (3, -1.30954548716545104980e-01) (4, -1.94236040115356445312e-01) (5, -6.95465132594108581543e-02) (6, -1.04098096489906311035e-01) (7, -1.09304644167423248291e-01) (8, -1.16938874125480651855e-01) (9, -1.80306449532508850098e-01) (10, -1.71207860112190246582e-01) (11, -1.64991199970245361328e-01) (12, -3.81302759051322937012e-02) (13, -7.60224387049674987793e-02) (14, -1.93395763635635375977e-01) (15, -8.93770381808280944824e-02) (16, -1.16310015320777893066e-01) (17, -1.59132629632949829102e-01) (18, -2.05318406224250793457e-02) (0, -1.11523248255252838135e-01) (1, -1.76974654197692871094e-01) (2, -2.03305572271347045898e-01) (3, -3.79647538065910339355e-02) (4, -4.65269610285758972168e-02) (5, -6.90545663237571716309e-02) (6, -2.00632095336914062500e-01) (7, -1.86631903052330017090e-01) (8, -1.07582822442054748535e-01) (9, -2.08775222301483154297e-01) (10, -1.21119186282157897949e-01) (11, -1.77192047238349914551e-01) (12, -1.29992365837097167969e-01) (13, -1.13394416868686676025e-01) (14, -4.64622899889945983887e-02) (15, -4.09468933939933776855e-02) (16, -8.76304432749748229980e-02) (17, -9.60087999701499938965e-02) (18, -1.25044986605644226074e-01) (19, 6.30649179220199584961e-02) (20, 4.70523238182067871094e-02) (21, 1.54648602008819580078e-01) (19, 1.11857064068317413330e-01) (20, 1.02061137557029724121e-01) (21, 1.36518314480781555176e-01) 
