FANN_FLO_2.1
num_layers=3
learning_rate=0.100000
connection_rate=1.000000
network_type=0
learning_momentum=0.000000
training_algorithm=2
train_error_function=1
train_stop_function=0
cascade_output_change_fraction=0.010000
quickprop_decay=-0.000100
quickprop_mu=1.750000
rprop_increase_factor=1.200000
rprop_decrease_factor=0.500000
rprop_delta_min=0.000000
rprop_delta_max=50.000000
rprop_delta_zero=0.100000
cascade_output_stagnation_epochs=12
cascade_candidate_change_fraction=0.010000
cascade_candidate_stagnation_epochs=12
cascade_max_out_epochs=150
cascade_min_out_epochs=50
cascade_max_cand_epochs=150
cascade_min_cand_epochs=50
cascade_num_candidate_groups=2
bit_fail_limit=3.49999994039535522461e-01
cascade_candidate_limit=1.00000000000000000000e+03
cascade_weight_multiplier=4.00000005960464477539e-01
cascade_activation_functions_count=10
cascade_activation_functions=3 5 7 8 10 11 14 15 16 17 
cascade_activation_steepnesses_count=4
cascade_activation_steepnesses=2.50000000000000000000e-01 5.00000000000000000000e-01 7.50000000000000000000e-01 1.00000000000000000000e+00 
layer_sizes=10 3 2 
scale_included=0
neurons (num_inputs, activation_function, activation_steepness)=(0, 0, 0.00000000000000000000e+00) (0, 0, 0.00000000000000000000e+00) (0, 0, 0.00000000000000000000e+00) (0, 0, 0.00000000000000000000e+00) (0, 0, 0.00000000000000000000e+00) (0, 0, 0.00000000000000000000e+00) (0, 0, 0.00000000000000000000e+00) (0, 0, 0.00000000000000000000e+00) (0, 0, 0.00000000000000000000e+00) (0, 0, 0.00000000000000000000e+00) (10, 3, 5.00000000000000000000e-01) (10, 3, 5.00000000000000000000e-01) (0, 3, 0.00000000000000000000e+00) (3, 0, 5.00000000000000000000e-01) (0, 0, 0.00000000000000000000e+00) 
connections (connected_to_neuron, weight)=(0, -8.13070461153984069824e-02) (1, -4.92025986313819885254e-02) (2, -9.01352986693382263184e-02) (3, -8.89056846499443054199e-02) (4, -6.12054690718650817871e-02) (5, -2.13412359356880187988e-01) (6, -1.64680838584899902344e-01) (7, -3.85000333189964294434e-02) (8, -9.22437235713005065918e-02) (9, -1.05995297431945800781e-01) (0, 1.68874949216842651367e-01) (1, 9.51529443264007568359e-02) (2, 1.80986911058425903320e-01) (3, 1.42675608396530151367e-01) (4, 1.33100315928459167480e-01) (5, 1.44397467374801635742e-01) (6, 1.98431849479675292969e-01) (7, 1.78447067737579345703e-01) (8, 1.05347827076911926270e-01) (9, 1.38273149728775024414e-01) (10, 9.61249619722366333008e-02) (11, 1.82680428028106689453e-01) (12, 2.10109114646911621094e-01) 
