FANN_FLO_2.1
num_layers=3
learning_rate=0.100000
connection_rate=1.000000
network_type=0
learning_momentum=0.000000
training_algorithm=2
train_error_function=1
train_stop_function=0
cascade_output_change_fraction=0.010000
quickprop_decay=-0.000100
quickprop_mu=1.750000
rprop_increase_factor=1.200000
rprop_decrease_factor=0.500000
rprop_delta_min=0.000000
rprop_delta_max=50.000000
rprop_delta_zero=0.100000
cascade_output_stagnation_epochs=12
cascade_candidate_change_fraction=0.010000
cascade_candidate_stagnation_epochs=12
cascade_max_out_epochs=150
cascade_min_out_epochs=50
cascade_max_cand_epochs=150
cascade_min_cand_epochs=50
cascade_num_candidate_groups=2
bit_fail_limit=3.49999994039535522461e-01
cascade_candidate_limit=1.00000000000000000000e+03
cascade_weight_multiplier=4.00000005960464477539e-01
cascade_activation_functions_count=10
cascade_activation_functions=3 5 7 8 10 11 14 15 16 17 
cascade_activation_steepnesses_count=4
cascade_activation_steepnesses=2.50000000000000000000e-01 5.00000000000000000000e-01 7.50000000000000000000e-01 1.00000000000000000000e+00 
layer_sizes=10 3 2 
scale_included=0
neurons (num_inputs, activation_function, activation_steepness)=(0, 0, 0.00000000000000000000e+00) (0, 0, 0.00000000000000000000e+00) (0, 0, 0.00000000000000000000e+00) (0, 0, 0.00000000000000000000e+00) (0, 0, 0.00000000000000000000e+00) (0, 0, 0.00000000000000000000e+00) (0, 0, 0.00000000000000000000e+00) (0, 0, 0.00000000000000000000e+00) (0, 0, 0.00000000000000000000e+00) (0, 0, 0.00000000000000000000e+00) (10, 3, 5.00000000000000000000e-01) (10, 3, 5.00000000000000000000e-01) (0, 3, 0.00000000000000000000e+00) (3, 0, 5.00000000000000000000e-01) (0, 0, 0.00000000000000000000e+00) 
connections (connected_to_neuron, weight)=(0, -7.21813812851905822754e-02) (1, -9.78317111730575561523e-02) (2, -1.01330980658531188965e-01) (3, -1.39500051736831665039e-01) (4, -1.49080455303192138672e-01) (5, -1.53238803148269653320e-01) (6, -1.05309285223484039307e-01) (7, -8.94413515925407409668e-02) (8, -8.11997726559638977051e-02) (9, -3.72856929898262023926e-02) (0, -1.55558571219444274902e-01) (1, -6.88654258847236633301e-02) (2, -5.32495900988578796387e-02) (3, -2.15024501085281372070e-01) (4, -2.10795491933822631836e-01) (5, -1.71043410897254943848e-01) (6, -2.15179830789566040039e-01) (7, -8.11564102768898010254e-02) (8, -1.25662460923194885254e-01) (9, -1.07057645916938781738e-01) (10, 3.24315950274467468262e-02) (11, 7.80388712882995605469e-02) (12, 1.28302007913589477539e-01) 
