FANN_FLO_2.1
num_layers=3
learning_rate=0.100000
connection_rate=1.000000
network_type=0
learning_momentum=0.000000
training_algorithm=2
train_error_function=1
train_stop_function=0
cascade_output_change_fraction=0.010000
quickprop_decay=-0.000100
quickprop_mu=1.750000
rprop_increase_factor=1.200000
rprop_decrease_factor=0.500000
rprop_delta_min=0.000000
rprop_delta_max=50.000000
rprop_delta_zero=0.100000
cascade_output_stagnation_epochs=12
cascade_candidate_change_fraction=0.010000
cascade_candidate_stagnation_epochs=12
cascade_max_out_epochs=150
cascade_min_out_epochs=50
cascade_max_cand_epochs=150
cascade_min_cand_epochs=50
cascade_num_candidate_groups=2
bit_fail_limit=3.49999994039535522461e-01
cascade_candidate_limit=1.00000000000000000000e+03
cascade_weight_multiplier=4.00000005960464477539e-01
cascade_activation_functions_count=10
cascade_activation_functions=3 5 7 8 10 11 14 15 16 17 
cascade_activation_steepnesses_count=4
cascade_activation_steepnesses=2.50000000000000000000e-01 5.00000000000000000000e-01 7.50000000000000000000e-01 1.00000000000000000000e+00 
layer_sizes=19 3 3 
scale_included=0
neurons (num_inputs, activation_function, activation_steepness)=(0, 0, 0.00000000000000000000e+00) (0, 0, 0.00000000000000000000e+00) (0, 0, 0.00000000000000000000e+00) (0, 0, 0.00000000000000000000e+00) (0, 0, 0.00000000000000000000e+00) (0, 0, 0.00000000000000000000e+00) (0, 0, 0.00000000000000000000e+00) (0, 0, 0.00000000000000000000e+00) (0, 0, 0.00000000000000000000e+00) (0, 0, 0.00000000000000000000e+00) (0, 0, 0.00000000000000000000e+00) (0, 0, 0.00000000000000000000e+00) (0, 0, 0.00000000000000000000e+00) (0, 0, 0.00000000000000000000e+00) (0, 0, 0.00000000000000000000e+00) (0, 0, 0.00000000000000000000e+00) (0, 0, 0.00000000000000000000e+00) (0, 0, 0.00000000000000000000e+00) (0, 0, 0.00000000000000000000e+00) (19, 3, 5.00000000000000000000e-01) (19, 3, 5.00000000000000000000e-01) (0, 3, 0.00000000000000000000e+00) (3, 0, 5.00000000000000000000e-01) (3, 0, 5.00000000000000000000e-01) (0, 0, 0.00000000000000000000e+00) 
connections (connected_to_neuron, weight)=(0, -2.11864233016967773438e-01) (1, -1.17420241236686706543e-01) (2, -6.64857998490333557129e-02) (3, -1.62910610437393188477e-01) (4, -2.06744924187660217285e-01) (5, -1.05268657207489013672e-01) (6, -8.30956175923347473145e-02) (7, -1.64489030838012695312e-01) (8, -8.85616764426231384277e-02) (9, -1.51808395981788635254e-01) (10, -1.11341737210750579834e-01) (11, -1.31124109029769897461e-01) (12, -4.96854260563850402832e-02) (13, -1.86814203858375549316e-01) (14, -7.03302249312400817871e-02) (15, -1.62935644388198852539e-01) (16, -1.29277229309082031250e-01) (17, -2.15058252215385437012e-01) (18, -1.08854077756404876709e-01) (0, 8.48832726478576660156e-02) (1, 3.56634259223937988281e-02) (2, 2.01375573873519897461e-01) (3, 1.83798611164093017578e-01) (4, 1.90279841423034667969e-01) (5, 1.66645944118499755859e-01) (6, 1.71188831329345703125e-01) (7, 7.86807388067245483398e-02) (8, 1.54971897602081298828e-01) (9, 2.07080304622650146484e-01) (10, 1.20656788349151611328e-01) (11, 2.05641269683837890625e-01) (12, 2.15216070413589477539e-01) (13, 2.32365429401397705078e-02) (14, 1.59155458211898803711e-01) (15, 7.23054558038711547852e-02) (16, 3.64916250109672546387e-02) (17, 7.38868117332458496094e-02) (18, 2.09209829568862915039e-01) (19, 9.20026004314422607422e-02) (20, 2.05325126647949218750e-01) (21, 7.74014443159103393555e-02) (19, 2.00660854578018188477e-01) (20, 9.42010208964347839355e-02) (21, 4.77160140872001647949e-02) 
