FANN_FLO_2.1
num_layers=3
learning_rate=0.100000
connection_rate=1.000000
network_type=0
learning_momentum=0.000000
training_algorithm=2
train_error_function=1
train_stop_function=0
cascade_output_change_fraction=0.010000
quickprop_decay=-0.000100
quickprop_mu=1.750000
rprop_increase_factor=1.200000
rprop_decrease_factor=0.500000
rprop_delta_min=0.000000
rprop_delta_max=50.000000
rprop_delta_zero=0.100000
cascade_output_stagnation_epochs=12
cascade_candidate_change_fraction=0.010000
cascade_candidate_stagnation_epochs=12
cascade_max_out_epochs=150
cascade_min_out_epochs=50
cascade_max_cand_epochs=150
cascade_min_cand_epochs=50
cascade_num_candidate_groups=2
bit_fail_limit=3.49999994039535522461e-01
cascade_candidate_limit=1.00000000000000000000e+03
cascade_weight_multiplier=4.00000005960464477539e-01
cascade_activation_functions_count=10
cascade_activation_functions=3 5 7 8 10 11 14 15 16 17 
cascade_activation_steepnesses_count=4
cascade_activation_steepnesses=2.50000000000000000000e-01 5.00000000000000000000e-01 7.50000000000000000000e-01 1.00000000000000000000e+00 
layer_sizes=19 3 3 
scale_included=0
neurons (num_inputs, activation_function, activation_steepness)=(0, 0, 0.00000000000000000000e+00) (0, 0, 0.00000000000000000000e+00) (0, 0, 0.00000000000000000000e+00) (0, 0, 0.00000000000000000000e+00) (0, 0, 0.00000000000000000000e+00) (0, 0, 0.00000000000000000000e+00) (0, 0, 0.00000000000000000000e+00) (0, 0, 0.00000000000000000000e+00) (0, 0, 0.00000000000000000000e+00) (0, 0, 0.00000000000000000000e+00) (0, 0, 0.00000000000000000000e+00) (0, 0, 0.00000000000000000000e+00) (0, 0, 0.00000000000000000000e+00) (0, 0, 0.00000000000000000000e+00) (0, 0, 0.00000000000000000000e+00) (0, 0, 0.00000000000000000000e+00) (0, 0, 0.00000000000000000000e+00) (0, 0, 0.00000000000000000000e+00) (0, 0, 0.00000000000000000000e+00) (19, 3, 5.00000000000000000000e-01) (19, 3, 5.00000000000000000000e-01) (0, 3, 0.00000000000000000000e+00) (3, 0, 5.00000000000000000000e-01) (3, 0, 5.00000000000000000000e-01) (0, 0, 0.00000000000000000000e+00) 
connections (connected_to_neuron, weight)=(0, 1.82068347930908203125e-01) (1, 1.27352803945541381836e-01) (2, 5.53008913993835449219e-02) (3, 9.14867743849754333496e-02) (4, 1.80415391921997070312e-01) (5, 2.28798985481262207031e-02) (6, 1.24139368534088134766e-01) (7, 2.03435629606246948242e-01) (8, 1.98922276496887207031e-01) (9, 1.22816957533359527588e-01) (10, 8.56136456131935119629e-02) (11, 7.23070949316024780273e-02) (12, 9.33928862214088439941e-02) (13, 1.30271568894386291504e-01) (14, 2.06707835197448730469e-01) (15, 2.07778096199035644531e-01) (16, 8.16074609756469726562e-02) (17, 5.85164837539196014404e-02) (18, 4.17782366275787353516e-02) (0, -2.04095393419265747070e-01) (1, -2.02108964323997497559e-01) (2, -1.80969357490539550781e-01) (3, -4.25442382693290710449e-02) (4, -1.44904673099517822266e-01) (5, -1.29468083381652832031e-01) (6, -1.62218689918518066406e-01) (7, -1.15750119090080261230e-01) (8, -2.01033040881156921387e-01) (9, -2.08029553294181823730e-01) (10, -1.87329113483428955078e-01) (11, -1.78934544324874877930e-01) (12, -4.59612086415290832520e-02) (13, -7.99762979149818420410e-02) (14, -1.43633648753166198730e-01) (15, -1.74474447965621948242e-01) (16, -1.19560919702053070068e-01) (17, -1.40753746032714843750e-01) (18, -7.03350827097892761230e-02) (19, 1.03874713182449340820e-01) (20, 7.81685262918472290039e-02) (21, 7.24818855524063110352e-02) (19, 1.69488370418548583984e-01) (20, 1.30475610494613647461e-01) (21, 1.45874768495559692383e-01) 
