FANN_FLO_2.1
num_layers=3
learning_rate=0.100000
connection_rate=1.000000
network_type=0
learning_momentum=0.000000
training_algorithm=2
train_error_function=1
train_stop_function=0
cascade_output_change_fraction=0.010000
quickprop_decay=-0.000100
quickprop_mu=1.750000
rprop_increase_factor=1.200000
rprop_decrease_factor=0.500000
rprop_delta_min=0.000000
rprop_delta_max=50.000000
rprop_delta_zero=0.100000
cascade_output_stagnation_epochs=12
cascade_candidate_change_fraction=0.010000
cascade_candidate_stagnation_epochs=12
cascade_max_out_epochs=150
cascade_min_out_epochs=50
cascade_max_cand_epochs=150
cascade_min_cand_epochs=50
cascade_num_candidate_groups=2
bit_fail_limit=3.49999994039535522461e-01
cascade_candidate_limit=1.00000000000000000000e+03
cascade_weight_multiplier=4.00000005960464477539e-01
cascade_activation_functions_count=10
cascade_activation_functions=3 5 7 8 10 11 14 15 16 17 
cascade_activation_steepnesses_count=4
cascade_activation_steepnesses=2.50000000000000000000e-01 5.00000000000000000000e-01 7.50000000000000000000e-01 1.00000000000000000000e+00 
layer_sizes=10 3 2 
scale_included=0
neurons (num_inputs, activation_function, activation_steepness)=(0, 0, 0.00000000000000000000e+00) (0, 0, 0.00000000000000000000e+00) (0, 0, 0.00000000000000000000e+00) (0, 0, 0.00000000000000000000e+00) (0, 0, 0.00000000000000000000e+00) (0, 0, 0.00000000000000000000e+00) (0, 0, 0.00000000000000000000e+00) (0, 0, 0.00000000000000000000e+00) (0, 0, 0.00000000000000000000e+00) (0, 0, 0.00000000000000000000e+00) (10, 3, 5.00000000000000000000e-01) (10, 3, 5.00000000000000000000e-01) (0, 3, 0.00000000000000000000e+00) (3, 0, 5.00000000000000000000e-01) (0, 0, 0.00000000000000000000e+00) 
connections (connected_to_neuron, weight)=(0, -1.30400821566581726074e-01) (1, -3.51478680968284606934e-02) (2, -5.47530576586723327637e-02) (3, -1.18033483624458312988e-01) (4, -9.14101526141166687012e-02) (5, -7.29663744568824768066e-02) (6, -9.29874703288078308105e-02) (7, -1.10131941735744476318e-01) (8, -8.95025655627250671387e-02) (9, -1.96456909179687500000e-01) (0, -1.61156028509140014648e-01) (1, -9.04513970017433166504e-02) (2, -1.44965812563896179199e-01) (3, -4.48651835322380065918e-02) (4, -1.85240998864173889160e-01) (5, -1.29661753773689270020e-01) (6, -1.33671730756759643555e-01) (7, -1.85095548629760742188e-01) (8, -1.65002092719078063965e-01) (9, -1.74355491995811462402e-01) (10, 5.98318055272102355957e-02) (11, 7.68437087535858154297e-02) (12, 8.16019102931022644043e-02) 
