FANN_FLO_2.1
num_layers=3
learning_rate=0.100000
connection_rate=1.000000
network_type=0
learning_momentum=0.000000
training_algorithm=2
train_error_function=1
train_stop_function=0
cascade_output_change_fraction=0.010000
quickprop_decay=-0.000100
quickprop_mu=1.750000
rprop_increase_factor=1.200000
rprop_decrease_factor=0.500000
rprop_delta_min=0.000000
rprop_delta_max=50.000000
rprop_delta_zero=0.100000
cascade_output_stagnation_epochs=12
cascade_candidate_change_fraction=0.010000
cascade_candidate_stagnation_epochs=12
cascade_max_out_epochs=150
cascade_min_out_epochs=50
cascade_max_cand_epochs=150
cascade_min_cand_epochs=50
cascade_num_candidate_groups=2
bit_fail_limit=3.49999994039535522461e-01
cascade_candidate_limit=1.00000000000000000000e+03
cascade_weight_multiplier=4.00000005960464477539e-01
cascade_activation_functions_count=10
cascade_activation_functions=3 5 7 8 10 11 14 15 16 17 
cascade_activation_steepnesses_count=4
cascade_activation_steepnesses=2.50000000000000000000e-01 5.00000000000000000000e-01 7.50000000000000000000e-01 1.00000000000000000000e+00 
layer_sizes=19 3 3 
scale_included=0
neurons (num_inputs, activation_function, activation_steepness)=(0, 0, 0.00000000000000000000e+00) (0, 0, 0.00000000000000000000e+00) (0, 0, 0.00000000000000000000e+00) (0, 0, 0.00000000000000000000e+00) (0, 0, 0.00000000000000000000e+00) (0, 0, 0.00000000000000000000e+00) (0, 0, 0.00000000000000000000e+00) (0, 0, 0.00000000000000000000e+00) (0, 0, 0.00000000000000000000e+00) (0, 0, 0.00000000000000000000e+00) (0, 0, 0.00000000000000000000e+00) (0, 0, 0.00000000000000000000e+00) (0, 0, 0.00000000000000000000e+00) (0, 0, 0.00000000000000000000e+00) (0, 0, 0.00000000000000000000e+00) (0, 0, 0.00000000000000000000e+00) (0, 0, 0.00000000000000000000e+00) (0, 0, 0.00000000000000000000e+00) (0, 0, 0.00000000000000000000e+00) (19, 3, 5.00000000000000000000e-01) (19, 3, 5.00000000000000000000e-01) (0, 3, 0.00000000000000000000e+00) (3, 0, 5.00000000000000000000e-01) (3, 0, 5.00000000000000000000e-01) (0, 0, 0.00000000000000000000e+00) 
connections (connected_to_neuron, weight)=(0, 3.68168279528617858887e-02) (1, 1.77401423454284667969e-01) (2, 1.13810472190380096436e-01) (3, 1.24116837978363037109e-01) (4, 2.01976776123046875000e-01) (5, 2.02086359262466430664e-01) (6, 1.96414172649383544922e-01) (7, 1.95722281932830810547e-01) (8, 1.35149270296096801758e-01) (9, 1.36388152837753295898e-01) (10, 1.54042422771453857422e-01) (11, 1.04040414094924926758e-01) (12, 2.01437801122665405273e-01) (13, 1.31919339299201965332e-01) (14, 6.41574785113334655762e-02) (15, 9.25729945302009582520e-02) (16, 1.33496135473251342773e-01) (17, 1.70613646507263183594e-01) (18, 2.99341604113578796387e-02) (0, 2.00763344764709472656e-02) (1, 2.12339907884597778320e-01) (2, 1.45580738782882690430e-01) (3, 4.73399087786674499512e-02) (4, 5.74908778071403503418e-02) (5, -1.45139932632446289062e-01) (6, 5.67556321620941162109e-02) (7, 5.16055077314376831055e-02) (8, 5.71339800953865051270e-02) (9, 9.80052500963211059570e-02) (10, 6.88244402408599853516e-02) (11, 1.82000637054443359375e-01) (12, 1.14822074770927429199e-01) (13, 2.62258648872375488281e-02) (14, 7.58111104369163513184e-02) (15, 2.18938916921615600586e-01) (16, 2.08202630281448364258e-01) (17, 5.78974746167659759521e-02) (18, 1.95353090763092041016e-01) (19, 1.83924913406372070312e-01) (20, 1.73046737909317016602e-01) (21, 1.11741229891777038574e-01) (19, 1.17967337369918823242e-01) (20, 5.70871531963348388672e-02) (21, 9.31790173053741455078e-02) 
