FANN_FLO_2.1
num_layers=3
learning_rate=0.100000
connection_rate=1.000000
network_type=0
learning_momentum=0.000000
training_algorithm=2
train_error_function=1
train_stop_function=0
cascade_output_change_fraction=0.010000
quickprop_decay=-0.000100
quickprop_mu=1.750000
rprop_increase_factor=1.200000
rprop_decrease_factor=0.500000
rprop_delta_min=0.000000
rprop_delta_max=50.000000
rprop_delta_zero=0.100000
cascade_output_stagnation_epochs=12
cascade_candidate_change_fraction=0.010000
cascade_candidate_stagnation_epochs=12
cascade_max_out_epochs=150
cascade_min_out_epochs=50
cascade_max_cand_epochs=150
cascade_min_cand_epochs=50
cascade_num_candidate_groups=2
bit_fail_limit=3.49999994039535522461e-01
cascade_candidate_limit=1.00000000000000000000e+03
cascade_weight_multiplier=4.00000005960464477539e-01
cascade_activation_functions_count=10
cascade_activation_functions=3 5 7 8 10 11 14 15 16 17 
cascade_activation_steepnesses_count=4
cascade_activation_steepnesses=2.50000000000000000000e-01 5.00000000000000000000e-01 7.50000000000000000000e-01 1.00000000000000000000e+00 
layer_sizes=19 3 3 
scale_included=0
neurons (num_inputs, activation_function, activation_steepness)=(0, 0, 0.00000000000000000000e+00) (0, 0, 0.00000000000000000000e+00) (0, 0, 0.00000000000000000000e+00) (0, 0, 0.00000000000000000000e+00) (0, 0, 0.00000000000000000000e+00) (0, 0, 0.00000000000000000000e+00) (0, 0, 0.00000000000000000000e+00) (0, 0, 0.00000000000000000000e+00) (0, 0, 0.00000000000000000000e+00) (0, 0, 0.00000000000000000000e+00) (0, 0, 0.00000000000000000000e+00) (0, 0, 0.00000000000000000000e+00) (0, 0, 0.00000000000000000000e+00) (0, 0, 0.00000000000000000000e+00) (0, 0, 0.00000000000000000000e+00) (0, 0, 0.00000000000000000000e+00) (0, 0, 0.00000000000000000000e+00) (0, 0, 0.00000000000000000000e+00) (0, 0, 0.00000000000000000000e+00) (19, 3, 5.00000000000000000000e-01) (19, 3, 5.00000000000000000000e-01) (0, 3, 0.00000000000000000000e+00) (3, 0, 5.00000000000000000000e-01) (3, 0, 5.00000000000000000000e-01) (0, 0, 0.00000000000000000000e+00) 
connections (connected_to_neuron, weight)=(0, -1.07941940426826477051e-01) (1, -5.76210096478462219238e-02) (2, -1.01370796561241149902e-01) (3, -6.42004981637001037598e-02) (4, -1.40803575515747070312e-01) (5, -4.77349683642387390137e-02) (6, -1.30806371569633483887e-01) (7, -1.54708132147789001465e-01) (8, -1.36992096900939941406e-01) (9, -1.44310250878334045410e-01) (10, -1.82437181472778320312e-01) (11, -3.15190330147743225098e-02) (12, -1.87854558229446411133e-01) (13, -2.91692987084388732910e-02) (14, -7.23664984107017517090e-02) (15, -1.76259040832519531250e-01) (16, -6.79933801293373107910e-02) (17, -1.97036802768707275391e-01) (18, -3.57258096337318420410e-02) (0, 1.69574707746505737305e-01) (1, 1.73218250274658203125e-01) (2, 8.53301733732223510742e-02) (3, 1.42923742532730102539e-01) (4, 2.95052826404571533203e-02) (5, 3.09340208768844604492e-02) (6, 1.83633923530578613281e-01) (7, 5.62987029552459716797e-02) (8, 1.86876803636550903320e-01) (9, 9.18520539999008178711e-02) (10, 1.79287105798721313477e-01) (11, 1.55144572257995605469e-01) (12, 2.03910112380981445312e-01) (13, 1.41666084527969360352e-01) (14, 7.37737715244293212891e-02) (15, 1.59709632396697998047e-01) (16, 2.08625048398971557617e-02) (17, 4.60388213396072387695e-02) (18, 4.89032715559005737305e-02) (19, 8.61543864011764526367e-02) (20, 1.29046738147735595703e-01) (21, 1.24593019485473632812e-01) (19, 1.23717211186885833740e-01) (20, 1.17527708411216735840e-01) (21, 1.56738460063934326172e-01) 
