FANN_FLO_2.1
num_layers=3
learning_rate=0.100000
connection_rate=1.000000
network_type=0
learning_momentum=0.000000
training_algorithm=2
train_error_function=1
train_stop_function=0
cascade_output_change_fraction=0.010000
quickprop_decay=-0.000100
quickprop_mu=1.750000
rprop_increase_factor=1.200000
rprop_decrease_factor=0.500000
rprop_delta_min=0.000000
rprop_delta_max=50.000000
rprop_delta_zero=0.100000
cascade_output_stagnation_epochs=12
cascade_candidate_change_fraction=0.010000
cascade_candidate_stagnation_epochs=12
cascade_max_out_epochs=150
cascade_min_out_epochs=50
cascade_max_cand_epochs=150
cascade_min_cand_epochs=50
cascade_num_candidate_groups=2
bit_fail_limit=3.49999994039535522461e-01
cascade_candidate_limit=1.00000000000000000000e+03
cascade_weight_multiplier=4.00000005960464477539e-01
cascade_activation_functions_count=10
cascade_activation_functions=3 5 7 8 10 11 14 15 16 17 
cascade_activation_steepnesses_count=4
cascade_activation_steepnesses=2.50000000000000000000e-01 5.00000000000000000000e-01 7.50000000000000000000e-01 1.00000000000000000000e+00 
layer_sizes=19 3 3 
scale_included=0
neurons (num_inputs, activation_function, activation_steepness)=(0, 0, 0.00000000000000000000e+00) (0, 0, 0.00000000000000000000e+00) (0, 0, 0.00000000000000000000e+00) (0, 0, 0.00000000000000000000e+00) (0, 0, 0.00000000000000000000e+00) (0, 0, 0.00000000000000000000e+00) (0, 0, 0.00000000000000000000e+00) (0, 0, 0.00000000000000000000e+00) (0, 0, 0.00000000000000000000e+00) (0, 0, 0.00000000000000000000e+00) (0, 0, 0.00000000000000000000e+00) (0, 0, 0.00000000000000000000e+00) (0, 0, 0.00000000000000000000e+00) (0, 0, 0.00000000000000000000e+00) (0, 0, 0.00000000000000000000e+00) (0, 0, 0.00000000000000000000e+00) (0, 0, 0.00000000000000000000e+00) (0, 0, 0.00000000000000000000e+00) (0, 0, 0.00000000000000000000e+00) (19, 3, 5.00000000000000000000e-01) (19, 3, 5.00000000000000000000e-01) (0, 3, 0.00000000000000000000e+00) (3, 0, 5.00000000000000000000e-01) (3, 0, 5.00000000000000000000e-01) (0, 0, 0.00000000000000000000e+00) 
connections (connected_to_neuron, weight)=(0, 1.67313396930694580078e-01) (1, 8.91435518860816955566e-02) (2, 1.66798949241638183594e-01) (3, 2.17557281255722045898e-01) (4, 5.31965792179107666016e-02) (5, 2.17188090085983276367e-01) (6, 2.11392581462860107422e-01) (7, 1.68825894594192504883e-01) (8, 4.24057617783546447754e-02) (9, 8.23989808559417724609e-02) (10, 2.18015834689140319824e-02) (11, 1.86713755130767822266e-01) (12, 3.99093553423881530762e-02) (13, 2.08205580711364746094e-01) (14, 1.69334083795547485352e-01) (15, 1.33612871170043945312e-01) (16, 2.05076456069946289062e-01) (17, 6.05133585631847381592e-02) (18, 1.50133490562438964844e-01) (0, -2.61604711413383483887e-02) (1, -1.01567663252353668213e-01) (2, -2.19231694936752319336e-01) (3, -9.65836644172668457031e-02) (4, -7.06351324915885925293e-02) (5, -2.14921355247497558594e-01) (6, -3.12402471899986267090e-02) (7, -1.02330580353736877441e-01) (8, -1.47047728300094604492e-01) (9, -4.18836399912834167480e-02) (10, -1.23318247497081756592e-01) (11, -1.33273556828498840332e-01) (12, -9.45702567696571350098e-02) (13, -5.41746988892555236816e-02) (14, -1.86474621295928955078e-01) (15, -9.70129743218421936035e-02) (16, -2.09781304001808166504e-02) (17, -1.89286544919013977051e-01) (18, -1.05620399117469787598e-01) (19, 1.67847752571105957031e-01) (20, 7.31192156672477722168e-02) (21, 1.96778595447540283203e-01) (19, 1.69649362564086914062e-01) (20, 3.98329719901084899902e-02) (21, 2.16687947511672973633e-01) 
