FANN_FLO_2.1
num_layers=3
learning_rate=0.100000
connection_rate=1.000000
network_type=0
learning_momentum=0.000000
training_algorithm=2
train_error_function=1
train_stop_function=0
cascade_output_change_fraction=0.010000
quickprop_decay=-0.000100
quickprop_mu=1.750000
rprop_increase_factor=1.200000
rprop_decrease_factor=0.500000
rprop_delta_min=0.000000
rprop_delta_max=50.000000
rprop_delta_zero=0.100000
cascade_output_stagnation_epochs=12
cascade_candidate_change_fraction=0.010000
cascade_candidate_stagnation_epochs=12
cascade_max_out_epochs=150
cascade_min_out_epochs=50
cascade_max_cand_epochs=150
cascade_min_cand_epochs=50
cascade_num_candidate_groups=2
bit_fail_limit=3.49999994039535522461e-01
cascade_candidate_limit=1.00000000000000000000e+03
cascade_weight_multiplier=4.00000005960464477539e-01
cascade_activation_functions_count=10
cascade_activation_functions=3 5 7 8 10 11 14 15 16 17 
cascade_activation_steepnesses_count=4
cascade_activation_steepnesses=2.50000000000000000000e-01 5.00000000000000000000e-01 7.50000000000000000000e-01 1.00000000000000000000e+00 
layer_sizes=19 3 3 
scale_included=0
neurons (num_inputs, activation_function, activation_steepness)=(0, 0, 0.00000000000000000000e+00) (0, 0, 0.00000000000000000000e+00) (0, 0, 0.00000000000000000000e+00) (0, 0, 0.00000000000000000000e+00) (0, 0, 0.00000000000000000000e+00) (0, 0, 0.00000000000000000000e+00) (0, 0, 0.00000000000000000000e+00) (0, 0, 0.00000000000000000000e+00) (0, 0, 0.00000000000000000000e+00) (0, 0, 0.00000000000000000000e+00) (0, 0, 0.00000000000000000000e+00) (0, 0, 0.00000000000000000000e+00) (0, 0, 0.00000000000000000000e+00) (0, 0, 0.00000000000000000000e+00) (0, 0, 0.00000000000000000000e+00) (0, 0, 0.00000000000000000000e+00) (0, 0, 0.00000000000000000000e+00) (0, 0, 0.00000000000000000000e+00) (0, 0, 0.00000000000000000000e+00) (19, 3, 5.00000000000000000000e-01) (19, 3, 5.00000000000000000000e-01) (0, 3, 0.00000000000000000000e+00) (3, 0, 5.00000000000000000000e-01) (3, 0, 5.00000000000000000000e-01) (0, 0, 0.00000000000000000000e+00) 
connections (connected_to_neuron, weight)=(0, -1.57133445143699645996e-01) (1, -1.65591031312942504883e-01) (2, -1.41610771417617797852e-01) (3, -9.43978950381278991699e-02) (4, -1.50909841060638427734e-01) (5, -6.70130923390388488770e-02) (6, -2.51456424593925476074e-02) (7, -1.54140964150428771973e-01) (8, -7.37785473465919494629e-02) (9, -4.44380566477775573730e-02) (10, -1.43510594964027404785e-01) (11, -1.33026450872421264648e-01) (12, -1.39214873313903808594e-01) (13, -6.85746297240257263184e-02) (14, -6.00093826651573181152e-02) (15, -2.69231125712394714355e-02) (16, -7.63916298747062683105e-02) (17, -1.51069611310958862305e-01) (18, -1.94648414850234985352e-01) (0, 2.15890526771545410156e-01) (1, 9.23090055584907531738e-02) (2, 1.69940948486328125000e-01) (3, 2.12083786725997924805e-01) (4, 5.51454424858093261719e-02) (5, 8.88217240571975708008e-02) (6, 2.13597774505615234375e-01) (7, 2.13652342557907104492e-01) (8, 2.06411838531494140625e-01) (9, 4.22090440988540649414e-02) (10, 6.36841952800750732422e-02) (11, 3.76125350594520568848e-02) (12, 1.05075605213642120361e-01) (13, 1.18093155324459075928e-01) (14, 1.16001769900321960449e-01) (15, 3.06776985526084899902e-02) (16, 1.87183320522308349609e-01) (17, 6.89886659383773803711e-02) (18, 2.55320519208908081055e-02) (19, 5.30423596501350402832e-02) (20, 2.15210139751434326172e-01) (21, 2.01094001531600952148e-01) (19, 1.29531770944595336914e-01) (20, 1.02183684706687927246e-01) (21, 8.18791240453720092773e-02) 
