FANN_FLO_2.1
num_layers=3
learning_rate=0.100000
connection_rate=1.000000
network_type=0
learning_momentum=0.000000
training_algorithm=2
train_error_function=1
train_stop_function=0
cascade_output_change_fraction=0.010000
quickprop_decay=-0.000100
quickprop_mu=1.750000
rprop_increase_factor=1.200000
rprop_decrease_factor=0.500000
rprop_delta_min=0.000000
rprop_delta_max=50.000000
rprop_delta_zero=0.100000
cascade_output_stagnation_epochs=12
cascade_candidate_change_fraction=0.010000
cascade_candidate_stagnation_epochs=12
cascade_max_out_epochs=150
cascade_min_out_epochs=50
cascade_max_cand_epochs=150
cascade_min_cand_epochs=50
cascade_num_candidate_groups=2
bit_fail_limit=3.49999994039535522461e-01
cascade_candidate_limit=1.00000000000000000000e+03
cascade_weight_multiplier=4.00000005960464477539e-01
cascade_activation_functions_count=10
cascade_activation_functions=3 5 7 8 10 11 14 15 16 17 
cascade_activation_steepnesses_count=4
cascade_activation_steepnesses=2.50000000000000000000e-01 5.00000000000000000000e-01 7.50000000000000000000e-01 1.00000000000000000000e+00 
layer_sizes=10 3 2 
scale_included=0
neurons (num_inputs, activation_function, activation_steepness)=(0, 0, 0.00000000000000000000e+00) (0, 0, 0.00000000000000000000e+00) (0, 0, 0.00000000000000000000e+00) (0, 0, 0.00000000000000000000e+00) (0, 0, 0.00000000000000000000e+00) (0, 0, 0.00000000000000000000e+00) (0, 0, 0.00000000000000000000e+00) (0, 0, 0.00000000000000000000e+00) (0, 0, 0.00000000000000000000e+00) (0, 0, 0.00000000000000000000e+00) (10, 3, 5.00000000000000000000e-01) (10, 3, 5.00000000000000000000e-01) (0, 3, 0.00000000000000000000e+00) (3, 0, 5.00000000000000000000e-01) (0, 0, 0.00000000000000000000e+00) 
connections (connected_to_neuron, weight)=(0, 6.20902329683303833008e-02) (1, 2.18886077404022216797e-01) (2, 1.34949535131454467773e-01) (3, 2.13906049728393554688e-01) (4, 1.85486644506454467773e-01) (5, 1.44275590777397155762e-01) (6, 1.71151578426361083984e-01) (7, 2.01264172792434692383e-01) (8, 2.21995115280151367188e-02) (9, 6.99186325073242187500e-02) (0, 1.97124123573303222656e-01) (1, 1.95426404476165771484e-01) (2, 1.21993795037269592285e-01) (3, 1.41098514199256896973e-01) (4, 1.63975596427917480469e-01) (5, 7.50419422984123229980e-02) (6, 2.10087090730667114258e-01) (7, 1.06281027197837829590e-01) (8, 9.37181115150451660156e-02) (9, 4.33109700679779052734e-02) (10, 1.58157616853713989258e-01) (11, 1.95621758699417114258e-01) (12, 1.56333506107330322266e-01) 
