FANN_FLO_2.1
num_layers=3
learning_rate=0.100000
connection_rate=1.000000
network_type=0
learning_momentum=0.000000
training_algorithm=2
train_error_function=1
train_stop_function=0
cascade_output_change_fraction=0.010000
quickprop_decay=-0.000100
quickprop_mu=1.750000
rprop_increase_factor=1.200000
rprop_decrease_factor=0.500000
rprop_delta_min=0.000000
rprop_delta_max=50.000000
rprop_delta_zero=0.100000
cascade_output_stagnation_epochs=12
cascade_candidate_change_fraction=0.010000
cascade_candidate_stagnation_epochs=12
cascade_max_out_epochs=150
cascade_min_out_epochs=50
cascade_max_cand_epochs=150
cascade_min_cand_epochs=50
cascade_num_candidate_groups=2
bit_fail_limit=3.49999994039535522461e-01
cascade_candidate_limit=1.00000000000000000000e+03
cascade_weight_multiplier=4.00000005960464477539e-01
cascade_activation_functions_count=10
cascade_activation_functions=3 5 7 8 10 11 14 15 16 17 
cascade_activation_steepnesses_count=4
cascade_activation_steepnesses=2.50000000000000000000e-01 5.00000000000000000000e-01 7.50000000000000000000e-01 1.00000000000000000000e+00 
layer_sizes=19 3 3 
scale_included=0
neurons (num_inputs, activation_function, activation_steepness)=(0, 0, 0.00000000000000000000e+00) (0, 0, 0.00000000000000000000e+00) (0, 0, 0.00000000000000000000e+00) (0, 0, 0.00000000000000000000e+00) (0, 0, 0.00000000000000000000e+00) (0, 0, 0.00000000000000000000e+00) (0, 0, 0.00000000000000000000e+00) (0, 0, 0.00000000000000000000e+00) (0, 0, 0.00000000000000000000e+00) (0, 0, 0.00000000000000000000e+00) (0, 0, 0.00000000000000000000e+00) (0, 0, 0.00000000000000000000e+00) (0, 0, 0.00000000000000000000e+00) (0, 0, 0.00000000000000000000e+00) (0, 0, 0.00000000000000000000e+00) (0, 0, 0.00000000000000000000e+00) (0, 0, 0.00000000000000000000e+00) (0, 0, 0.00000000000000000000e+00) (0, 0, 0.00000000000000000000e+00) (19, 3, 5.00000000000000000000e-01) (19, 3, 5.00000000000000000000e-01) (0, 3, 0.00000000000000000000e+00) (3, 0, 5.00000000000000000000e-01) (3, 0, 5.00000000000000000000e-01) (0, 0, 0.00000000000000000000e+00) 
connections (connected_to_neuron, weight)=(0, -1.50348871946334838867e-01) (1, -1.76984950900077819824e-01) (2, -1.99192255735397338867e-01) (3, -2.07327634096145629883e-01) (4, -8.50148722529411315918e-02) (5, -3.69004234671592712402e-02) (6, -1.78522691130638122559e-01) (7, -1.23625330626964569092e-01) (8, -1.00444868206977844238e-01) (9, -5.18360361456871032715e-02) (10, -3.44856604933738708496e-02) (11, -8.10299143195152282715e-02) (12, -1.24900914728641510010e-01) (13, -1.99668526649475097656e-01) (14, -3.09669598937034606934e-02) (15, -5.29977455735206604004e-02) (16, -4.75781634449958801270e-02) (17, -2.80980989336967468262e-02) (18, -7.93583318591117858887e-02) (0, -2.15990155935287475586e-01) (1, -1.84451863169670104980e-01) (2, -2.05926582217216491699e-01) (3, -8.94178077578544616699e-02) (4, -2.15744331479072570801e-01) (5, -1.34342998266220092773e-01) (6, -1.04709312319755554199e-01) (7, -2.19758212566375732422e-01) (8, -1.65535911917686462402e-01) (9, -7.25341662764549255371e-02) (10, -2.14982986450195312500e-01) (11, -1.28585085272789001465e-01) (12, -2.02883034944534301758e-01) (13, -1.71967923641204833984e-01) (14, -1.07777342200279235840e-01) (15, -1.90210655331611633301e-01) (16, -3.69827821850776672363e-02) (17, -1.24677762389183044434e-01) (18, -1.48733332753181457520e-01) (19, 9.93918925523757934570e-02) (20, 3.48773822188377380371e-02) (21, 5.94306401908397674561e-02) (19, 8.49062353372573852539e-02) (20, 1.73847466707229614258e-01) (21, 1.54529720544815063477e-01) 
