FANN_FLO_2.1
num_layers=3
learning_rate=0.100000
connection_rate=1.000000
network_type=0
learning_momentum=0.000000
training_algorithm=2
train_error_function=1
train_stop_function=0
cascade_output_change_fraction=0.010000
quickprop_decay=-0.000100
quickprop_mu=1.750000
rprop_increase_factor=1.200000
rprop_decrease_factor=0.500000
rprop_delta_min=0.000000
rprop_delta_max=50.000000
rprop_delta_zero=0.100000
cascade_output_stagnation_epochs=12
cascade_candidate_change_fraction=0.010000
cascade_candidate_stagnation_epochs=12
cascade_max_out_epochs=150
cascade_min_out_epochs=50
cascade_max_cand_epochs=150
cascade_min_cand_epochs=50
cascade_num_candidate_groups=2
bit_fail_limit=3.49999994039535522461e-01
cascade_candidate_limit=1.00000000000000000000e+03
cascade_weight_multiplier=4.00000005960464477539e-01
cascade_activation_functions_count=10
cascade_activation_functions=3 5 7 8 10 11 14 15 16 17 
cascade_activation_steepnesses_count=4
cascade_activation_steepnesses=2.50000000000000000000e-01 5.00000000000000000000e-01 7.50000000000000000000e-01 1.00000000000000000000e+00 
layer_sizes=19 3 3 
scale_included=0
neurons (num_inputs, activation_function, activation_steepness)=(0, 0, 0.00000000000000000000e+00) (0, 0, 0.00000000000000000000e+00) (0, 0, 0.00000000000000000000e+00) (0, 0, 0.00000000000000000000e+00) (0, 0, 0.00000000000000000000e+00) (0, 0, 0.00000000000000000000e+00) (0, 0, 0.00000000000000000000e+00) (0, 0, 0.00000000000000000000e+00) (0, 0, 0.00000000000000000000e+00) (0, 0, 0.00000000000000000000e+00) (0, 0, 0.00000000000000000000e+00) (0, 0, 0.00000000000000000000e+00) (0, 0, 0.00000000000000000000e+00) (0, 0, 0.00000000000000000000e+00) (0, 0, 0.00000000000000000000e+00) (0, 0, 0.00000000000000000000e+00) (0, 0, 0.00000000000000000000e+00) (0, 0, 0.00000000000000000000e+00) (0, 0, 0.00000000000000000000e+00) (19, 3, 5.00000000000000000000e-01) (19, 3, 5.00000000000000000000e-01) (0, 3, 0.00000000000000000000e+00) (3, 0, 5.00000000000000000000e-01) (3, 0, 5.00000000000000000000e-01) (0, 0, 0.00000000000000000000e+00) 
connections (connected_to_neuron, weight)=(0, -1.60811454057693481445e-01) (1, -2.05885395407676696777e-02) (2, -2.14894741773605346680e-01) (3, -1.28078088164329528809e-01) (4, -1.59122452139854431152e-01) (5, -1.87432259321212768555e-01) (6, -7.22222104668617248535e-02) (7, -9.00922343134880065918e-02) (8, -1.35656982660293579102e-01) (9, -8.69947448372840881348e-02) (10, -4.13929894566535949707e-02) (11, -6.70694038271903991699e-02) (12, -9.66231003403663635254e-02) (13, -7.46934637427330017090e-02) (14, -6.59144297242164611816e-02) (15, -6.72371909022331237793e-02) (16, -5.32924309372901916504e-02) (17, -2.00713217258453369141e-01) (18, -7.40126594901084899902e-02) (0, 1.98409795761108398438e-01) (1, 1.51615321636199951172e-01) (2, 1.48877918720245361328e-01) (3, 1.48509263992309570312e-01) (4, 1.52267605066299438477e-01) (5, 7.44767785072326660156e-02) (6, 2.03684538602828979492e-01) (7, 9.31430682539939880371e-02) (8, 1.41645073890686035156e-01) (9, 8.80468413233757019043e-02) (10, 5.76426312327384948730e-02) (11, 7.33977854251861572266e-02) (12, 1.47235393524169921875e-01) (13, 5.70540875196456909180e-02) (14, 7.85030350089073181152e-02) (15, 3.91573086380958557129e-02) (16, 1.17931649088859558105e-01) (17, 1.11070796847343444824e-01) (18, 1.86935096979141235352e-01) (19, 4.78394255042076110840e-02) (20, 1.95413827896118164062e-01) (21, 1.19940355420112609863e-01) (19, 2.64464318752288818359e-02) (20, 1.48344427347183227539e-01) (21, 4.33172583580017089844e-02) 
