FANN_FLO_2.1
num_layers=3
learning_rate=0.100000
connection_rate=1.000000
network_type=0
learning_momentum=0.000000
training_algorithm=2
train_error_function=1
train_stop_function=0
cascade_output_change_fraction=0.010000
quickprop_decay=-0.000100
quickprop_mu=1.750000
rprop_increase_factor=1.200000
rprop_decrease_factor=0.500000
rprop_delta_min=0.000000
rprop_delta_max=50.000000
rprop_delta_zero=0.100000
cascade_output_stagnation_epochs=12
cascade_candidate_change_fraction=0.010000
cascade_candidate_stagnation_epochs=12
cascade_max_out_epochs=150
cascade_min_out_epochs=50
cascade_max_cand_epochs=150
cascade_min_cand_epochs=50
cascade_num_candidate_groups=2
bit_fail_limit=3.49999994039535522461e-01
cascade_candidate_limit=1.00000000000000000000e+03
cascade_weight_multiplier=4.00000005960464477539e-01
cascade_activation_functions_count=10
cascade_activation_functions=3 5 7 8 10 11 14 15 16 17 
cascade_activation_steepnesses_count=4
cascade_activation_steepnesses=2.50000000000000000000e-01 5.00000000000000000000e-01 7.50000000000000000000e-01 1.00000000000000000000e+00 
layer_sizes=10 3 2 
scale_included=0
neurons (num_inputs, activation_function, activation_steepness)=(0, 0, 0.00000000000000000000e+00) (0, 0, 0.00000000000000000000e+00) (0, 0, 0.00000000000000000000e+00) (0, 0, 0.00000000000000000000e+00) (0, 0, 0.00000000000000000000e+00) (0, 0, 0.00000000000000000000e+00) (0, 0, 0.00000000000000000000e+00) (0, 0, 0.00000000000000000000e+00) (0, 0, 0.00000000000000000000e+00) (0, 0, 0.00000000000000000000e+00) (10, 3, 5.00000000000000000000e-01) (10, 3, 5.00000000000000000000e-01) (0, 3, 0.00000000000000000000e+00) (3, 0, 5.00000000000000000000e-01) (0, 0, 0.00000000000000000000e+00) 
connections (connected_to_neuron, weight)=(0, -1.02849423885345458984e-01) (1, -6.05737194418907165527e-02) (2, -1.56762436032295227051e-01) (3, -2.88654044270515441895e-02) (4, -2.34350487589836120605e-02) (5, -1.94701820611953735352e-01) (6, -1.17688700556755065918e-01) (7, -1.09640702605247497559e-01) (8, -7.64514729380607604980e-02) (9, -2.33261361718177795410e-02) (0, 9.75086987018585205078e-02) (1, 1.49262547492980957031e-01) (2, 3.83807346224784851074e-02) (3, 1.56753420829772949219e-01) (4, 1.28573834896087646484e-01) (5, 1.46933317184448242188e-01) (6, 3.69564592838287353516e-02) (7, 5.82766458392143249512e-02) (8, 6.71246647834777832031e-02) (9, 7.10697397589683532715e-02) (10, 1.18192844092845916748e-01) (11, 1.39341920614242553711e-01) (12, 9.49382260441780090332e-02) 
