FANN_FLO_2.1
num_layers=3
learning_rate=0.100000
connection_rate=1.000000
network_type=0
learning_momentum=0.000000
training_algorithm=2
train_error_function=1
train_stop_function=0
cascade_output_change_fraction=0.010000
quickprop_decay=-0.000100
quickprop_mu=1.750000
rprop_increase_factor=1.200000
rprop_decrease_factor=0.500000
rprop_delta_min=0.000000
rprop_delta_max=50.000000
rprop_delta_zero=0.100000
cascade_output_stagnation_epochs=12
cascade_candidate_change_fraction=0.010000
cascade_candidate_stagnation_epochs=12
cascade_max_out_epochs=150
cascade_min_out_epochs=50
cascade_max_cand_epochs=150
cascade_min_cand_epochs=50
cascade_num_candidate_groups=2
bit_fail_limit=3.49999994039535522461e-01
cascade_candidate_limit=1.00000000000000000000e+03
cascade_weight_multiplier=4.00000005960464477539e-01
cascade_activation_functions_count=10
cascade_activation_functions=3 5 7 8 10 11 14 15 16 17 
cascade_activation_steepnesses_count=4
cascade_activation_steepnesses=2.50000000000000000000e-01 5.00000000000000000000e-01 7.50000000000000000000e-01 1.00000000000000000000e+00 
layer_sizes=19 3 3 
scale_included=0
neurons (num_inputs, activation_function, activation_steepness)=(0, 0, 0.00000000000000000000e+00) (0, 0, 0.00000000000000000000e+00) (0, 0, 0.00000000000000000000e+00) (0, 0, 0.00000000000000000000e+00) (0, 0, 0.00000000000000000000e+00) (0, 0, 0.00000000000000000000e+00) (0, 0, 0.00000000000000000000e+00) (0, 0, 0.00000000000000000000e+00) (0, 0, 0.00000000000000000000e+00) (0, 0, 0.00000000000000000000e+00) (0, 0, 0.00000000000000000000e+00) (0, 0, 0.00000000000000000000e+00) (0, 0, 0.00000000000000000000e+00) (0, 0, 0.00000000000000000000e+00) (0, 0, 0.00000000000000000000e+00) (0, 0, 0.00000000000000000000e+00) (0, 0, 0.00000000000000000000e+00) (0, 0, 0.00000000000000000000e+00) (0, 0, 0.00000000000000000000e+00) (19, 3, 5.00000000000000000000e-01) (19, 3, 5.00000000000000000000e-01) (0, 3, 0.00000000000000000000e+00) (3, 0, 5.00000000000000000000e-01) (3, 0, 5.00000000000000000000e-01) (0, 0, 0.00000000000000000000e+00) 
connections (connected_to_neuron, weight)=(0, 4.51335459947586059570e-02) (1, 1.49137943983078002930e-01) (2, 4.43667620420455932617e-02) (3, 2.09523350000381469727e-01) (4, 1.43978387117385864258e-01) (5, 7.84952864050865173340e-02) (6, 3.69401052594184875488e-02) (7, 2.05543130636215209961e-01) (8, 1.91140621900558471680e-01) (9, 6.01447708904743194580e-02) (10, 2.13675111532211303711e-01) (11, 1.77714198827743530273e-01) (12, 2.06431746482849121094e-01) (13, 3.11718285083770751953e-02) (14, 1.94864511489868164062e-01) (15, 8.04465860128402709961e-02) (16, 6.87005445361137390137e-02) (17, 3.26260477304458618164e-02) (18, 5.42424842715263366699e-02) (0, -1.67397648096084594727e-01) (1, -2.46897861361503601074e-02) (2, -1.45892858505249023438e-01) (3, -6.80030062794685363770e-02) (4, -1.79209887981414794922e-01) (5, -8.25177952647209167480e-02) (6, -1.05382502079010009766e-01) (7, -2.17550545930862426758e-01) (8, -1.61487847566604614258e-01) (9, -1.24924242496490478516e-01) (10, -8.82052853703498840332e-02) (11, -3.35726067423820495605e-02) (12, -9.97906923294067382812e-02) (13, -1.59067332744598388672e-01) (14, -2.09205850958824157715e-01) (15, -1.10267356038093566895e-01) (16, -3.50889489054679870605e-02) (17, -1.50710567831993103027e-01) (18, -9.33272466063499450684e-02) (19, 1.90454185009002685547e-01) (20, 6.04300722479820251465e-02) (21, 1.86817526817321777344e-01) (19, 1.84129267930984497070e-01) (20, 2.18144267797470092773e-01) (21, 1.73249274492263793945e-01) 
