FANN_FLO_2.1
num_layers=3
learning_rate=0.100000
connection_rate=1.000000
network_type=0
learning_momentum=0.000000
training_algorithm=2
train_error_function=1
train_stop_function=0
cascade_output_change_fraction=0.010000
quickprop_decay=-0.000100
quickprop_mu=1.750000
rprop_increase_factor=1.200000
rprop_decrease_factor=0.500000
rprop_delta_min=0.000000
rprop_delta_max=50.000000
rprop_delta_zero=0.100000
cascade_output_stagnation_epochs=12
cascade_candidate_change_fraction=0.010000
cascade_candidate_stagnation_epochs=12
cascade_max_out_epochs=150
cascade_min_out_epochs=50
cascade_max_cand_epochs=150
cascade_min_cand_epochs=50
cascade_num_candidate_groups=2
bit_fail_limit=3.49999994039535522461e-01
cascade_candidate_limit=1.00000000000000000000e+03
cascade_weight_multiplier=4.00000005960464477539e-01
cascade_activation_functions_count=10
cascade_activation_functions=3 5 7 8 10 11 14 15 16 17 
cascade_activation_steepnesses_count=4
cascade_activation_steepnesses=2.50000000000000000000e-01 5.00000000000000000000e-01 7.50000000000000000000e-01 1.00000000000000000000e+00 
layer_sizes=10 3 2 
scale_included=0
neurons (num_inputs, activation_function, activation_steepness)=(0, 0, 0.00000000000000000000e+00) (0, 0, 0.00000000000000000000e+00) (0, 0, 0.00000000000000000000e+00) (0, 0, 0.00000000000000000000e+00) (0, 0, 0.00000000000000000000e+00) (0, 0, 0.00000000000000000000e+00) (0, 0, 0.00000000000000000000e+00) (0, 0, 0.00000000000000000000e+00) (0, 0, 0.00000000000000000000e+00) (0, 0, 0.00000000000000000000e+00) (10, 3, 5.00000000000000000000e-01) (10, 3, 5.00000000000000000000e-01) (0, 3, 0.00000000000000000000e+00) (3, 0, 5.00000000000000000000e-01) (0, 0, 0.00000000000000000000e+00) 
connections (connected_to_neuron, weight)=(0, 1.84358835220336914062e-01) (1, 1.37703567743301391602e-01) (2, 1.15351475775241851807e-01) (3, 1.50349587202072143555e-01) (4, 1.88105553388595581055e-01) (5, 9.37389582395553588867e-02) (6, 1.21660508215427398682e-01) (7, 2.14589923620223999023e-01) (8, 1.17536172270774841309e-01) (9, 5.52981570363044738770e-02) (0, 1.07806548476219177246e-01) (1, 1.29534617066383361816e-01) (2, 1.99329733848571777344e-01) (3, 8.77032130956649780273e-02) (4, 1.58599048852920532227e-01) (5, 1.06944747269153594971e-01) (6, 5.86663670837879180908e-02) (7, 4.75990846753120422363e-02) (8, 2.16729700565338134766e-01) (9, 4.36172783374786376953e-02) (10, 1.21049918234348297119e-01) (11, 1.68981164693832397461e-01) (12, 1.15883231163024902344e-01) 
