FANN_FLO_2.1
num_layers=3
learning_rate=0.100000
connection_rate=1.000000
network_type=0
learning_momentum=0.000000
training_algorithm=2
train_error_function=1
train_stop_function=0
cascade_output_change_fraction=0.010000
quickprop_decay=-0.000100
quickprop_mu=1.750000
rprop_increase_factor=1.200000
rprop_decrease_factor=0.500000
rprop_delta_min=0.000000
rprop_delta_max=50.000000
rprop_delta_zero=0.100000
cascade_output_stagnation_epochs=12
cascade_candidate_change_fraction=0.010000
cascade_candidate_stagnation_epochs=12
cascade_max_out_epochs=150
cascade_min_out_epochs=50
cascade_max_cand_epochs=150
cascade_min_cand_epochs=50
cascade_num_candidate_groups=2
bit_fail_limit=3.49999994039535522461e-01
cascade_candidate_limit=1.00000000000000000000e+03
cascade_weight_multiplier=4.00000005960464477539e-01
cascade_activation_functions_count=10
cascade_activation_functions=3 5 7 8 10 11 14 15 16 17 
cascade_activation_steepnesses_count=4
cascade_activation_steepnesses=2.50000000000000000000e-01 5.00000000000000000000e-01 7.50000000000000000000e-01 1.00000000000000000000e+00 
layer_sizes=19 3 3 
scale_included=0
neurons (num_inputs, activation_function, activation_steepness)=(0, 0, 0.00000000000000000000e+00) (0, 0, 0.00000000000000000000e+00) (0, 0, 0.00000000000000000000e+00) (0, 0, 0.00000000000000000000e+00) (0, 0, 0.00000000000000000000e+00) (0, 0, 0.00000000000000000000e+00) (0, 0, 0.00000000000000000000e+00) (0, 0, 0.00000000000000000000e+00) (0, 0, 0.00000000000000000000e+00) (0, 0, 0.00000000000000000000e+00) (0, 0, 0.00000000000000000000e+00) (0, 0, 0.00000000000000000000e+00) (0, 0, 0.00000000000000000000e+00) (0, 0, 0.00000000000000000000e+00) (0, 0, 0.00000000000000000000e+00) (0, 0, 0.00000000000000000000e+00) (0, 0, 0.00000000000000000000e+00) (0, 0, 0.00000000000000000000e+00) (0, 0, 0.00000000000000000000e+00) (19, 3, 5.00000000000000000000e-01) (19, 3, 5.00000000000000000000e-01) (0, 3, 0.00000000000000000000e+00) (3, 0, 5.00000000000000000000e-01) (3, 0, 5.00000000000000000000e-01) (0, 0, 0.00000000000000000000e+00) 
connections (connected_to_neuron, weight)=(0, -6.37699887156486511230e-02) (1, -1.29562526941299438477e-01) (2, -6.41438588500022888184e-02) (3, -7.50956609845161437988e-02) (4, -1.89090609550476074219e-01) (5, -3.55052426457405090332e-02) (6, -9.53044444322586059570e-02) (7, -1.19184240698814392090e-01) (8, -7.47402831912040710449e-02) (9, -2.00056359171867370605e-02) (10, -2.14542776346206665039e-01) (11, -1.11472770571708679199e-01) (12, -5.10472282767295837402e-02) (13, -8.18026438355445861816e-02) (14, -2.17025697231292724609e-01) (15, -1.10073551535606384277e-01) (16, -9.95734781026840209961e-02) (17, -2.49092802405357360840e-02) (18, -1.99824571609497070312e-01) (0, 1.30702942609786987305e-01) (1, 1.11358620226383209229e-01) (2, 1.78808629512786865234e-01) (3, 4.81828451156616210938e-02) (4, 7.50409811735153198242e-02) (5, 9.68338474631309509277e-02) (6, 4.69187274575233459473e-02) (7, 1.63589686155319213867e-01) (8, 1.40081122517585754395e-01) (9, 4.42147180438041687012e-02) (10, 4.80794161558151245117e-02) (11, 9.06948894262313842773e-02) (12, 2.00444728136062622070e-01) (13, 1.38516902923583984375e-01) (14, 4.65510338544845581055e-02) (15, 1.45349085330963134766e-01) (16, 1.69426321983337402344e-01) (17, 3.10457870364189147949e-02) (18, 7.00446367263793945312e-02) (19, 7.02420696616172790527e-02) (20, 1.76305502653121948242e-01) (21, 7.00389891862869262695e-02) (19, 7.56992995738983154297e-02) (20, 8.48327428102493286133e-02) (21, 3.89917716383934020996e-02) 
