FANN_FLO_2.1
num_layers=3
learning_rate=0.100000
connection_rate=1.000000
network_type=0
learning_momentum=0.000000
training_algorithm=2
train_error_function=1
train_stop_function=0
cascade_output_change_fraction=0.010000
quickprop_decay=-0.000100
quickprop_mu=1.750000
rprop_increase_factor=1.200000
rprop_decrease_factor=0.500000
rprop_delta_min=0.000000
rprop_delta_max=50.000000
rprop_delta_zero=0.100000
cascade_output_stagnation_epochs=12
cascade_candidate_change_fraction=0.010000
cascade_candidate_stagnation_epochs=12
cascade_max_out_epochs=150
cascade_min_out_epochs=50
cascade_max_cand_epochs=150
cascade_min_cand_epochs=50
cascade_num_candidate_groups=2
bit_fail_limit=3.49999994039535522461e-01
cascade_candidate_limit=1.00000000000000000000e+03
cascade_weight_multiplier=4.00000005960464477539e-01
cascade_activation_functions_count=10
cascade_activation_functions=3 5 7 8 10 11 14 15 16 17 
cascade_activation_steepnesses_count=4
cascade_activation_steepnesses=2.50000000000000000000e-01 5.00000000000000000000e-01 7.50000000000000000000e-01 1.00000000000000000000e+00 
layer_sizes=10 3 2 
scale_included=0
neurons (num_inputs, activation_function, activation_steepness)=(0, 0, 0.00000000000000000000e+00) (0, 0, 0.00000000000000000000e+00) (0, 0, 0.00000000000000000000e+00) (0, 0, 0.00000000000000000000e+00) (0, 0, 0.00000000000000000000e+00) (0, 0, 0.00000000000000000000e+00) (0, 0, 0.00000000000000000000e+00) (0, 0, 0.00000000000000000000e+00) (0, 0, 0.00000000000000000000e+00) (0, 0, 0.00000000000000000000e+00) (10, 3, 5.00000000000000000000e-01) (10, 3, 5.00000000000000000000e-01) (0, 3, 0.00000000000000000000e+00) (3, 0, 5.00000000000000000000e-01) (0, 0, 0.00000000000000000000e+00) 
connections (connected_to_neuron, weight)=(0, 2.01423436403274536133e-01) (1, 4.64084520936012268066e-02) (2, 4.91841584444046020508e-02) (3, 2.35217511653900146484e-02) (4, 1.08315452933311462402e-01) (5, 5.06544411182403564453e-02) (6, 1.22466661036014556885e-01) (7, 1.34047910571098327637e-01) (8, 1.07960566878318786621e-01) (9, 1.81716471910476684570e-01) (0, -2.01245456933975219727e-01) (1, -6.16813078522682189941e-02) (2, -1.91629946231842041016e-01) (3, -7.20504745841026306152e-02) (4, -1.35316535830497741699e-01) (5, -8.12222287058830261230e-02) (6, -1.00770160555839538574e-01) (7, -1.90331488847732543945e-01) (8, -7.36063644289970397949e-02) (9, -7.15774223208427429199e-02) (10, 1.32764264941215515137e-01) (11, 5.31821623444557189941e-02) (12, 1.07603088021278381348e-01) 
