FANN_FLO_2.1
num_layers=3
learning_rate=0.100000
connection_rate=1.000000
network_type=0
learning_momentum=0.000000
training_algorithm=2
train_error_function=1
train_stop_function=0
cascade_output_change_fraction=0.010000
quickprop_decay=-0.000100
quickprop_mu=1.750000
rprop_increase_factor=1.200000
rprop_decrease_factor=0.500000
rprop_delta_min=0.000000
rprop_delta_max=50.000000
rprop_delta_zero=0.100000
cascade_output_stagnation_epochs=12
cascade_candidate_change_fraction=0.010000
cascade_candidate_stagnation_epochs=12
cascade_max_out_epochs=150
cascade_min_out_epochs=50
cascade_max_cand_epochs=150
cascade_min_cand_epochs=50
cascade_num_candidate_groups=2
bit_fail_limit=3.49999994039535522461e-01
cascade_candidate_limit=1.00000000000000000000e+03
cascade_weight_multiplier=4.00000005960464477539e-01
cascade_activation_functions_count=10
cascade_activation_functions=3 5 7 8 10 11 14 15 16 17 
cascade_activation_steepnesses_count=4
cascade_activation_steepnesses=2.50000000000000000000e-01 5.00000000000000000000e-01 7.50000000000000000000e-01 1.00000000000000000000e+00 
layer_sizes=10 3 2 
scale_included=0
neurons (num_inputs, activation_function, activation_steepness)=(0, 0, 0.00000000000000000000e+00) (0, 0, 0.00000000000000000000e+00) (0, 0, 0.00000000000000000000e+00) (0, 0, 0.00000000000000000000e+00) (0, 0, 0.00000000000000000000e+00) (0, 0, 0.00000000000000000000e+00) (0, 0, 0.00000000000000000000e+00) (0, 0, 0.00000000000000000000e+00) (0, 0, 0.00000000000000000000e+00) (0, 0, 0.00000000000000000000e+00) (10, 3, 5.00000000000000000000e-01) (10, 3, 5.00000000000000000000e-01) (0, 3, 0.00000000000000000000e+00) (3, 0, 5.00000000000000000000e-01) (0, 0, 0.00000000000000000000e+00) 
connections (connected_to_neuron, weight)=(0, 1.68569535017013549805e-01) (1, 8.80848318338394165039e-02) (2, 1.95759028196334838867e-01) (3, 1.83101981878280639648e-01) (4, 1.73388272523880004883e-01) (5, 1.89019858837127685547e-01) (6, 1.89078509807586669922e-01) (7, 1.55210286378860473633e-01) (8, 1.93415910005569458008e-01) (9, 1.29357069730758666992e-01) (0, 1.85778975486755371094e-01) (1, 1.07534393668174743652e-01) (2, 1.55738264322280883789e-01) (3, 1.51083976030349731445e-01) (4, 2.48487815260887145996e-02) (5, 1.32541209459304809570e-01) (6, 3.35359424352645874023e-02) (7, 9.26148891448974609375e-02) (8, 3.68404239416122436523e-02) (9, 1.14968985319137573242e-01) (10, 2.07877755165100097656e-01) (11, 1.84581547975540161133e-01) (12, 1.67605429887771606445e-01) 
