FANN_FLO_2.1
num_layers=3
learning_rate=0.100000
connection_rate=1.000000
network_type=0
learning_momentum=0.000000
training_algorithm=2
train_error_function=1
train_stop_function=0
cascade_output_change_fraction=0.010000
quickprop_decay=-0.000100
quickprop_mu=1.750000
rprop_increase_factor=1.200000
rprop_decrease_factor=0.500000
rprop_delta_min=0.000000
rprop_delta_max=50.000000
rprop_delta_zero=0.100000
cascade_output_stagnation_epochs=12
cascade_candidate_change_fraction=0.010000
cascade_candidate_stagnation_epochs=12
cascade_max_out_epochs=150
cascade_min_out_epochs=50
cascade_max_cand_epochs=150
cascade_min_cand_epochs=50
cascade_num_candidate_groups=2
bit_fail_limit=3.49999994039535522461e-01
cascade_candidate_limit=1.00000000000000000000e+03
cascade_weight_multiplier=4.00000005960464477539e-01
cascade_activation_functions_count=10
cascade_activation_functions=3 5 7 8 10 11 14 15 16 17 
cascade_activation_steepnesses_count=4
cascade_activation_steepnesses=2.50000000000000000000e-01 5.00000000000000000000e-01 7.50000000000000000000e-01 1.00000000000000000000e+00 
layer_sizes=19 3 3 
scale_included=0
neurons (num_inputs, activation_function, activation_steepness)=(0, 0, 0.00000000000000000000e+00) (0, 0, 0.00000000000000000000e+00) (0, 0, 0.00000000000000000000e+00) (0, 0, 0.00000000000000000000e+00) (0, 0, 0.00000000000000000000e+00) (0, 0, 0.00000000000000000000e+00) (0, 0, 0.00000000000000000000e+00) (0, 0, 0.00000000000000000000e+00) (0, 0, 0.00000000000000000000e+00) (0, 0, 0.00000000000000000000e+00) (0, 0, 0.00000000000000000000e+00) (0, 0, 0.00000000000000000000e+00) (0, 0, 0.00000000000000000000e+00) (0, 0, 0.00000000000000000000e+00) (0, 0, 0.00000000000000000000e+00) (0, 0, 0.00000000000000000000e+00) (0, 0, 0.00000000000000000000e+00) (0, 0, 0.00000000000000000000e+00) (0, 0, 0.00000000000000000000e+00) (19, 3, 5.00000000000000000000e-01) (19, 3, 5.00000000000000000000e-01) (0, 3, 0.00000000000000000000e+00) (3, 0, 5.00000000000000000000e-01) (3, 0, 5.00000000000000000000e-01) (0, 0, 0.00000000000000000000e+00) 
connections (connected_to_neuron, weight)=(0, -5.87409660220146179199e-02) (1, -1.92204207181930541992e-01) (2, -1.65386334061622619629e-01) (3, -1.07602737843990325928e-01) (4, -8.03039595484733581543e-02) (5, -1.98174059391021728516e-01) (6, -3.27425226569175720215e-02) (7, -1.59477576613426208496e-01) (8, -6.81942030787467956543e-02) (9, -8.38007852435111999512e-02) (10, -1.11360587179660797119e-01) (11, -2.05589905381202697754e-01) (12, -1.02707006037235260010e-01) (13, -3.35111096501350402832e-02) (14, -2.09282025694847106934e-01) (15, -1.06952607631683349609e-01) (16, -1.13330423831939697266e-01) (17, -9.71232056617736816406e-02) (18, -7.16797634959220886230e-02) (0, 6.23305961489677429199e-02) (1, 1.35414183139801025391e-01) (2, 1.97556734085083007812e-01) (3, 8.42806324362754821777e-02) (4, 1.21398434042930603027e-01) (5, 1.22998073697090148926e-01) (6, 2.00196430087089538574e-02) (7, 2.82671377062797546387e-02) (8, 1.83223396539688110352e-01) (9, 1.01827338337898254395e-01) (10, 1.10233083367347717285e-01) (11, 1.15024462342262268066e-01) (12, 6.30863606929779052734e-02) (13, 1.38028874993324279785e-01) (14, 1.69638127088546752930e-01) (15, 1.75483614206314086914e-01) (16, 7.77249261736869812012e-02) (17, 1.91464066505432128906e-01) (18, 1.62741124629974365234e-01) (19, 1.38247355818748474121e-01) (20, 1.43269866704940795898e-01) (21, 9.89403277635574340820e-02) (19, 4.68867793679237365723e-02) (20, 1.57679975032806396484e-01) (21, 2.16233313083648681641e-01) 
