FANN_FLO_2.1
num_layers=3
learning_rate=0.100000
connection_rate=1.000000
network_type=0
learning_momentum=0.000000
training_algorithm=2
train_error_function=1
train_stop_function=0
cascade_output_change_fraction=0.010000
quickprop_decay=-0.000100
quickprop_mu=1.750000
rprop_increase_factor=1.200000
rprop_decrease_factor=0.500000
rprop_delta_min=0.000000
rprop_delta_max=50.000000
rprop_delta_zero=0.100000
cascade_output_stagnation_epochs=12
cascade_candidate_change_fraction=0.010000
cascade_candidate_stagnation_epochs=12
cascade_max_out_epochs=150
cascade_min_out_epochs=50
cascade_max_cand_epochs=150
cascade_min_cand_epochs=50
cascade_num_candidate_groups=2
bit_fail_limit=3.49999994039535522461e-01
cascade_candidate_limit=1.00000000000000000000e+03
cascade_weight_multiplier=4.00000005960464477539e-01
cascade_activation_functions_count=10
cascade_activation_functions=3 5 7 8 10 11 14 15 16 17 
cascade_activation_steepnesses_count=4
cascade_activation_steepnesses=2.50000000000000000000e-01 5.00000000000000000000e-01 7.50000000000000000000e-01 1.00000000000000000000e+00 
layer_sizes=19 3 3 
scale_included=0
neurons (num_inputs, activation_function, activation_steepness)=(0, 0, 0.00000000000000000000e+00) (0, 0, 0.00000000000000000000e+00) (0, 0, 0.00000000000000000000e+00) (0, 0, 0.00000000000000000000e+00) (0, 0, 0.00000000000000000000e+00) (0, 0, 0.00000000000000000000e+00) (0, 0, 0.00000000000000000000e+00) (0, 0, 0.00000000000000000000e+00) (0, 0, 0.00000000000000000000e+00) (0, 0, 0.00000000000000000000e+00) (0, 0, 0.00000000000000000000e+00) (0, 0, 0.00000000000000000000e+00) (0, 0, 0.00000000000000000000e+00) (0, 0, 0.00000000000000000000e+00) (0, 0, 0.00000000000000000000e+00) (0, 0, 0.00000000000000000000e+00) (0, 0, 0.00000000000000000000e+00) (0, 0, 0.00000000000000000000e+00) (0, 0, 0.00000000000000000000e+00) (19, 3, 5.00000000000000000000e-01) (19, 3, 5.00000000000000000000e-01) (0, 3, 0.00000000000000000000e+00) (3, 0, 5.00000000000000000000e-01) (3, 0, 5.00000000000000000000e-01) (0, 0, 0.00000000000000000000e+00) 
connections (connected_to_neuron, weight)=(0, -1.13569959998130798340e-01) (1, -2.47680172324180603027e-02) (2, -1.86154812574386596680e-01) (3, -1.37656241655349731445e-01) (4, -1.48859947919845581055e-01) (5, -1.03902600705623626709e-01) (6, -2.17405259609222412109e-01) (7, -8.16324129700660705566e-02) (8, -1.12179957330226898193e-01) (9, -1.17836728692054748535e-01) (10, -3.85575816035270690918e-02) (11, -7.44454339146614074707e-02) (12, -1.25749006867408752441e-01) (13, -1.83949947357177734375e-01) (14, -9.13064256310462951660e-02) (15, -8.92264172434806823730e-02) (16, -2.85255089402198791504e-02) (17, -2.08863019943237304688e-01) (18, -2.41869613528251647949e-02) (0, -5.82580938935279846191e-02) (1, -8.00678506493568420410e-02) (2, -1.28500536084175109863e-01) (3, -7.08846971392631530762e-02) (4, -1.45407825708389282227e-01) (5, -2.15892776846885681152e-01) (6, -1.04647979140281677246e-01) (7, -6.93792030215263366699e-02) (8, -1.80078804492950439453e-01) (9, -1.25773385167121887207e-01) (10, -1.47084906697273254395e-01) (11, -1.56746938824653625488e-01) (12, -2.19343349337577819824e-01) (13, -1.51852935552597045898e-01) (14, -1.22901745140552520752e-01) (15, -1.36999577283859252930e-01) (16, -8.07128623127937316895e-02) (17, -2.06804335117340087891e-01) (18, -1.34404823184013366699e-01) (19, 9.76547300815582275391e-02) (20, 1.41015723347663879395e-01) (21, 2.07758456468582153320e-01) (19, 7.90971517562866210938e-02) (20, 8.65702852606773376465e-02) (21, 1.02009460330009460449e-01) 
