FANN_FLO_2.1
num_layers=3
learning_rate=0.100000
connection_rate=1.000000
network_type=0
learning_momentum=0.000000
training_algorithm=2
train_error_function=1
train_stop_function=0
cascade_output_change_fraction=0.010000
quickprop_decay=-0.000100
quickprop_mu=1.750000
rprop_increase_factor=1.200000
rprop_decrease_factor=0.500000
rprop_delta_min=0.000000
rprop_delta_max=50.000000
rprop_delta_zero=0.100000
cascade_output_stagnation_epochs=12
cascade_candidate_change_fraction=0.010000
cascade_candidate_stagnation_epochs=12
cascade_max_out_epochs=150
cascade_min_out_epochs=50
cascade_max_cand_epochs=150
cascade_min_cand_epochs=50
cascade_num_candidate_groups=2
bit_fail_limit=3.49999994039535522461e-01
cascade_candidate_limit=1.00000000000000000000e+03
cascade_weight_multiplier=4.00000005960464477539e-01
cascade_activation_functions_count=10
cascade_activation_functions=3 5 7 8 10 11 14 15 16 17 
cascade_activation_steepnesses_count=4
cascade_activation_steepnesses=2.50000000000000000000e-01 5.00000000000000000000e-01 7.50000000000000000000e-01 1.00000000000000000000e+00 
layer_sizes=10 3 2 
scale_included=0
neurons (num_inputs, activation_function, activation_steepness)=(0, 0, 0.00000000000000000000e+00) (0, 0, 0.00000000000000000000e+00) (0, 0, 0.00000000000000000000e+00) (0, 0, 0.00000000000000000000e+00) (0, 0, 0.00000000000000000000e+00) (0, 0, 0.00000000000000000000e+00) (0, 0, 0.00000000000000000000e+00) (0, 0, 0.00000000000000000000e+00) (0, 0, 0.00000000000000000000e+00) (0, 0, 0.00000000000000000000e+00) (10, 3, 5.00000000000000000000e-01) (10, 3, 5.00000000000000000000e-01) (0, 3, 0.00000000000000000000e+00) (3, 0, 5.00000000000000000000e-01) (0, 0, 0.00000000000000000000e+00) 
connections (connected_to_neuron, weight)=(0, 6.84059932827949523926e-02) (1, 2.68379822373390197754e-02) (2, 7.41766840219497680664e-02) (3, 1.51606708765029907227e-01) (4, 1.35811552405357360840e-01) (5, 9.08723622560501098633e-02) (6, 1.84293448925018310547e-01) (7, 5.94315417110919952393e-02) (8, 1.22044704854488372803e-01) (9, 1.32347911596298217773e-01) (0, 1.42419248819351196289e-01) (1, 3.20388302206993103027e-02) (2, 1.36527761816978454590e-01) (3, 8.63565877079963684082e-02) (4, 3.76710742712020874023e-02) (5, 1.73484474420547485352e-01) (6, 2.00421273708343505859e-01) (7, 6.95999562740325927734e-02) (8, 9.64269191026687622070e-02) (9, 2.33566984534263610840e-02) (10, 1.79020226001739501953e-01) (11, 1.87509536743164062500e-01) (12, 1.16372182965278625488e-01) 
