FANN_FLO_2.1
num_layers=3
learning_rate=0.100000
connection_rate=1.000000
network_type=0
learning_momentum=0.000000
training_algorithm=2
train_error_function=1
train_stop_function=0
cascade_output_change_fraction=0.010000
quickprop_decay=-0.000100
quickprop_mu=1.750000
rprop_increase_factor=1.200000
rprop_decrease_factor=0.500000
rprop_delta_min=0.000000
rprop_delta_max=50.000000
rprop_delta_zero=0.100000
cascade_output_stagnation_epochs=12
cascade_candidate_change_fraction=0.010000
cascade_candidate_stagnation_epochs=12
cascade_max_out_epochs=150
cascade_min_out_epochs=50
cascade_max_cand_epochs=150
cascade_min_cand_epochs=50
cascade_num_candidate_groups=2
bit_fail_limit=3.49999994039535522461e-01
cascade_candidate_limit=1.00000000000000000000e+03
cascade_weight_multiplier=4.00000005960464477539e-01
cascade_activation_functions_count=10
cascade_activation_functions=3 5 7 8 10 11 14 15 16 17 
cascade_activation_steepnesses_count=4
cascade_activation_steepnesses=2.50000000000000000000e-01 5.00000000000000000000e-01 7.50000000000000000000e-01 1.00000000000000000000e+00 
layer_sizes=10 3 2 
scale_included=0
neurons (num_inputs, activation_function, activation_steepness)=(0, 0, 0.00000000000000000000e+00) (0, 0, 0.00000000000000000000e+00) (0, 0, 0.00000000000000000000e+00) (0, 0, 0.00000000000000000000e+00) (0, 0, 0.00000000000000000000e+00) (0, 0, 0.00000000000000000000e+00) (0, 0, 0.00000000000000000000e+00) (0, 0, 0.00000000000000000000e+00) (0, 0, 0.00000000000000000000e+00) (0, 0, 0.00000000000000000000e+00) (10, 3, 5.00000000000000000000e-01) (10, 3, 5.00000000000000000000e-01) (0, 3, 0.00000000000000000000e+00) (3, 0, 5.00000000000000000000e-01) (0, 0, 0.00000000000000000000e+00) 
connections (connected_to_neuron, weight)=(0, -1.55394181609153747559e-01) (1, -1.79684340953826904297e-01) (2, -1.94772720336914062500e-01) (3, -2.10096031427383422852e-01) (4, -6.10802844166755676270e-02) (5, -1.91690921783447265625e-01) (6, -7.89862051606178283691e-02) (7, -1.51555538177490234375e-01) (8, -1.51110365986824035645e-01) (9, -3.68588492274284362793e-02) (0, 1.13538689911365509033e-01) (1, 1.67091816663742065430e-01) (2, 5.10637611150741577148e-02) (3, 1.21725320816040039062e-01) (4, 1.38069570064544677734e-01) (5, 8.00939202308654785156e-02) (6, 4.65857163071632385254e-02) (7, 2.13548868894577026367e-01) (8, 2.08860158920288085938e-01) (9, 2.19604820013046264648e-01) (10, 1.06394819915294647217e-01) (11, 2.14691162109375000000e-01) (12, 3.45926955342292785645e-02) 
