FANN_FLO_2.1
num_layers=3
learning_rate=0.100000
connection_rate=1.000000
network_type=0
learning_momentum=0.000000
training_algorithm=2
train_error_function=1
train_stop_function=0
cascade_output_change_fraction=0.010000
quickprop_decay=-0.000100
quickprop_mu=1.750000
rprop_increase_factor=1.200000
rprop_decrease_factor=0.500000
rprop_delta_min=0.000000
rprop_delta_max=50.000000
rprop_delta_zero=0.100000
cascade_output_stagnation_epochs=12
cascade_candidate_change_fraction=0.010000
cascade_candidate_stagnation_epochs=12
cascade_max_out_epochs=150
cascade_min_out_epochs=50
cascade_max_cand_epochs=150
cascade_min_cand_epochs=50
cascade_num_candidate_groups=2
bit_fail_limit=3.49999994039535522461e-01
cascade_candidate_limit=1.00000000000000000000e+03
cascade_weight_multiplier=4.00000005960464477539e-01
cascade_activation_functions_count=10
cascade_activation_functions=3 5 7 8 10 11 14 15 16 17 
cascade_activation_steepnesses_count=4
cascade_activation_steepnesses=2.50000000000000000000e-01 5.00000000000000000000e-01 7.50000000000000000000e-01 1.00000000000000000000e+00 
layer_sizes=10 3 2 
scale_included=0
neurons (num_inputs, activation_function, activation_steepness)=(0, 0, 0.00000000000000000000e+00) (0, 0, 0.00000000000000000000e+00) (0, 0, 0.00000000000000000000e+00) (0, 0, 0.00000000000000000000e+00) (0, 0, 0.00000000000000000000e+00) (0, 0, 0.00000000000000000000e+00) (0, 0, 0.00000000000000000000e+00) (0, 0, 0.00000000000000000000e+00) (0, 0, 0.00000000000000000000e+00) (0, 0, 0.00000000000000000000e+00) (10, 3, 5.00000000000000000000e-01) (10, 3, 5.00000000000000000000e-01) (0, 3, 0.00000000000000000000e+00) (3, 0, 5.00000000000000000000e-01) (0, 0, 0.00000000000000000000e+00) 
connections (connected_to_neuron, weight)=(0, -2.08383008837699890137e-01) (1, -7.33501687645912170410e-02) (2, -1.31883010268211364746e-01) (3, -1.16462267935276031494e-01) (4, -1.33716389536857604980e-01) (5, -7.06043168902397155762e-02) (6, -1.20464920997619628906e-01) (7, -5.61904832720756530762e-02) (8, -1.78588554263114929199e-01) (9, -1.28479734063148498535e-01) (0, 1.06399796903133392334e-01) (1, 1.89509153366088867188e-01) (2, 1.23009718954563140869e-01) (3, 3.57866436243057250977e-02) (4, 4.64310199022293090820e-02) (5, 2.83042266964912414551e-02) (6, 1.93624883890151977539e-01) (7, 7.71907716989517211914e-02) (8, 1.64136409759521484375e-01) (9, 6.60497695207595825195e-02) (10, 4.41249907016754150391e-02) (11, 1.58666342496871948242e-01) (12, 2.00878351926803588867e-01) 
