FANN_FLO_2.1
num_layers=3
learning_rate=0.100000
connection_rate=1.000000
network_type=0
learning_momentum=0.000000
training_algorithm=2
train_error_function=1
train_stop_function=0
cascade_output_change_fraction=0.010000
quickprop_decay=-0.000100
quickprop_mu=1.750000
rprop_increase_factor=1.200000
rprop_decrease_factor=0.500000
rprop_delta_min=0.000000
rprop_delta_max=50.000000
rprop_delta_zero=0.100000
cascade_output_stagnation_epochs=12
cascade_candidate_change_fraction=0.010000
cascade_candidate_stagnation_epochs=12
cascade_max_out_epochs=150
cascade_min_out_epochs=50
cascade_max_cand_epochs=150
cascade_min_cand_epochs=50
cascade_num_candidate_groups=2
bit_fail_limit=3.49999994039535522461e-01
cascade_candidate_limit=1.00000000000000000000e+03
cascade_weight_multiplier=4.00000005960464477539e-01
cascade_activation_functions_count=10
cascade_activation_functions=3 5 7 8 10 11 14 15 16 17 
cascade_activation_steepnesses_count=4
cascade_activation_steepnesses=2.50000000000000000000e-01 5.00000000000000000000e-01 7.50000000000000000000e-01 1.00000000000000000000e+00 
layer_sizes=19 3 3 
scale_included=0
neurons (num_inputs, activation_function, activation_steepness)=(0, 0, 0.00000000000000000000e+00) (0, 0, 0.00000000000000000000e+00) (0, 0, 0.00000000000000000000e+00) (0, 0, 0.00000000000000000000e+00) (0, 0, 0.00000000000000000000e+00) (0, 0, 0.00000000000000000000e+00) (0, 0, 0.00000000000000000000e+00) (0, 0, 0.00000000000000000000e+00) (0, 0, 0.00000000000000000000e+00) (0, 0, 0.00000000000000000000e+00) (0, 0, 0.00000000000000000000e+00) (0, 0, 0.00000000000000000000e+00) (0, 0, 0.00000000000000000000e+00) (0, 0, 0.00000000000000000000e+00) (0, 0, 0.00000000000000000000e+00) (0, 0, 0.00000000000000000000e+00) (0, 0, 0.00000000000000000000e+00) (0, 0, 0.00000000000000000000e+00) (0, 0, 0.00000000000000000000e+00) (19, 3, 5.00000000000000000000e-01) (19, 3, 5.00000000000000000000e-01) (0, 3, 0.00000000000000000000e+00) (3, 0, 5.00000000000000000000e-01) (3, 0, 5.00000000000000000000e-01) (0, 0, 0.00000000000000000000e+00) 
connections (connected_to_neuron, weight)=(0, 1.68515145778656005859e-01) (1, 1.89040780067443847656e-01) (2, 1.30458667874336242676e-01) (3, 9.45267453789710998535e-02) (4, 1.68535888195037841797e-01) (5, 1.19826160371303558350e-01) (6, 7.19779282808303833008e-02) (7, 3.08872237801551818848e-02) (8, 8.04471671581268310547e-02) (9, 1.54740929603576660156e-01) (10, 3.55415344238281250000e-02) (11, 1.64875894784927368164e-01) (12, 1.24644935131072998047e-01) (13, 1.75363659858703613281e-01) (14, 2.00500667095184326172e-01) (15, 5.46534508466720581055e-02) (16, 2.01427578926086425781e-01) (17, 1.62757337093353271484e-01) (18, 1.47237598896026611328e-01) (0, 4.79245856404304504395e-02) (1, 2.87923365831375122070e-02) (2, 5.30894994735717773438e-02) (3, 1.52762770652770996094e-01) (4, 1.29027217626571655273e-01) (5, 1.01115964353084564209e-01) (6, 7.79410302639007568359e-02) (7, 2.17716604471206665039e-01) (8, 2.11533695459365844727e-01) (9, 1.98197335004806518555e-01) (10, 9.13767889142036437988e-02) (11, 1.00343026220798492432e-01) (12, 1.46712452173233032227e-01) (13, 6.04175664484500885010e-02) (14, 2.10801690816879272461e-01) (15, 2.12391987442970275879e-02) (16, 2.08953440189361572266e-01) (17, 1.10627844929695129395e-01) (18, 7.32171237468719482422e-02) (19, 2.19840675592422485352e-01) (20, 1.71075016260147094727e-01) (21, 2.07958042621612548828e-01) (19, 3.53822037577629089355e-02) (20, 1.15950897336006164551e-01) (21, 1.12602971494197845459e-01) 
