FANN_FLO_2.1
num_layers=3
learning_rate=0.500000
connection_rate=1.000000
network_type=0
learning_momentum=0.000000
training_algorithm=2
train_error_function=1
train_stop_function=0
cascade_output_change_fraction=0.010000
quickprop_decay=-0.000100
quickprop_mu=1.750000
rprop_increase_factor=1.200000
rprop_decrease_factor=0.500000
rprop_delta_min=0.000000
rprop_delta_max=50.000000
rprop_delta_zero=0.100000
cascade_output_stagnation_epochs=12
cascade_candidate_change_fraction=0.010000
cascade_candidate_stagnation_epochs=12
cascade_max_out_epochs=150
cascade_min_out_epochs=50
cascade_max_cand_epochs=150
cascade_min_cand_epochs=50
cascade_num_candidate_groups=2
bit_fail_limit=3.49999994039535522461e-01
cascade_candidate_limit=1.00000000000000000000e+03
cascade_weight_multiplier=4.00000005960464477539e-01
cascade_activation_functions_count=10
cascade_activation_functions=3 5 7 8 10 11 14 15 16 17 
cascade_activation_steepnesses_count=4
cascade_activation_steepnesses=2.50000000000000000000e-01 5.00000000000000000000e-01 7.50000000000000000000e-01 1.00000000000000000000e+00 
layer_sizes=10 3 2 
scale_included=0
neurons (num_inputs, activation_function, activation_steepness)=(0, 0, 0.00000000000000000000e+00) (0, 0, 0.00000000000000000000e+00) (0, 0, 0.00000000000000000000e+00) (0, 0, 0.00000000000000000000e+00) (0, 0, 0.00000000000000000000e+00) (0, 0, 0.00000000000000000000e+00) (0, 0, 0.00000000000000000000e+00) (0, 0, 0.00000000000000000000e+00) (0, 0, 0.00000000000000000000e+00) (0, 0, 0.00000000000000000000e+00) (10, 3, 5.00000000000000000000e-01) (10, 3, 5.00000000000000000000e-01) (0, 3, 0.00000000000000000000e+00) (3, 0, 5.00000000000000000000e-01) (0, 0, 0.00000000000000000000e+00) 
connections (connected_to_neuron, weight)=(0, 4.07087579369544982910e-02) (1, 2.54319235682487487793e-02) (2, 1.99571520090103149414e-01) (3, 5.15992641448974609375e-02) (4, 1.59166693687438964844e-01) (5, 1.53581500053405761719e-01) (6, 1.53613209724426269531e-01) (7, 3.05193513631820678711e-02) (8, 2.69319117069244384766e-02) (9, 2.01340854167938232422e-01) (0, -4.22905310988426208496e-02) (1, -7.76704624295234680176e-02) (2, -2.14870348572731018066e-01) (3, -1.70372456312179565430e-01) (4, -4.61623147130012512207e-02) (5, -6.38410374522209167480e-02) (6, -1.34028941392898559570e-01) (7, -1.77330896258354187012e-01) (8, -1.64435952901840209961e-01) (9, -2.06154793500900268555e-01) (10, 2.11062818765640258789e-01) (11, 6.76560848951339721680e-02) (12, 1.90492987632751464844e-01) 
