FANN_FLO_2.1
num_layers=3
learning_rate=0.100000
connection_rate=1.000000
network_type=0
learning_momentum=0.000000
training_algorithm=2
train_error_function=1
train_stop_function=0
cascade_output_change_fraction=0.010000
quickprop_decay=-0.000100
quickprop_mu=1.750000
rprop_increase_factor=1.200000
rprop_decrease_factor=0.500000
rprop_delta_min=0.000000
rprop_delta_max=50.000000
rprop_delta_zero=0.100000
cascade_output_stagnation_epochs=12
cascade_candidate_change_fraction=0.010000
cascade_candidate_stagnation_epochs=12
cascade_max_out_epochs=150
cascade_min_out_epochs=50
cascade_max_cand_epochs=150
cascade_min_cand_epochs=50
cascade_num_candidate_groups=2
bit_fail_limit=3.49999994039535522461e-01
cascade_candidate_limit=1.00000000000000000000e+03
cascade_weight_multiplier=4.00000005960464477539e-01
cascade_activation_functions_count=10
cascade_activation_functions=3 5 7 8 10 11 14 15 16 17 
cascade_activation_steepnesses_count=4
cascade_activation_steepnesses=2.50000000000000000000e-01 5.00000000000000000000e-01 7.50000000000000000000e-01 1.00000000000000000000e+00 
layer_sizes=19 3 3 
scale_included=0
neurons (num_inputs, activation_function, activation_steepness)=(0, 0, 0.00000000000000000000e+00) (0, 0, 0.00000000000000000000e+00) (0, 0, 0.00000000000000000000e+00) (0, 0, 0.00000000000000000000e+00) (0, 0, 0.00000000000000000000e+00) (0, 0, 0.00000000000000000000e+00) (0, 0, 0.00000000000000000000e+00) (0, 0, 0.00000000000000000000e+00) (0, 0, 0.00000000000000000000e+00) (0, 0, 0.00000000000000000000e+00) (0, 0, 0.00000000000000000000e+00) (0, 0, 0.00000000000000000000e+00) (0, 0, 0.00000000000000000000e+00) (0, 0, 0.00000000000000000000e+00) (0, 0, 0.00000000000000000000e+00) (0, 0, 0.00000000000000000000e+00) (0, 0, 0.00000000000000000000e+00) (0, 0, 0.00000000000000000000e+00) (0, 0, 0.00000000000000000000e+00) (19, 3, 5.00000000000000000000e-01) (19, 3, 5.00000000000000000000e-01) (0, 3, 0.00000000000000000000e+00) (3, 0, 5.00000000000000000000e-01) (3, 0, 5.00000000000000000000e-01) (0, 0, 0.00000000000000000000e+00) 
connections (connected_to_neuron, weight)=(0, -2.19473481178283691406e-01) (1, -2.14918822050094604492e-01) (2, -1.14747285842895507812e-01) (3, -1.10134258866310119629e-01) (4, -1.91733285784721374512e-01) (5, -3.49001958966255187988e-02) (6, -1.67273491621017456055e-01) (7, -9.49692055583000183105e-02) (8, -1.49779617786407470703e-01) (9, -1.35139420628547668457e-01) (10, -4.04613092541694641113e-02) (11, -4.41951826214790344238e-02) (12, -1.99008390307426452637e-01) (13, -2.16309487819671630859e-01) (14, -1.87242954969406127930e-01) (15, -1.88350245356559753418e-01) (16, -6.14209696650505065918e-02) (17, -1.37150347232818603516e-01) (18, -5.79215511679649353027e-02) (0, 1.34603172540664672852e-01) (1, 2.16335237026214599609e-01) (2, 9.85975265502929687500e-02) (3, 4.30817380547523498535e-02) (4, 1.36903643608093261719e-01) (5, 2.00320392847061157227e-01) (6, 1.97854518890380859375e-01) (7, 1.01627632975578308105e-01) (8, 1.65123671293258666992e-01) (9, 8.60598459839820861816e-02) (10, 6.89023956656455993652e-02) (11, 1.85790061950683593750e-01) (12, 8.65863710641860961914e-02) (13, 7.39835947751998901367e-02) (14, 9.10427719354629516602e-02) (15, 1.96452140808105468750e-01) (16, 1.02250307798385620117e-01) (17, 7.61425793170928955078e-02) (18, 4.91786375641822814941e-02) (19, 2.72811055183410644531e-02) (20, 1.46362960338592529297e-01) (21, 1.34039208292961120605e-01) (19, 2.06819802522659301758e-01) (20, 1.22167788445949554443e-01) (21, 1.55030846595764160156e-01) 
