FANN_FLO_2.1
num_layers=3
learning_rate=0.100000
connection_rate=1.000000
network_type=0
learning_momentum=0.000000
training_algorithm=2
train_error_function=1
train_stop_function=0
cascade_output_change_fraction=0.010000
quickprop_decay=-0.000100
quickprop_mu=1.750000
rprop_increase_factor=1.200000
rprop_decrease_factor=0.500000
rprop_delta_min=0.000000
rprop_delta_max=50.000000
rprop_delta_zero=0.100000
cascade_output_stagnation_epochs=12
cascade_candidate_change_fraction=0.010000
cascade_candidate_stagnation_epochs=12
cascade_max_out_epochs=150
cascade_min_out_epochs=50
cascade_max_cand_epochs=150
cascade_min_cand_epochs=50
cascade_num_candidate_groups=2
bit_fail_limit=3.49999994039535522461e-01
cascade_candidate_limit=1.00000000000000000000e+03
cascade_weight_multiplier=4.00000005960464477539e-01
cascade_activation_functions_count=10
cascade_activation_functions=3 5 7 8 10 11 14 15 16 17 
cascade_activation_steepnesses_count=4
cascade_activation_steepnesses=2.50000000000000000000e-01 5.00000000000000000000e-01 7.50000000000000000000e-01 1.00000000000000000000e+00 
layer_sizes=19 3 3 
scale_included=0
neurons (num_inputs, activation_function, activation_steepness)=(0, 0, 0.00000000000000000000e+00) (0, 0, 0.00000000000000000000e+00) (0, 0, 0.00000000000000000000e+00) (0, 0, 0.00000000000000000000e+00) (0, 0, 0.00000000000000000000e+00) (0, 0, 0.00000000000000000000e+00) (0, 0, 0.00000000000000000000e+00) (0, 0, 0.00000000000000000000e+00) (0, 0, 0.00000000000000000000e+00) (0, 0, 0.00000000000000000000e+00) (0, 0, 0.00000000000000000000e+00) (0, 0, 0.00000000000000000000e+00) (0, 0, 0.00000000000000000000e+00) (0, 0, 0.00000000000000000000e+00) (0, 0, 0.00000000000000000000e+00) (0, 0, 0.00000000000000000000e+00) (0, 0, 0.00000000000000000000e+00) (0, 0, 0.00000000000000000000e+00) (0, 0, 0.00000000000000000000e+00) (19, 3, 5.00000000000000000000e-01) (19, 3, 5.00000000000000000000e-01) (0, 3, 0.00000000000000000000e+00) (3, 0, 5.00000000000000000000e-01) (3, 0, 5.00000000000000000000e-01) (0, 0, 0.00000000000000000000e+00) 
connections (connected_to_neuron, weight)=(0, -1.86276793479919433594e-01) (1, -1.79878905415534973145e-01) (2, -1.38147234916687011719e-01) (3, -2.05978706479072570801e-01) (4, -1.67669445276260375977e-01) (5, -1.82358890771865844727e-01) (6, -1.31736293435096740723e-01) (7, -1.96233510971069335938e-01) (8, -2.06107646226882934570e-01) (9, -1.50203362107276916504e-01) (10, -1.77091658115386962891e-01) (11, -1.33185639977455139160e-01) (12, -9.24052968621253967285e-02) (13, -1.56227126717567443848e-01) (14, -1.66864186525344848633e-01) (15, -3.95135506987571716309e-02) (16, -5.78183159232139587402e-02) (17, -1.99218109250068664551e-01) (18, -5.25300875306129455566e-02) (0, -4.33359220623970031738e-02) (1, -5.78295364975929260254e-02) (2, -1.97777643799781799316e-01) (3, -1.45579397678375244141e-01) (4, -1.76277071237564086914e-01) (5, -5.84398731589317321777e-02) (6, -1.93124145269393920898e-01) (7, -9.41888019442558288574e-02) (8, -2.49243900179862976074e-02) (9, -1.59587830305099487305e-01) (10, -1.09983503818511962891e-01) (11, -1.21956393122673034668e-01) (12, -1.25864610075950622559e-01) (13, -6.98624029755592346191e-02) (14, -4.01036217808723449707e-02) (15, -1.11843310296535491943e-01) (16, -2.17531844973564147949e-01) (17, -2.02462509274482727051e-01) (18, -2.35795900225639343262e-02) (19, 4.62346598505973815918e-02) (20, 5.14298528432846069336e-02) (21, 8.62170457839965820312e-02) (19, 8.91430005431175231934e-02) (20, 1.38244226574897766113e-01) (21, 2.13811755180358886719e-01) 
