FANN_FLO_2.1
num_layers=3
learning_rate=0.100000
connection_rate=1.000000
network_type=0
learning_momentum=0.000000
training_algorithm=2
train_error_function=1
train_stop_function=0
cascade_output_change_fraction=0.010000
quickprop_decay=-0.000100
quickprop_mu=1.750000
rprop_increase_factor=1.200000
rprop_decrease_factor=0.500000
rprop_delta_min=0.000000
rprop_delta_max=50.000000
rprop_delta_zero=0.100000
cascade_output_stagnation_epochs=12
cascade_candidate_change_fraction=0.010000
cascade_candidate_stagnation_epochs=12
cascade_max_out_epochs=150
cascade_min_out_epochs=50
cascade_max_cand_epochs=150
cascade_min_cand_epochs=50
cascade_num_candidate_groups=2
bit_fail_limit=3.49999994039535522461e-01
cascade_candidate_limit=1.00000000000000000000e+03
cascade_weight_multiplier=4.00000005960464477539e-01
cascade_activation_functions_count=10
cascade_activation_functions=3 5 7 8 10 11 14 15 16 17 
cascade_activation_steepnesses_count=4
cascade_activation_steepnesses=2.50000000000000000000e-01 5.00000000000000000000e-01 7.50000000000000000000e-01 1.00000000000000000000e+00 
layer_sizes=19 3 3 
scale_included=0
neurons (num_inputs, activation_function, activation_steepness)=(0, 0, 0.00000000000000000000e+00) (0, 0, 0.00000000000000000000e+00) (0, 0, 0.00000000000000000000e+00) (0, 0, 0.00000000000000000000e+00) (0, 0, 0.00000000000000000000e+00) (0, 0, 0.00000000000000000000e+00) (0, 0, 0.00000000000000000000e+00) (0, 0, 0.00000000000000000000e+00) (0, 0, 0.00000000000000000000e+00) (0, 0, 0.00000000000000000000e+00) (0, 0, 0.00000000000000000000e+00) (0, 0, 0.00000000000000000000e+00) (0, 0, 0.00000000000000000000e+00) (0, 0, 0.00000000000000000000e+00) (0, 0, 0.00000000000000000000e+00) (0, 0, 0.00000000000000000000e+00) (0, 0, 0.00000000000000000000e+00) (0, 0, 0.00000000000000000000e+00) (0, 0, 0.00000000000000000000e+00) (19, 3, 5.00000000000000000000e-01) (19, 3, 5.00000000000000000000e-01) (0, 3, 0.00000000000000000000e+00) (3, 0, 5.00000000000000000000e-01) (3, 0, 5.00000000000000000000e-01) (0, 0, 0.00000000000000000000e+00) 
connections (connected_to_neuron, weight)=(0, -1.43980011343955993652e-01) (1, -3.43177691102027893066e-02) (2, -1.99069827795028686523e-01) (3, -4.87386211752891540527e-02) (4, -2.16609373688697814941e-01) (5, -9.77470874786376953125e-02) (6, -1.84580117464065551758e-01) (7, -1.60906612873077392578e-01) (8, -1.10387362539768218994e-01) (9, -1.72664687037467956543e-01) (10, -9.45937111973762512207e-02) (11, -8.87015238404273986816e-02) (12, -9.98566523194313049316e-02) (13, -3.81378754973411560059e-02) (14, -2.01309353113174438477e-01) (15, -1.66581228375434875488e-01) (16, -7.59075060486793518066e-02) (17, -1.12010560929775238037e-01) (18, -6.39775767922401428223e-02) (0, 2.08069741725921630859e-01) (1, 1.00662708282470703125e-01) (2, 8.97572413086891174316e-02) (3, 1.27500638365745544434e-01) (4, 1.87436759471893310547e-01) (5, 1.64635241031646728516e-01) (6, 1.98369562625885009766e-01) (7, 1.10341377556324005127e-01) (8, 9.61266010999679565430e-02) (9, 4.76539582014083862305e-02) (10, 6.14930242300033569336e-02) (11, 1.11710727214813232422e-01) (12, 1.23673953115940093994e-01) (13, 4.71752583980560302734e-02) (14, 1.32640913128852844238e-01) (15, 9.49353203177452087402e-02) (16, 5.05658909678459167480e-02) (17, 5.48938214778900146484e-02) (18, 1.30355209112167358398e-01) (19, 1.09659284353256225586e-01) (20, 1.64506465196609497070e-01) (21, 1.77690535783767700195e-01) (19, 3.50655689835548400879e-02) (20, 9.58049446344375610352e-02) (21, 9.78338792920112609863e-02) 
