FANN_FLO_2.1
num_layers=3
learning_rate=0.100000
connection_rate=1.000000
network_type=0
learning_momentum=0.000000
training_algorithm=2
train_error_function=1
train_stop_function=0
cascade_output_change_fraction=0.010000
quickprop_decay=-0.000100
quickprop_mu=1.750000
rprop_increase_factor=1.200000
rprop_decrease_factor=0.500000
rprop_delta_min=0.000000
rprop_delta_max=50.000000
rprop_delta_zero=0.100000
cascade_output_stagnation_epochs=12
cascade_candidate_change_fraction=0.010000
cascade_candidate_stagnation_epochs=12
cascade_max_out_epochs=150
cascade_min_out_epochs=50
cascade_max_cand_epochs=150
cascade_min_cand_epochs=50
cascade_num_candidate_groups=2
bit_fail_limit=3.49999994039535522461e-01
cascade_candidate_limit=1.00000000000000000000e+03
cascade_weight_multiplier=4.00000005960464477539e-01
cascade_activation_functions_count=10
cascade_activation_functions=3 5 7 8 10 11 14 15 16 17 
cascade_activation_steepnesses_count=4
cascade_activation_steepnesses=2.50000000000000000000e-01 5.00000000000000000000e-01 7.50000000000000000000e-01 1.00000000000000000000e+00 
layer_sizes=10 3 2 
scale_included=0
neurons (num_inputs, activation_function, activation_steepness)=(0, 0, 0.00000000000000000000e+00) (0, 0, 0.00000000000000000000e+00) (0, 0, 0.00000000000000000000e+00) (0, 0, 0.00000000000000000000e+00) (0, 0, 0.00000000000000000000e+00) (0, 0, 0.00000000000000000000e+00) (0, 0, 0.00000000000000000000e+00) (0, 0, 0.00000000000000000000e+00) (0, 0, 0.00000000000000000000e+00) (0, 0, 0.00000000000000000000e+00) (10, 3, 5.00000000000000000000e-01) (10, 3, 5.00000000000000000000e-01) (0, 3, 0.00000000000000000000e+00) (3, 0, 5.00000000000000000000e-01) (0, 0, 0.00000000000000000000e+00) 
connections (connected_to_neuron, weight)=(0, 6.15901164710521697998e-02) (1, 1.27208799123764038086e-01) (2, 5.47148883342742919922e-02) (3, 1.76816016435623168945e-01) (4, 1.24275945127010345459e-01) (5, 7.54322409629821777344e-02) (6, 9.88476946949958801270e-02) (7, 2.20519676804542541504e-02) (8, 5.21545857191085815430e-02) (9, 2.17083454132080078125e-01) (0, -1.46956607699394226074e-01) (1, -1.16850838065147399902e-01) (2, -1.34809717535972595215e-01) (3, -7.42603018879890441895e-02) (4, -1.51932299137115478516e-01) (5, -1.10734999179840087891e-01) (6, -1.36468842625617980957e-01) (7, -8.07514563202857971191e-02) (8, -3.10846790671348571777e-02) (9, -1.39692246913909912109e-01) (10, 1.49491518735885620117e-01) (11, 1.01897947490215301514e-01) (12, 3.21987792849540710449e-02) 
