FANN_FLO_2.1
num_layers=3
learning_rate=0.100000
connection_rate=1.000000
network_type=0
learning_momentum=0.000000
training_algorithm=2
train_error_function=1
train_stop_function=0
cascade_output_change_fraction=0.010000
quickprop_decay=-0.000100
quickprop_mu=1.750000
rprop_increase_factor=1.200000
rprop_decrease_factor=0.500000
rprop_delta_min=0.000000
rprop_delta_max=50.000000
rprop_delta_zero=0.100000
cascade_output_stagnation_epochs=12
cascade_candidate_change_fraction=0.010000
cascade_candidate_stagnation_epochs=12
cascade_max_out_epochs=150
cascade_min_out_epochs=50
cascade_max_cand_epochs=150
cascade_min_cand_epochs=50
cascade_num_candidate_groups=2
bit_fail_limit=3.49999994039535522461e-01
cascade_candidate_limit=1.00000000000000000000e+03
cascade_weight_multiplier=4.00000005960464477539e-01
cascade_activation_functions_count=10
cascade_activation_functions=3 5 7 8 10 11 14 15 16 17 
cascade_activation_steepnesses_count=4
cascade_activation_steepnesses=2.50000000000000000000e-01 5.00000000000000000000e-01 7.50000000000000000000e-01 1.00000000000000000000e+00 
layer_sizes=10 3 2 
scale_included=0
neurons (num_inputs, activation_function, activation_steepness)=(0, 0, 0.00000000000000000000e+00) (0, 0, 0.00000000000000000000e+00) (0, 0, 0.00000000000000000000e+00) (0, 0, 0.00000000000000000000e+00) (0, 0, 0.00000000000000000000e+00) (0, 0, 0.00000000000000000000e+00) (0, 0, 0.00000000000000000000e+00) (0, 0, 0.00000000000000000000e+00) (0, 0, 0.00000000000000000000e+00) (0, 0, 0.00000000000000000000e+00) (10, 3, 5.00000000000000000000e-01) (10, 3, 5.00000000000000000000e-01) (0, 3, 0.00000000000000000000e+00) (3, 0, 5.00000000000000000000e-01) (0, 0, 0.00000000000000000000e+00) 
connections (connected_to_neuron, weight)=(0, -9.40393880009651184082e-02) (1, -3.29806879162788391113e-02) (2, -1.67232617735862731934e-01) (3, -5.38007393479347229004e-02) (4, -1.34839802980422973633e-01) (5, -7.27778896689414978027e-02) (6, -9.38880369067192077637e-02) (7, -1.05105340480804443359e-01) (8, -1.34379819035530090332e-01) (9, -7.89584442973136901855e-02) (0, 1.98937803506851196289e-01) (1, 1.75546228885650634766e-01) (2, 1.04323126375675201416e-01) (3, 2.17293381690979003906e-01) (4, 1.82814151048660278320e-01) (5, 1.57610833644866943359e-01) (6, 6.66088163852691650391e-02) (7, 1.46626502275466918945e-01) (8, 4.15694713592529296875e-02) (9, 5.30253946781158447266e-02) (10, 8.64758864045143127441e-02) (11, 1.51337802410125732422e-01) (12, 1.82761669158935546875e-01) 
