FANN_FLO_2.1
num_layers=3
learning_rate=0.100000
connection_rate=1.000000
network_type=0
learning_momentum=0.000000
training_algorithm=2
train_error_function=1
train_stop_function=0
cascade_output_change_fraction=0.010000
quickprop_decay=-0.000100
quickprop_mu=1.750000
rprop_increase_factor=1.200000
rprop_decrease_factor=0.500000
rprop_delta_min=0.000000
rprop_delta_max=50.000000
rprop_delta_zero=0.100000
cascade_output_stagnation_epochs=12
cascade_candidate_change_fraction=0.010000
cascade_candidate_stagnation_epochs=12
cascade_max_out_epochs=150
cascade_min_out_epochs=50
cascade_max_cand_epochs=150
cascade_min_cand_epochs=50
cascade_num_candidate_groups=2
bit_fail_limit=3.49999994039535522461e-01
cascade_candidate_limit=1.00000000000000000000e+03
cascade_weight_multiplier=4.00000005960464477539e-01
cascade_activation_functions_count=10
cascade_activation_functions=3 5 7 8 10 11 14 15 16 17 
cascade_activation_steepnesses_count=4
cascade_activation_steepnesses=2.50000000000000000000e-01 5.00000000000000000000e-01 7.50000000000000000000e-01 1.00000000000000000000e+00 
layer_sizes=10 3 2 
scale_included=0
neurons (num_inputs, activation_function, activation_steepness)=(0, 0, 0.00000000000000000000e+00) (0, 0, 0.00000000000000000000e+00) (0, 0, 0.00000000000000000000e+00) (0, 0, 0.00000000000000000000e+00) (0, 0, 0.00000000000000000000e+00) (0, 0, 0.00000000000000000000e+00) (0, 0, 0.00000000000000000000e+00) (0, 0, 0.00000000000000000000e+00) (0, 0, 0.00000000000000000000e+00) (0, 0, 0.00000000000000000000e+00) (10, 3, 5.00000000000000000000e-01) (10, 3, 5.00000000000000000000e-01) (0, 3, 0.00000000000000000000e+00) (3, 0, 5.00000000000000000000e-01) (0, 0, 0.00000000000000000000e+00) 
connections (connected_to_neuron, weight)=(0, 1.28932744264602661133e-01) (1, 2.14190691709518432617e-01) (2, 7.68537670373916625977e-02) (3, 7.98224359750747680664e-02) (4, 1.48531675338745117188e-01) (5, 2.10516571998596191406e-01) (6, 1.05663225054740905762e-01) (7, 1.54432594776153564453e-01) (8, 1.11228376626968383789e-01) (9, 8.07589590549468994141e-02) (0, -2.04412788152694702148e-01) (1, -2.07079440355300903320e-01) (2, -8.03040340542793273926e-02) (3, -1.69059664011001586914e-01) (4, -1.06911562383174896240e-01) (5, -2.02559560537338256836e-01) (6, -7.09861591458320617676e-02) (7, -1.26622751355171203613e-01) (8, -5.35975769162178039551e-02) (9, -4.21863570809364318848e-02) (10, 2.14664489030838012695e-01) (11, 9.86816138029098510742e-02) (12, 6.98951333761215209961e-02) 
