FANN_FLO_2.1
num_layers=3
learning_rate=0.100000
connection_rate=1.000000
network_type=0
learning_momentum=0.000000
training_algorithm=2
train_error_function=1
train_stop_function=0
cascade_output_change_fraction=0.010000
quickprop_decay=-0.000100
quickprop_mu=1.750000
rprop_increase_factor=1.200000
rprop_decrease_factor=0.500000
rprop_delta_min=0.000000
rprop_delta_max=50.000000
rprop_delta_zero=0.100000
cascade_output_stagnation_epochs=12
cascade_candidate_change_fraction=0.010000
cascade_candidate_stagnation_epochs=12
cascade_max_out_epochs=150
cascade_min_out_epochs=50
cascade_max_cand_epochs=150
cascade_min_cand_epochs=50
cascade_num_candidate_groups=2
bit_fail_limit=3.49999994039535522461e-01
cascade_candidate_limit=1.00000000000000000000e+03
cascade_weight_multiplier=4.00000005960464477539e-01
cascade_activation_functions_count=10
cascade_activation_functions=3 5 7 8 10 11 14 15 16 17 
cascade_activation_steepnesses_count=4
cascade_activation_steepnesses=2.50000000000000000000e-01 5.00000000000000000000e-01 7.50000000000000000000e-01 1.00000000000000000000e+00 
layer_sizes=19 3 3 
scale_included=0
neurons (num_inputs, activation_function, activation_steepness)=(0, 0, 0.00000000000000000000e+00) (0, 0, 0.00000000000000000000e+00) (0, 0, 0.00000000000000000000e+00) (0, 0, 0.00000000000000000000e+00) (0, 0, 0.00000000000000000000e+00) (0, 0, 0.00000000000000000000e+00) (0, 0, 0.00000000000000000000e+00) (0, 0, 0.00000000000000000000e+00) (0, 0, 0.00000000000000000000e+00) (0, 0, 0.00000000000000000000e+00) (0, 0, 0.00000000000000000000e+00) (0, 0, 0.00000000000000000000e+00) (0, 0, 0.00000000000000000000e+00) (0, 0, 0.00000000000000000000e+00) (0, 0, 0.00000000000000000000e+00) (0, 0, 0.00000000000000000000e+00) (0, 0, 0.00000000000000000000e+00) (0, 0, 0.00000000000000000000e+00) (0, 0, 0.00000000000000000000e+00) (19, 3, 5.00000000000000000000e-01) (19, 3, 5.00000000000000000000e-01) (0, 3, 0.00000000000000000000e+00) (3, 0, 5.00000000000000000000e-01) (3, 0, 5.00000000000000000000e-01) (0, 0, 0.00000000000000000000e+00) 
connections (connected_to_neuron, weight)=(0, -2.15539306402206420898e-01) (1, -1.93278208374977111816e-01) (2, -1.87599211931228637695e-01) (3, -1.21630281209945678711e-01) (4, -1.92933976650238037109e-01) (5, -1.53786271810531616211e-01) (6, -1.75050258636474609375e-01) (7, -5.12726828455924987793e-02) (8, -8.75027105212211608887e-02) (9, -1.89429074525833129883e-01) (10, -2.63277962803840637207e-02) (11, -1.79069876670837402344e-01) (12, -1.98623150587081909180e-01) (13, -1.44494652748107910156e-01) (14, -1.46556049585342407227e-01) (15, -1.79040074348449707031e-01) (16, -1.02050922811031341553e-01) (17, -5.76890632510185241699e-02) (18, -1.45421668887138366699e-01) (0, -6.53314068913459777832e-02) (1, -9.09308716654777526855e-02) (2, -1.34435355663299560547e-01) (3, -1.97470635175704956055e-01) (4, -8.76317843794822692871e-02) (5, -2.12693393230438232422e-01) (6, -8.63404646515846252441e-02) (7, -1.80803149938583374023e-01) (8, -4.94520291686058044434e-02) (9, -1.83548390865325927734e-01) (10, -2.14419215917587280273e-01) (11, -3.97940501570701599121e-02) (12, -1.79087698459625244141e-01) (13, -1.87697410583496093750e-01) (14, -2.07393258810043334961e-01) (15, -8.07179734110832214355e-02) (16, -1.60631388425827026367e-01) (17, -1.41179531812667846680e-01) (18, -3.57682034373283386230e-02) (19, 4.80959489941596984863e-02) (20, 3.13177630305290222168e-02) (21, 3.48027199506759643555e-02) (19, 4.17681485414505004883e-02) (20, 7.22478926181793212891e-02) (21, 5.61795830726623535156e-02) 
