FANN_FLO_2.1
num_layers=3
learning_rate=0.100000
connection_rate=1.000000
network_type=0
learning_momentum=0.000000
training_algorithm=2
train_error_function=1
train_stop_function=0
cascade_output_change_fraction=0.010000
quickprop_decay=-0.000100
quickprop_mu=1.750000
rprop_increase_factor=1.200000
rprop_decrease_factor=0.500000
rprop_delta_min=0.000000
rprop_delta_max=50.000000
rprop_delta_zero=0.100000
cascade_output_stagnation_epochs=12
cascade_candidate_change_fraction=0.010000
cascade_candidate_stagnation_epochs=12
cascade_max_out_epochs=150
cascade_min_out_epochs=50
cascade_max_cand_epochs=150
cascade_min_cand_epochs=50
cascade_num_candidate_groups=2
bit_fail_limit=3.49999994039535522461e-01
cascade_candidate_limit=1.00000000000000000000e+03
cascade_weight_multiplier=4.00000005960464477539e-01
cascade_activation_functions_count=10
cascade_activation_functions=3 5 7 8 10 11 14 15 16 17 
cascade_activation_steepnesses_count=4
cascade_activation_steepnesses=2.50000000000000000000e-01 5.00000000000000000000e-01 7.50000000000000000000e-01 1.00000000000000000000e+00 
layer_sizes=19 3 3 
scale_included=0
neurons (num_inputs, activation_function, activation_steepness)=(0, 0, 0.00000000000000000000e+00) (0, 0, 0.00000000000000000000e+00) (0, 0, 0.00000000000000000000e+00) (0, 0, 0.00000000000000000000e+00) (0, 0, 0.00000000000000000000e+00) (0, 0, 0.00000000000000000000e+00) (0, 0, 0.00000000000000000000e+00) (0, 0, 0.00000000000000000000e+00) (0, 0, 0.00000000000000000000e+00) (0, 0, 0.00000000000000000000e+00) (0, 0, 0.00000000000000000000e+00) (0, 0, 0.00000000000000000000e+00) (0, 0, 0.00000000000000000000e+00) (0, 0, 0.00000000000000000000e+00) (0, 0, 0.00000000000000000000e+00) (0, 0, 0.00000000000000000000e+00) (0, 0, 0.00000000000000000000e+00) (0, 0, 0.00000000000000000000e+00) (0, 0, 0.00000000000000000000e+00) (19, 3, 5.00000000000000000000e-01) (19, 3, 5.00000000000000000000e-01) (0, 3, 0.00000000000000000000e+00) (3, 0, 5.00000000000000000000e-01) (3, 0, 5.00000000000000000000e-01) (0, 0, 0.00000000000000000000e+00) 
connections (connected_to_neuron, weight)=(0, 1.02171801030635833740e-01) (1, 1.90521210432052612305e-01) (2, 1.26734793186187744141e-01) (3, 1.31205126643180847168e-01) (4, 3.66540029644966125488e-02) (5, 1.95816725492477416992e-01) (6, 1.47887438535690307617e-01) (7, 1.91006511449813842773e-01) (8, 3.03405076265335083008e-02) (9, 1.25789538025856018066e-01) (10, 1.92481607198715209961e-01) (11, 7.85547718405723571777e-02) (12, 1.93705201148986816406e-01) (13, 2.09804505109786987305e-01) (14, 9.88727509975433349609e-02) (15, 1.95208698511123657227e-01) (16, 1.19407691061496734619e-01) (17, 1.13419547677040100098e-01) (18, 2.32081487774848937988e-02) (0, -9.42695066332817077637e-02) (1, -1.47731304168701171875e-01) (2, -2.15666294097900390625e-01) (3, -1.38892993330955505371e-01) (4, -1.48895025253295898438e-01) (5, -5.91341480612754821777e-02) (6, -1.59063309431076049805e-01) (7, -2.06598237156867980957e-01) (8, -2.05971598625183105469e-01) (9, -1.99144512414932250977e-01) (10, -2.17111259698867797852e-01) (11, -1.06228336691856384277e-01) (12, -1.16972707211971282959e-01) (13, -4.65900376439094543457e-02) (14, -1.99493542313575744629e-01) (15, -2.05767601728439331055e-01) (16, -2.99360379576683044434e-02) (17, -2.36768350005149841309e-02) (18, -7.78801366686820983887e-02) (19, 1.81070476770401000977e-01) (20, 2.66636833548545837402e-02) (21, 6.79093897342681884766e-02) (19, 1.53552085161209106445e-01) (20, 8.52184519171714782715e-02) (21, 4.16145995259284973145e-02) 
