FANN_FLO_2.1
num_layers=3
learning_rate=0.100000
connection_rate=1.000000
network_type=0
learning_momentum=0.000000
training_algorithm=2
train_error_function=1
train_stop_function=0
cascade_output_change_fraction=0.010000
quickprop_decay=-0.000100
quickprop_mu=1.750000
rprop_increase_factor=1.200000
rprop_decrease_factor=0.500000
rprop_delta_min=0.000000
rprop_delta_max=50.000000
rprop_delta_zero=0.100000
cascade_output_stagnation_epochs=12
cascade_candidate_change_fraction=0.010000
cascade_candidate_stagnation_epochs=12
cascade_max_out_epochs=150
cascade_min_out_epochs=50
cascade_max_cand_epochs=150
cascade_min_cand_epochs=50
cascade_num_candidate_groups=2
bit_fail_limit=3.49999994039535522461e-01
cascade_candidate_limit=1.00000000000000000000e+03
cascade_weight_multiplier=4.00000005960464477539e-01
cascade_activation_functions_count=10
cascade_activation_functions=3 5 7 8 10 11 14 15 16 17 
cascade_activation_steepnesses_count=4
cascade_activation_steepnesses=2.50000000000000000000e-01 5.00000000000000000000e-01 7.50000000000000000000e-01 1.00000000000000000000e+00 
layer_sizes=10 3 2 
scale_included=0
neurons (num_inputs, activation_function, activation_steepness)=(0, 0, 0.00000000000000000000e+00) (0, 0, 0.00000000000000000000e+00) (0, 0, 0.00000000000000000000e+00) (0, 0, 0.00000000000000000000e+00) (0, 0, 0.00000000000000000000e+00) (0, 0, 0.00000000000000000000e+00) (0, 0, 0.00000000000000000000e+00) (0, 0, 0.00000000000000000000e+00) (0, 0, 0.00000000000000000000e+00) (0, 0, 0.00000000000000000000e+00) (10, 3, 5.00000000000000000000e-01) (10, 3, 5.00000000000000000000e-01) (0, 3, 0.00000000000000000000e+00) (3, 0, 5.00000000000000000000e-01) (0, 0, 0.00000000000000000000e+00) 
connections (connected_to_neuron, weight)=(0, 1.97583884000778198242e-01) (1, 1.51757627725601196289e-01) (2, 2.97723039984703063965e-02) (3, 2.04988360404968261719e-01) (4, 2.13917762041091918945e-01) (5, 2.01419442892074584961e-01) (6, 1.89272612333297729492e-01) (7, 8.53296443819999694824e-02) (8, 1.16532221436500549316e-01) (9, 1.80982887744903564453e-01) (0, -1.98283702135086059570e-01) (1, -8.75015780329704284668e-02) (2, -2.03045278787612915039e-01) (3, -1.21569588780403137207e-01) (4, -3.17072346806526184082e-02) (5, -1.18533112108707427979e-01) (6, -3.70450541377067565918e-02) (7, -7.28517100214958190918e-02) (8, -1.27195686101913452148e-01) (9, -1.86761230230331420898e-01) (10, 1.31252184510231018066e-01) (11, 5.39564341306686401367e-02) (12, 2.25245580077171325684e-02) 
