FANN_FLO_2.1
num_layers=3
learning_rate=0.100000
connection_rate=1.000000
network_type=0
learning_momentum=0.000000
training_algorithm=2
train_error_function=1
train_stop_function=0
cascade_output_change_fraction=0.010000
quickprop_decay=-0.000100
quickprop_mu=1.750000
rprop_increase_factor=1.200000
rprop_decrease_factor=0.500000
rprop_delta_min=0.000000
rprop_delta_max=50.000000
rprop_delta_zero=0.100000
cascade_output_stagnation_epochs=12
cascade_candidate_change_fraction=0.010000
cascade_candidate_stagnation_epochs=12
cascade_max_out_epochs=150
cascade_min_out_epochs=50
cascade_max_cand_epochs=150
cascade_min_cand_epochs=50
cascade_num_candidate_groups=2
bit_fail_limit=3.49999994039535522461e-01
cascade_candidate_limit=1.00000000000000000000e+03
cascade_weight_multiplier=4.00000005960464477539e-01
cascade_activation_functions_count=10
cascade_activation_functions=3 5 7 8 10 11 14 15 16 17 
cascade_activation_steepnesses_count=4
cascade_activation_steepnesses=2.50000000000000000000e-01 5.00000000000000000000e-01 7.50000000000000000000e-01 1.00000000000000000000e+00 
layer_sizes=10 3 2 
scale_included=0
neurons (num_inputs, activation_function, activation_steepness)=(0, 0, 0.00000000000000000000e+00) (0, 0, 0.00000000000000000000e+00) (0, 0, 0.00000000000000000000e+00) (0, 0, 0.00000000000000000000e+00) (0, 0, 0.00000000000000000000e+00) (0, 0, 0.00000000000000000000e+00) (0, 0, 0.00000000000000000000e+00) (0, 0, 0.00000000000000000000e+00) (0, 0, 0.00000000000000000000e+00) (0, 0, 0.00000000000000000000e+00) (10, 3, 5.00000000000000000000e-01) (10, 3, 5.00000000000000000000e-01) (0, 3, 0.00000000000000000000e+00) (3, 0, 5.00000000000000000000e-01) (0, 0, 0.00000000000000000000e+00) 
connections (connected_to_neuron, weight)=(0, -1.64872556924819946289e-01) (1, -1.50712043046951293945e-01) (2, -1.55078589916229248047e-01) (3, -8.78991708159446716309e-02) (4, -2.06974864006042480469e-01) (5, -1.78125903010368347168e-01) (6, -1.39095783233642578125e-01) (7, -4.55002710223197937012e-02) (8, -1.12901404500007629395e-01) (9, -1.11526049673557281494e-01) (0, 1.82470470666885375977e-01) (1, 2.14669018983840942383e-01) (2, 1.32293879985809326172e-01) (3, 1.66284948587417602539e-01) (4, 2.14837133884429931641e-01) (5, 1.35688036680221557617e-01) (6, 1.49493932723999023438e-01) (7, 1.47900849580764770508e-01) (8, 1.35604530572891235352e-01) (9, 1.83598786592483520508e-01) (10, 1.13338075578212738037e-01) (11, 1.37841627001762390137e-01) (12, 1.21296510100364685059e-01) 
