FANN_FLO_2.1
num_layers=3
learning_rate=0.100000
connection_rate=1.000000
network_type=0
learning_momentum=0.000000
training_algorithm=2
train_error_function=1
train_stop_function=0
cascade_output_change_fraction=0.010000
quickprop_decay=-0.000100
quickprop_mu=1.750000
rprop_increase_factor=1.200000
rprop_decrease_factor=0.500000
rprop_delta_min=0.000000
rprop_delta_max=50.000000
rprop_delta_zero=0.100000
cascade_output_stagnation_epochs=12
cascade_candidate_change_fraction=0.010000
cascade_candidate_stagnation_epochs=12
cascade_max_out_epochs=150
cascade_min_out_epochs=50
cascade_max_cand_epochs=150
cascade_min_cand_epochs=50
cascade_num_candidate_groups=2
bit_fail_limit=3.49999994039535522461e-01
cascade_candidate_limit=1.00000000000000000000e+03
cascade_weight_multiplier=4.00000005960464477539e-01
cascade_activation_functions_count=10
cascade_activation_functions=3 5 7 8 10 11 14 15 16 17 
cascade_activation_steepnesses_count=4
cascade_activation_steepnesses=2.50000000000000000000e-01 5.00000000000000000000e-01 7.50000000000000000000e-01 1.00000000000000000000e+00 
layer_sizes=19 3 3 
scale_included=0
neurons (num_inputs, activation_function, activation_steepness)=(0, 0, 0.00000000000000000000e+00) (0, 0, 0.00000000000000000000e+00) (0, 0, 0.00000000000000000000e+00) (0, 0, 0.00000000000000000000e+00) (0, 0, 0.00000000000000000000e+00) (0, 0, 0.00000000000000000000e+00) (0, 0, 0.00000000000000000000e+00) (0, 0, 0.00000000000000000000e+00) (0, 0, 0.00000000000000000000e+00) (0, 0, 0.00000000000000000000e+00) (0, 0, 0.00000000000000000000e+00) (0, 0, 0.00000000000000000000e+00) (0, 0, 0.00000000000000000000e+00) (0, 0, 0.00000000000000000000e+00) (0, 0, 0.00000000000000000000e+00) (0, 0, 0.00000000000000000000e+00) (0, 0, 0.00000000000000000000e+00) (0, 0, 0.00000000000000000000e+00) (0, 0, 0.00000000000000000000e+00) (19, 3, 5.00000000000000000000e-01) (19, 3, 5.00000000000000000000e-01) (0, 3, 0.00000000000000000000e+00) (3, 0, 5.00000000000000000000e-01) (3, 0, 5.00000000000000000000e-01) (0, 0, 0.00000000000000000000e+00) 
connections (connected_to_neuron, weight)=(0, 3.29075381159782409668e-02) (1, 1.48160636425018310547e-01) (2, 9.97522324323654174805e-02) (3, 2.00702428817749023438e-01) (4, 1.19998514652252197266e-01) (5, 1.79161876440048217773e-01) (6, 1.63178265094757080078e-01) (7, 6.65876567363739013672e-02) (8, 5.30875921249389648438e-02) (9, 1.97625368833541870117e-01) (10, 7.20649212598800659180e-02) (11, 5.83505779504776000977e-02) (12, 4.15411815047264099121e-02) (13, 2.02975004911422729492e-01) (14, 5.61458319425582885742e-02) (15, 5.66531717777252197266e-02) (16, 2.09291696548461914062e-01) (17, 3.14261615276336669922e-02) (18, 4.57014888525009155273e-02) (0, 1.14744529128074645996e-01) (1, 2.10370659828186035156e-01) (2, 6.34012222290039062500e-02) (3, 1.57774388790130615234e-01) (4, 1.37085974216461181641e-01) (5, 3.72063517570495605469e-02) (6, 8.95854234695434570312e-02) (7, 1.35158926248550415039e-01) (8, 7.08961486816406250000e-02) (9, 2.39621847867965698242e-02) (10, 6.17358423769474029541e-02) (11, 8.27518701553344726562e-02) (12, 3.68697196245193481445e-02) (13, 1.89896464347839355469e-01) (14, 1.62504106760025024414e-01) (15, 2.17572122812271118164e-01) (16, 8.98949876427650451660e-02) (17, 1.21665969491004943848e-01) (18, 1.60750389099121093750e-01) (19, 1.36482641100883483887e-01) (20, 1.54753565788269042969e-01) (21, 1.38375759124755859375e-01) (19, 1.88547551631927490234e-01) (20, 1.93104147911071777344e-01) (21, 1.59916937351226806641e-01) 
