FANN_FLO_2.1
num_layers=3
learning_rate=0.100000
connection_rate=1.000000
network_type=0
learning_momentum=0.000000
training_algorithm=2
train_error_function=1
train_stop_function=0
cascade_output_change_fraction=0.010000
quickprop_decay=-0.000100
quickprop_mu=1.750000
rprop_increase_factor=1.200000
rprop_decrease_factor=0.500000
rprop_delta_min=0.000000
rprop_delta_max=50.000000
rprop_delta_zero=0.100000
cascade_output_stagnation_epochs=12
cascade_candidate_change_fraction=0.010000
cascade_candidate_stagnation_epochs=12
cascade_max_out_epochs=150
cascade_min_out_epochs=50
cascade_max_cand_epochs=150
cascade_min_cand_epochs=50
cascade_num_candidate_groups=2
bit_fail_limit=3.49999994039535522461e-01
cascade_candidate_limit=1.00000000000000000000e+03
cascade_weight_multiplier=4.00000005960464477539e-01
cascade_activation_functions_count=10
cascade_activation_functions=3 5 7 8 10 11 14 15 16 17 
cascade_activation_steepnesses_count=4
cascade_activation_steepnesses=2.50000000000000000000e-01 5.00000000000000000000e-01 7.50000000000000000000e-01 1.00000000000000000000e+00 
layer_sizes=19 3 3 
scale_included=0
neurons (num_inputs, activation_function, activation_steepness)=(0, 0, 0.00000000000000000000e+00) (0, 0, 0.00000000000000000000e+00) (0, 0, 0.00000000000000000000e+00) (0, 0, 0.00000000000000000000e+00) (0, 0, 0.00000000000000000000e+00) (0, 0, 0.00000000000000000000e+00) (0, 0, 0.00000000000000000000e+00) (0, 0, 0.00000000000000000000e+00) (0, 0, 0.00000000000000000000e+00) (0, 0, 0.00000000000000000000e+00) (0, 0, 0.00000000000000000000e+00) (0, 0, 0.00000000000000000000e+00) (0, 0, 0.00000000000000000000e+00) (0, 0, 0.00000000000000000000e+00) (0, 0, 0.00000000000000000000e+00) (0, 0, 0.00000000000000000000e+00) (0, 0, 0.00000000000000000000e+00) (0, 0, 0.00000000000000000000e+00) (0, 0, 0.00000000000000000000e+00) (19, 3, 5.00000000000000000000e-01) (19, 3, 5.00000000000000000000e-01) (0, 3, 0.00000000000000000000e+00) (3, 0, 5.00000000000000000000e-01) (3, 0, 5.00000000000000000000e-01) (0, 0, 0.00000000000000000000e+00) 
connections (connected_to_neuron, weight)=(0, -8.65200087428092956543e-02) (1, -2.03277692198753356934e-01) (2, -7.98352286219596862793e-02) (3, -2.08990469574928283691e-01) (4, -1.52686446905136108398e-01) (5, -6.78880736231803894043e-02) (6, -1.16509698331356048584e-01) (7, -4.21681329607963562012e-02) (8, -1.55518785119056701660e-01) (9, -2.54717245697975158691e-02) (10, -5.21549656987190246582e-02) (11, -1.37998878955841064453e-01) (12, -1.74913838505744934082e-01) (13, -2.99595221877098083496e-02) (14, -9.61777940392494201660e-02) (15, -5.56226149201393127441e-02) (16, -5.75583204627037048340e-02) (17, -7.02841356396675109863e-02) (18, -2.14390531182289123535e-02) (0, 6.58603236079216003418e-02) (1, 1.69831156730651855469e-01) (2, 7.62649327516555786133e-02) (3, 1.80442333221435546875e-01) (4, 5.29463887214660644531e-02) (5, 1.45636796951293945312e-01) (6, 1.37030318379402160645e-01) (7, 1.64751946926116943359e-01) (8, 1.87474220991134643555e-01) (9, 2.18182444572448730469e-01) (10, 5.24866953492164611816e-02) (11, 1.62063747644424438477e-01) (12, 1.51662439107894897461e-01) (13, 6.92090094089508056641e-02) (14, 1.02228537201881408691e-01) (15, 1.62671983242034912109e-01) (16, 1.36522561311721801758e-01) (17, 5.43404817581176757812e-02) (18, 6.61622881889343261719e-02) (19, 1.14354431629180908203e-01) (20, 1.18821695446968078613e-01) (21, 6.06905706226825714111e-02) (19, 8.21994692087173461914e-02) (20, 2.00822830200195312500e-01) (21, 1.05776734650135040283e-01) 
