FANN_FLO_2.1
num_layers=3
learning_rate=0.100000
connection_rate=1.000000
network_type=0
learning_momentum=0.000000
training_algorithm=2
train_error_function=1
train_stop_function=0
cascade_output_change_fraction=0.010000
quickprop_decay=-0.000100
quickprop_mu=1.750000
rprop_increase_factor=1.200000
rprop_decrease_factor=0.500000
rprop_delta_min=0.000000
rprop_delta_max=50.000000
rprop_delta_zero=0.100000
cascade_output_stagnation_epochs=12
cascade_candidate_change_fraction=0.010000
cascade_candidate_stagnation_epochs=12
cascade_max_out_epochs=150
cascade_min_out_epochs=50
cascade_max_cand_epochs=150
cascade_min_cand_epochs=50
cascade_num_candidate_groups=2
bit_fail_limit=3.49999994039535522461e-01
cascade_candidate_limit=1.00000000000000000000e+03
cascade_weight_multiplier=4.00000005960464477539e-01
cascade_activation_functions_count=10
cascade_activation_functions=3 5 7 8 10 11 14 15 16 17 
cascade_activation_steepnesses_count=4
cascade_activation_steepnesses=2.50000000000000000000e-01 5.00000000000000000000e-01 7.50000000000000000000e-01 1.00000000000000000000e+00 
layer_sizes=19 3 3 
scale_included=0
neurons (num_inputs, activation_function, activation_steepness)=(0, 0, 0.00000000000000000000e+00) (0, 0, 0.00000000000000000000e+00) (0, 0, 0.00000000000000000000e+00) (0, 0, 0.00000000000000000000e+00) (0, 0, 0.00000000000000000000e+00) (0, 0, 0.00000000000000000000e+00) (0, 0, 0.00000000000000000000e+00) (0, 0, 0.00000000000000000000e+00) (0, 0, 0.00000000000000000000e+00) (0, 0, 0.00000000000000000000e+00) (0, 0, 0.00000000000000000000e+00) (0, 0, 0.00000000000000000000e+00) (0, 0, 0.00000000000000000000e+00) (0, 0, 0.00000000000000000000e+00) (0, 0, 0.00000000000000000000e+00) (0, 0, 0.00000000000000000000e+00) (0, 0, 0.00000000000000000000e+00) (0, 0, 0.00000000000000000000e+00) (0, 0, 0.00000000000000000000e+00) (19, 3, 5.00000000000000000000e-01) (19, 3, 5.00000000000000000000e-01) (0, 3, 0.00000000000000000000e+00) (3, 0, 5.00000000000000000000e-01) (3, 0, 5.00000000000000000000e-01) (0, 0, 0.00000000000000000000e+00) 
connections (connected_to_neuron, weight)=(0, -1.60424008965492248535e-01) (1, -1.78114578127861022949e-01) (2, -1.98743075132369995117e-01) (3, -2.18062162399291992188e-01) (4, -1.34161084890365600586e-01) (5, -1.82618141174316406250e-01) (6, -2.18477174639701843262e-01) (7, -6.76225349307060241699e-02) (8, -2.71227434277534484863e-02) (9, -1.55880659818649291992e-01) (10, -4.86218407750129699707e-02) (11, -1.85331746935844421387e-01) (12, -1.37886121869087219238e-01) (13, -1.49150729179382324219e-01) (14, -1.62531733512878417969e-01) (15, -2.90173515677452087402e-02) (16, -3.77057120203971862793e-02) (17, -1.16295054554939270020e-01) (18, -1.40269100666046142578e-01) (0, 1.10337547957897186279e-01) (1, 3.33592742681503295898e-02) (2, 1.41344487667083740234e-01) (3, 1.56958222389221191406e-01) (4, 1.21403239667415618896e-01) (5, 7.91104882955551147461e-02) (6, 8.21441709995269775391e-02) (7, 1.99203372001647949219e-01) (8, 4.01927381753921508789e-02) (9, 1.41500189900398254395e-01) (10, 4.51596975326538085938e-02) (11, 8.64720568060874938965e-02) (12, 2.01076179742813110352e-01) (13, 8.70451331138610839844e-02) (14, 1.07728987932205200195e-01) (15, 2.03014016151428222656e-01) (16, 1.72884047031402587891e-01) (17, 1.45110845565795898438e-01) (18, 2.04536855220794677734e-01) (19, 1.25261515378952026367e-01) (20, 1.37988120317459106445e-01) (21, 6.86562061309814453125e-02) (19, 9.66396853327751159668e-02) (20, 1.72656357288360595703e-01) (21, 1.50770097970962524414e-01) 
