FANN_FLO_2.1
num_layers=3
learning_rate=0.100000
connection_rate=1.000000
network_type=0
learning_momentum=0.000000
training_algorithm=2
train_error_function=1
train_stop_function=0
cascade_output_change_fraction=0.010000
quickprop_decay=-0.000100
quickprop_mu=1.750000
rprop_increase_factor=1.200000
rprop_decrease_factor=0.500000
rprop_delta_min=0.000000
rprop_delta_max=50.000000
rprop_delta_zero=0.100000
cascade_output_stagnation_epochs=12
cascade_candidate_change_fraction=0.010000
cascade_candidate_stagnation_epochs=12
cascade_max_out_epochs=150
cascade_min_out_epochs=50
cascade_max_cand_epochs=150
cascade_min_cand_epochs=50
cascade_num_candidate_groups=2
bit_fail_limit=3.49999994039535522461e-01
cascade_candidate_limit=1.00000000000000000000e+03
cascade_weight_multiplier=4.00000005960464477539e-01
cascade_activation_functions_count=10
cascade_activation_functions=3 5 7 8 10 11 14 15 16 17 
cascade_activation_steepnesses_count=4
cascade_activation_steepnesses=2.50000000000000000000e-01 5.00000000000000000000e-01 7.50000000000000000000e-01 1.00000000000000000000e+00 
layer_sizes=10 3 2 
scale_included=0
neurons (num_inputs, activation_function, activation_steepness)=(0, 0, 0.00000000000000000000e+00) (0, 0, 0.00000000000000000000e+00) (0, 0, 0.00000000000000000000e+00) (0, 0, 0.00000000000000000000e+00) (0, 0, 0.00000000000000000000e+00) (0, 0, 0.00000000000000000000e+00) (0, 0, 0.00000000000000000000e+00) (0, 0, 0.00000000000000000000e+00) (0, 0, 0.00000000000000000000e+00) (0, 0, 0.00000000000000000000e+00) (10, 3, 5.00000000000000000000e-01) (10, 3, 5.00000000000000000000e-01) (0, 3, 0.00000000000000000000e+00) (3, 0, 5.00000000000000000000e-01) (0, 0, 0.00000000000000000000e+00) 
connections (connected_to_neuron, weight)=(0, 1.18016265332698822021e-01) (1, 7.06644207239151000977e-02) (2, 2.15612232685089111328e-01) (3, 9.42107513546943664551e-02) (4, 1.67619884014129638672e-01) (5, 1.41379386186599731445e-01) (6, 1.55478596687316894531e-01) (7, 2.02217012643814086914e-01) (8, 3.64590287208557128906e-02) (9, 1.26859277486801147461e-01) (0, 1.52800709009170532227e-01) (1, 1.87363088130950927734e-01) (2, 9.69063192605972290039e-02) (3, 2.00822800397872924805e-01) (4, 9.45986062288284301758e-02) (5, 1.33119091391563415527e-01) (6, 1.57902836799621582031e-01) (7, 1.43780097365379333496e-01) (8, 3.50499600172042846680e-02) (9, 7.24224075675010681152e-02) (10, 1.51036053895950317383e-01) (11, 1.51183515787124633789e-01) (12, 1.92017257213592529297e-01) 
