FANN_FLO_2.1
num_layers=3
learning_rate=0.100000
connection_rate=1.000000
network_type=0
learning_momentum=0.000000
training_algorithm=2
train_error_function=1
train_stop_function=0
cascade_output_change_fraction=0.010000
quickprop_decay=-0.000100
quickprop_mu=1.750000
rprop_increase_factor=1.200000
rprop_decrease_factor=0.500000
rprop_delta_min=0.000000
rprop_delta_max=50.000000
rprop_delta_zero=0.100000
cascade_output_stagnation_epochs=12
cascade_candidate_change_fraction=0.010000
cascade_candidate_stagnation_epochs=12
cascade_max_out_epochs=150
cascade_min_out_epochs=50
cascade_max_cand_epochs=150
cascade_min_cand_epochs=50
cascade_num_candidate_groups=2
bit_fail_limit=3.49999994039535522461e-01
cascade_candidate_limit=1.00000000000000000000e+03
cascade_weight_multiplier=4.00000005960464477539e-01
cascade_activation_functions_count=10
cascade_activation_functions=3 5 7 8 10 11 14 15 16 17 
cascade_activation_steepnesses_count=4
cascade_activation_steepnesses=2.50000000000000000000e-01 5.00000000000000000000e-01 7.50000000000000000000e-01 1.00000000000000000000e+00 
layer_sizes=10 3 2 
scale_included=0
neurons (num_inputs, activation_function, activation_steepness)=(0, 0, 0.00000000000000000000e+00) (0, 0, 0.00000000000000000000e+00) (0, 0, 0.00000000000000000000e+00) (0, 0, 0.00000000000000000000e+00) (0, 0, 0.00000000000000000000e+00) (0, 0, 0.00000000000000000000e+00) (0, 0, 0.00000000000000000000e+00) (0, 0, 0.00000000000000000000e+00) (0, 0, 0.00000000000000000000e+00) (0, 0, 0.00000000000000000000e+00) (10, 3, 5.00000000000000000000e-01) (10, 3, 5.00000000000000000000e-01) (0, 3, 0.00000000000000000000e+00) (3, 0, 5.00000000000000000000e-01) (0, 0, 0.00000000000000000000e+00) 
connections (connected_to_neuron, weight)=(0, 2.45031714439392089844e-02) (1, 1.35151684284210205078e-01) (2, 4.78412955999374389648e-02) (3, 9.43406149744987487793e-02) (4, 1.46863907575607299805e-01) (5, 1.68934881687164306641e-01) (6, 9.21762138605117797852e-02) (7, 5.04736304283142089844e-02) (8, 1.49964451789855957031e-01) (9, 2.03823387622833251953e-01) (0, -1.79018974304199218750e-01) (1, -1.92431554198265075684e-01) (2, -1.61117851734161376953e-01) (3, -2.17068552970886230469e-01) (4, -1.16989530622959136963e-01) (5, -4.61337193846702575684e-02) (6, -7.47801885008811950684e-02) (7, -1.02945104241371154785e-01) (8, -4.62896898388862609863e-02) (9, -1.07877053320407867432e-01) (10, 1.53484344482421875000e-01) (11, 6.24442398548126220703e-02) (12, 1.69532448053359985352e-01) 
