FANN_FLO_2.1
num_layers=3
learning_rate=0.100000
connection_rate=1.000000
network_type=0
learning_momentum=0.000000
training_algorithm=2
train_error_function=1
train_stop_function=0
cascade_output_change_fraction=0.010000
quickprop_decay=-0.000100
quickprop_mu=1.750000
rprop_increase_factor=1.200000
rprop_decrease_factor=0.500000
rprop_delta_min=0.000000
rprop_delta_max=50.000000
rprop_delta_zero=0.100000
cascade_output_stagnation_epochs=12
cascade_candidate_change_fraction=0.010000
cascade_candidate_stagnation_epochs=12
cascade_max_out_epochs=150
cascade_min_out_epochs=50
cascade_max_cand_epochs=150
cascade_min_cand_epochs=50
cascade_num_candidate_groups=2
bit_fail_limit=3.49999994039535522461e-01
cascade_candidate_limit=1.00000000000000000000e+03
cascade_weight_multiplier=4.00000005960464477539e-01
cascade_activation_functions_count=10
cascade_activation_functions=3 5 7 8 10 11 14 15 16 17 
cascade_activation_steepnesses_count=4
cascade_activation_steepnesses=2.50000000000000000000e-01 5.00000000000000000000e-01 7.50000000000000000000e-01 1.00000000000000000000e+00 
layer_sizes=10 3 2 
scale_included=0
neurons (num_inputs, activation_function, activation_steepness)=(0, 0, 0.00000000000000000000e+00) (0, 0, 0.00000000000000000000e+00) (0, 0, 0.00000000000000000000e+00) (0, 0, 0.00000000000000000000e+00) (0, 0, 0.00000000000000000000e+00) (0, 0, 0.00000000000000000000e+00) (0, 0, 0.00000000000000000000e+00) (0, 0, 0.00000000000000000000e+00) (0, 0, 0.00000000000000000000e+00) (0, 0, 0.00000000000000000000e+00) (10, 3, 5.00000000000000000000e-01) (10, 3, 5.00000000000000000000e-01) (0, 3, 0.00000000000000000000e+00) (3, 0, 5.00000000000000000000e-01) (0, 0, 0.00000000000000000000e+00) 
connections (connected_to_neuron, weight)=(0, -1.83931320905685424805e-01) (1, -2.16735571622848510742e-01) (2, -9.39878150820732116699e-02) (3, -7.59771391749382019043e-02) (4, -1.77588403224945068359e-01) (5, -8.35140869021415710449e-02) (6, -1.04654490947723388672e-01) (7, -1.92830353975296020508e-01) (8, -8.95807370543479919434e-02) (9, -9.93233770132064819336e-02) (0, -1.08395040035247802734e-01) (1, -1.73163861036300659180e-01) (2, -4.31099012494087219238e-02) (3, -7.15550705790519714355e-02) (4, -3.92779782414436340332e-02) (5, -1.23186282813549041748e-01) (6, -4.13398668169975280762e-02) (7, -6.69489726424217224121e-02) (8, -6.17206469178199768066e-02) (9, -1.18099510669708251953e-01) (10, 5.13804852962493896484e-02) (11, 8.17631930112838745117e-02) (12, 1.50837123394012451172e-01) 
