FANN_FLO_2.1
num_layers=3
learning_rate=0.100000
connection_rate=1.000000
network_type=0
learning_momentum=0.000000
training_algorithm=2
train_error_function=1
train_stop_function=0
cascade_output_change_fraction=0.010000
quickprop_decay=-0.000100
quickprop_mu=1.750000
rprop_increase_factor=1.200000
rprop_decrease_factor=0.500000
rprop_delta_min=0.000000
rprop_delta_max=50.000000
rprop_delta_zero=0.100000
cascade_output_stagnation_epochs=12
cascade_candidate_change_fraction=0.010000
cascade_candidate_stagnation_epochs=12
cascade_max_out_epochs=150
cascade_min_out_epochs=50
cascade_max_cand_epochs=150
cascade_min_cand_epochs=50
cascade_num_candidate_groups=2
bit_fail_limit=3.49999994039535522461e-01
cascade_candidate_limit=1.00000000000000000000e+03
cascade_weight_multiplier=4.00000005960464477539e-01
cascade_activation_functions_count=10
cascade_activation_functions=3 5 7 8 10 11 14 15 16 17 
cascade_activation_steepnesses_count=4
cascade_activation_steepnesses=2.50000000000000000000e-01 5.00000000000000000000e-01 7.50000000000000000000e-01 1.00000000000000000000e+00 
layer_sizes=19 3 3 
scale_included=0
neurons (num_inputs, activation_function, activation_steepness)=(0, 0, 0.00000000000000000000e+00) (0, 0, 0.00000000000000000000e+00) (0, 0, 0.00000000000000000000e+00) (0, 0, 0.00000000000000000000e+00) (0, 0, 0.00000000000000000000e+00) (0, 0, 0.00000000000000000000e+00) (0, 0, 0.00000000000000000000e+00) (0, 0, 0.00000000000000000000e+00) (0, 0, 0.00000000000000000000e+00) (0, 0, 0.00000000000000000000e+00) (0, 0, 0.00000000000000000000e+00) (0, 0, 0.00000000000000000000e+00) (0, 0, 0.00000000000000000000e+00) (0, 0, 0.00000000000000000000e+00) (0, 0, 0.00000000000000000000e+00) (0, 0, 0.00000000000000000000e+00) (0, 0, 0.00000000000000000000e+00) (0, 0, 0.00000000000000000000e+00) (0, 0, 0.00000000000000000000e+00) (19, 3, 5.00000000000000000000e-01) (19, 3, 5.00000000000000000000e-01) (0, 3, 0.00000000000000000000e+00) (3, 0, 5.00000000000000000000e-01) (3, 0, 5.00000000000000000000e-01) (0, 0, 0.00000000000000000000e+00) 
connections (connected_to_neuron, weight)=(0, -6.38466998934745788574e-02) (1, -2.09789752960205078125e-01) (2, -1.83508694171905517578e-01) (3, -1.43846929073333740234e-01) (4, -1.81199759244918823242e-01) (5, -7.56834372878074645996e-02) (6, -8.03548768162727355957e-02) (7, -1.87327548861503601074e-01) (8, -1.34878337383270263672e-01) (9, -2.01768174767494201660e-01) (10, -1.29875287413597106934e-01) (11, -2.11017221212387084961e-01) (12, -1.00833997130393981934e-01) (13, -1.23426847159862518311e-01) (14, -1.98169767856597900391e-01) (15, -4.59782108664512634277e-02) (16, -2.00928583741188049316e-01) (17, -2.08674445748329162598e-01) (18, -1.20352007448673248291e-01) (0, -6.48829862475395202637e-02) (1, -1.65677949786186218262e-01) (2, -1.27837941050529479980e-01) (3, -1.02570965886116027832e-01) (4, -1.62169888615608215332e-01) (5, -4.47929874062538146973e-02) (6, -1.71998277306556701660e-01) (7, -3.16859707236289978027e-02) (8, -1.11401721835136413574e-01) (9, -5.11328205466270446777e-02) (10, -1.81471437215805053711e-01) (11, -2.13577598333358764648e-01) (12, -9.49795171618461608887e-02) (13, -1.71261176466941833496e-01) (14, -1.77086293697357177734e-01) (15, -2.18826442956924438477e-01) (16, -1.32460936903953552246e-01) (17, -3.27697321772575378418e-02) (18, -7.91813060641288757324e-02) (19, 1.40211522579193115234e-01) (20, 9.23519507050514221191e-02) (21, 1.79050505161285400391e-01) (19, 3.03362384438514709473e-02) (20, 1.01334728300571441650e-01) (21, 9.82165187597274780273e-02) 
