FANN_FLO_2.1
num_layers=3
learning_rate=0.100000
connection_rate=1.000000
network_type=0
learning_momentum=0.000000
training_algorithm=2
train_error_function=1
train_stop_function=0
cascade_output_change_fraction=0.010000
quickprop_decay=-0.000100
quickprop_mu=1.750000
rprop_increase_factor=1.200000
rprop_decrease_factor=0.500000
rprop_delta_min=0.000000
rprop_delta_max=50.000000
rprop_delta_zero=0.100000
cascade_output_stagnation_epochs=12
cascade_candidate_change_fraction=0.010000
cascade_candidate_stagnation_epochs=12
cascade_max_out_epochs=150
cascade_min_out_epochs=50
cascade_max_cand_epochs=150
cascade_min_cand_epochs=50
cascade_num_candidate_groups=2
bit_fail_limit=3.49999994039535522461e-01
cascade_candidate_limit=1.00000000000000000000e+03
cascade_weight_multiplier=4.00000005960464477539e-01
cascade_activation_functions_count=10
cascade_activation_functions=3 5 7 8 10 11 14 15 16 17 
cascade_activation_steepnesses_count=4
cascade_activation_steepnesses=2.50000000000000000000e-01 5.00000000000000000000e-01 7.50000000000000000000e-01 1.00000000000000000000e+00 
layer_sizes=10 3 2 
scale_included=0
neurons (num_inputs, activation_function, activation_steepness)=(0, 0, 0.00000000000000000000e+00) (0, 0, 0.00000000000000000000e+00) (0, 0, 0.00000000000000000000e+00) (0, 0, 0.00000000000000000000e+00) (0, 0, 0.00000000000000000000e+00) (0, 0, 0.00000000000000000000e+00) (0, 0, 0.00000000000000000000e+00) (0, 0, 0.00000000000000000000e+00) (0, 0, 0.00000000000000000000e+00) (0, 0, 0.00000000000000000000e+00) (10, 3, 5.00000000000000000000e-01) (10, 3, 5.00000000000000000000e-01) (0, 3, 0.00000000000000000000e+00) (3, 0, 5.00000000000000000000e-01) (0, 0, 0.00000000000000000000e+00) 
connections (connected_to_neuron, weight)=(0, -2.15539067983627319336e-01) (1, -8.55834558606147766113e-02) (2, -1.46412625908851623535e-01) (3, -2.17868328094482421875e-01) (4, -4.72546443343162536621e-02) (5, -2.07014784216880798340e-01) (6, -8.64293500781059265137e-02) (7, -1.13163173198699951172e-01) (8, -2.02770680189132690430e-01) (9, -1.04617908596992492676e-01) (0, -1.29155337810516357422e-01) (1, -3.79068478941917419434e-02) (2, -1.34624123573303222656e-01) (3, -1.30230963230133056641e-01) (4, -1.92851960659027099609e-01) (5, -8.57010409235954284668e-02) (6, -6.16010650992393493652e-02) (7, -1.09318278729915618896e-01) (8, -1.23150840401649475098e-01) (9, -1.47824361920356750488e-01) (10, 7.58427232503890991211e-02) (11, 2.03365311026573181152e-02) (12, 6.88577443361282348633e-02) 
