FANN_FLO_2.1
num_layers=3
learning_rate=0.100000
connection_rate=1.000000
network_type=0
learning_momentum=0.000000
training_algorithm=2
train_error_function=1
train_stop_function=0
cascade_output_change_fraction=0.010000
quickprop_decay=-0.000100
quickprop_mu=1.750000
rprop_increase_factor=1.200000
rprop_decrease_factor=0.500000
rprop_delta_min=0.000000
rprop_delta_max=50.000000
rprop_delta_zero=0.100000
cascade_output_stagnation_epochs=12
cascade_candidate_change_fraction=0.010000
cascade_candidate_stagnation_epochs=12
cascade_max_out_epochs=150
cascade_min_out_epochs=50
cascade_max_cand_epochs=150
cascade_min_cand_epochs=50
cascade_num_candidate_groups=2
bit_fail_limit=3.49999994039535522461e-01
cascade_candidate_limit=1.00000000000000000000e+03
cascade_weight_multiplier=4.00000005960464477539e-01
cascade_activation_functions_count=10
cascade_activation_functions=3 5 7 8 10 11 14 15 16 17 
cascade_activation_steepnesses_count=4
cascade_activation_steepnesses=2.50000000000000000000e-01 5.00000000000000000000e-01 7.50000000000000000000e-01 1.00000000000000000000e+00 
layer_sizes=19 3 3 
scale_included=0
neurons (num_inputs, activation_function, activation_steepness)=(0, 0, 0.00000000000000000000e+00) (0, 0, 0.00000000000000000000e+00) (0, 0, 0.00000000000000000000e+00) (0, 0, 0.00000000000000000000e+00) (0, 0, 0.00000000000000000000e+00) (0, 0, 0.00000000000000000000e+00) (0, 0, 0.00000000000000000000e+00) (0, 0, 0.00000000000000000000e+00) (0, 0, 0.00000000000000000000e+00) (0, 0, 0.00000000000000000000e+00) (0, 0, 0.00000000000000000000e+00) (0, 0, 0.00000000000000000000e+00) (0, 0, 0.00000000000000000000e+00) (0, 0, 0.00000000000000000000e+00) (0, 0, 0.00000000000000000000e+00) (0, 0, 0.00000000000000000000e+00) (0, 0, 0.00000000000000000000e+00) (0, 0, 0.00000000000000000000e+00) (0, 0, 0.00000000000000000000e+00) (19, 3, 5.00000000000000000000e-01) (19, 3, 5.00000000000000000000e-01) (0, 3, 0.00000000000000000000e+00) (3, 0, 5.00000000000000000000e-01) (3, 0, 5.00000000000000000000e-01) (0, 0, 0.00000000000000000000e+00) 
connections (connected_to_neuron, weight)=(0, 1.84240341186523437500e-01) (1, 1.54768049716949462891e-01) (2, 1.86756342649459838867e-01) (3, 1.31256520748138427734e-01) (4, 1.64848655462265014648e-01) (5, 7.54290744662284851074e-02) (6, 1.46826565265655517578e-01) (7, 1.50547206401824951172e-01) (8, 1.72362327575683593750e-01) (9, 1.53122603893280029297e-01) (10, 1.08439490199089050293e-01) (11, 1.40463992953300476074e-01) (12, 1.35038197040557861328e-01) (13, 1.69226050376892089844e-01) (14, 1.68219894170761108398e-01) (15, 9.17723700404167175293e-02) (16, 1.86369776725769042969e-01) (17, 2.17406213283538818359e-01) (18, 5.52306324243545532227e-02) (0, 1.56087189912796020508e-01) (1, 1.86610817909240722656e-01) (2, 1.96104973554611206055e-01) (3, 1.71641707420349121094e-01) (4, 1.26301422715187072754e-01) (5, 1.48003339767456054688e-01) (6, 1.86679840087890625000e-01) (7, 1.45031750202178955078e-01) (8, 1.28288894891738891602e-01) (9, 5.93966208398342132568e-02) (10, 1.79211586713790893555e-01) (11, 2.05001264810562133789e-01) (12, 2.36369520425796508789e-02) (13, 1.13979645073413848877e-01) (14, 1.71757608652114868164e-01) (15, 1.34893462061882019043e-01) (16, 5.88282942771911621094e-02) (17, 2.71866694092750549316e-02) (18, 6.17200285196304321289e-02) (19, 1.89375489950180053711e-01) (20, 1.79549008607864379883e-01) (21, 1.94842636585235595703e-01) (19, 7.78149589896202087402e-02) (20, 1.00012995302677154541e-01) (21, 1.09880819916725158691e-01) 
