FANN_FLO_2.1
num_layers=3
learning_rate=0.100000
connection_rate=1.000000
network_type=0
learning_momentum=0.000000
training_algorithm=2
train_error_function=1
train_stop_function=0
cascade_output_change_fraction=0.010000
quickprop_decay=-0.000100
quickprop_mu=1.750000
rprop_increase_factor=1.200000
rprop_decrease_factor=0.500000
rprop_delta_min=0.000000
rprop_delta_max=50.000000
rprop_delta_zero=0.100000
cascade_output_stagnation_epochs=12
cascade_candidate_change_fraction=0.010000
cascade_candidate_stagnation_epochs=12
cascade_max_out_epochs=150
cascade_min_out_epochs=50
cascade_max_cand_epochs=150
cascade_min_cand_epochs=50
cascade_num_candidate_groups=2
bit_fail_limit=3.49999994039535522461e-01
cascade_candidate_limit=1.00000000000000000000e+03
cascade_weight_multiplier=4.00000005960464477539e-01
cascade_activation_functions_count=10
cascade_activation_functions=3 5 7 8 10 11 14 15 16 17 
cascade_activation_steepnesses_count=4
cascade_activation_steepnesses=2.50000000000000000000e-01 5.00000000000000000000e-01 7.50000000000000000000e-01 1.00000000000000000000e+00 
layer_sizes=19 3 3 
scale_included=0
neurons (num_inputs, activation_function, activation_steepness)=(0, 0, 0.00000000000000000000e+00) (0, 0, 0.00000000000000000000e+00) (0, 0, 0.00000000000000000000e+00) (0, 0, 0.00000000000000000000e+00) (0, 0, 0.00000000000000000000e+00) (0, 0, 0.00000000000000000000e+00) (0, 0, 0.00000000000000000000e+00) (0, 0, 0.00000000000000000000e+00) (0, 0, 0.00000000000000000000e+00) (0, 0, 0.00000000000000000000e+00) (0, 0, 0.00000000000000000000e+00) (0, 0, 0.00000000000000000000e+00) (0, 0, 0.00000000000000000000e+00) (0, 0, 0.00000000000000000000e+00) (0, 0, 0.00000000000000000000e+00) (0, 0, 0.00000000000000000000e+00) (0, 0, 0.00000000000000000000e+00) (0, 0, 0.00000000000000000000e+00) (0, 0, 0.00000000000000000000e+00) (19, 3, 5.00000000000000000000e-01) (19, 3, 5.00000000000000000000e-01) (0, 3, 0.00000000000000000000e+00) (3, 0, 5.00000000000000000000e-01) (3, 0, 5.00000000000000000000e-01) (0, 0, 0.00000000000000000000e+00) 
connections (connected_to_neuron, weight)=(0, 5.75743317604064941406e-02) (1, -1.22383825480937957764e-01) (2, 1.32795706391334533691e-01) (3, -9.23184677958488464355e-02) (4, 2.49400809407234191895e-02) (5, -1.76314279437065124512e-01) (6, -5.80774173140525817871e-02) (7, 3.23597118258476257324e-02) (8, 1.89489424228668212891e-01) (9, 4.82680648565292358398e-02) (10, -1.33285149931907653809e-01) (11, 2.23943516612052917480e-02) (12, 9.98457819223403930664e-02) (13, -5.02809211611747741699e-02) (14, 1.91253811120986938477e-01) (15, -1.56924143433570861816e-01) (16, 1.75333142280578613281e-01) (17, 9.07621532678604125977e-02) (18, 1.43012791872024536133e-01) (0, 1.98346287012100219727e-01) (1, 7.83576667308807373047e-02) (2, 4.10080552101135253906e-02) (3, 1.79443299770355224609e-01) (4, 2.03919053077697753906e-01) (5, 2.07789152860641479492e-01) (6, 6.29937201738357543945e-02) (7, 1.42402619123458862305e-01) (8, 5.32282739877700805664e-02) (9, 9.20639485120773315430e-02) (10, 1.88045263290405273438e-01) (11, 4.93080317974090576172e-02) (12, 1.29638284444808959961e-01) (13, 8.56614559888839721680e-02) (14, 1.62103712558746337891e-01) (15, 5.73198050260543823242e-02) (16, 9.06015336513519287109e-02) (17, 2.05789446830749511719e-01) (18, 2.19242393970489501953e-01) (19, 1.02961242198944091797e-01) (20, 1.75278872251510620117e-01) (21, 4.75104451179504394531e-02) (19, 1.89676105976104736328e-01) (20, 1.77673220634460449219e-01) (21, 1.27356216311454772949e-01) 
