FANN_FLO_2.1
num_layers=3
learning_rate=0.100000
connection_rate=1.000000
network_type=0
learning_momentum=0.000000
training_algorithm=2
train_error_function=1
train_stop_function=0
cascade_output_change_fraction=0.010000
quickprop_decay=-0.000100
quickprop_mu=1.750000
rprop_increase_factor=1.200000
rprop_decrease_factor=0.500000
rprop_delta_min=0.000000
rprop_delta_max=50.000000
rprop_delta_zero=0.100000
cascade_output_stagnation_epochs=12
cascade_candidate_change_fraction=0.010000
cascade_candidate_stagnation_epochs=12
cascade_max_out_epochs=150
cascade_min_out_epochs=50
cascade_max_cand_epochs=150
cascade_min_cand_epochs=50
cascade_num_candidate_groups=2
bit_fail_limit=3.49999994039535522461e-01
cascade_candidate_limit=1.00000000000000000000e+03
cascade_weight_multiplier=4.00000005960464477539e-01
cascade_activation_functions_count=10
cascade_activation_functions=3 5 7 8 10 11 14 15 16 17 
cascade_activation_steepnesses_count=4
cascade_activation_steepnesses=2.50000000000000000000e-01 5.00000000000000000000e-01 7.50000000000000000000e-01 1.00000000000000000000e+00 
layer_sizes=10 3 2 
scale_included=0
neurons (num_inputs, activation_function, activation_steepness)=(0, 0, 0.00000000000000000000e+00) (0, 0, 0.00000000000000000000e+00) (0, 0, 0.00000000000000000000e+00) (0, 0, 0.00000000000000000000e+00) (0, 0, 0.00000000000000000000e+00) (0, 0, 0.00000000000000000000e+00) (0, 0, 0.00000000000000000000e+00) (0, 0, 0.00000000000000000000e+00) (0, 0, 0.00000000000000000000e+00) (0, 0, 0.00000000000000000000e+00) (10, 3, 5.00000000000000000000e-01) (10, 3, 5.00000000000000000000e-01) (0, 3, 0.00000000000000000000e+00) (3, 0, 5.00000000000000000000e-01) (0, 0, 0.00000000000000000000e+00) 
connections (connected_to_neuron, weight)=(0, 1.36523723602294921875e-01) (1, 1.78502053022384643555e-01) (2, 7.88919180631637573242e-02) (3, 1.91939353942871093750e-01) (4, 1.82545751333236694336e-01) (5, 1.22256197035312652588e-01) (6, 2.11928099393844604492e-01) (7, 1.41790330410003662109e-01) (8, 9.04985219240188598633e-02) (9, 1.91040009260177612305e-01) (0, 1.28681525588035583496e-01) (1, 4.42419201135635375977e-02) (2, 9.47691649198532104492e-02) (3, 1.30688816308975219727e-01) (4, 1.65127545595169067383e-01) (5, 3.55851873755455017090e-02) (6, 4.36132475733757019043e-02) (7, 2.65301018953323364258e-02) (8, 2.10833609104156494141e-01) (9, 1.37279659509658813477e-01) (10, 1.48776292800903320312e-01) (11, 1.40007838606834411621e-01) (12, 1.84851914644241333008e-01) 
