FANN_FLO_2.1
num_layers=3
learning_rate=0.100000
connection_rate=1.000000
network_type=0
learning_momentum=0.000000
training_algorithm=2
train_error_function=1
train_stop_function=0
cascade_output_change_fraction=0.010000
quickprop_decay=-0.000100
quickprop_mu=1.750000
rprop_increase_factor=1.200000
rprop_decrease_factor=0.500000
rprop_delta_min=0.000000
rprop_delta_max=50.000000
rprop_delta_zero=0.100000
cascade_output_stagnation_epochs=12
cascade_candidate_change_fraction=0.010000
cascade_candidate_stagnation_epochs=12
cascade_max_out_epochs=150
cascade_min_out_epochs=50
cascade_max_cand_epochs=150
cascade_min_cand_epochs=50
cascade_num_candidate_groups=2
bit_fail_limit=3.49999994039535522461e-01
cascade_candidate_limit=1.00000000000000000000e+03
cascade_weight_multiplier=4.00000005960464477539e-01
cascade_activation_functions_count=10
cascade_activation_functions=3 5 7 8 10 11 14 15 16 17 
cascade_activation_steepnesses_count=4
cascade_activation_steepnesses=2.50000000000000000000e-01 5.00000000000000000000e-01 7.50000000000000000000e-01 1.00000000000000000000e+00 
layer_sizes=10 3 2 
scale_included=0
neurons (num_inputs, activation_function, activation_steepness)=(0, 0, 0.00000000000000000000e+00) (0, 0, 0.00000000000000000000e+00) (0, 0, 0.00000000000000000000e+00) (0, 0, 0.00000000000000000000e+00) (0, 0, 0.00000000000000000000e+00) (0, 0, 0.00000000000000000000e+00) (0, 0, 0.00000000000000000000e+00) (0, 0, 0.00000000000000000000e+00) (0, 0, 0.00000000000000000000e+00) (0, 0, 0.00000000000000000000e+00) (10, 3, 5.00000000000000000000e-01) (10, 3, 5.00000000000000000000e-01) (0, 3, 0.00000000000000000000e+00) (3, 0, 5.00000000000000000000e-01) (0, 0, 0.00000000000000000000e+00) 
connections (connected_to_neuron, weight)=(0, 1.78699910640716552734e-01) (1, 2.03241080045700073242e-01) (2, 1.37966901063919067383e-01) (3, 1.91559731960296630859e-01) (4, 8.34164768457412719727e-02) (5, 7.23444148898124694824e-02) (6, 1.67661130428314208984e-01) (7, 5.62794208526611328125e-02) (8, 9.88569110631942749023e-02) (9, 1.33255407214164733887e-01) (0, 1.27824962139129638672e-01) (1, 8.67964997887611389160e-02) (2, 1.86055213212966918945e-01) (3, 9.88858491182327270508e-02) (4, 1.48584067821502685547e-01) (5, 7.07058012485504150391e-02) (6, 5.06665855646133422852e-02) (7, 6.42974227666854858398e-02) (8, 7.04486817121505737305e-02) (9, 1.04065127670764923096e-01) (10, 1.44315734505653381348e-01) (11, 1.99975073337554931641e-01) (12, 6.59438371658325195312e-02) 
