FANN_FLO_2.1
num_layers=3
learning_rate=0.100000
connection_rate=1.000000
network_type=0
learning_momentum=0.000000
training_algorithm=2
train_error_function=1
train_stop_function=0
cascade_output_change_fraction=0.010000
quickprop_decay=-0.000100
quickprop_mu=1.750000
rprop_increase_factor=1.200000
rprop_decrease_factor=0.500000
rprop_delta_min=0.000000
rprop_delta_max=50.000000
rprop_delta_zero=0.100000
cascade_output_stagnation_epochs=12
cascade_candidate_change_fraction=0.010000
cascade_candidate_stagnation_epochs=12
cascade_max_out_epochs=150
cascade_min_out_epochs=50
cascade_max_cand_epochs=150
cascade_min_cand_epochs=50
cascade_num_candidate_groups=2
bit_fail_limit=3.49999994039535522461e-01
cascade_candidate_limit=1.00000000000000000000e+03
cascade_weight_multiplier=4.00000005960464477539e-01
cascade_activation_functions_count=10
cascade_activation_functions=3 5 7 8 10 11 14 15 16 17 
cascade_activation_steepnesses_count=4
cascade_activation_steepnesses=2.50000000000000000000e-01 5.00000000000000000000e-01 7.50000000000000000000e-01 1.00000000000000000000e+00 
layer_sizes=10 3 2 
scale_included=0
neurons (num_inputs, activation_function, activation_steepness)=(0, 0, 0.00000000000000000000e+00) (0, 0, 0.00000000000000000000e+00) (0, 0, 0.00000000000000000000e+00) (0, 0, 0.00000000000000000000e+00) (0, 0, 0.00000000000000000000e+00) (0, 0, 0.00000000000000000000e+00) (0, 0, 0.00000000000000000000e+00) (0, 0, 0.00000000000000000000e+00) (0, 0, 0.00000000000000000000e+00) (0, 0, 0.00000000000000000000e+00) (10, 3, 5.00000000000000000000e-01) (10, 3, 5.00000000000000000000e-01) (0, 3, 0.00000000000000000000e+00) (3, 0, 5.00000000000000000000e-01) (0, 0, 0.00000000000000000000e+00) 
connections (connected_to_neuron, weight)=(0, 4.19351682066917419434e-02) (1, 1.18083544075489044189e-01) (2, 6.23137168586254119873e-02) (3, 1.62766277790069580078e-01) (4, 1.47769927978515625000e-01) (5, 1.27081915736198425293e-01) (6, 2.02654629945755004883e-01) (7, 3.68560701608657836914e-02) (8, 9.31159183382987976074e-02) (9, 1.52925163507461547852e-01) (0, -6.23271986842155456543e-02) (1, -6.26212880015373229980e-02) (2, -1.41051426529884338379e-01) (3, -3.05582508444786071777e-02) (4, -1.19060017168521881104e-01) (5, -4.36347052454948425293e-02) (6, -1.47813990712165832520e-01) (7, -6.18602558970451354980e-02) (8, -1.55770748853683471680e-01) (9, -5.97788617014884948730e-02) (10, 1.68741583824157714844e-01) (11, 8.96397680044174194336e-02) (12, 1.47268086671829223633e-01) 
