FANN_FLO_2.1
num_layers=3
learning_rate=0.100000
connection_rate=1.000000
network_type=0
learning_momentum=0.000000
training_algorithm=2
train_error_function=1
train_stop_function=0
cascade_output_change_fraction=0.010000
quickprop_decay=-0.000100
quickprop_mu=1.750000
rprop_increase_factor=1.200000
rprop_decrease_factor=0.500000
rprop_delta_min=0.000000
rprop_delta_max=50.000000
rprop_delta_zero=0.100000
cascade_output_stagnation_epochs=12
cascade_candidate_change_fraction=0.010000
cascade_candidate_stagnation_epochs=12
cascade_max_out_epochs=150
cascade_min_out_epochs=50
cascade_max_cand_epochs=150
cascade_min_cand_epochs=50
cascade_num_candidate_groups=2
bit_fail_limit=3.49999994039535522461e-01
cascade_candidate_limit=1.00000000000000000000e+03
cascade_weight_multiplier=4.00000005960464477539e-01
cascade_activation_functions_count=10
cascade_activation_functions=3 5 7 8 10 11 14 15 16 17 
cascade_activation_steepnesses_count=4
cascade_activation_steepnesses=2.50000000000000000000e-01 5.00000000000000000000e-01 7.50000000000000000000e-01 1.00000000000000000000e+00 
layer_sizes=19 3 3 
scale_included=0
neurons (num_inputs, activation_function, activation_steepness)=(0, 0, 0.00000000000000000000e+00) (0, 0, 0.00000000000000000000e+00) (0, 0, 0.00000000000000000000e+00) (0, 0, 0.00000000000000000000e+00) (0, 0, 0.00000000000000000000e+00) (0, 0, 0.00000000000000000000e+00) (0, 0, 0.00000000000000000000e+00) (0, 0, 0.00000000000000000000e+00) (0, 0, 0.00000000000000000000e+00) (0, 0, 0.00000000000000000000e+00) (0, 0, 0.00000000000000000000e+00) (0, 0, 0.00000000000000000000e+00) (0, 0, 0.00000000000000000000e+00) (0, 0, 0.00000000000000000000e+00) (0, 0, 0.00000000000000000000e+00) (0, 0, 0.00000000000000000000e+00) (0, 0, 0.00000000000000000000e+00) (0, 0, 0.00000000000000000000e+00) (0, 0, 0.00000000000000000000e+00) (19, 3, 5.00000000000000000000e-01) (19, 3, 5.00000000000000000000e-01) (0, 3, 0.00000000000000000000e+00) (3, 0, 5.00000000000000000000e-01) (3, 0, 5.00000000000000000000e-01) (0, 0, 0.00000000000000000000e+00) 
connections (connected_to_neuron, weight)=(0, -1.64793983101844787598e-01) (1, -5.79677745699882507324e-02) (2, -9.43063572049140930176e-02) (3, -1.62533819675445556641e-01) (4, -1.55486240983009338379e-01) (5, -3.73754873871803283691e-02) (6, -8.89320895075798034668e-02) (7, -1.00920736789703369141e-01) (8, -1.35911926627159118652e-01) (9, -1.28532007336616516113e-01) (10, -7.88704082369804382324e-02) (11, -5.98762109875679016113e-02) (12, -5.01838997006416320801e-02) (13, -1.03851541876792907715e-01) (14, -3.70830819010734558105e-02) (15, -1.11612275242805480957e-01) (16, -1.22822880744934082031e-01) (17, -4.42024692893028259277e-02) (18, -6.34233877062797546387e-02) (0, -1.74145191907882690430e-01) (1, -7.14897587895393371582e-02) (2, -1.85403391718864440918e-01) (3, -1.83370649814605712891e-01) (4, -2.15831056237220764160e-01) (5, -1.98782250285148620605e-01) (6, -7.05540254712104797363e-02) (7, -5.27086779475212097168e-02) (8, -8.68604406714439392090e-02) (9, -1.19767650961875915527e-01) (10, -8.32301303744316101074e-02) (11, -1.96872755885124206543e-01) (12, -6.45616278052330017090e-02) (13, -1.21197901666164398193e-01) (14, -7.11790993809700012207e-02) (15, -2.07095444202423095703e-01) (16, -5.66841289401054382324e-02) (17, -8.85545834898948669434e-02) (18, -7.60275200009346008301e-02) (19, 1.02395147085189819336e-01) (20, 3.55334952473640441895e-02) (21, 5.54404705762863159180e-02) (19, 4.35247495770454406738e-02) (20, 1.95657283067703247070e-01) (21, 2.52565741539001464844e-02) 
