FANN_FLO_2.1
num_layers=3
learning_rate=0.100000
connection_rate=1.000000
network_type=0
learning_momentum=0.000000
training_algorithm=2
train_error_function=1
train_stop_function=0
cascade_output_change_fraction=0.010000
quickprop_decay=-0.000100
quickprop_mu=1.750000
rprop_increase_factor=1.200000
rprop_decrease_factor=0.500000
rprop_delta_min=0.000000
rprop_delta_max=50.000000
rprop_delta_zero=0.100000
cascade_output_stagnation_epochs=12
cascade_candidate_change_fraction=0.010000
cascade_candidate_stagnation_epochs=12
cascade_max_out_epochs=150
cascade_min_out_epochs=50
cascade_max_cand_epochs=150
cascade_min_cand_epochs=50
cascade_num_candidate_groups=2
bit_fail_limit=3.49999994039535522461e-01
cascade_candidate_limit=1.00000000000000000000e+03
cascade_weight_multiplier=4.00000005960464477539e-01
cascade_activation_functions_count=10
cascade_activation_functions=3 5 7 8 10 11 14 15 16 17 
cascade_activation_steepnesses_count=4
cascade_activation_steepnesses=2.50000000000000000000e-01 5.00000000000000000000e-01 7.50000000000000000000e-01 1.00000000000000000000e+00 
layer_sizes=19 3 3 
scale_included=0
neurons (num_inputs, activation_function, activation_steepness)=(0, 0, 0.00000000000000000000e+00) (0, 0, 0.00000000000000000000e+00) (0, 0, 0.00000000000000000000e+00) (0, 0, 0.00000000000000000000e+00) (0, 0, 0.00000000000000000000e+00) (0, 0, 0.00000000000000000000e+00) (0, 0, 0.00000000000000000000e+00) (0, 0, 0.00000000000000000000e+00) (0, 0, 0.00000000000000000000e+00) (0, 0, 0.00000000000000000000e+00) (0, 0, 0.00000000000000000000e+00) (0, 0, 0.00000000000000000000e+00) (0, 0, 0.00000000000000000000e+00) (0, 0, 0.00000000000000000000e+00) (0, 0, 0.00000000000000000000e+00) (0, 0, 0.00000000000000000000e+00) (0, 0, 0.00000000000000000000e+00) (0, 0, 0.00000000000000000000e+00) (0, 0, 0.00000000000000000000e+00) (19, 3, 5.00000000000000000000e-01) (19, 3, 5.00000000000000000000e-01) (0, 3, 0.00000000000000000000e+00) (3, 0, 5.00000000000000000000e-01) (3, 0, 5.00000000000000000000e-01) (0, 0, 0.00000000000000000000e+00) 
connections (connected_to_neuron, weight)=(0, 1.03081718087196350098e-01) (1, 1.78722888231277465820e-01) (2, 1.27921521663665771484e-01) (3, 1.07605770230293273926e-01) (4, 1.75944149494171142578e-01) (5, 1.65918052196502685547e-01) (6, 1.53060406446456909180e-01) (7, 2.14270532131195068359e-01) (8, 1.61781400442123413086e-01) (9, 1.29083663225173950195e-01) (10, 8.71839746832847595215e-02) (11, 1.16487994790077209473e-01) (12, 1.77806794643402099609e-01) (13, 2.87990719079971313477e-02) (14, 8.48629623651504516602e-02) (15, 1.83034628629684448242e-01) (16, 9.84982997179031372070e-02) (17, 2.00715154409408569336e-01) (18, 5.71201890707015991211e-02) (0, -5.88540360331535339355e-02) (1, -1.16600468754768371582e-01) (2, -4.45858761668205261230e-02) (3, -1.03180527687072753906e-01) (4, -2.10444822907447814941e-01) (5, -2.03436821699142456055e-01) (6, -1.48376896977424621582e-01) (7, -1.79218754172325134277e-01) (8, -9.75895747542381286621e-02) (9, -3.41327115893363952637e-02) (10, -2.51799747347831726074e-02) (11, -1.79496884346008300781e-01) (12, -1.51050999760627746582e-01) (13, -6.64570853114128112793e-02) (14, -7.15753510594367980957e-02) (15, -6.34452477097511291504e-02) (16, -1.10512927174568176270e-01) (17, -1.25657320022583007812e-01) (18, -1.30384832620620727539e-01) (19, 1.23757623136043548584e-01) (20, 5.61240762472152709961e-02) (21, 2.18698829412460327148e-01) (19, 1.90941601991653442383e-01) (20, 1.52612060308456420898e-01) (21, 1.76505625247955322266e-01) 
