FANN_FLO_2.1
num_layers=3
learning_rate=0.100000
connection_rate=1.000000
network_type=0
learning_momentum=0.000000
training_algorithm=2
train_error_function=1
train_stop_function=0
cascade_output_change_fraction=0.010000
quickprop_decay=-0.000100
quickprop_mu=1.750000
rprop_increase_factor=1.200000
rprop_decrease_factor=0.500000
rprop_delta_min=0.000000
rprop_delta_max=50.000000
rprop_delta_zero=0.100000
cascade_output_stagnation_epochs=12
cascade_candidate_change_fraction=0.010000
cascade_candidate_stagnation_epochs=12
cascade_max_out_epochs=150
cascade_min_out_epochs=50
cascade_max_cand_epochs=150
cascade_min_cand_epochs=50
cascade_num_candidate_groups=2
bit_fail_limit=3.49999994039535522461e-01
cascade_candidate_limit=1.00000000000000000000e+03
cascade_weight_multiplier=4.00000005960464477539e-01
cascade_activation_functions_count=10
cascade_activation_functions=3 5 7 8 10 11 14 15 16 17 
cascade_activation_steepnesses_count=4
cascade_activation_steepnesses=2.50000000000000000000e-01 5.00000000000000000000e-01 7.50000000000000000000e-01 1.00000000000000000000e+00 
layer_sizes=10 3 2 
scale_included=0
neurons (num_inputs, activation_function, activation_steepness)=(0, 0, 0.00000000000000000000e+00) (0, 0, 0.00000000000000000000e+00) (0, 0, 0.00000000000000000000e+00) (0, 0, 0.00000000000000000000e+00) (0, 0, 0.00000000000000000000e+00) (0, 0, 0.00000000000000000000e+00) (0, 0, 0.00000000000000000000e+00) (0, 0, 0.00000000000000000000e+00) (0, 0, 0.00000000000000000000e+00) (0, 0, 0.00000000000000000000e+00) (10, 3, 5.00000000000000000000e-01) (10, 3, 5.00000000000000000000e-01) (0, 3, 0.00000000000000000000e+00) (3, 0, 5.00000000000000000000e-01) (0, 0, 0.00000000000000000000e+00) 
connections (connected_to_neuron, weight)=(0, -2.01611757278442382812e-01) (1, -1.06566235423088073730e-01) (2, -1.91845193505287170410e-01) (3, -9.83470678329467773438e-02) (4, -2.11623489856719970703e-01) (5, -9.03193280100822448730e-02) (6, -1.37918204069137573242e-01) (7, -2.00814723968505859375e-01) (8, -1.79556459188461303711e-01) (9, -1.19040645658969879150e-01) (0, 1.56071931123733520508e-01) (1, 1.56844884157180786133e-01) (2, 5.00589385628700256348e-02) (3, 2.15155482292175292969e-02) (4, 1.51774317026138305664e-01) (5, 4.49613928794860839844e-02) (6, 1.99106842279434204102e-01) (7, 6.47585541009902954102e-02) (8, 6.52636289596557617188e-02) (9, 1.23128607869148254395e-01) (10, 9.79591682553291320801e-02) (11, 1.37751325964927673340e-01) (12, 1.86076998710632324219e-01) 
