FANN_FLO_2.1
num_layers=3
learning_rate=0.100000
connection_rate=1.000000
network_type=0
learning_momentum=0.000000
training_algorithm=2
train_error_function=1
train_stop_function=0
cascade_output_change_fraction=0.010000
quickprop_decay=-0.000100
quickprop_mu=1.750000
rprop_increase_factor=1.200000
rprop_decrease_factor=0.500000
rprop_delta_min=0.000000
rprop_delta_max=50.000000
rprop_delta_zero=0.100000
cascade_output_stagnation_epochs=12
cascade_candidate_change_fraction=0.010000
cascade_candidate_stagnation_epochs=12
cascade_max_out_epochs=150
cascade_min_out_epochs=50
cascade_max_cand_epochs=150
cascade_min_cand_epochs=50
cascade_num_candidate_groups=2
bit_fail_limit=3.49999994039535522461e-01
cascade_candidate_limit=1.00000000000000000000e+03
cascade_weight_multiplier=4.00000005960464477539e-01
cascade_activation_functions_count=10
cascade_activation_functions=3 5 7 8 10 11 14 15 16 17 
cascade_activation_steepnesses_count=4
cascade_activation_steepnesses=2.50000000000000000000e-01 5.00000000000000000000e-01 7.50000000000000000000e-01 1.00000000000000000000e+00 
layer_sizes=19 3 3 
scale_included=0
neurons (num_inputs, activation_function, activation_steepness)=(0, 0, 0.00000000000000000000e+00) (0, 0, 0.00000000000000000000e+00) (0, 0, 0.00000000000000000000e+00) (0, 0, 0.00000000000000000000e+00) (0, 0, 0.00000000000000000000e+00) (0, 0, 0.00000000000000000000e+00) (0, 0, 0.00000000000000000000e+00) (0, 0, 0.00000000000000000000e+00) (0, 0, 0.00000000000000000000e+00) (0, 0, 0.00000000000000000000e+00) (0, 0, 0.00000000000000000000e+00) (0, 0, 0.00000000000000000000e+00) (0, 0, 0.00000000000000000000e+00) (0, 0, 0.00000000000000000000e+00) (0, 0, 0.00000000000000000000e+00) (0, 0, 0.00000000000000000000e+00) (0, 0, 0.00000000000000000000e+00) (0, 0, 0.00000000000000000000e+00) (0, 0, 0.00000000000000000000e+00) (19, 3, 5.00000000000000000000e-01) (19, 3, 5.00000000000000000000e-01) (0, 3, 0.00000000000000000000e+00) (3, 0, 5.00000000000000000000e-01) (3, 0, 5.00000000000000000000e-01) (0, 0, 0.00000000000000000000e+00) 
connections (connected_to_neuron, weight)=(0, -1.83964088559150695801e-01) (1, -1.94879665970802307129e-01) (2, -3.17767187952995300293e-02) (3, -1.98635056614875793457e-01) (4, -4.22994270920753479004e-02) (5, -1.73843011260032653809e-01) (6, -5.24524524807929992676e-02) (7, -1.20203174650669097900e-01) (8, -8.41071084141731262207e-02) (9, -1.88427314162254333496e-01) (10, -3.97507920861244201660e-02) (11, -9.02874991297721862793e-02) (12, -9.24278423190116882324e-02) (13, -1.15870393812656402588e-01) (14, -1.28492176532745361328e-01) (15, -1.29539638757705688477e-01) (16, -1.67357355356216430664e-01) (17, -9.14398804306983947754e-02) (18, -1.63125380873680114746e-01) (0, 6.67297244071960449219e-02) (1, 1.43284961581230163574e-01) (2, 5.55266588926315307617e-02) (3, 2.43088826537132263184e-02) (4, 5.93355298042297363281e-02) (5, 3.92191857099533081055e-02) (6, 1.21245741844177246094e-01) (7, 1.49727821350097656250e-01) (8, 1.58762335777282714844e-01) (9, 6.11636228859424591064e-02) (10, 2.16075539588928222656e-01) (11, 2.06488996744155883789e-01) (12, 9.71995368599891662598e-02) (13, 4.11958843469619750977e-02) (14, 1.94712281227111816406e-01) (15, 1.18564493954181671143e-01) (16, 2.18896448612213134766e-01) (17, 4.08692881464958190918e-02) (18, 8.61120373010635375977e-02) (19, 1.18693284690380096436e-01) (20, 1.76762163639068603516e-01) (21, 1.17684736847877502441e-01) (19, 9.89425033330917358398e-02) (20, 1.06474682688713073730e-01) (21, 4.52568978071212768555e-02) 
