FANN_FLO_2.1
num_layers=3
learning_rate=0.100000
connection_rate=1.000000
network_type=0
learning_momentum=0.000000
training_algorithm=2
train_error_function=1
train_stop_function=0
cascade_output_change_fraction=0.010000
quickprop_decay=-0.000100
quickprop_mu=1.750000
rprop_increase_factor=1.200000
rprop_decrease_factor=0.500000
rprop_delta_min=0.000000
rprop_delta_max=50.000000
rprop_delta_zero=0.100000
cascade_output_stagnation_epochs=12
cascade_candidate_change_fraction=0.010000
cascade_candidate_stagnation_epochs=12
cascade_max_out_epochs=150
cascade_min_out_epochs=50
cascade_max_cand_epochs=150
cascade_min_cand_epochs=50
cascade_num_candidate_groups=2
bit_fail_limit=3.49999994039535522461e-01
cascade_candidate_limit=1.00000000000000000000e+03
cascade_weight_multiplier=4.00000005960464477539e-01
cascade_activation_functions_count=10
cascade_activation_functions=3 5 7 8 10 11 14 15 16 17 
cascade_activation_steepnesses_count=4
cascade_activation_steepnesses=2.50000000000000000000e-01 5.00000000000000000000e-01 7.50000000000000000000e-01 1.00000000000000000000e+00 
layer_sizes=19 3 3 
scale_included=0
neurons (num_inputs, activation_function, activation_steepness)=(0, 0, 0.00000000000000000000e+00) (0, 0, 0.00000000000000000000e+00) (0, 0, 0.00000000000000000000e+00) (0, 0, 0.00000000000000000000e+00) (0, 0, 0.00000000000000000000e+00) (0, 0, 0.00000000000000000000e+00) (0, 0, 0.00000000000000000000e+00) (0, 0, 0.00000000000000000000e+00) (0, 0, 0.00000000000000000000e+00) (0, 0, 0.00000000000000000000e+00) (0, 0, 0.00000000000000000000e+00) (0, 0, 0.00000000000000000000e+00) (0, 0, 0.00000000000000000000e+00) (0, 0, 0.00000000000000000000e+00) (0, 0, 0.00000000000000000000e+00) (0, 0, 0.00000000000000000000e+00) (0, 0, 0.00000000000000000000e+00) (0, 0, 0.00000000000000000000e+00) (0, 0, 0.00000000000000000000e+00) (19, 3, 5.00000000000000000000e-01) (19, 3, 5.00000000000000000000e-01) (0, 3, 0.00000000000000000000e+00) (3, 0, 5.00000000000000000000e-01) (3, 0, 5.00000000000000000000e-01) (0, 0, 0.00000000000000000000e+00) 
connections (connected_to_neuron, weight)=(0, -8.18027630448341369629e-02) (1, -6.82766363024711608887e-02) (2, -1.19031228125095367432e-01) (3, -3.70293632149696350098e-02) (4, -1.82049810886383056641e-01) (5, -1.81317478418350219727e-01) (6, -1.10175624489784240723e-01) (7, -2.08898708224296569824e-01) (8, -1.24034509062767028809e-01) (9, -7.52834007143974304199e-02) (10, -9.99756827950477600098e-02) (11, -6.49981275200843811035e-02) (12, -1.22781611979007720947e-01) (13, -1.37964099645614624023e-01) (14, -2.06407606601715087891e-01) (15, -3.91556397080421447754e-02) (16, -2.18036621809005737305e-01) (17, -3.57838794589042663574e-02) (18, -1.51232287287712097168e-01) (0, -1.03407457470893859863e-01) (1, -1.94001466035842895508e-01) (2, -1.37528449296951293945e-01) (3, -1.18325114250183105469e-01) (4, -5.61756566166877746582e-02) (5, -4.44281175732612609863e-02) (6, -1.36946439743041992188e-01) (7, -4.71545979380607604980e-02) (8, -7.30907693505287170410e-02) (9, -6.20848014950752258301e-02) (10, -1.99333742260932922363e-01) (11, -1.88959270715713500977e-01) (12, -1.23887568712234497070e-01) (13, -4.76103797554969787598e-02) (14, -8.79904851317405700684e-02) (15, -1.40916928648948669434e-01) (16, -2.09660172462463378906e-01) (17, -4.93079647421836853027e-02) (18, -3.10925319790840148926e-02) (19, 4.14411276578903198242e-02) (20, 8.66575390100479125977e-02) (21, 1.53624087572097778320e-01) (19, 1.61465466022491455078e-01) (20, 4.16594222187995910645e-02) (21, 5.08424788713455200195e-02) 
