FANN_FLO_2.1
num_layers=3
learning_rate=0.100000
connection_rate=1.000000
network_type=0
learning_momentum=0.000000
training_algorithm=2
train_error_function=1
train_stop_function=0
cascade_output_change_fraction=0.010000
quickprop_decay=-0.000100
quickprop_mu=1.750000
rprop_increase_factor=1.200000
rprop_decrease_factor=0.500000
rprop_delta_min=0.000000
rprop_delta_max=50.000000
rprop_delta_zero=0.100000
cascade_output_stagnation_epochs=12
cascade_candidate_change_fraction=0.010000
cascade_candidate_stagnation_epochs=12
cascade_max_out_epochs=150
cascade_min_out_epochs=50
cascade_max_cand_epochs=150
cascade_min_cand_epochs=50
cascade_num_candidate_groups=2
bit_fail_limit=3.49999994039535522461e-01
cascade_candidate_limit=1.00000000000000000000e+03
cascade_weight_multiplier=4.00000005960464477539e-01
cascade_activation_functions_count=10
cascade_activation_functions=3 5 7 8 10 11 14 15 16 17 
cascade_activation_steepnesses_count=4
cascade_activation_steepnesses=2.50000000000000000000e-01 5.00000000000000000000e-01 7.50000000000000000000e-01 1.00000000000000000000e+00 
layer_sizes=19 3 3 
scale_included=0
neurons (num_inputs, activation_function, activation_steepness)=(0, 0, 0.00000000000000000000e+00) (0, 0, 0.00000000000000000000e+00) (0, 0, 0.00000000000000000000e+00) (0, 0, 0.00000000000000000000e+00) (0, 0, 0.00000000000000000000e+00) (0, 0, 0.00000000000000000000e+00) (0, 0, 0.00000000000000000000e+00) (0, 0, 0.00000000000000000000e+00) (0, 0, 0.00000000000000000000e+00) (0, 0, 0.00000000000000000000e+00) (0, 0, 0.00000000000000000000e+00) (0, 0, 0.00000000000000000000e+00) (0, 0, 0.00000000000000000000e+00) (0, 0, 0.00000000000000000000e+00) (0, 0, 0.00000000000000000000e+00) (0, 0, 0.00000000000000000000e+00) (0, 0, 0.00000000000000000000e+00) (0, 0, 0.00000000000000000000e+00) (0, 0, 0.00000000000000000000e+00) (19, 3, 5.00000000000000000000e-01) (19, 3, 5.00000000000000000000e-01) (0, 3, 0.00000000000000000000e+00) (3, 0, 5.00000000000000000000e-01) (3, 0, 5.00000000000000000000e-01) (0, 0, 0.00000000000000000000e+00) 
connections (connected_to_neuron, weight)=(0, 2.19965189695358276367e-01) (1, 1.90555602312088012695e-01) (2, 2.95281037688255310059e-02) (3, 1.38104930520057678223e-01) (4, 8.13366770744323730469e-02) (5, 1.53419941663742065430e-01) (6, 4.22638207674026489258e-02) (7, 2.02385395765304565430e-01) (8, 7.73719772696495056152e-02) (9, 1.65777802467346191406e-01) (10, 2.99283340573310852051e-02) (11, 1.66119962930679321289e-01) (12, 5.89093863964080810547e-02) (13, 9.63933542370796203613e-02) (14, 1.66657805442810058594e-01) (15, 7.18472823500633239746e-02) (16, 1.61959230899810791016e-01) (17, 1.41931608319282531738e-01) (18, 2.07571506500244140625e-01) (0, -1.98948919773101806641e-01) (1, -2.38740965723991394043e-02) (2, -7.81918093562126159668e-02) (3, -1.42067462205886840820e-01) (4, -1.38377979397773742676e-01) (5, -5.75422570109367370605e-02) (6, -1.27310365438461303711e-01) (7, -1.22351326048374176025e-01) (8, -1.03358052670955657959e-01) (9, -6.51970729231834411621e-02) (10, -8.89804288744926452637e-02) (11, -1.31356239318847656250e-01) (12, -6.52318969368934631348e-02) (13, -1.18424847722053527832e-01) (14, -1.21828138828277587891e-01) (15, -1.47126972675323486328e-01) (16, -5.70881739258766174316e-02) (17, -1.88408210873603820801e-01) (18, -1.24863162636756896973e-01) (19, 1.65297240018844604492e-01) (20, 1.08963772654533386230e-01) (21, 6.09146319329738616943e-02) (19, 1.75225585699081420898e-01) (20, 5.50837218761444091797e-02) (21, 9.98240187764167785645e-02) 
