FANN_FLO_2.1
num_layers=3
learning_rate=0.100000
connection_rate=1.000000
network_type=0
learning_momentum=0.000000
training_algorithm=2
train_error_function=1
train_stop_function=0
cascade_output_change_fraction=0.010000
quickprop_decay=-0.000100
quickprop_mu=1.750000
rprop_increase_factor=1.200000
rprop_decrease_factor=0.500000
rprop_delta_min=0.000000
rprop_delta_max=50.000000
rprop_delta_zero=0.100000
cascade_output_stagnation_epochs=12
cascade_candidate_change_fraction=0.010000
cascade_candidate_stagnation_epochs=12
cascade_max_out_epochs=150
cascade_min_out_epochs=50
cascade_max_cand_epochs=150
cascade_min_cand_epochs=50
cascade_num_candidate_groups=2
bit_fail_limit=3.49999994039535522461e-01
cascade_candidate_limit=1.00000000000000000000e+03
cascade_weight_multiplier=4.00000005960464477539e-01
cascade_activation_functions_count=10
cascade_activation_functions=3 5 7 8 10 11 14 15 16 17 
cascade_activation_steepnesses_count=4
cascade_activation_steepnesses=2.50000000000000000000e-01 5.00000000000000000000e-01 7.50000000000000000000e-01 1.00000000000000000000e+00 
layer_sizes=10 3 2 
scale_included=0
neurons (num_inputs, activation_function, activation_steepness)=(0, 0, 0.00000000000000000000e+00) (0, 0, 0.00000000000000000000e+00) (0, 0, 0.00000000000000000000e+00) (0, 0, 0.00000000000000000000e+00) (0, 0, 0.00000000000000000000e+00) (0, 0, 0.00000000000000000000e+00) (0, 0, 0.00000000000000000000e+00) (0, 0, 0.00000000000000000000e+00) (0, 0, 0.00000000000000000000e+00) (0, 0, 0.00000000000000000000e+00) (10, 3, 5.00000000000000000000e-01) (10, 3, 5.00000000000000000000e-01) (0, 3, 0.00000000000000000000e+00) (3, 0, 5.00000000000000000000e-01) (0, 0, 0.00000000000000000000e+00) 
connections (connected_to_neuron, weight)=(0, 2.11238175630569458008e-01) (1, 1.18719652295112609863e-01) (2, 1.95275306701660156250e-01) (3, 7.92518854141235351562e-02) (4, 1.99446707963943481445e-01) (5, 6.92241787910461425781e-02) (6, 9.01101380586624145508e-02) (7, 5.98381385207176208496e-02) (8, 1.79940581321716308594e-01) (9, 9.23122912645339965820e-02) (0, -1.16705536842346191406e-01) (1, -1.79642140865325927734e-01) (2, -2.28743925690650939941e-02) (3, -1.60113096237182617188e-01) (4, -2.13639229536056518555e-01) (5, -1.27348706126213073730e-01) (6, -1.13442264497280120850e-01) (7, -1.57652512192726135254e-01) (8, -6.43768385052680969238e-02) (9, -7.36580416560173034668e-02) (10, 1.72141641378402709961e-01) (11, 1.03291928768157958984e-01) (12, 1.74726337194442749023e-01) 
