FANN_FLO_2.1
num_layers=3
learning_rate=0.100000
connection_rate=1.000000
network_type=0
learning_momentum=0.000000
training_algorithm=2
train_error_function=1
train_stop_function=0
cascade_output_change_fraction=0.010000
quickprop_decay=-0.000100
quickprop_mu=1.750000
rprop_increase_factor=1.200000
rprop_decrease_factor=0.500000
rprop_delta_min=0.000000
rprop_delta_max=50.000000
rprop_delta_zero=0.100000
cascade_output_stagnation_epochs=12
cascade_candidate_change_fraction=0.010000
cascade_candidate_stagnation_epochs=12
cascade_max_out_epochs=150
cascade_min_out_epochs=50
cascade_max_cand_epochs=150
cascade_min_cand_epochs=50
cascade_num_candidate_groups=2
bit_fail_limit=3.49999994039535522461e-01
cascade_candidate_limit=1.00000000000000000000e+03
cascade_weight_multiplier=4.00000005960464477539e-01
cascade_activation_functions_count=10
cascade_activation_functions=3 5 7 8 10 11 14 15 16 17 
cascade_activation_steepnesses_count=4
cascade_activation_steepnesses=2.50000000000000000000e-01 5.00000000000000000000e-01 7.50000000000000000000e-01 1.00000000000000000000e+00 
layer_sizes=10 3 2 
scale_included=0
neurons (num_inputs, activation_function, activation_steepness)=(0, 0, 0.00000000000000000000e+00) (0, 0, 0.00000000000000000000e+00) (0, 0, 0.00000000000000000000e+00) (0, 0, 0.00000000000000000000e+00) (0, 0, 0.00000000000000000000e+00) (0, 0, 0.00000000000000000000e+00) (0, 0, 0.00000000000000000000e+00) (0, 0, 0.00000000000000000000e+00) (0, 0, 0.00000000000000000000e+00) (0, 0, 0.00000000000000000000e+00) (10, 3, 5.00000000000000000000e-01) (10, 3, 5.00000000000000000000e-01) (0, 3, 0.00000000000000000000e+00) (3, 0, 5.00000000000000000000e-01) (0, 0, 0.00000000000000000000e+00) 
connections (connected_to_neuron, weight)=(0, -4.53573837876319885254e-02) (1, -1.45530819892883300781e-01) (2, -1.00842989981174468994e-01) (3, -2.15380638837814331055e-01) (4, -4.95605245232582092285e-02) (5, -7.63622894883155822754e-02) (6, -1.75301089882850646973e-01) (7, -1.60488009452819824219e-01) (8, -1.21280044317245483398e-01) (9, -1.61064714193344116211e-01) (0, -1.62230432033538818359e-01) (1, -1.37402772903442382812e-01) (2, -1.47758528590202331543e-01) (3, -9.74702984094619750977e-02) (4, -5.89685216546058654785e-02) (5, -2.67982259392738342285e-02) (6, -9.86864119768142700195e-02) (7, -2.05737948417663574219e-01) (8, -3.31116244196891784668e-02) (9, -5.84389343857765197754e-02) (10, 4.24317941069602966309e-02) (11, 4.25143912434577941895e-02) (12, 6.72143995761871337891e-02) 
