FANN_FLO_2.1
num_layers=3
learning_rate=0.100000
connection_rate=1.000000
network_type=0
learning_momentum=0.000000
training_algorithm=2
train_error_function=1
train_stop_function=0
cascade_output_change_fraction=0.010000
quickprop_decay=-0.000100
quickprop_mu=1.750000
rprop_increase_factor=1.200000
rprop_decrease_factor=0.500000
rprop_delta_min=0.000000
rprop_delta_max=50.000000
rprop_delta_zero=0.100000
cascade_output_stagnation_epochs=12
cascade_candidate_change_fraction=0.010000
cascade_candidate_stagnation_epochs=12
cascade_max_out_epochs=150
cascade_min_out_epochs=50
cascade_max_cand_epochs=150
cascade_min_cand_epochs=50
cascade_num_candidate_groups=2
bit_fail_limit=3.49999994039535522461e-01
cascade_candidate_limit=1.00000000000000000000e+03
cascade_weight_multiplier=4.00000005960464477539e-01
cascade_activation_functions_count=10
cascade_activation_functions=3 5 7 8 10 11 14 15 16 17 
cascade_activation_steepnesses_count=4
cascade_activation_steepnesses=2.50000000000000000000e-01 5.00000000000000000000e-01 7.50000000000000000000e-01 1.00000000000000000000e+00 
layer_sizes=10 3 2 
scale_included=0
neurons (num_inputs, activation_function, activation_steepness)=(0, 0, 0.00000000000000000000e+00) (0, 0, 0.00000000000000000000e+00) (0, 0, 0.00000000000000000000e+00) (0, 0, 0.00000000000000000000e+00) (0, 0, 0.00000000000000000000e+00) (0, 0, 0.00000000000000000000e+00) (0, 0, 0.00000000000000000000e+00) (0, 0, 0.00000000000000000000e+00) (0, 0, 0.00000000000000000000e+00) (0, 0, 0.00000000000000000000e+00) (10, 3, 5.00000000000000000000e-01) (10, 3, 5.00000000000000000000e-01) (0, 3, 0.00000000000000000000e+00) (3, 0, 5.00000000000000000000e-01) (0, 0, 0.00000000000000000000e+00) 
connections (connected_to_neuron, weight)=(0, 2.06114828586578369141e-01) (1, 1.63338989019393920898e-01) (2, 1.59289002418518066406e-01) (3, 1.88794076442718505859e-01) (4, 4.80946302413940429688e-02) (5, 3.26229333877563476562e-02) (6, 1.48013830184936523438e-01) (7, 1.50026023387908935547e-01) (8, 2.12708681821823120117e-01) (9, 8.56897681951522827148e-02) (0, 8.57101827859878540039e-02) (1, 1.48451656103134155273e-01) (2, 3.60626578330993652344e-02) (3, 2.09520548582077026367e-01) (4, 8.31510871648788452148e-02) (5, 1.20032668113708496094e-01) (6, 1.34612455964088439941e-01) (7, 1.18184216320514678955e-01) (8, 1.07228420674800872803e-01) (9, 1.99545353651046752930e-01) (10, 1.25344127416610717773e-01) (11, 2.12778985500335693359e-01) (12, 1.28889068961143493652e-01) 
