FANN_FLO_2.1
num_layers=3
learning_rate=0.100000
connection_rate=1.000000
network_type=0
learning_momentum=0.000000
training_algorithm=2
train_error_function=1
train_stop_function=0
cascade_output_change_fraction=0.010000
quickprop_decay=-0.000100
quickprop_mu=1.750000
rprop_increase_factor=1.200000
rprop_decrease_factor=0.500000
rprop_delta_min=0.000000
rprop_delta_max=50.000000
rprop_delta_zero=0.100000
cascade_output_stagnation_epochs=12
cascade_candidate_change_fraction=0.010000
cascade_candidate_stagnation_epochs=12
cascade_max_out_epochs=150
cascade_min_out_epochs=50
cascade_max_cand_epochs=150
cascade_min_cand_epochs=50
cascade_num_candidate_groups=2
bit_fail_limit=3.49999994039535522461e-01
cascade_candidate_limit=1.00000000000000000000e+03
cascade_weight_multiplier=4.00000005960464477539e-01
cascade_activation_functions_count=10
cascade_activation_functions=3 5 7 8 10 11 14 15 16 17 
cascade_activation_steepnesses_count=4
cascade_activation_steepnesses=2.50000000000000000000e-01 5.00000000000000000000e-01 7.50000000000000000000e-01 1.00000000000000000000e+00 
layer_sizes=19 3 3 
scale_included=0
neurons (num_inputs, activation_function, activation_steepness)=(0, 0, 0.00000000000000000000e+00) (0, 0, 0.00000000000000000000e+00) (0, 0, 0.00000000000000000000e+00) (0, 0, 0.00000000000000000000e+00) (0, 0, 0.00000000000000000000e+00) (0, 0, 0.00000000000000000000e+00) (0, 0, 0.00000000000000000000e+00) (0, 0, 0.00000000000000000000e+00) (0, 0, 0.00000000000000000000e+00) (0, 0, 0.00000000000000000000e+00) (0, 0, 0.00000000000000000000e+00) (0, 0, 0.00000000000000000000e+00) (0, 0, 0.00000000000000000000e+00) (0, 0, 0.00000000000000000000e+00) (0, 0, 0.00000000000000000000e+00) (0, 0, 0.00000000000000000000e+00) (0, 0, 0.00000000000000000000e+00) (0, 0, 0.00000000000000000000e+00) (0, 0, 0.00000000000000000000e+00) (19, 3, 5.00000000000000000000e-01) (19, 3, 5.00000000000000000000e-01) (0, 3, 0.00000000000000000000e+00) (3, 0, 5.00000000000000000000e-01) (3, 0, 5.00000000000000000000e-01) (0, 0, 0.00000000000000000000e+00) 
connections (connected_to_neuron, weight)=(0, -7.07574561238288879395e-02) (1, -5.23745194077491760254e-02) (2, -2.52094492316246032715e-02) (3, -1.60420164465904235840e-01) (4, -6.12634196877479553223e-02) (5, -1.25812008976936340332e-01) (6, -1.58368498086929321289e-01) (7, -1.59128546714782714844e-01) (8, -9.02742519974708557129e-02) (9, -1.76995515823364257812e-01) (10, -6.67093321681022644043e-02) (11, -2.03871801495552062988e-01) (12, -1.29748404026031494141e-01) (13, -1.97760805487632751465e-01) (14, -2.10372298955917358398e-01) (15, -2.06181988120079040527e-01) (16, -1.15848638117313385010e-01) (17, -2.13308826088905334473e-01) (18, -1.30219802260398864746e-01) (0, 2.15651065111160278320e-01) (1, 1.82775855064392089844e-01) (2, 1.12493768334388732910e-01) (3, 1.55731379985809326172e-01) (4, 1.29044100642204284668e-01) (5, 1.66696667671203613281e-01) (6, 1.62134200334548950195e-01) (7, 5.56025654077529907227e-02) (8, 3.73739898204803466797e-02) (9, 1.40425235033035278320e-01) (10, 1.05606958270072937012e-01) (11, 1.47761076688766479492e-01) (12, 8.96677896380424499512e-02) (13, 7.32324421405792236328e-02) (14, 1.42551630735397338867e-01) (15, 1.49247646331787109375e-01) (16, 3.19690257310867309570e-02) (17, 3.67396324872970581055e-02) (18, 2.10879147052764892578e-01) (19, 9.28404927253723144531e-02) (20, 1.66465371847152709961e-01) (21, 5.38836419582366943359e-02) (19, 4.61311563849449157715e-02) (20, 1.82593584060668945312e-01) (21, 1.44135251641273498535e-01) 
