FANN_FLO_2.1
num_layers=3
learning_rate=0.100000
connection_rate=1.000000
network_type=0
learning_momentum=0.000000
training_algorithm=2
train_error_function=1
train_stop_function=0
cascade_output_change_fraction=0.010000
quickprop_decay=-0.000100
quickprop_mu=1.750000
rprop_increase_factor=1.200000
rprop_decrease_factor=0.500000
rprop_delta_min=0.000000
rprop_delta_max=50.000000
rprop_delta_zero=0.100000
cascade_output_stagnation_epochs=12
cascade_candidate_change_fraction=0.010000
cascade_candidate_stagnation_epochs=12
cascade_max_out_epochs=150
cascade_min_out_epochs=50
cascade_max_cand_epochs=150
cascade_min_cand_epochs=50
cascade_num_candidate_groups=2
bit_fail_limit=3.49999994039535522461e-01
cascade_candidate_limit=1.00000000000000000000e+03
cascade_weight_multiplier=4.00000005960464477539e-01
cascade_activation_functions_count=10
cascade_activation_functions=3 5 7 8 10 11 14 15 16 17 
cascade_activation_steepnesses_count=4
cascade_activation_steepnesses=2.50000000000000000000e-01 5.00000000000000000000e-01 7.50000000000000000000e-01 1.00000000000000000000e+00 
layer_sizes=10 3 2 
scale_included=0
neurons (num_inputs, activation_function, activation_steepness)=(0, 0, 0.00000000000000000000e+00) (0, 0, 0.00000000000000000000e+00) (0, 0, 0.00000000000000000000e+00) (0, 0, 0.00000000000000000000e+00) (0, 0, 0.00000000000000000000e+00) (0, 0, 0.00000000000000000000e+00) (0, 0, 0.00000000000000000000e+00) (0, 0, 0.00000000000000000000e+00) (0, 0, 0.00000000000000000000e+00) (0, 0, 0.00000000000000000000e+00) (10, 3, 5.00000000000000000000e-01) (10, 3, 5.00000000000000000000e-01) (0, 3, 0.00000000000000000000e+00) (3, 0, 5.00000000000000000000e-01) (0, 0, 0.00000000000000000000e+00) 
connections (connected_to_neuron, weight)=(0, -2.12508559226989746094e-01) (1, -7.30040892958641052246e-02) (2, -4.21419069170951843262e-02) (3, -1.60056024789810180664e-01) (4, -2.13919326663017272949e-01) (5, -1.35326355695724487305e-01) (6, -9.30384323000907897949e-02) (7, -4.71218004822731018066e-02) (8, -1.83926314115524291992e-01) (9, -3.83005514740943908691e-02) (0, 1.30792111158370971680e-01) (1, 4.41073998808860778809e-02) (2, 7.74635821580886840820e-02) (3, 9.93809178471565246582e-02) (4, 3.38132753968238830566e-02) (5, 4.92610409855842590332e-02) (6, 1.18688344955444335938e-01) (7, 5.87872005999088287354e-02) (8, 1.51204466819763183594e-01) (9, 8.64945501089096069336e-02) (10, 1.08649037778377532959e-01) (11, 2.19166815280914306641e-01) (12, 4.50130179524421691895e-02) 
