FANN_FLO_2.1
num_layers=3
learning_rate=0.100000
connection_rate=1.000000
network_type=0
learning_momentum=0.000000
training_algorithm=2
train_error_function=1
train_stop_function=0
cascade_output_change_fraction=0.010000
quickprop_decay=-0.000100
quickprop_mu=1.750000
rprop_increase_factor=1.200000
rprop_decrease_factor=0.500000
rprop_delta_min=0.000000
rprop_delta_max=50.000000
rprop_delta_zero=0.100000
cascade_output_stagnation_epochs=12
cascade_candidate_change_fraction=0.010000
cascade_candidate_stagnation_epochs=12
cascade_max_out_epochs=150
cascade_min_out_epochs=50
cascade_max_cand_epochs=150
cascade_min_cand_epochs=50
cascade_num_candidate_groups=2
bit_fail_limit=3.49999994039535522461e-01
cascade_candidate_limit=1.00000000000000000000e+03
cascade_weight_multiplier=4.00000005960464477539e-01
cascade_activation_functions_count=10
cascade_activation_functions=3 5 7 8 10 11 14 15 16 17 
cascade_activation_steepnesses_count=4
cascade_activation_steepnesses=2.50000000000000000000e-01 5.00000000000000000000e-01 7.50000000000000000000e-01 1.00000000000000000000e+00 
layer_sizes=19 3 3 
scale_included=0
neurons (num_inputs, activation_function, activation_steepness)=(0, 0, 0.00000000000000000000e+00) (0, 0, 0.00000000000000000000e+00) (0, 0, 0.00000000000000000000e+00) (0, 0, 0.00000000000000000000e+00) (0, 0, 0.00000000000000000000e+00) (0, 0, 0.00000000000000000000e+00) (0, 0, 0.00000000000000000000e+00) (0, 0, 0.00000000000000000000e+00) (0, 0, 0.00000000000000000000e+00) (0, 0, 0.00000000000000000000e+00) (0, 0, 0.00000000000000000000e+00) (0, 0, 0.00000000000000000000e+00) (0, 0, 0.00000000000000000000e+00) (0, 0, 0.00000000000000000000e+00) (0, 0, 0.00000000000000000000e+00) (0, 0, 0.00000000000000000000e+00) (0, 0, 0.00000000000000000000e+00) (0, 0, 0.00000000000000000000e+00) (0, 0, 0.00000000000000000000e+00) (19, 3, 5.00000000000000000000e-01) (19, 3, 5.00000000000000000000e-01) (0, 3, 0.00000000000000000000e+00) (3, 0, 5.00000000000000000000e-01) (3, 0, 5.00000000000000000000e-01) (0, 0, 0.00000000000000000000e+00) 
connections (connected_to_neuron, weight)=(0, -1.82951301336288452148e-01) (1, -2.38826498389244079590e-02) (2, -1.19859300553798675537e-01) (3, -1.49820953607559204102e-01) (4, -1.42475292086601257324e-01) (5, -1.29184544086456298828e-01) (6, -1.05042085051536560059e-01) (7, -9.76318940520286560059e-02) (8, -7.66314193606376647949e-02) (9, -4.44742664694786071777e-02) (10, -1.13381661474704742432e-01) (11, -1.39586165547370910645e-01) (12, -1.46576911211013793945e-01) (13, -1.45893901586532592773e-01) (14, -1.83709055185317993164e-01) (15, -2.07927316427230834961e-01) (16, -5.96447959542274475098e-02) (17, -2.06669151782989501953e-01) (18, -4.16634157299995422363e-02) (0, -8.69334414601325988770e-02) (1, -1.90993934869766235352e-01) (2, -1.26671925187110900879e-01) (3, -1.60861745476722717285e-01) (4, -1.59694164991378784180e-01) (5, -4.27960827946662902832e-02) (6, -2.03231468796730041504e-01) (7, -5.56265339255332946777e-02) (8, -2.12993025779724121094e-01) (9, -1.02651514112949371338e-01) (10, -1.67611092329025268555e-01) (11, -9.16965976357460021973e-02) (12, -6.56028166413307189941e-02) (13, -1.71493738889694213867e-01) (14, -1.91555902361869812012e-01) (15, -1.95423781871795654297e-01) (16, -9.39690247178077697754e-02) (17, -1.00740432739257812500e-01) (18, -8.04658606648445129395e-02) (19, 6.83990865945816040039e-02) (20, 8.26281607151031494141e-02) (21, 1.35059878230094909668e-01) (19, 1.75017446279525756836e-01) (20, 1.63042008876800537109e-01) (21, 2.08482980728149414062e-01) 
