FANN_FLO_2.1
num_layers=3
learning_rate=0.100000
connection_rate=1.000000
network_type=0
learning_momentum=0.000000
training_algorithm=2
train_error_function=1
train_stop_function=0
cascade_output_change_fraction=0.010000
quickprop_decay=-0.000100
quickprop_mu=1.750000
rprop_increase_factor=1.200000
rprop_decrease_factor=0.500000
rprop_delta_min=0.000000
rprop_delta_max=50.000000
rprop_delta_zero=0.100000
cascade_output_stagnation_epochs=12
cascade_candidate_change_fraction=0.010000
cascade_candidate_stagnation_epochs=12
cascade_max_out_epochs=150
cascade_min_out_epochs=50
cascade_max_cand_epochs=150
cascade_min_cand_epochs=50
cascade_num_candidate_groups=2
bit_fail_limit=3.49999994039535522461e-01
cascade_candidate_limit=1.00000000000000000000e+03
cascade_weight_multiplier=4.00000005960464477539e-01
cascade_activation_functions_count=10
cascade_activation_functions=3 5 7 8 10 11 14 15 16 17 
cascade_activation_steepnesses_count=4
cascade_activation_steepnesses=2.50000000000000000000e-01 5.00000000000000000000e-01 7.50000000000000000000e-01 1.00000000000000000000e+00 
layer_sizes=10 3 2 
scale_included=0
neurons (num_inputs, activation_function, activation_steepness)=(0, 0, 0.00000000000000000000e+00) (0, 0, 0.00000000000000000000e+00) (0, 0, 0.00000000000000000000e+00) (0, 0, 0.00000000000000000000e+00) (0, 0, 0.00000000000000000000e+00) (0, 0, 0.00000000000000000000e+00) (0, 0, 0.00000000000000000000e+00) (0, 0, 0.00000000000000000000e+00) (0, 0, 0.00000000000000000000e+00) (0, 0, 0.00000000000000000000e+00) (10, 3, 5.00000000000000000000e-01) (10, 3, 5.00000000000000000000e-01) (0, 3, 0.00000000000000000000e+00) (3, 0, 5.00000000000000000000e-01) (0, 0, 0.00000000000000000000e+00) 
connections (connected_to_neuron, weight)=(0, -1.93949133157730102539e-01) (1, -2.00344592332839965820e-01) (2, -1.06374599039554595947e-01) (3, -1.08660385012626647949e-01) (4, -1.13677002489566802979e-01) (5, -2.09084481000900268555e-01) (6, -7.76783600449562072754e-02) (7, -5.89229241013526916504e-02) (8, -3.98683026432991027832e-02) (9, -1.49284601211547851562e-01) (0, 2.42816209793090820312e-02) (1, 2.10650265216827392578e-01) (2, 1.30932763218879699707e-01) (3, 1.72420054674148559570e-01) (4, 1.54920488595962524414e-01) (5, 2.63500213623046875000e-02) (6, 9.19169783592224121094e-02) (7, 1.23528406023979187012e-01) (8, 5.95149137079715728760e-02) (9, 2.12534248828887939453e-01) (10, 1.18744164705276489258e-01) (11, 1.69542968273162841797e-01) (12, 2.02617585659027099609e-01) 
