FANN_FLO_2.1
num_layers=3
learning_rate=0.100000
connection_rate=1.000000
network_type=0
learning_momentum=0.000000
training_algorithm=2
train_error_function=1
train_stop_function=0
cascade_output_change_fraction=0.010000
quickprop_decay=-0.000100
quickprop_mu=1.750000
rprop_increase_factor=1.200000
rprop_decrease_factor=0.500000
rprop_delta_min=0.000000
rprop_delta_max=50.000000
rprop_delta_zero=0.100000
cascade_output_stagnation_epochs=12
cascade_candidate_change_fraction=0.010000
cascade_candidate_stagnation_epochs=12
cascade_max_out_epochs=150
cascade_min_out_epochs=50
cascade_max_cand_epochs=150
cascade_min_cand_epochs=50
cascade_num_candidate_groups=2
bit_fail_limit=3.49999994039535522461e-01
cascade_candidate_limit=1.00000000000000000000e+03
cascade_weight_multiplier=4.00000005960464477539e-01
cascade_activation_functions_count=10
cascade_activation_functions=3 5 7 8 10 11 14 15 16 17 
cascade_activation_steepnesses_count=4
cascade_activation_steepnesses=2.50000000000000000000e-01 5.00000000000000000000e-01 7.50000000000000000000e-01 1.00000000000000000000e+00 
layer_sizes=10 3 2 
scale_included=0
neurons (num_inputs, activation_function, activation_steepness)=(0, 0, 0.00000000000000000000e+00) (0, 0, 0.00000000000000000000e+00) (0, 0, 0.00000000000000000000e+00) (0, 0, 0.00000000000000000000e+00) (0, 0, 0.00000000000000000000e+00) (0, 0, 0.00000000000000000000e+00) (0, 0, 0.00000000000000000000e+00) (0, 0, 0.00000000000000000000e+00) (0, 0, 0.00000000000000000000e+00) (0, 0, 0.00000000000000000000e+00) (10, 3, 5.00000000000000000000e-01) (10, 3, 5.00000000000000000000e-01) (0, 3, 0.00000000000000000000e+00) (3, 0, 5.00000000000000000000e-01) (0, 0, 0.00000000000000000000e+00) 
connections (connected_to_neuron, weight)=(0, -1.71341583132743835449e-01) (1, -1.24576732516288757324e-01) (2, -2.14017257094383239746e-01) (3, -1.25162005424499511719e-01) (4, -7.08860829472541809082e-02) (5, -7.04992488026618957520e-02) (6, -7.30494484305381774902e-02) (7, -1.97987616062164306641e-01) (8, -1.55723363161087036133e-01) (9, -7.79251381754875183105e-02) (0, -1.79339036345481872559e-01) (1, -1.32751837372779846191e-01) (2, -6.98212310671806335449e-02) (3, -1.87996596097946166992e-01) (4, -1.29092857241630554199e-01) (5, -2.08055257797241210938e-01) (6, -7.10712596774101257324e-02) (7, -1.31659284234046936035e-01) (8, -7.18324556946754455566e-02) (9, -7.73708596825599670410e-02) (10, 7.22702443599700927734e-02) (11, 5.50272762775421142578e-02) (12, 8.21679085493087768555e-02) 
