FANN_FLO_2.1
num_layers=3
learning_rate=0.100000
connection_rate=1.000000
network_type=0
learning_momentum=0.000000
training_algorithm=2
train_error_function=1
train_stop_function=0
cascade_output_change_fraction=0.010000
quickprop_decay=-0.000100
quickprop_mu=1.750000
rprop_increase_factor=1.200000
rprop_decrease_factor=0.500000
rprop_delta_min=0.000000
rprop_delta_max=50.000000
rprop_delta_zero=0.100000
cascade_output_stagnation_epochs=12
cascade_candidate_change_fraction=0.010000
cascade_candidate_stagnation_epochs=12
cascade_max_out_epochs=150
cascade_min_out_epochs=50
cascade_max_cand_epochs=150
cascade_min_cand_epochs=50
cascade_num_candidate_groups=2
bit_fail_limit=3.49999994039535522461e-01
cascade_candidate_limit=1.00000000000000000000e+03
cascade_weight_multiplier=4.00000005960464477539e-01
cascade_activation_functions_count=10
cascade_activation_functions=3 5 7 8 10 11 14 15 16 17 
cascade_activation_steepnesses_count=4
cascade_activation_steepnesses=2.50000000000000000000e-01 5.00000000000000000000e-01 7.50000000000000000000e-01 1.00000000000000000000e+00 
layer_sizes=19 3 3 
scale_included=0
neurons (num_inputs, activation_function, activation_steepness)=(0, 0, 0.00000000000000000000e+00) (0, 0, 0.00000000000000000000e+00) (0, 0, 0.00000000000000000000e+00) (0, 0, 0.00000000000000000000e+00) (0, 0, 0.00000000000000000000e+00) (0, 0, 0.00000000000000000000e+00) (0, 0, 0.00000000000000000000e+00) (0, 0, 0.00000000000000000000e+00) (0, 0, 0.00000000000000000000e+00) (0, 0, 0.00000000000000000000e+00) (0, 0, 0.00000000000000000000e+00) (0, 0, 0.00000000000000000000e+00) (0, 0, 0.00000000000000000000e+00) (0, 0, 0.00000000000000000000e+00) (0, 0, 0.00000000000000000000e+00) (0, 0, 0.00000000000000000000e+00) (0, 0, 0.00000000000000000000e+00) (0, 0, 0.00000000000000000000e+00) (0, 0, 0.00000000000000000000e+00) (19, 3, 5.00000000000000000000e-01) (19, 3, 5.00000000000000000000e-01) (0, 3, 0.00000000000000000000e+00) (3, 0, 5.00000000000000000000e-01) (3, 0, 5.00000000000000000000e-01) (0, 0, 0.00000000000000000000e+00) 
connections (connected_to_neuron, weight)=(0, -2.16345340013504028320e-01) (1, -2.33701094985008239746e-02) (2, -5.38015142083168029785e-02) (3, -2.18770936131477355957e-01) (4, -2.14440464973449707031e-01) (5, -7.89652690291404724121e-02) (6, -2.83788368105888366699e-02) (7, -9.84588712453842163086e-02) (8, -1.67049720883369445801e-01) (9, -1.82817637920379638672e-01) (10, -8.85941162705421447754e-02) (11, -5.04713729023933410645e-02) (12, -1.50445461273193359375e-01) (13, -1.70434445142745971680e-01) (14, -1.42683655023574829102e-01) (15, -7.39469155669212341309e-02) (16, -1.49594873189926147461e-01) (17, -8.92357751727104187012e-02) (18, -3.17709669470787048340e-02) (0, -2.01849460601806640625e-01) (1, -8.79143700003623962402e-02) (2, -3.94833758473396301270e-02) (3, -1.34499400854110717773e-01) (4, -2.83732190728187561035e-02) (5, -1.92522674798965454102e-01) (6, 1.51636183261871337891e-01) (7, -2.11466014385223388672e-01) (8, -9.45285037159919738770e-02) (9, -1.02645061910152435303e-01) (10, -4.02454361319541931152e-02) (11, -6.32871016860008239746e-02) (12, -9.89903956651687622070e-02) (13, -4.36155423521995544434e-02) (14, 1.42911404371261596680e-01) (15, -9.77613180875778198242e-02) (16, -3.80560085177421569824e-02) (17, -1.56053885817527770996e-01) (18, -1.06140159070491790771e-01) (19, 1.23485125601291656494e-01) (20, 1.36896401643753051758e-01) (21, 1.71042233705520629883e-01) (19, 5.48910051584243774414e-02) (20, 1.06425032019615173340e-01) (21, 4.05967757105827331543e-02) 
