FANN_FLO_2.1
num_layers=3
learning_rate=0.100000
connection_rate=1.000000
network_type=0
learning_momentum=0.000000
training_algorithm=2
train_error_function=1
train_stop_function=0
cascade_output_change_fraction=0.010000
quickprop_decay=-0.000100
quickprop_mu=1.750000
rprop_increase_factor=1.200000
rprop_decrease_factor=0.500000
rprop_delta_min=0.000000
rprop_delta_max=50.000000
rprop_delta_zero=0.100000
cascade_output_stagnation_epochs=12
cascade_candidate_change_fraction=0.010000
cascade_candidate_stagnation_epochs=12
cascade_max_out_epochs=150
cascade_min_out_epochs=50
cascade_max_cand_epochs=150
cascade_min_cand_epochs=50
cascade_num_candidate_groups=2
bit_fail_limit=3.49999994039535522461e-01
cascade_candidate_limit=1.00000000000000000000e+03
cascade_weight_multiplier=4.00000005960464477539e-01
cascade_activation_functions_count=10
cascade_activation_functions=3 5 7 8 10 11 14 15 16 17 
cascade_activation_steepnesses_count=4
cascade_activation_steepnesses=2.50000000000000000000e-01 5.00000000000000000000e-01 7.50000000000000000000e-01 1.00000000000000000000e+00 
layer_sizes=10 3 2 
scale_included=0
neurons (num_inputs, activation_function, activation_steepness)=(0, 0, 0.00000000000000000000e+00) (0, 0, 0.00000000000000000000e+00) (0, 0, 0.00000000000000000000e+00) (0, 0, 0.00000000000000000000e+00) (0, 0, 0.00000000000000000000e+00) (0, 0, 0.00000000000000000000e+00) (0, 0, 0.00000000000000000000e+00) (0, 0, 0.00000000000000000000e+00) (0, 0, 0.00000000000000000000e+00) (0, 0, 0.00000000000000000000e+00) (10, 3, 5.00000000000000000000e-01) (10, 3, 5.00000000000000000000e-01) (0, 3, 0.00000000000000000000e+00) (3, 0, 5.00000000000000000000e-01) (0, 0, 0.00000000000000000000e+00) 
connections (connected_to_neuron, weight)=(0, 7.48635381460189819336e-02) (1, 1.60489588975906372070e-01) (2, 4.73948195576667785645e-02) (3, 1.42729997634887695312e-01) (4, 1.38741239905357360840e-01) (5, 1.43260970711708068848e-01) (6, 9.29116159677505493164e-02) (7, 2.09729045629501342773e-01) (8, 1.20239242911338806152e-01) (9, 4.41135987639427185059e-02) (0, -4.45496365427970886230e-02) (1, -4.98352721333503723145e-02) (2, -1.16058245301246643066e-01) (3, -1.98890209197998046875e-01) (4, -9.29633453488349914551e-02) (5, -4.58661988377571105957e-02) (6, -1.82282358407974243164e-01) (7, -2.07805216312408447266e-01) (8, -1.14767909049987792969e-01) (9, -6.57190158963203430176e-02) (10, 1.34311586618423461914e-01) (11, 9.38526690006256103516e-02) (12, 7.92178437113761901855e-02) 
