FANN_FLO_2.1
num_layers=3
learning_rate=0.100000
connection_rate=1.000000
network_type=0
learning_momentum=0.000000
training_algorithm=2
train_error_function=1
train_stop_function=0
cascade_output_change_fraction=0.010000
quickprop_decay=-0.000100
quickprop_mu=1.750000
rprop_increase_factor=1.200000
rprop_decrease_factor=0.500000
rprop_delta_min=0.000000
rprop_delta_max=50.000000
rprop_delta_zero=0.100000
cascade_output_stagnation_epochs=12
cascade_candidate_change_fraction=0.010000
cascade_candidate_stagnation_epochs=12
cascade_max_out_epochs=150
cascade_min_out_epochs=50
cascade_max_cand_epochs=150
cascade_min_cand_epochs=50
cascade_num_candidate_groups=2
bit_fail_limit=3.49999994039535522461e-01
cascade_candidate_limit=1.00000000000000000000e+03
cascade_weight_multiplier=4.00000005960464477539e-01
cascade_activation_functions_count=10
cascade_activation_functions=3 5 7 8 10 11 14 15 16 17 
cascade_activation_steepnesses_count=4
cascade_activation_steepnesses=2.50000000000000000000e-01 5.00000000000000000000e-01 7.50000000000000000000e-01 1.00000000000000000000e+00 
layer_sizes=19 3 3 
scale_included=0
neurons (num_inputs, activation_function, activation_steepness)=(0, 0, 0.00000000000000000000e+00) (0, 0, 0.00000000000000000000e+00) (0, 0, 0.00000000000000000000e+00) (0, 0, 0.00000000000000000000e+00) (0, 0, 0.00000000000000000000e+00) (0, 0, 0.00000000000000000000e+00) (0, 0, 0.00000000000000000000e+00) (0, 0, 0.00000000000000000000e+00) (0, 0, 0.00000000000000000000e+00) (0, 0, 0.00000000000000000000e+00) (0, 0, 0.00000000000000000000e+00) (0, 0, 0.00000000000000000000e+00) (0, 0, 0.00000000000000000000e+00) (0, 0, 0.00000000000000000000e+00) (0, 0, 0.00000000000000000000e+00) (0, 0, 0.00000000000000000000e+00) (0, 0, 0.00000000000000000000e+00) (0, 0, 0.00000000000000000000e+00) (0, 0, 0.00000000000000000000e+00) (19, 3, 5.00000000000000000000e-01) (19, 3, 5.00000000000000000000e-01) (0, 3, 0.00000000000000000000e+00) (3, 0, 5.00000000000000000000e-01) (3, 0, 5.00000000000000000000e-01) (0, 0, 0.00000000000000000000e+00) 
connections (connected_to_neuron, weight)=(0, 1.19344197213649749756e-01) (1, 1.11007831990718841553e-01) (2, 1.25037848949432373047e-01) (3, 2.60012745857238769531e-02) (4, 2.19674557447433471680e-01) (5, 1.43073454499244689941e-01) (6, 1.10571108758449554443e-01) (7, 6.11286945641040802002e-02) (8, 1.69179379940032958984e-01) (9, 1.56393855810165405273e-01) (10, 9.42539870738983154297e-02) (11, 5.66428154706954956055e-02) (12, 9.45376679301261901855e-02) (13, 1.40489712357521057129e-01) (14, 2.08132177591323852539e-01) (15, 9.41083729267120361328e-02) (16, 7.29937180876731872559e-02) (17, 1.45350277423858642578e-01) (18, 2.47314795851707458496e-02) (0, 1.37826323509216308594e-01) (1, 4.05087471008300781250e-02) (2, 1.71875864267349243164e-01) (3, 5.27064204216003417969e-02) (4, 1.70820295810699462891e-01) (5, 1.88009470701217651367e-01) (6, 2.10838377475738525391e-01) (7, 2.69428044557571411133e-02) (8, 1.58822000026702880859e-01) (9, 2.02083706855773925781e-01) (10, 8.08477625250816345215e-02) (11, 1.61923259496688842773e-01) (12, 1.01427905261516571045e-01) (13, 1.71855598688125610352e-01) (14, 6.69611096382141113281e-02) (15, 1.07429176568984985352e-01) (16, 1.71530157327651977539e-01) (17, 1.90034568309783935547e-01) (18, 1.98000282049179077148e-01) (19, 2.12658852338790893555e-01) (20, 1.39213949441909790039e-01) (21, 1.34394139051437377930e-01) (19, 8.69128257036209106445e-02) (20, 1.75856769084930419922e-01) (21, 2.08931803703308105469e-01) 
