FANN_FLO_2.1
num_layers=3
learning_rate=0.100000
connection_rate=1.000000
network_type=0
learning_momentum=0.000000
training_algorithm=2
train_error_function=1
train_stop_function=0
cascade_output_change_fraction=0.010000
quickprop_decay=-0.000100
quickprop_mu=1.750000
rprop_increase_factor=1.200000
rprop_decrease_factor=0.500000
rprop_delta_min=0.000000
rprop_delta_max=50.000000
rprop_delta_zero=0.100000
cascade_output_stagnation_epochs=12
cascade_candidate_change_fraction=0.010000
cascade_candidate_stagnation_epochs=12
cascade_max_out_epochs=150
cascade_min_out_epochs=50
cascade_max_cand_epochs=150
cascade_min_cand_epochs=50
cascade_num_candidate_groups=2
bit_fail_limit=3.49999994039535522461e-01
cascade_candidate_limit=1.00000000000000000000e+03
cascade_weight_multiplier=4.00000005960464477539e-01
cascade_activation_functions_count=10
cascade_activation_functions=3 5 7 8 10 11 14 15 16 17 
cascade_activation_steepnesses_count=4
cascade_activation_steepnesses=2.50000000000000000000e-01 5.00000000000000000000e-01 7.50000000000000000000e-01 1.00000000000000000000e+00 
layer_sizes=10 3 2 
scale_included=0
neurons (num_inputs, activation_function, activation_steepness)=(0, 0, 0.00000000000000000000e+00) (0, 0, 0.00000000000000000000e+00) (0, 0, 0.00000000000000000000e+00) (0, 0, 0.00000000000000000000e+00) (0, 0, 0.00000000000000000000e+00) (0, 0, 0.00000000000000000000e+00) (0, 0, 0.00000000000000000000e+00) (0, 0, 0.00000000000000000000e+00) (0, 0, 0.00000000000000000000e+00) (0, 0, 0.00000000000000000000e+00) (10, 3, 5.00000000000000000000e-01) (10, 3, 5.00000000000000000000e-01) (0, 3, 0.00000000000000000000e+00) (3, 0, 5.00000000000000000000e-01) (0, 0, 0.00000000000000000000e+00) 
connections (connected_to_neuron, weight)=(0, 9.57016795873641967773e-02) (1, 1.48265540599822998047e-01) (2, 1.77243471145629882812e-01) (3, 9.17436555027961730957e-02) (4, 1.73173367977142333984e-01) (5, 1.85497641563415527344e-01) (6, 1.80473327636718750000e-01) (7, 3.53169441223144531250e-02) (8, 1.42151921987533569336e-01) (9, 8.77304822206497192383e-02) (0, -1.89883440732955932617e-01) (1, -3.03068682551383972168e-02) (2, -1.54472976922988891602e-01) (3, -9.63634699583053588867e-02) (4, -1.10370971262454986572e-01) (5, -1.05113804340362548828e-01) (6, -7.38788768649101257324e-02) (7, -1.13410197198390960693e-01) (8, -1.54968708753585815430e-01) (9, -1.15978047251701354980e-01) (10, 1.25571891665458679199e-01) (11, 8.42644423246383666992e-02) (12, 1.90088927745819091797e-01) 
