FANN_FLO_2.1
num_layers=3
learning_rate=0.100000
connection_rate=1.000000
network_type=0
learning_momentum=0.000000
training_algorithm=2
train_error_function=1
train_stop_function=0
cascade_output_change_fraction=0.010000
quickprop_decay=-0.000100
quickprop_mu=1.750000
rprop_increase_factor=1.200000
rprop_decrease_factor=0.500000
rprop_delta_min=0.000000
rprop_delta_max=50.000000
rprop_delta_zero=0.100000
cascade_output_stagnation_epochs=12
cascade_candidate_change_fraction=0.010000
cascade_candidate_stagnation_epochs=12
cascade_max_out_epochs=150
cascade_min_out_epochs=50
cascade_max_cand_epochs=150
cascade_min_cand_epochs=50
cascade_num_candidate_groups=2
bit_fail_limit=3.49999994039535522461e-01
cascade_candidate_limit=1.00000000000000000000e+03
cascade_weight_multiplier=4.00000005960464477539e-01
cascade_activation_functions_count=10
cascade_activation_functions=3 5 7 8 10 11 14 15 16 17 
cascade_activation_steepnesses_count=4
cascade_activation_steepnesses=2.50000000000000000000e-01 5.00000000000000000000e-01 7.50000000000000000000e-01 1.00000000000000000000e+00 
layer_sizes=19 3 3 
scale_included=0
neurons (num_inputs, activation_function, activation_steepness)=(0, 0, 0.00000000000000000000e+00) (0, 0, 0.00000000000000000000e+00) (0, 0, 0.00000000000000000000e+00) (0, 0, 0.00000000000000000000e+00) (0, 0, 0.00000000000000000000e+00) (0, 0, 0.00000000000000000000e+00) (0, 0, 0.00000000000000000000e+00) (0, 0, 0.00000000000000000000e+00) (0, 0, 0.00000000000000000000e+00) (0, 0, 0.00000000000000000000e+00) (0, 0, 0.00000000000000000000e+00) (0, 0, 0.00000000000000000000e+00) (0, 0, 0.00000000000000000000e+00) (0, 0, 0.00000000000000000000e+00) (0, 0, 0.00000000000000000000e+00) (0, 0, 0.00000000000000000000e+00) (0, 0, 0.00000000000000000000e+00) (0, 0, 0.00000000000000000000e+00) (0, 0, 0.00000000000000000000e+00) (19, 3, 5.00000000000000000000e-01) (19, 3, 5.00000000000000000000e-01) (0, 3, 0.00000000000000000000e+00) (3, 0, 5.00000000000000000000e-01) (3, 0, 5.00000000000000000000e-01) (0, 0, 0.00000000000000000000e+00) 
connections (connected_to_neuron, weight)=(0, 3.81145700812339782715e-02) (1, 1.28758639097213745117e-01) (2, 1.17970980703830718994e-01) (3, 1.72195404767990112305e-01) (4, 5.65011873841285705566e-02) (5, 2.17288583517074584961e-01) (6, 1.26549467444419860840e-01) (7, 5.48179745674133300781e-02) (8, 9.65855196118354797363e-02) (9, 4.35073375701904296875e-02) (10, 4.03572022914886474609e-02) (11, 4.17658239603042602539e-02) (12, 1.94879174232482910156e-01) (13, 7.11006373167037963867e-02) (14, 2.11493968963623046875e-01) (15, 6.90298154950141906738e-02) (16, 2.51463577151298522949e-02) (17, 8.48403051495552062988e-02) (18, 2.70856097340583801270e-02) (0, 6.35225772857666015625e-02) (1, 2.04183012247085571289e-01) (2, 1.31697133183479309082e-01) (3, 1.48207902908325195312e-01) (4, 9.92710366845130920410e-02) (5, 9.60499644279479980469e-02) (6, 3.98485213518142700195e-02) (7, 2.06116855144500732422e-01) (8, 4.85656931996345520020e-02) (9, 1.05738997459411621094e-01) (10, 2.02868193387985229492e-01) (11, 1.45854741334915161133e-01) (12, 1.23853564262390136719e-01) (13, 1.11626841127872467041e-01) (14, 4.38257008790969848633e-02) (15, 7.60489553213119506836e-02) (16, 1.48128032684326171875e-01) (17, 4.11142781376838684082e-02) (18, 1.82598412036895751953e-01) (19, 1.82945996522903442383e-01) (20, 1.17699787020683288574e-01) (21, 2.06105738878250122070e-01) (19, 2.03303188085556030273e-01) (20, 1.39465600252151489258e-01) (21, 1.80984914302825927734e-01) 
