FANN_FLO_2.1
num_layers=3
learning_rate=0.100000
connection_rate=1.000000
network_type=0
learning_momentum=0.000000
training_algorithm=2
train_error_function=1
train_stop_function=0
cascade_output_change_fraction=0.010000
quickprop_decay=-0.000100
quickprop_mu=1.750000
rprop_increase_factor=1.200000
rprop_decrease_factor=0.500000
rprop_delta_min=0.000000
rprop_delta_max=50.000000
rprop_delta_zero=0.100000
cascade_output_stagnation_epochs=12
cascade_candidate_change_fraction=0.010000
cascade_candidate_stagnation_epochs=12
cascade_max_out_epochs=150
cascade_min_out_epochs=50
cascade_max_cand_epochs=150
cascade_min_cand_epochs=50
cascade_num_candidate_groups=2
bit_fail_limit=3.49999994039535522461e-01
cascade_candidate_limit=1.00000000000000000000e+03
cascade_weight_multiplier=4.00000005960464477539e-01
cascade_activation_functions_count=10
cascade_activation_functions=3 5 7 8 10 11 14 15 16 17 
cascade_activation_steepnesses_count=4
cascade_activation_steepnesses=2.50000000000000000000e-01 5.00000000000000000000e-01 7.50000000000000000000e-01 1.00000000000000000000e+00 
layer_sizes=19 3 3 
scale_included=0
neurons (num_inputs, activation_function, activation_steepness)=(0, 0, 0.00000000000000000000e+00) (0, 0, 0.00000000000000000000e+00) (0, 0, 0.00000000000000000000e+00) (0, 0, 0.00000000000000000000e+00) (0, 0, 0.00000000000000000000e+00) (0, 0, 0.00000000000000000000e+00) (0, 0, 0.00000000000000000000e+00) (0, 0, 0.00000000000000000000e+00) (0, 0, 0.00000000000000000000e+00) (0, 0, 0.00000000000000000000e+00) (0, 0, 0.00000000000000000000e+00) (0, 0, 0.00000000000000000000e+00) (0, 0, 0.00000000000000000000e+00) (0, 0, 0.00000000000000000000e+00) (0, 0, 0.00000000000000000000e+00) (0, 0, 0.00000000000000000000e+00) (0, 0, 0.00000000000000000000e+00) (0, 0, 0.00000000000000000000e+00) (0, 0, 0.00000000000000000000e+00) (19, 3, 5.00000000000000000000e-01) (19, 3, 5.00000000000000000000e-01) (0, 3, 0.00000000000000000000e+00) (3, 0, 5.00000000000000000000e-01) (3, 0, 5.00000000000000000000e-01) (0, 0, 0.00000000000000000000e+00) 
connections (connected_to_neuron, weight)=(0, -7.56599232554435729980e-02) (1, -1.60362124443054199219e-01) (2, -1.29896849393844604492e-01) (3, -1.17641821503639221191e-01) (4, -2.18422487378120422363e-02) (5, -1.47855266928672790527e-01) (6, -1.95317119359970092773e-01) (7, -2.03884914517402648926e-01) (8, -3.85096743702888488770e-02) (9, -1.42803415656089782715e-01) (10, -1.08880758285522460938e-01) (11, -7.94258639216423034668e-02) (12, -6.82971999049186706543e-02) (13, -1.72492131590843200684e-01) (14, -1.75171375274658203125e-01) (15, -1.39006659388542175293e-01) (16, -1.04389831423759460449e-01) (17, -6.67841956019401550293e-02) (18, -1.56847119331359863281e-01) (0, 1.40876978635787963867e-01) (1, 1.97249650955200195312e-01) (2, 5.92423714697360992432e-02) (3, 7.13327825069427490234e-02) (4, 1.19723208248615264893e-01) (5, 2.19405055046081542969e-01) (6, 1.60141170024871826172e-01) (7, 2.67979204654693603516e-02) (8, 1.62475943565368652344e-01) (9, 1.73265993595123291016e-01) (10, 4.05085682868957519531e-02) (11, 4.87368181347846984863e-02) (12, 1.17606095969676971436e-01) (13, 1.00146442651748657227e-01) (14, 1.38839974999427795410e-01) (15, 2.19964265823364257812e-01) (16, 9.83041971921920776367e-02) (17, 2.10984706878662109375e-01) (18, 4.46471795439720153809e-02) (19, 1.14419288933277130127e-01) (20, 1.92475050687789916992e-01) (21, 1.21843770146369934082e-01) (19, 2.55385264754295349121e-02) (20, 1.33049190044403076172e-01) (21, 7.35465735197067260742e-02) 
