FANN_FLO_2.1
num_layers=3
learning_rate=0.100000
connection_rate=1.000000
network_type=0
learning_momentum=0.000000
training_algorithm=2
train_error_function=1
train_stop_function=0
cascade_output_change_fraction=0.010000
quickprop_decay=-0.000100
quickprop_mu=1.750000
rprop_increase_factor=1.200000
rprop_decrease_factor=0.500000
rprop_delta_min=0.000000
rprop_delta_max=50.000000
rprop_delta_zero=0.100000
cascade_output_stagnation_epochs=12
cascade_candidate_change_fraction=0.010000
cascade_candidate_stagnation_epochs=12
cascade_max_out_epochs=150
cascade_min_out_epochs=50
cascade_max_cand_epochs=150
cascade_min_cand_epochs=50
cascade_num_candidate_groups=2
bit_fail_limit=3.49999994039535522461e-01
cascade_candidate_limit=1.00000000000000000000e+03
cascade_weight_multiplier=4.00000005960464477539e-01
cascade_activation_functions_count=10
cascade_activation_functions=3 5 7 8 10 11 14 15 16 17 
cascade_activation_steepnesses_count=4
cascade_activation_steepnesses=2.50000000000000000000e-01 5.00000000000000000000e-01 7.50000000000000000000e-01 1.00000000000000000000e+00 
layer_sizes=10 3 2 
scale_included=0
neurons (num_inputs, activation_function, activation_steepness)=(0, 0, 0.00000000000000000000e+00) (0, 0, 0.00000000000000000000e+00) (0, 0, 0.00000000000000000000e+00) (0, 0, 0.00000000000000000000e+00) (0, 0, 0.00000000000000000000e+00) (0, 0, 0.00000000000000000000e+00) (0, 0, 0.00000000000000000000e+00) (0, 0, 0.00000000000000000000e+00) (0, 0, 0.00000000000000000000e+00) (0, 0, 0.00000000000000000000e+00) (10, 3, 5.00000000000000000000e-01) (10, 3, 5.00000000000000000000e-01) (0, 3, 0.00000000000000000000e+00) (3, 0, 5.00000000000000000000e-01) (0, 0, 0.00000000000000000000e+00) 
connections (connected_to_neuron, weight)=(0, 5.96443004906177520752e-02) (1, 1.45278513431549072266e-01) (2, 1.70781135559082031250e-01) (3, 3.35678830742835998535e-02) (4, 2.65935361385345458984e-02) (5, 9.33588594198226928711e-02) (6, 5.82212135195732116699e-02) (7, 2.47872993350028991699e-02) (8, 1.63014531135559082031e-01) (9, 1.11299842596054077148e-01) (0, -1.18064500391483306885e-01) (1, -3.51078435778617858887e-02) (2, -1.16161704063415527344e-01) (3, -1.59894675016403198242e-01) (4, -1.47187665104866027832e-01) (5, -1.93602636456489562988e-01) (6, -1.77037209272384643555e-01) (7, -3.25166359543800354004e-02) (8, -2.12792754173278808594e-01) (9, -1.62356406450271606445e-01) (10, 2.13865518569946289062e-01) (11, 6.90641403198242187500e-02) (12, 1.14795453846454620361e-01) 
