FANN_FLO_2.1
num_layers=3
learning_rate=0.100000
connection_rate=1.000000
network_type=0
learning_momentum=0.000000
training_algorithm=2
train_error_function=1
train_stop_function=0
cascade_output_change_fraction=0.010000
quickprop_decay=-0.000100
quickprop_mu=1.750000
rprop_increase_factor=1.200000
rprop_decrease_factor=0.500000
rprop_delta_min=0.000000
rprop_delta_max=50.000000
rprop_delta_zero=0.100000
cascade_output_stagnation_epochs=12
cascade_candidate_change_fraction=0.010000
cascade_candidate_stagnation_epochs=12
cascade_max_out_epochs=150
cascade_min_out_epochs=50
cascade_max_cand_epochs=150
cascade_min_cand_epochs=50
cascade_num_candidate_groups=2
bit_fail_limit=3.49999994039535522461e-01
cascade_candidate_limit=1.00000000000000000000e+03
cascade_weight_multiplier=4.00000005960464477539e-01
cascade_activation_functions_count=10
cascade_activation_functions=3 5 7 8 10 11 14 15 16 17 
cascade_activation_steepnesses_count=4
cascade_activation_steepnesses=2.50000000000000000000e-01 5.00000000000000000000e-01 7.50000000000000000000e-01 1.00000000000000000000e+00 
layer_sizes=19 3 3 
scale_included=0
neurons (num_inputs, activation_function, activation_steepness)=(0, 0, 0.00000000000000000000e+00) (0, 0, 0.00000000000000000000e+00) (0, 0, 0.00000000000000000000e+00) (0, 0, 0.00000000000000000000e+00) (0, 0, 0.00000000000000000000e+00) (0, 0, 0.00000000000000000000e+00) (0, 0, 0.00000000000000000000e+00) (0, 0, 0.00000000000000000000e+00) (0, 0, 0.00000000000000000000e+00) (0, 0, 0.00000000000000000000e+00) (0, 0, 0.00000000000000000000e+00) (0, 0, 0.00000000000000000000e+00) (0, 0, 0.00000000000000000000e+00) (0, 0, 0.00000000000000000000e+00) (0, 0, 0.00000000000000000000e+00) (0, 0, 0.00000000000000000000e+00) (0, 0, 0.00000000000000000000e+00) (0, 0, 0.00000000000000000000e+00) (0, 0, 0.00000000000000000000e+00) (19, 3, 5.00000000000000000000e-01) (19, 3, 5.00000000000000000000e-01) (0, 3, 0.00000000000000000000e+00) (3, 0, 5.00000000000000000000e-01) (3, 0, 5.00000000000000000000e-01) (0, 0, 0.00000000000000000000e+00) 
connections (connected_to_neuron, weight)=(0, -1.90807357430458068848e-01) (1, -1.31145581603050231934e-01) (2, -1.81982457637786865234e-01) (3, -7.81148001551628112793e-02) (4, -8.13800469040870666504e-02) (5, -6.27658590674400329590e-02) (6, -9.64134782552719116211e-02) (7, -1.96349665522575378418e-01) (8, -1.62283420562744140625e-01) (9, -1.43293187022209167480e-01) (10, -1.87478244304656982422e-01) (11, -3.01726087927818298340e-02) (12, -1.78316012024879455566e-01) (13, -1.61718055605888366699e-01) (14, -1.28341853618621826172e-01) (15, -6.69771209359169006348e-02) (16, -1.65939301252365112305e-01) (17, -2.10345447063446044922e-01) (18, -1.12453415989875793457e-01) (0, 1.72495841979980468750e-01) (1, 9.40981954336166381836e-02) (2, 2.13107496500015258789e-01) (3, 1.78290337324142456055e-01) (4, 2.52603292465209960938e-02) (5, 2.03480049967765808105e-02) (6, 7.66196846961975097656e-02) (7, 4.15200442075729370117e-02) (8, 2.59648710489273071289e-02) (9, 8.78664106130599975586e-02) (10, 5.74611127376556396484e-02) (11, 1.40289917588233947754e-01) (12, 1.17059059441089630127e-01) (13, 1.46315544843673706055e-01) (14, 1.78307473659515380859e-01) (15, 5.89442551136016845703e-02) (16, 8.49355012178421020508e-02) (17, 1.35541617870330810547e-01) (18, 1.82530790567398071289e-01) (19, 1.08585841953754425049e-01) (20, 1.93258196115493774414e-01) (21, 5.92375993728637695312e-02) (19, 1.41107603907585144043e-01) (20, 1.83085590600967407227e-01) (21, 1.00921586155891418457e-01) 
