FANN_FLO_2.1
num_layers=3
learning_rate=0.100000
connection_rate=1.000000
network_type=0
learning_momentum=0.000000
training_algorithm=2
train_error_function=1
train_stop_function=0
cascade_output_change_fraction=0.010000
quickprop_decay=-0.000100
quickprop_mu=1.750000
rprop_increase_factor=1.200000
rprop_decrease_factor=0.500000
rprop_delta_min=0.000000
rprop_delta_max=50.000000
rprop_delta_zero=0.100000
cascade_output_stagnation_epochs=12
cascade_candidate_change_fraction=0.010000
cascade_candidate_stagnation_epochs=12
cascade_max_out_epochs=150
cascade_min_out_epochs=50
cascade_max_cand_epochs=150
cascade_min_cand_epochs=50
cascade_num_candidate_groups=2
bit_fail_limit=3.49999994039535522461e-01
cascade_candidate_limit=1.00000000000000000000e+03
cascade_weight_multiplier=4.00000005960464477539e-01
cascade_activation_functions_count=10
cascade_activation_functions=3 5 7 8 10 11 14 15 16 17 
cascade_activation_steepnesses_count=4
cascade_activation_steepnesses=2.50000000000000000000e-01 5.00000000000000000000e-01 7.50000000000000000000e-01 1.00000000000000000000e+00 
layer_sizes=10 3 2 
scale_included=0
neurons (num_inputs, activation_function, activation_steepness)=(0, 0, 0.00000000000000000000e+00) (0, 0, 0.00000000000000000000e+00) (0, 0, 0.00000000000000000000e+00) (0, 0, 0.00000000000000000000e+00) (0, 0, 0.00000000000000000000e+00) (0, 0, 0.00000000000000000000e+00) (0, 0, 0.00000000000000000000e+00) (0, 0, 0.00000000000000000000e+00) (0, 0, 0.00000000000000000000e+00) (0, 0, 0.00000000000000000000e+00) (10, 3, 5.00000000000000000000e-01) (10, 3, 5.00000000000000000000e-01) (0, 3, 0.00000000000000000000e+00) (3, 0, 5.00000000000000000000e-01) (0, 0, 0.00000000000000000000e+00) 
connections (connected_to_neuron, weight)=(0, -4.55303117632865905762e-02) (1, -2.06348672509193420410e-01) (2, -2.16123178601264953613e-01) (3, -1.27585276961326599121e-01) (4, -1.00458621978759765625e-01) (5, -1.55163228511810302734e-01) (6, -1.25207990407943725586e-01) (7, -7.55828097462654113770e-02) (8, -5.39976730942726135254e-02) (9, -1.72971069812774658203e-01) (0, 2.14218109846115112305e-01) (1, 1.01354025304317474365e-01) (2, 1.81180894374847412109e-01) (3, 1.73681765794754028320e-01) (4, 1.27115473151206970215e-01) (5, 1.13729700446128845215e-01) (6, 1.69369697570800781250e-01) (7, 3.63341644406318664551e-02) (8, 5.43859601020812988281e-02) (9, 8.92899110913276672363e-02) (10, 3.35412472486495971680e-02) (11, 1.44252166152000427246e-01) (12, 6.69570788741111755371e-02) 
