FANN_FLO_2.1
num_layers=3
learning_rate=0.100000
connection_rate=1.000000
network_type=0
learning_momentum=0.000000
training_algorithm=2
train_error_function=1
train_stop_function=0
cascade_output_change_fraction=0.010000
quickprop_decay=-0.000100
quickprop_mu=1.750000
rprop_increase_factor=1.200000
rprop_decrease_factor=0.500000
rprop_delta_min=0.000000
rprop_delta_max=50.000000
rprop_delta_zero=0.100000
cascade_output_stagnation_epochs=12
cascade_candidate_change_fraction=0.010000
cascade_candidate_stagnation_epochs=12
cascade_max_out_epochs=150
cascade_min_out_epochs=50
cascade_max_cand_epochs=150
cascade_min_cand_epochs=50
cascade_num_candidate_groups=2
bit_fail_limit=3.49999994039535522461e-01
cascade_candidate_limit=1.00000000000000000000e+03
cascade_weight_multiplier=4.00000005960464477539e-01
cascade_activation_functions_count=10
cascade_activation_functions=3 5 7 8 10 11 14 15 16 17 
cascade_activation_steepnesses_count=4
cascade_activation_steepnesses=2.50000000000000000000e-01 5.00000000000000000000e-01 7.50000000000000000000e-01 1.00000000000000000000e+00 
layer_sizes=10 3 2 
scale_included=0
neurons (num_inputs, activation_function, activation_steepness)=(0, 0, 0.00000000000000000000e+00) (0, 0, 0.00000000000000000000e+00) (0, 0, 0.00000000000000000000e+00) (0, 0, 0.00000000000000000000e+00) (0, 0, 0.00000000000000000000e+00) (0, 0, 0.00000000000000000000e+00) (0, 0, 0.00000000000000000000e+00) (0, 0, 0.00000000000000000000e+00) (0, 0, 0.00000000000000000000e+00) (0, 0, 0.00000000000000000000e+00) (10, 3, 5.00000000000000000000e-01) (10, 3, 5.00000000000000000000e-01) (0, 3, 0.00000000000000000000e+00) (3, 0, 5.00000000000000000000e-01) (0, 0, 0.00000000000000000000e+00) 
connections (connected_to_neuron, weight)=(0, -1.25121593475341796875e-01) (1, -2.70402804017066955566e-02) (2, -1.94112300872802734375e-01) (3, -1.75213187932968139648e-01) (4, -1.38189718127250671387e-01) (5, -1.39343276619911193848e-01) (6, -1.57716110348701477051e-01) (7, -1.96624368429183959961e-01) (8, -7.27625265717506408691e-02) (9, -1.01946368813514709473e-01) (0, -7.15121552348136901855e-02) (1, -7.53303840756416320801e-02) (2, -8.80417153239250183105e-02) (3, -5.07420822978019714355e-02) (4, -3.18512842059135437012e-02) (5, -1.67346298694610595703e-01) (6, -3.53267863392829895020e-02) (7, -9.69641357660293579102e-02) (8, -2.15949386358261108398e-01) (9, -2.18732267618179321289e-01) (10, 6.29430636763572692871e-02) (11, 4.86961454153060913086e-02) (12, 1.03038318455219268799e-01) 
