FANN_FLO_2.1
num_layers=3
learning_rate=0.100000
connection_rate=1.000000
network_type=0
learning_momentum=0.000000
training_algorithm=2
train_error_function=1
train_stop_function=0
cascade_output_change_fraction=0.010000
quickprop_decay=-0.000100
quickprop_mu=1.750000
rprop_increase_factor=1.200000
rprop_decrease_factor=0.500000
rprop_delta_min=0.000000
rprop_delta_max=50.000000
rprop_delta_zero=0.100000
cascade_output_stagnation_epochs=12
cascade_candidate_change_fraction=0.010000
cascade_candidate_stagnation_epochs=12
cascade_max_out_epochs=150
cascade_min_out_epochs=50
cascade_max_cand_epochs=150
cascade_min_cand_epochs=50
cascade_num_candidate_groups=2
bit_fail_limit=3.49999994039535522461e-01
cascade_candidate_limit=1.00000000000000000000e+03
cascade_weight_multiplier=4.00000005960464477539e-01
cascade_activation_functions_count=10
cascade_activation_functions=3 5 7 8 10 11 14 15 16 17 
cascade_activation_steepnesses_count=4
cascade_activation_steepnesses=2.50000000000000000000e-01 5.00000000000000000000e-01 7.50000000000000000000e-01 1.00000000000000000000e+00 
layer_sizes=10 3 2 
scale_included=0
neurons (num_inputs, activation_function, activation_steepness)=(0, 0, 0.00000000000000000000e+00) (0, 0, 0.00000000000000000000e+00) (0, 0, 0.00000000000000000000e+00) (0, 0, 0.00000000000000000000e+00) (0, 0, 0.00000000000000000000e+00) (0, 0, 0.00000000000000000000e+00) (0, 0, 0.00000000000000000000e+00) (0, 0, 0.00000000000000000000e+00) (0, 0, 0.00000000000000000000e+00) (0, 0, 0.00000000000000000000e+00) (10, 3, 5.00000000000000000000e-01) (10, 3, 5.00000000000000000000e-01) (0, 3, 0.00000000000000000000e+00) (3, 0, 5.00000000000000000000e-01) (0, 0, 0.00000000000000000000e+00) 
connections (connected_to_neuron, weight)=(0, -8.26592966914176940918e-02) (1, -5.26107177138328552246e-02) (2, -1.79899781942367553711e-01) (3, -2.13372007012367248535e-01) (4, -1.21118113398551940918e-01) (5, -1.05790689587593078613e-01) (6, -5.16472980380058288574e-02) (7, -1.60662561655044555664e-01) (8, -1.30983114242553710938e-01) (9, -5.86751177906990051270e-02) (0, 6.81192874908447265625e-02) (1, 1.57330691814422607422e-01) (2, 2.07447856664657592773e-01) (3, 3.96827310323715209961e-02) (4, 1.67968928813934326172e-01) (5, 2.06533998250961303711e-01) (6, 1.12357407808303833008e-01) (7, 1.48396879434585571289e-01) (8, 1.82228386402130126953e-01) (9, 2.91340574622154235840e-02) (10, 8.97144228219985961914e-02) (11, 1.91415816545486450195e-01) (12, 8.65880623459815979004e-02) 
