FANN_FLO_2.1
num_layers=3
learning_rate=0.100000
connection_rate=1.000000
network_type=0
learning_momentum=0.000000
training_algorithm=2
train_error_function=1
train_stop_function=0
cascade_output_change_fraction=0.010000
quickprop_decay=-0.000100
quickprop_mu=1.750000
rprop_increase_factor=1.200000
rprop_decrease_factor=0.500000
rprop_delta_min=0.000000
rprop_delta_max=50.000000
rprop_delta_zero=0.100000
cascade_output_stagnation_epochs=12
cascade_candidate_change_fraction=0.010000
cascade_candidate_stagnation_epochs=12
cascade_max_out_epochs=150
cascade_min_out_epochs=50
cascade_max_cand_epochs=150
cascade_min_cand_epochs=50
cascade_num_candidate_groups=2
bit_fail_limit=3.49999994039535522461e-01
cascade_candidate_limit=1.00000000000000000000e+03
cascade_weight_multiplier=4.00000005960464477539e-01
cascade_activation_functions_count=10
cascade_activation_functions=3 5 7 8 10 11 14 15 16 17 
cascade_activation_steepnesses_count=4
cascade_activation_steepnesses=2.50000000000000000000e-01 5.00000000000000000000e-01 7.50000000000000000000e-01 1.00000000000000000000e+00 
layer_sizes=19 3 3 
scale_included=0
neurons (num_inputs, activation_function, activation_steepness)=(0, 0, 0.00000000000000000000e+00) (0, 0, 0.00000000000000000000e+00) (0, 0, 0.00000000000000000000e+00) (0, 0, 0.00000000000000000000e+00) (0, 0, 0.00000000000000000000e+00) (0, 0, 0.00000000000000000000e+00) (0, 0, 0.00000000000000000000e+00) (0, 0, 0.00000000000000000000e+00) (0, 0, 0.00000000000000000000e+00) (0, 0, 0.00000000000000000000e+00) (0, 0, 0.00000000000000000000e+00) (0, 0, 0.00000000000000000000e+00) (0, 0, 0.00000000000000000000e+00) (0, 0, 0.00000000000000000000e+00) (0, 0, 0.00000000000000000000e+00) (0, 0, 0.00000000000000000000e+00) (0, 0, 0.00000000000000000000e+00) (0, 0, 0.00000000000000000000e+00) (0, 0, 0.00000000000000000000e+00) (19, 3, 5.00000000000000000000e-01) (19, 3, 5.00000000000000000000e-01) (0, 3, 0.00000000000000000000e+00) (3, 0, 5.00000000000000000000e-01) (3, 0, 5.00000000000000000000e-01) (0, 0, 0.00000000000000000000e+00) 
connections (connected_to_neuron, weight)=(0, -1.86619579792022705078e-01) (1, -2.03866288065910339355e-02) (2, -8.87968614697456359863e-02) (3, -9.73933562636375427246e-02) (4, -1.27582535147666931152e-01) (5, -1.38333350419998168945e-01) (6, -7.18913003802299499512e-02) (7, -1.29421472549438476562e-01) (8, -4.31386604905128479004e-02) (9, -1.79502606391906738281e-01) (10, -1.17342390120029449463e-01) (11, -9.85115170478820800781e-02) (12, -8.08366164565086364746e-02) (13, -1.12514555454254150391e-01) (14, -2.00595512986183166504e-01) (15, -9.79829877614974975586e-02) (16, -1.94219410419464111328e-01) (17, -1.93389683961868286133e-01) (18, -1.01399719715118408203e-01) (0, -1.23331353068351745605e-01) (1, -1.94679409265518188477e-01) (2, -3.17493304610252380371e-02) (3, -2.01781913638114929199e-02) (4, -4.96666654944419860840e-02) (5, -5.91304823756217956543e-02) (6, -1.20074704289436340332e-01) (7, -1.92016005516052246094e-01) (8, -1.71702191233634948730e-01) (9, -3.81649360060691833496e-02) (10, -1.88798144459724426270e-01) (11, -1.02456748485565185547e-01) (12, -2.04784512519836425781e-01) (13, -1.89184769988059997559e-01) (14, -1.71253606677055358887e-01) (15, -8.21778550744056701660e-02) (16, -9.67673063278198242188e-02) (17, -8.95869657397270202637e-02) (18, -1.34069159626960754395e-01) (19, 3.38112339377403259277e-02) (20, 1.27274408936500549316e-01) (21, 1.46428257226943969727e-01) (19, 1.36468857526779174805e-01) (20, 4.87628877162933349609e-02) (21, 8.55916365981101989746e-02) 
