FANN_FLO_2.1
num_layers=3
learning_rate=0.100000
connection_rate=1.000000
network_type=0
learning_momentum=0.000000
training_algorithm=2
train_error_function=1
train_stop_function=0
cascade_output_change_fraction=0.010000
quickprop_decay=-0.000100
quickprop_mu=1.750000
rprop_increase_factor=1.200000
rprop_decrease_factor=0.500000
rprop_delta_min=0.000000
rprop_delta_max=50.000000
rprop_delta_zero=0.100000
cascade_output_stagnation_epochs=12
cascade_candidate_change_fraction=0.010000
cascade_candidate_stagnation_epochs=12
cascade_max_out_epochs=150
cascade_min_out_epochs=50
cascade_max_cand_epochs=150
cascade_min_cand_epochs=50
cascade_num_candidate_groups=2
bit_fail_limit=3.49999994039535522461e-01
cascade_candidate_limit=1.00000000000000000000e+03
cascade_weight_multiplier=4.00000005960464477539e-01
cascade_activation_functions_count=10
cascade_activation_functions=3 5 7 8 10 11 14 15 16 17 
cascade_activation_steepnesses_count=4
cascade_activation_steepnesses=2.50000000000000000000e-01 5.00000000000000000000e-01 7.50000000000000000000e-01 1.00000000000000000000e+00 
layer_sizes=10 3 2 
scale_included=0
neurons (num_inputs, activation_function, activation_steepness)=(0, 0, 0.00000000000000000000e+00) (0, 0, 0.00000000000000000000e+00) (0, 0, 0.00000000000000000000e+00) (0, 0, 0.00000000000000000000e+00) (0, 0, 0.00000000000000000000e+00) (0, 0, 0.00000000000000000000e+00) (0, 0, 0.00000000000000000000e+00) (0, 0, 0.00000000000000000000e+00) (0, 0, 0.00000000000000000000e+00) (0, 0, 0.00000000000000000000e+00) (10, 3, 5.00000000000000000000e-01) (10, 3, 5.00000000000000000000e-01) (0, 3, 0.00000000000000000000e+00) (3, 0, 5.00000000000000000000e-01) (0, 0, 0.00000000000000000000e+00) 
connections (connected_to_neuron, weight)=(0, 1.94620192050933837891e-01) (1, 1.15016043186187744141e-01) (2, 1.78917527198791503906e-01) (3, 6.54228329658508300781e-02) (4, 1.88538402318954467773e-01) (5, 3.53130996227264404297e-02) (6, 9.28585007786750793457e-02) (7, 1.29733428359031677246e-01) (8, 1.53089135885238647461e-01) (9, 1.46296560764312744141e-01) (0, 1.68684333562850952148e-01) (1, 2.02574014663696289062e-01) (2, 4.70789596438407897949e-02) (3, 5.36790490150451660156e-02) (4, 9.62141752243041992188e-02) (5, 5.07145076990127563477e-02) (6, 5.35595118999481201172e-02) (7, 1.76345854997634887695e-01) (8, 1.26857727766036987305e-01) (9, 1.61332786083221435547e-01) (10, 1.46267473697662353516e-01) (11, 2.02710151672363281250e-01) (12, 7.91512131690979003906e-02) 
