FANN_FLO_2.1
num_layers=3
learning_rate=0.100000
connection_rate=1.000000
network_type=0
learning_momentum=0.000000
training_algorithm=2
train_error_function=1
train_stop_function=0
cascade_output_change_fraction=0.010000
quickprop_decay=-0.000100
quickprop_mu=1.750000
rprop_increase_factor=1.200000
rprop_decrease_factor=0.500000
rprop_delta_min=0.000000
rprop_delta_max=50.000000
rprop_delta_zero=0.100000
cascade_output_stagnation_epochs=12
cascade_candidate_change_fraction=0.010000
cascade_candidate_stagnation_epochs=12
cascade_max_out_epochs=150
cascade_min_out_epochs=50
cascade_max_cand_epochs=150
cascade_min_cand_epochs=50
cascade_num_candidate_groups=2
bit_fail_limit=3.49999994039535522461e-01
cascade_candidate_limit=1.00000000000000000000e+03
cascade_weight_multiplier=4.00000005960464477539e-01
cascade_activation_functions_count=10
cascade_activation_functions=3 5 7 8 10 11 14 15 16 17 
cascade_activation_steepnesses_count=4
cascade_activation_steepnesses=2.50000000000000000000e-01 5.00000000000000000000e-01 7.50000000000000000000e-01 1.00000000000000000000e+00 
layer_sizes=10 3 2 
scale_included=0
neurons (num_inputs, activation_function, activation_steepness)=(0, 0, 0.00000000000000000000e+00) (0, 0, 0.00000000000000000000e+00) (0, 0, 0.00000000000000000000e+00) (0, 0, 0.00000000000000000000e+00) (0, 0, 0.00000000000000000000e+00) (0, 0, 0.00000000000000000000e+00) (0, 0, 0.00000000000000000000e+00) (0, 0, 0.00000000000000000000e+00) (0, 0, 0.00000000000000000000e+00) (0, 0, 0.00000000000000000000e+00) (10, 3, 5.00000000000000000000e-01) (10, 3, 5.00000000000000000000e-01) (0, 3, 0.00000000000000000000e+00) (3, 0, 5.00000000000000000000e-01) (0, 0, 0.00000000000000000000e+00) 
connections (connected_to_neuron, weight)=(0, -1.04985073208808898926e-01) (1, -5.27056977152824401855e-02) (2, -2.63388976454734802246e-02) (3, -1.69028341770172119141e-01) (4, -2.14736580848693847656e-01) (5, -2.71431729197502136230e-02) (6, -1.14235565066337585449e-01) (7, -5.55251017212867736816e-02) (8, -1.57684326171875000000e-01) (9, -2.03028127551078796387e-01) (0, -6.42562434077262878418e-02) (1, -1.31259217858314514160e-01) (2, -1.11812427639961242676e-01) (3, -1.20988495647907257080e-01) (4, -1.79042741656303405762e-01) (5, -1.58997535705566406250e-01) (6, -1.14046335220336914062e-01) (7, -2.75938138365745544434e-02) (8, -2.18801289796829223633e-01) (9, -1.21581174433231353760e-01) (10, 8.60403329133987426758e-02) (11, 8.88746306300163269043e-02) (12, 1.40154719352722167969e-01) 
