FANN_FLO_2.1
num_layers=3
learning_rate=0.100000
connection_rate=1.000000
network_type=0
learning_momentum=0.000000
training_algorithm=2
train_error_function=1
train_stop_function=0
cascade_output_change_fraction=0.010000
quickprop_decay=-0.000100
quickprop_mu=1.750000
rprop_increase_factor=1.200000
rprop_decrease_factor=0.500000
rprop_delta_min=0.000000
rprop_delta_max=50.000000
rprop_delta_zero=0.100000
cascade_output_stagnation_epochs=12
cascade_candidate_change_fraction=0.010000
cascade_candidate_stagnation_epochs=12
cascade_max_out_epochs=150
cascade_min_out_epochs=50
cascade_max_cand_epochs=150
cascade_min_cand_epochs=50
cascade_num_candidate_groups=2
bit_fail_limit=3.49999994039535522461e-01
cascade_candidate_limit=1.00000000000000000000e+03
cascade_weight_multiplier=4.00000005960464477539e-01
cascade_activation_functions_count=10
cascade_activation_functions=3 5 7 8 10 11 14 15 16 17 
cascade_activation_steepnesses_count=4
cascade_activation_steepnesses=2.50000000000000000000e-01 5.00000000000000000000e-01 7.50000000000000000000e-01 1.00000000000000000000e+00 
layer_sizes=19 3 3 
scale_included=0
neurons (num_inputs, activation_function, activation_steepness)=(0, 0, 0.00000000000000000000e+00) (0, 0, 0.00000000000000000000e+00) (0, 0, 0.00000000000000000000e+00) (0, 0, 0.00000000000000000000e+00) (0, 0, 0.00000000000000000000e+00) (0, 0, 0.00000000000000000000e+00) (0, 0, 0.00000000000000000000e+00) (0, 0, 0.00000000000000000000e+00) (0, 0, 0.00000000000000000000e+00) (0, 0, 0.00000000000000000000e+00) (0, 0, 0.00000000000000000000e+00) (0, 0, 0.00000000000000000000e+00) (0, 0, 0.00000000000000000000e+00) (0, 0, 0.00000000000000000000e+00) (0, 0, 0.00000000000000000000e+00) (0, 0, 0.00000000000000000000e+00) (0, 0, 0.00000000000000000000e+00) (0, 0, 0.00000000000000000000e+00) (0, 0, 0.00000000000000000000e+00) (19, 3, 5.00000000000000000000e-01) (19, 3, 5.00000000000000000000e-01) (0, 3, 0.00000000000000000000e+00) (3, 0, 5.00000000000000000000e-01) (3, 0, 5.00000000000000000000e-01) (0, 0, 0.00000000000000000000e+00) 
connections (connected_to_neuron, weight)=(0, -1.42448633909225463867e-01) (1, -1.98461204767227172852e-01) (2, -1.46262258291244506836e-01) (3, -1.46343886852264404297e-01) (4, -1.37544646859169006348e-01) (5, -1.84504136443138122559e-01) (6, -4.85231950879096984863e-02) (7, -3.90047356486320495605e-02) (8, -1.16601124405860900879e-01) (9, -1.50052547454833984375e-01) (10, -1.87777981162071228027e-01) (11, -2.13402137160301208496e-02) (12, -6.23978301882743835449e-02) (13, -1.01941443979740142822e-01) (14, -1.11596859991550445557e-01) (15, -1.19865216314792633057e-01) (16, -1.35830879211425781250e-01) (17, -1.59450203180313110352e-01) (18, -1.51225328445434570312e-01) (0, 6.97311908006668090820e-02) (1, 2.41253152489662170410e-02) (2, 3.27516123652458190918e-02) (3, 1.27566650509834289551e-01) (4, 1.41967743635177612305e-01) (5, 2.11324572563171386719e-01) (6, 3.26380953192710876465e-02) (7, 8.78444835543632507324e-02) (8, 1.06005586683750152588e-01) (9, 1.74090623855590820312e-01) (10, 1.92339479923248291016e-01) (11, 1.20815299451351165771e-01) (12, 5.16419857740402221680e-02) (13, 2.13878273963928222656e-01) (14, 1.94553047418594360352e-01) (15, 1.25298112630844116211e-01) (16, 9.63336080312728881836e-02) (17, 3.00489068031311035156e-02) (18, 9.67749208211898803711e-02) (19, 7.73288607597351074219e-02) (20, 1.33447796106338500977e-01) (21, 1.66722357273101806641e-01) (19, 1.09550900757312774658e-01) (20, 1.32107585668563842773e-01) (21, 1.24324537813663482666e-01) 
