FANN_FLO_2.1
num_layers=3
learning_rate=0.100000
connection_rate=1.000000
network_type=0
learning_momentum=0.000000
training_algorithm=2
train_error_function=1
train_stop_function=0
cascade_output_change_fraction=0.010000
quickprop_decay=-0.000100
quickprop_mu=1.750000
rprop_increase_factor=1.200000
rprop_decrease_factor=0.500000
rprop_delta_min=0.000000
rprop_delta_max=50.000000
rprop_delta_zero=0.100000
cascade_output_stagnation_epochs=12
cascade_candidate_change_fraction=0.010000
cascade_candidate_stagnation_epochs=12
cascade_max_out_epochs=150
cascade_min_out_epochs=50
cascade_max_cand_epochs=150
cascade_min_cand_epochs=50
cascade_num_candidate_groups=2
bit_fail_limit=3.49999994039535522461e-01
cascade_candidate_limit=1.00000000000000000000e+03
cascade_weight_multiplier=4.00000005960464477539e-01
cascade_activation_functions_count=10
cascade_activation_functions=3 5 7 8 10 11 14 15 16 17 
cascade_activation_steepnesses_count=4
cascade_activation_steepnesses=2.50000000000000000000e-01 5.00000000000000000000e-01 7.50000000000000000000e-01 1.00000000000000000000e+00 
layer_sizes=10 3 2 
scale_included=0
neurons (num_inputs, activation_function, activation_steepness)=(0, 0, 0.00000000000000000000e+00) (0, 0, 0.00000000000000000000e+00) (0, 0, 0.00000000000000000000e+00) (0, 0, 0.00000000000000000000e+00) (0, 0, 0.00000000000000000000e+00) (0, 0, 0.00000000000000000000e+00) (0, 0, 0.00000000000000000000e+00) (0, 0, 0.00000000000000000000e+00) (0, 0, 0.00000000000000000000e+00) (0, 0, 0.00000000000000000000e+00) (10, 3, 5.00000000000000000000e-01) (10, 3, 5.00000000000000000000e-01) (0, 3, 0.00000000000000000000e+00) (3, 0, 5.00000000000000000000e-01) (0, 0, 0.00000000000000000000e+00) 
connections (connected_to_neuron, weight)=(0, 1.98488980531692504883e-01) (1, 2.06675440073013305664e-01) (2, 4.56912145018577575684e-02) (3, 1.77716672420501708984e-01) (4, 7.76650607585906982422e-02) (5, 1.78667455911636352539e-01) (6, 2.12186902761459350586e-01) (7, 5.46467453241348266602e-02) (8, 1.13384500145912170410e-01) (9, 1.37602344155311584473e-01) (0, 1.95042967796325683594e-01) (1, 2.70623117685317993164e-02) (2, 1.90613090991973876953e-01) (3, 1.19065411388874053955e-01) (4, 2.05206036567687988281e-01) (5, 8.58634039759635925293e-02) (6, 1.32447004318237304688e-01) (7, 1.97797834873199462891e-01) (8, 2.14830264449119567871e-02) (9, 4.22804206609725952148e-02) (10, 1.77962601184844970703e-01) (11, 2.15102434158325195312e-01) (12, 1.70176774263381958008e-01) 
