FANN_FLO_2.1
num_layers=3
learning_rate=0.100000
connection_rate=1.000000
network_type=0
learning_momentum=0.000000
training_algorithm=2
train_error_function=1
train_stop_function=0
cascade_output_change_fraction=0.010000
quickprop_decay=-0.000100
quickprop_mu=1.750000
rprop_increase_factor=1.200000
rprop_decrease_factor=0.500000
rprop_delta_min=0.000000
rprop_delta_max=50.000000
rprop_delta_zero=0.100000
cascade_output_stagnation_epochs=12
cascade_candidate_change_fraction=0.010000
cascade_candidate_stagnation_epochs=12
cascade_max_out_epochs=150
cascade_min_out_epochs=50
cascade_max_cand_epochs=150
cascade_min_cand_epochs=50
cascade_num_candidate_groups=2
bit_fail_limit=3.49999994039535522461e-01
cascade_candidate_limit=1.00000000000000000000e+03
cascade_weight_multiplier=4.00000005960464477539e-01
cascade_activation_functions_count=10
cascade_activation_functions=3 5 7 8 10 11 14 15 16 17 
cascade_activation_steepnesses_count=4
cascade_activation_steepnesses=2.50000000000000000000e-01 5.00000000000000000000e-01 7.50000000000000000000e-01 1.00000000000000000000e+00 
layer_sizes=19 3 3 
scale_included=0
neurons (num_inputs, activation_function, activation_steepness)=(0, 0, 0.00000000000000000000e+00) (0, 0, 0.00000000000000000000e+00) (0, 0, 0.00000000000000000000e+00) (0, 0, 0.00000000000000000000e+00) (0, 0, 0.00000000000000000000e+00) (0, 0, 0.00000000000000000000e+00) (0, 0, 0.00000000000000000000e+00) (0, 0, 0.00000000000000000000e+00) (0, 0, 0.00000000000000000000e+00) (0, 0, 0.00000000000000000000e+00) (0, 0, 0.00000000000000000000e+00) (0, 0, 0.00000000000000000000e+00) (0, 0, 0.00000000000000000000e+00) (0, 0, 0.00000000000000000000e+00) (0, 0, 0.00000000000000000000e+00) (0, 0, 0.00000000000000000000e+00) (0, 0, 0.00000000000000000000e+00) (0, 0, 0.00000000000000000000e+00) (0, 0, 0.00000000000000000000e+00) (19, 3, 5.00000000000000000000e-01) (19, 3, 5.00000000000000000000e-01) (0, 3, 0.00000000000000000000e+00) (3, 0, 5.00000000000000000000e-01) (3, 0, 5.00000000000000000000e-01) (0, 0, 0.00000000000000000000e+00) 
connections (connected_to_neuron, weight)=(0, 6.38855248689651489258e-02) (1, 1.86857610940933227539e-01) (2, -1.22222140431404113770e-01) (3, 7.78012722730636596680e-02) (4, 1.41241252422332763672e-01) (5, 1.00929610431194305420e-01) (6, 2.56800130009651184082e-02) (7, 2.76191085577011108398e-02) (8, 9.58437770605087280273e-02) (9, 1.50746941566467285156e-01) (10, 9.07982140779495239258e-02) (11, 6.77649304270744323730e-02) (12, 6.45017772912979125977e-02) (13, 1.76550477743148803711e-01) (14, -1.27605319023132324219e-01) (15, 1.62171363830566406250e-01) (16, -1.67911991477012634277e-01) (17, 7.87185579538345336914e-02) (18, 3.14116403460502624512e-02) (0, 9.50285717844963073730e-02) (1, 1.76575809717178344727e-01) (2, 4.93785813450813293457e-02) (3, 9.77745354175567626953e-02) (4, 1.01735994219779968262e-01) (5, 6.01596571505069732666e-02) (6, 2.11554646492004394531e-01) (7, 1.22353062033653259277e-01) (8, 1.79071843624114990234e-01) (9, 1.67626231908798217773e-01) (10, 1.97488725185394287109e-01) (11, 6.46545141935348510742e-02) (12, 2.11511731147766113281e-01) (13, 1.64346337318420410156e-01) (14, 1.62432372570037841797e-01) (15, 6.93130046129226684570e-02) (16, 8.55875685811042785645e-02) (17, 4.33619841933250427246e-02) (18, 7.49930143356323242188e-02) (19, 9.32066664099693298340e-02) (20, 1.19205757975578308105e-01) (21, 2.05739915370941162109e-01) (19, 1.64004892110824584961e-01) (20, 1.66970670223236083984e-01) (21, 5.02417013049125671387e-02) 
