FANN_FLO_2.1
num_layers=3
learning_rate=0.100000
connection_rate=1.000000
network_type=0
learning_momentum=0.000000
training_algorithm=2
train_error_function=1
train_stop_function=0
cascade_output_change_fraction=0.010000
quickprop_decay=-0.000100
quickprop_mu=1.750000
rprop_increase_factor=1.200000
rprop_decrease_factor=0.500000
rprop_delta_min=0.000000
rprop_delta_max=50.000000
rprop_delta_zero=0.100000
cascade_output_stagnation_epochs=12
cascade_candidate_change_fraction=0.010000
cascade_candidate_stagnation_epochs=12
cascade_max_out_epochs=150
cascade_min_out_epochs=50
cascade_max_cand_epochs=150
cascade_min_cand_epochs=50
cascade_num_candidate_groups=2
bit_fail_limit=3.49999994039535522461e-01
cascade_candidate_limit=1.00000000000000000000e+03
cascade_weight_multiplier=4.00000005960464477539e-01
cascade_activation_functions_count=10
cascade_activation_functions=3 5 7 8 10 11 14 15 16 17 
cascade_activation_steepnesses_count=4
cascade_activation_steepnesses=2.50000000000000000000e-01 5.00000000000000000000e-01 7.50000000000000000000e-01 1.00000000000000000000e+00 
layer_sizes=19 3 3 
scale_included=0
neurons (num_inputs, activation_function, activation_steepness)=(0, 0, 0.00000000000000000000e+00) (0, 0, 0.00000000000000000000e+00) (0, 0, 0.00000000000000000000e+00) (0, 0, 0.00000000000000000000e+00) (0, 0, 0.00000000000000000000e+00) (0, 0, 0.00000000000000000000e+00) (0, 0, 0.00000000000000000000e+00) (0, 0, 0.00000000000000000000e+00) (0, 0, 0.00000000000000000000e+00) (0, 0, 0.00000000000000000000e+00) (0, 0, 0.00000000000000000000e+00) (0, 0, 0.00000000000000000000e+00) (0, 0, 0.00000000000000000000e+00) (0, 0, 0.00000000000000000000e+00) (0, 0, 0.00000000000000000000e+00) (0, 0, 0.00000000000000000000e+00) (0, 0, 0.00000000000000000000e+00) (0, 0, 0.00000000000000000000e+00) (0, 0, 0.00000000000000000000e+00) (19, 3, 5.00000000000000000000e-01) (19, 3, 5.00000000000000000000e-01) (0, 3, 0.00000000000000000000e+00) (3, 0, 5.00000000000000000000e-01) (3, 0, 5.00000000000000000000e-01) (0, 0, 0.00000000000000000000e+00) 
connections (connected_to_neuron, weight)=(0, -5.36620095372200012207e-02) (1, -1.77921637892723083496e-01) (2, -4.07445058226585388184e-02) (3, -1.99253961443901062012e-01) (4, -1.45306244492530822754e-01) (5, -1.59345582127571105957e-01) (6, -1.77685678005218505859e-01) (7, -1.23659893870353698730e-01) (8, -7.54888132214546203613e-02) (9, -3.42084988951683044434e-02) (10, -1.87141865491867065430e-01) (11, -1.18023775517940521240e-01) (12, -9.10033956170082092285e-02) (13, -8.69278684258460998535e-02) (14, -1.12624824047088623047e-01) (15, -1.50100797414779663086e-01) (16, -1.53736442327499389648e-01) (17, -1.31478562951087951660e-01) (18, -2.07414105534553527832e-01) (0, -3.77218499779701232910e-02) (1, -2.32912376523017883301e-02) (2, -1.04434110224246978760e-01) (3, -7.27421715855598449707e-02) (4, -4.17322292923927307129e-02) (5, -1.67349472641944885254e-01) (6, -5.55506572127342224121e-02) (7, -1.14387713372707366943e-01) (8, -1.56196594238281250000e-01) (9, -6.96686133742332458496e-02) (10, -3.22858318686485290527e-02) (11, -1.05881512165069580078e-01) (12, -1.03330627083778381348e-01) (13, -1.90207466483116149902e-01) (14, -1.26626014709472656250e-01) (15, -8.25845822691917419434e-02) (16, -1.15513704717159271240e-01) (17, -6.59715905785560607910e-02) (18, -4.02702614665031433105e-02) (19, 2.08264142274856567383e-02) (20, 1.18539609014987945557e-01) (21, 1.85521245002746582031e-01) (19, 5.36845475435256958008e-02) (20, 2.05158293247222900391e-02) (21, 1.14517867565155029297e-01) 
