FANN_FLO_2.1
num_layers=3
learning_rate=0.100000
connection_rate=1.000000
network_type=0
learning_momentum=0.000000
training_algorithm=2
train_error_function=1
train_stop_function=0
cascade_output_change_fraction=0.010000
quickprop_decay=-0.000100
quickprop_mu=1.750000
rprop_increase_factor=1.200000
rprop_decrease_factor=0.500000
rprop_delta_min=0.000000
rprop_delta_max=50.000000
rprop_delta_zero=0.100000
cascade_output_stagnation_epochs=12
cascade_candidate_change_fraction=0.010000
cascade_candidate_stagnation_epochs=12
cascade_max_out_epochs=150
cascade_min_out_epochs=50
cascade_max_cand_epochs=150
cascade_min_cand_epochs=50
cascade_num_candidate_groups=2
bit_fail_limit=3.49999994039535522461e-01
cascade_candidate_limit=1.00000000000000000000e+03
cascade_weight_multiplier=4.00000005960464477539e-01
cascade_activation_functions_count=10
cascade_activation_functions=3 5 7 8 10 11 14 15 16 17 
cascade_activation_steepnesses_count=4
cascade_activation_steepnesses=2.50000000000000000000e-01 5.00000000000000000000e-01 7.50000000000000000000e-01 1.00000000000000000000e+00 
layer_sizes=19 3 3 
scale_included=0
neurons (num_inputs, activation_function, activation_steepness)=(0, 0, 0.00000000000000000000e+00) (0, 0, 0.00000000000000000000e+00) (0, 0, 0.00000000000000000000e+00) (0, 0, 0.00000000000000000000e+00) (0, 0, 0.00000000000000000000e+00) (0, 0, 0.00000000000000000000e+00) (0, 0, 0.00000000000000000000e+00) (0, 0, 0.00000000000000000000e+00) (0, 0, 0.00000000000000000000e+00) (0, 0, 0.00000000000000000000e+00) (0, 0, 0.00000000000000000000e+00) (0, 0, 0.00000000000000000000e+00) (0, 0, 0.00000000000000000000e+00) (0, 0, 0.00000000000000000000e+00) (0, 0, 0.00000000000000000000e+00) (0, 0, 0.00000000000000000000e+00) (0, 0, 0.00000000000000000000e+00) (0, 0, 0.00000000000000000000e+00) (0, 0, 0.00000000000000000000e+00) (19, 3, 5.00000000000000000000e-01) (19, 3, 5.00000000000000000000e-01) (0, 3, 0.00000000000000000000e+00) (3, 0, 5.00000000000000000000e-01) (3, 0, 5.00000000000000000000e-01) (0, 0, 0.00000000000000000000e+00) 
connections (connected_to_neuron, weight)=(0, -7.95836970210075378418e-02) (1, -1.43032103776931762695e-01) (2, -9.73642319440841674805e-02) (3, -2.01459020376205444336e-01) (4, -1.34974032640457153320e-01) (5, -1.70875951647758483887e-01) (6, -1.98842287063598632812e-01) (7, -2.00299918651580810547e-01) (8, -1.19456708431243896484e-01) (9, -9.51202064752578735352e-02) (10, -8.61439928412437438965e-02) (11, -2.05936923623085021973e-01) (12, -8.41491445899009704590e-02) (13, -1.92720830440521240234e-01) (14, -2.04220354557037353516e-01) (15, -1.28820911049842834473e-01) (16, -1.30166411399841308594e-01) (17, -1.06779739260673522949e-01) (18, -8.15719738602638244629e-02) (0, 1.08795978128910064697e-01) (1, 1.07120588421821594238e-01) (2, 2.56172269582748413086e-02) (3, 1.82472616434097290039e-01) (4, 1.60534620285034179688e-01) (5, 1.36306256055831909180e-01) (6, 1.21953606605529785156e-01) (7, 1.69359475374221801758e-01) (8, 1.84893697500228881836e-01) (9, 2.01672494411468505859e-01) (10, 1.04959033429622650146e-01) (11, 1.23972155153751373291e-01) (12, 1.42088800668716430664e-01) (13, 1.81926935911178588867e-01) (14, 4.66079115867614746094e-02) (15, 1.60629779100418090820e-01) (16, 6.69529139995574951172e-02) (17, 9.57319736480712890625e-02) (18, 1.81787490844726562500e-01) (19, 8.66529867053031921387e-02) (20, 1.96275264024734497070e-01) (21, 1.06667295098304748535e-01) (19, 2.05089971423149108887e-02) (20, 2.10338354110717773438e-01) (21, 4.25181537866592407227e-02) 
