FANN_FLO_2.1
num_layers=3
learning_rate=0.100000
connection_rate=1.000000
network_type=0
learning_momentum=0.000000
training_algorithm=2
train_error_function=1
train_stop_function=0
cascade_output_change_fraction=0.010000
quickprop_decay=-0.000100
quickprop_mu=1.750000
rprop_increase_factor=1.200000
rprop_decrease_factor=0.500000
rprop_delta_min=0.000000
rprop_delta_max=50.000000
rprop_delta_zero=0.100000
cascade_output_stagnation_epochs=12
cascade_candidate_change_fraction=0.010000
cascade_candidate_stagnation_epochs=12
cascade_max_out_epochs=150
cascade_min_out_epochs=50
cascade_max_cand_epochs=150
cascade_min_cand_epochs=50
cascade_num_candidate_groups=2
bit_fail_limit=3.49999994039535522461e-01
cascade_candidate_limit=1.00000000000000000000e+03
cascade_weight_multiplier=4.00000005960464477539e-01
cascade_activation_functions_count=10
cascade_activation_functions=3 5 7 8 10 11 14 15 16 17 
cascade_activation_steepnesses_count=4
cascade_activation_steepnesses=2.50000000000000000000e-01 5.00000000000000000000e-01 7.50000000000000000000e-01 1.00000000000000000000e+00 
layer_sizes=19 3 3 
scale_included=0
neurons (num_inputs, activation_function, activation_steepness)=(0, 0, 0.00000000000000000000e+00) (0, 0, 0.00000000000000000000e+00) (0, 0, 0.00000000000000000000e+00) (0, 0, 0.00000000000000000000e+00) (0, 0, 0.00000000000000000000e+00) (0, 0, 0.00000000000000000000e+00) (0, 0, 0.00000000000000000000e+00) (0, 0, 0.00000000000000000000e+00) (0, 0, 0.00000000000000000000e+00) (0, 0, 0.00000000000000000000e+00) (0, 0, 0.00000000000000000000e+00) (0, 0, 0.00000000000000000000e+00) (0, 0, 0.00000000000000000000e+00) (0, 0, 0.00000000000000000000e+00) (0, 0, 0.00000000000000000000e+00) (0, 0, 0.00000000000000000000e+00) (0, 0, 0.00000000000000000000e+00) (0, 0, 0.00000000000000000000e+00) (0, 0, 0.00000000000000000000e+00) (19, 3, 5.00000000000000000000e-01) (19, 3, 5.00000000000000000000e-01) (0, 3, 0.00000000000000000000e+00) (3, 0, 5.00000000000000000000e-01) (3, 0, 5.00000000000000000000e-01) (0, 0, 0.00000000000000000000e+00) 
connections (connected_to_neuron, weight)=(0, -6.22262433171272277832e-02) (1, -1.79864630103111267090e-01) (2, -1.00957274436950683594e-01) (3, -1.10932864248752593994e-01) (4, -1.16633787751197814941e-01) (5, -1.70882895588874816895e-01) (6, -1.23896300792694091797e-01) (7, -1.64176657795906066895e-01) (8, -1.99267223477363586426e-01) (9, -9.33693125844001770020e-02) (10, -4.94331046938896179199e-02) (11, -2.07545638084411621094e-01) (12, -9.43238809704780578613e-02) (13, -1.33473232388496398926e-01) (14, -2.07808241248130798340e-02) (15, -5.56408241391181945801e-02) (16, -1.75669848918914794922e-01) (17, -1.66535958647727966309e-01) (18, -1.72984570264816284180e-01) (0, 5.57405799627304077148e-02) (1, 2.02943772077560424805e-01) (2, 8.18747580051422119141e-02) (3, 1.95909976959228515625e-01) (4, 1.84189081192016601562e-01) (5, 1.64757996797561645508e-01) (6, 1.70293986797332763672e-01) (7, 6.63610100746154785156e-02) (8, 1.01134382188320159912e-01) (9, 1.53911292552947998047e-01) (10, 1.06152415275573730469e-01) (11, 1.41707628965377807617e-01) (12, 1.11685045063495635986e-01) (13, 1.46287798881530761719e-01) (14, 6.07503540813922882080e-02) (15, 2.07521840929985046387e-02) (16, 4.96539995074272155762e-02) (17, 1.09867461025714874268e-01) (18, 1.16855889558792114258e-01) (19, 1.05477347970008850098e-01) (20, 1.30600243806838989258e-01) (21, 4.34865653514862060547e-02) (19, 7.60442316532135009766e-02) (20, 1.43054604530334472656e-01) (21, 1.69162690639495849609e-01) 
