FANN_FLO_2.1
num_layers=3
learning_rate=0.100000
connection_rate=1.000000
network_type=0
learning_momentum=0.000000
training_algorithm=2
train_error_function=1
train_stop_function=0
cascade_output_change_fraction=0.010000
quickprop_decay=-0.000100
quickprop_mu=1.750000
rprop_increase_factor=1.200000
rprop_decrease_factor=0.500000
rprop_delta_min=0.000000
rprop_delta_max=50.000000
rprop_delta_zero=0.100000
cascade_output_stagnation_epochs=12
cascade_candidate_change_fraction=0.010000
cascade_candidate_stagnation_epochs=12
cascade_max_out_epochs=150
cascade_min_out_epochs=50
cascade_max_cand_epochs=150
cascade_min_cand_epochs=50
cascade_num_candidate_groups=2
bit_fail_limit=3.49999994039535522461e-01
cascade_candidate_limit=1.00000000000000000000e+03
cascade_weight_multiplier=4.00000005960464477539e-01
cascade_activation_functions_count=10
cascade_activation_functions=3 5 7 8 10 11 14 15 16 17 
cascade_activation_steepnesses_count=4
cascade_activation_steepnesses=2.50000000000000000000e-01 5.00000000000000000000e-01 7.50000000000000000000e-01 1.00000000000000000000e+00 
layer_sizes=10 3 2 
scale_included=0
neurons (num_inputs, activation_function, activation_steepness)=(0, 0, 0.00000000000000000000e+00) (0, 0, 0.00000000000000000000e+00) (0, 0, 0.00000000000000000000e+00) (0, 0, 0.00000000000000000000e+00) (0, 0, 0.00000000000000000000e+00) (0, 0, 0.00000000000000000000e+00) (0, 0, 0.00000000000000000000e+00) (0, 0, 0.00000000000000000000e+00) (0, 0, 0.00000000000000000000e+00) (0, 0, 0.00000000000000000000e+00) (10, 3, 5.00000000000000000000e-01) (10, 3, 5.00000000000000000000e-01) (0, 3, 0.00000000000000000000e+00) (3, 0, 5.00000000000000000000e-01) (0, 0, 0.00000000000000000000e+00) 
connections (connected_to_neuron, weight)=(0, 9.40319970250129699707e-02) (1, 2.05496162176132202148e-01) (2, 1.49629771709442138672e-01) (3, 6.22073821723461151123e-02) (4, 2.09946751594543457031e-01) (5, 1.95531815290451049805e-01) (6, 1.27455294132232666016e-01) (7, 6.64229393005371093750e-02) (8, 1.64514064788818359375e-01) (9, 1.03446342051029205322e-01) (0, 6.31855875253677368164e-02) (1, 1.09304882586002349854e-01) (2, 6.94583207368850708008e-02) (3, 1.39622330665588378906e-01) (4, 1.68465286493301391602e-01) (5, 1.08749836683273315430e-01) (6, 7.55993574857711791992e-02) (7, 1.91164493560791015625e-01) (8, 7.80335068702697753906e-02) (9, 4.50457036495208740234e-02) (10, 1.41558632254600524902e-01) (11, 1.50850862264633178711e-01) (12, 1.91826641559600830078e-01) 
