FANN_FLO_2.1
num_layers=3
learning_rate=0.100000
connection_rate=1.000000
network_type=0
learning_momentum=0.000000
training_algorithm=2
train_error_function=1
train_stop_function=0
cascade_output_change_fraction=0.010000
quickprop_decay=-0.000100
quickprop_mu=1.750000
rprop_increase_factor=1.200000
rprop_decrease_factor=0.500000
rprop_delta_min=0.000000
rprop_delta_max=50.000000
rprop_delta_zero=0.100000
cascade_output_stagnation_epochs=12
cascade_candidate_change_fraction=0.010000
cascade_candidate_stagnation_epochs=12
cascade_max_out_epochs=150
cascade_min_out_epochs=50
cascade_max_cand_epochs=150
cascade_min_cand_epochs=50
cascade_num_candidate_groups=2
bit_fail_limit=3.49999994039535522461e-01
cascade_candidate_limit=1.00000000000000000000e+03
cascade_weight_multiplier=4.00000005960464477539e-01
cascade_activation_functions_count=10
cascade_activation_functions=3 5 7 8 10 11 14 15 16 17 
cascade_activation_steepnesses_count=4
cascade_activation_steepnesses=2.50000000000000000000e-01 5.00000000000000000000e-01 7.50000000000000000000e-01 1.00000000000000000000e+00 
layer_sizes=10 3 2 
scale_included=0
neurons (num_inputs, activation_function, activation_steepness)=(0, 0, 0.00000000000000000000e+00) (0, 0, 0.00000000000000000000e+00) (0, 0, 0.00000000000000000000e+00) (0, 0, 0.00000000000000000000e+00) (0, 0, 0.00000000000000000000e+00) (0, 0, 0.00000000000000000000e+00) (0, 0, 0.00000000000000000000e+00) (0, 0, 0.00000000000000000000e+00) (0, 0, 0.00000000000000000000e+00) (0, 0, 0.00000000000000000000e+00) (10, 3, 5.00000000000000000000e-01) (10, 3, 5.00000000000000000000e-01) (0, 3, 0.00000000000000000000e+00) (3, 0, 5.00000000000000000000e-01) (0, 0, 0.00000000000000000000e+00) 
connections (connected_to_neuron, weight)=(0, 2.16057270765304565430e-01) (1, 9.09964144229888916016e-02) (2, 1.88059151172637939453e-01) (3, 1.28067448735237121582e-01) (4, 1.60621136426925659180e-01) (5, 4.81577590107917785645e-02) (6, 6.90495669841766357422e-02) (7, 1.82860285043716430664e-01) (8, 1.95036053657531738281e-01) (9, 2.34519243240356445312e-02) (0, 1.07182696461677551270e-01) (1, 1.12438634037971496582e-01) (2, 1.55096262693405151367e-01) (3, 2.14202344417572021484e-01) (4, 1.88239395618438720703e-01) (5, 1.44545614719390869141e-01) (6, 1.47300451993942260742e-01) (7, 1.56473368406295776367e-01) (8, 7.96006172895431518555e-02) (9, 1.34214743971824645996e-01) (10, 2.18258261680603027344e-01) (11, 1.67606443166732788086e-01) (12, 1.96082174777984619141e-01) 
