FANN_FLO_2.1
num_layers=3
learning_rate=0.100000
connection_rate=1.000000
network_type=0
learning_momentum=0.000000
training_algorithm=2
train_error_function=1
train_stop_function=0
cascade_output_change_fraction=0.010000
quickprop_decay=-0.000100
quickprop_mu=1.750000
rprop_increase_factor=1.200000
rprop_decrease_factor=0.500000
rprop_delta_min=0.000000
rprop_delta_max=50.000000
rprop_delta_zero=0.100000
cascade_output_stagnation_epochs=12
cascade_candidate_change_fraction=0.010000
cascade_candidate_stagnation_epochs=12
cascade_max_out_epochs=150
cascade_min_out_epochs=50
cascade_max_cand_epochs=150
cascade_min_cand_epochs=50
cascade_num_candidate_groups=2
bit_fail_limit=3.49999994039535522461e-01
cascade_candidate_limit=1.00000000000000000000e+03
cascade_weight_multiplier=4.00000005960464477539e-01
cascade_activation_functions_count=10
cascade_activation_functions=3 5 7 8 10 11 14 15 16 17 
cascade_activation_steepnesses_count=4
cascade_activation_steepnesses=2.50000000000000000000e-01 5.00000000000000000000e-01 7.50000000000000000000e-01 1.00000000000000000000e+00 
layer_sizes=19 3 3 
scale_included=0
neurons (num_inputs, activation_function, activation_steepness)=(0, 0, 0.00000000000000000000e+00) (0, 0, 0.00000000000000000000e+00) (0, 0, 0.00000000000000000000e+00) (0, 0, 0.00000000000000000000e+00) (0, 0, 0.00000000000000000000e+00) (0, 0, 0.00000000000000000000e+00) (0, 0, 0.00000000000000000000e+00) (0, 0, 0.00000000000000000000e+00) (0, 0, 0.00000000000000000000e+00) (0, 0, 0.00000000000000000000e+00) (0, 0, 0.00000000000000000000e+00) (0, 0, 0.00000000000000000000e+00) (0, 0, 0.00000000000000000000e+00) (0, 0, 0.00000000000000000000e+00) (0, 0, 0.00000000000000000000e+00) (0, 0, 0.00000000000000000000e+00) (0, 0, 0.00000000000000000000e+00) (0, 0, 0.00000000000000000000e+00) (0, 0, 0.00000000000000000000e+00) (19, 3, 5.00000000000000000000e-01) (19, 3, 5.00000000000000000000e-01) (0, 3, 0.00000000000000000000e+00) (3, 0, 5.00000000000000000000e-01) (3, 0, 5.00000000000000000000e-01) (0, 0, 0.00000000000000000000e+00) 
connections (connected_to_neuron, weight)=(0, -1.81198775768280029297e-01) (1, -6.84571489691734313965e-02) (2, -1.47045910358428955078e-01) (3, -1.52721092104911804199e-01) (4, -6.91947266459465026855e-02) (5, -3.17443236708641052246e-02) (6, -1.65002778172492980957e-01) (7, -1.79047942161560058594e-01) (8, -1.35154932737350463867e-01) (9, -5.01439049839973449707e-02) (10, -1.13346800208091735840e-01) (11, -1.59911885857582092285e-01) (12, -1.05517603456974029541e-01) (13, -1.82088166475296020508e-01) (14, -1.46703287959098815918e-01) (15, -1.84991821646690368652e-01) (16, -5.88719621300697326660e-02) (17, -1.95398092269897460938e-01) (18, -1.73998177051544189453e-01) (0, 3.72608900070190429688e-02) (1, 1.42805740237236022949e-01) (2, 5.17457425594329833984e-02) (3, 5.94528950750827789307e-02) (4, 6.87434226274490356445e-02) (5, 1.63490474224090576172e-01) (6, 1.35554820299148559570e-01) (7, 1.10750280320644378662e-01) (8, 1.32142916321754455566e-01) (9, 9.27449241280555725098e-02) (10, 9.52919647097587585449e-02) (11, 1.92641258239746093750e-01) (12, 1.31546154618263244629e-01) (13, 4.68348264694213867188e-02) (14, 6.55953660607337951660e-02) (15, 1.98825061321258544922e-01) (16, 1.97640120983123779297e-01) (17, 5.38510531187057495117e-02) (18, 5.38222938776016235352e-02) (19, 3.85921746492385864258e-02) (20, 1.38696134090423583984e-01) (21, 2.36783847212791442871e-02) (19, 1.45245373249053955078e-01) (20, 1.98784232139587402344e-01) (21, 1.38160794973373413086e-01) 
