FANN_FLO_2.1
num_layers=3
learning_rate=0.100000
connection_rate=1.000000
network_type=0
learning_momentum=0.000000
training_algorithm=2
train_error_function=1
train_stop_function=0
cascade_output_change_fraction=0.010000
quickprop_decay=-0.000100
quickprop_mu=1.750000
rprop_increase_factor=1.200000
rprop_decrease_factor=0.500000
rprop_delta_min=0.000000
rprop_delta_max=50.000000
rprop_delta_zero=0.100000
cascade_output_stagnation_epochs=12
cascade_candidate_change_fraction=0.010000
cascade_candidate_stagnation_epochs=12
cascade_max_out_epochs=150
cascade_min_out_epochs=50
cascade_max_cand_epochs=150
cascade_min_cand_epochs=50
cascade_num_candidate_groups=2
bit_fail_limit=3.49999994039535522461e-01
cascade_candidate_limit=1.00000000000000000000e+03
cascade_weight_multiplier=4.00000005960464477539e-01
cascade_activation_functions_count=10
cascade_activation_functions=3 5 7 8 10 11 14 15 16 17 
cascade_activation_steepnesses_count=4
cascade_activation_steepnesses=2.50000000000000000000e-01 5.00000000000000000000e-01 7.50000000000000000000e-01 1.00000000000000000000e+00 
layer_sizes=10 3 2 
scale_included=0
neurons (num_inputs, activation_function, activation_steepness)=(0, 0, 0.00000000000000000000e+00) (0, 0, 0.00000000000000000000e+00) (0, 0, 0.00000000000000000000e+00) (0, 0, 0.00000000000000000000e+00) (0, 0, 0.00000000000000000000e+00) (0, 0, 0.00000000000000000000e+00) (0, 0, 0.00000000000000000000e+00) (0, 0, 0.00000000000000000000e+00) (0, 0, 0.00000000000000000000e+00) (0, 0, 0.00000000000000000000e+00) (10, 3, 5.00000000000000000000e-01) (10, 3, 5.00000000000000000000e-01) (0, 3, 0.00000000000000000000e+00) (3, 0, 5.00000000000000000000e-01) (0, 0, 0.00000000000000000000e+00) 
connections (connected_to_neuron, weight)=(0, 5.12725114822387695312e-02) (1, 1.31643459200859069824e-01) (2, 2.14029282331466674805e-01) (3, 2.09336847066879272461e-01) (4, 4.30130735039710998535e-02) (5, 2.09878653287887573242e-01) (6, 6.29054978489875793457e-02) (7, 1.00525371730327606201e-01) (8, 7.98712521791458129883e-02) (9, 8.41342583298683166504e-02) (0, 9.96943265199661254883e-02) (1, 1.66651010513305664062e-01) (2, 6.13042302429676055908e-02) (3, 6.26901686191558837891e-02) (4, 1.47211730480194091797e-01) (5, 2.03630745410919189453e-01) (6, 2.49503552913665771484e-02) (7, 1.55300498008728027344e-01) (8, 8.93693640828132629395e-02) (9, 8.41610729694366455078e-02) (10, 1.79016709327697753906e-01) (11, 1.76575899124145507812e-01) (12, 1.36151209473609924316e-01) 
