FANN_FLO_2.1
num_layers=3
learning_rate=0.100000
connection_rate=1.000000
network_type=0
learning_momentum=0.000000
training_algorithm=2
train_error_function=1
train_stop_function=0
cascade_output_change_fraction=0.010000
quickprop_decay=-0.000100
quickprop_mu=1.750000
rprop_increase_factor=1.200000
rprop_decrease_factor=0.500000
rprop_delta_min=0.000000
rprop_delta_max=50.000000
rprop_delta_zero=0.100000
cascade_output_stagnation_epochs=12
cascade_candidate_change_fraction=0.010000
cascade_candidate_stagnation_epochs=12
cascade_max_out_epochs=150
cascade_min_out_epochs=50
cascade_max_cand_epochs=150
cascade_min_cand_epochs=50
cascade_num_candidate_groups=2
bit_fail_limit=3.49999994039535522461e-01
cascade_candidate_limit=1.00000000000000000000e+03
cascade_weight_multiplier=4.00000005960464477539e-01
cascade_activation_functions_count=10
cascade_activation_functions=3 5 7 8 10 11 14 15 16 17 
cascade_activation_steepnesses_count=4
cascade_activation_steepnesses=2.50000000000000000000e-01 5.00000000000000000000e-01 7.50000000000000000000e-01 1.00000000000000000000e+00 
layer_sizes=19 3 3 
scale_included=0
neurons (num_inputs, activation_function, activation_steepness)=(0, 0, 0.00000000000000000000e+00) (0, 0, 0.00000000000000000000e+00) (0, 0, 0.00000000000000000000e+00) (0, 0, 0.00000000000000000000e+00) (0, 0, 0.00000000000000000000e+00) (0, 0, 0.00000000000000000000e+00) (0, 0, 0.00000000000000000000e+00) (0, 0, 0.00000000000000000000e+00) (0, 0, 0.00000000000000000000e+00) (0, 0, 0.00000000000000000000e+00) (0, 0, 0.00000000000000000000e+00) (0, 0, 0.00000000000000000000e+00) (0, 0, 0.00000000000000000000e+00) (0, 0, 0.00000000000000000000e+00) (0, 0, 0.00000000000000000000e+00) (0, 0, 0.00000000000000000000e+00) (0, 0, 0.00000000000000000000e+00) (0, 0, 0.00000000000000000000e+00) (0, 0, 0.00000000000000000000e+00) (19, 3, 5.00000000000000000000e-01) (19, 3, 5.00000000000000000000e-01) (0, 3, 0.00000000000000000000e+00) (3, 0, 5.00000000000000000000e-01) (3, 0, 5.00000000000000000000e-01) (0, 0, 0.00000000000000000000e+00) 
connections (connected_to_neuron, weight)=(0, 1.55089318752288818359e-01) (1, 5.20964115858078002930e-02) (2, 1.25536918640136718750e-01) (3, 8.55433642864227294922e-02) (4, 2.14922696352005004883e-01) (5, 2.84102708101272583008e-02) (6, 9.52621325850486755371e-02) (7, 1.65733754634857177734e-01) (8, 7.28196129202842712402e-02) (9, 7.31564760208129882812e-02) (10, 2.05593794584274291992e-01) (11, 9.83852744102478027344e-02) (12, 1.09746612608432769775e-01) (13, 1.63295894861221313477e-01) (14, 3.20082753896713256836e-02) (15, 1.24385878443717956543e-01) (16, 1.26171797513961791992e-01) (17, 9.48854237794876098633e-02) (18, 1.20305500924587249756e-01) (0, 7.09237456321716308594e-02) (1, 1.45440131425857543945e-01) (2, 1.22685156762599945068e-01) (3, 9.85817685723304748535e-02) (4, 1.43612414598464965820e-01) (5, 1.74648940563201904297e-01) (6, 1.75257176160812377930e-01) (7, 9.93399620056152343750e-02) (8, 2.16067612171173095703e-01) (9, 1.78383469581604003906e-01) (10, 1.63263738155364990234e-01) (11, 1.62362158298492431641e-01) (12, 1.13472782075405120850e-01) (13, 1.95360124111175537109e-01) (14, 6.78990781307220458984e-02) (15, 1.79016143083572387695e-01) (16, 1.90282821655273437500e-01) (17, 7.63093531131744384766e-02) (18, 5.42782694101333618164e-02) (19, 1.36016547679901123047e-01) (20, 1.29128962755203247070e-01) (21, 1.07434749603271484375e-01) (19, 1.21610328555107116699e-01) (20, 2.07514226436614990234e-01) (21, 1.97181344032287597656e-01) 
