FANN_FLO_2.1
num_layers=3
learning_rate=0.100000
connection_rate=1.000000
network_type=0
learning_momentum=0.000000
training_algorithm=2
train_error_function=1
train_stop_function=0
cascade_output_change_fraction=0.010000
quickprop_decay=-0.000100
quickprop_mu=1.750000
rprop_increase_factor=1.200000
rprop_decrease_factor=0.500000
rprop_delta_min=0.000000
rprop_delta_max=50.000000
rprop_delta_zero=0.100000
cascade_output_stagnation_epochs=12
cascade_candidate_change_fraction=0.010000
cascade_candidate_stagnation_epochs=12
cascade_max_out_epochs=150
cascade_min_out_epochs=50
cascade_max_cand_epochs=150
cascade_min_cand_epochs=50
cascade_num_candidate_groups=2
bit_fail_limit=3.49999994039535522461e-01
cascade_candidate_limit=1.00000000000000000000e+03
cascade_weight_multiplier=4.00000005960464477539e-01
cascade_activation_functions_count=10
cascade_activation_functions=3 5 7 8 10 11 14 15 16 17 
cascade_activation_steepnesses_count=4
cascade_activation_steepnesses=2.50000000000000000000e-01 5.00000000000000000000e-01 7.50000000000000000000e-01 1.00000000000000000000e+00 
layer_sizes=10 3 2 
scale_included=0
neurons (num_inputs, activation_function, activation_steepness)=(0, 0, 0.00000000000000000000e+00) (0, 0, 0.00000000000000000000e+00) (0, 0, 0.00000000000000000000e+00) (0, 0, 0.00000000000000000000e+00) (0, 0, 0.00000000000000000000e+00) (0, 0, 0.00000000000000000000e+00) (0, 0, 0.00000000000000000000e+00) (0, 0, 0.00000000000000000000e+00) (0, 0, 0.00000000000000000000e+00) (0, 0, 0.00000000000000000000e+00) (10, 3, 5.00000000000000000000e-01) (10, 3, 5.00000000000000000000e-01) (0, 3, 0.00000000000000000000e+00) (3, 0, 5.00000000000000000000e-01) (0, 0, 0.00000000000000000000e+00) 
connections (connected_to_neuron, weight)=(0, -8.21647122502326965332e-02) (1, -1.35201841592788696289e-01) (2, -5.28715029358863830566e-02) (3, -2.90349051356315612793e-02) (4, -4.71349433064460754395e-02) (5, -9.84148755669593811035e-02) (6, -8.34164544939994812012e-02) (7, -3.45992371439933776855e-02) (8, -5.80622777342796325684e-02) (9, -1.85785695910453796387e-01) (0, -2.04302400350570678711e-01) (1, -2.18799635767936706543e-01) (2, -1.23755022883415222168e-01) (3, -1.72869548201560974121e-01) (4, -4.93010208010673522949e-02) (5, -1.36248365044593811035e-01) (6, -1.51082158088684082031e-01) (7, -7.50904753804206848145e-02) (8, -1.28701224923133850098e-01) (9, -1.64725542068481445312e-01) (10, 2.15291604399681091309e-02) (11, 9.30004417896270751953e-02) (12, 7.21224844455718994141e-02) 
