FANN_FLO_2.1
num_layers=3
learning_rate=0.100000
connection_rate=1.000000
network_type=0
learning_momentum=0.000000
training_algorithm=2
train_error_function=1
train_stop_function=0
cascade_output_change_fraction=0.010000
quickprop_decay=-0.000100
quickprop_mu=1.750000
rprop_increase_factor=1.200000
rprop_decrease_factor=0.500000
rprop_delta_min=0.000000
rprop_delta_max=50.000000
rprop_delta_zero=0.100000
cascade_output_stagnation_epochs=12
cascade_candidate_change_fraction=0.010000
cascade_candidate_stagnation_epochs=12
cascade_max_out_epochs=150
cascade_min_out_epochs=50
cascade_max_cand_epochs=150
cascade_min_cand_epochs=50
cascade_num_candidate_groups=2
bit_fail_limit=3.49999994039535522461e-01
cascade_candidate_limit=1.00000000000000000000e+03
cascade_weight_multiplier=4.00000005960464477539e-01
cascade_activation_functions_count=10
cascade_activation_functions=3 5 7 8 10 11 14 15 16 17 
cascade_activation_steepnesses_count=4
cascade_activation_steepnesses=2.50000000000000000000e-01 5.00000000000000000000e-01 7.50000000000000000000e-01 1.00000000000000000000e+00 
layer_sizes=10 3 2 
scale_included=0
neurons (num_inputs, activation_function, activation_steepness)=(0, 0, 0.00000000000000000000e+00) (0, 0, 0.00000000000000000000e+00) (0, 0, 0.00000000000000000000e+00) (0, 0, 0.00000000000000000000e+00) (0, 0, 0.00000000000000000000e+00) (0, 0, 0.00000000000000000000e+00) (0, 0, 0.00000000000000000000e+00) (0, 0, 0.00000000000000000000e+00) (0, 0, 0.00000000000000000000e+00) (0, 0, 0.00000000000000000000e+00) (10, 3, 5.00000000000000000000e-01) (10, 3, 5.00000000000000000000e-01) (0, 3, 0.00000000000000000000e+00) (3, 0, 5.00000000000000000000e-01) (0, 0, 0.00000000000000000000e+00) 
connections (connected_to_neuron, weight)=(0, 9.77811366319656372070e-02) (1, 9.10571962594985961914e-02) (2, 1.09599076211452484131e-01) (3, 1.13049641251564025879e-01) (4, 1.74381315708160400391e-01) (5, 1.84585839509963989258e-01) (6, 3.45774143934249877930e-02) (7, 1.80284082889556884766e-01) (8, 2.02974081039428710938e-01) (9, 3.58921140432357788086e-02) (0, 2.90049985051155090332e-02) (1, 1.62620931863784790039e-01) (2, 1.62135601043701171875e-01) (3, 9.40322726964950561523e-02) (4, 2.94305682182312011719e-02) (5, 6.72359317541122436523e-02) (6, 3.59596982598304748535e-02) (7, 1.61684066057205200195e-01) (8, 7.88096785545349121094e-02) (9, 1.64851933717727661133e-01) (10, 1.54999762773513793945e-01) (11, 1.22404851019382476807e-01) (12, 1.94221556186676025391e-01) 
