FANN_FLO_2.1
num_layers=3
learning_rate=0.100000
connection_rate=1.000000
network_type=0
learning_momentum=0.000000
training_algorithm=2
train_error_function=1
train_stop_function=0
cascade_output_change_fraction=0.010000
quickprop_decay=-0.000100
quickprop_mu=1.750000
rprop_increase_factor=1.200000
rprop_decrease_factor=0.500000
rprop_delta_min=0.000000
rprop_delta_max=50.000000
rprop_delta_zero=0.100000
cascade_output_stagnation_epochs=12
cascade_candidate_change_fraction=0.010000
cascade_candidate_stagnation_epochs=12
cascade_max_out_epochs=150
cascade_min_out_epochs=50
cascade_max_cand_epochs=150
cascade_min_cand_epochs=50
cascade_num_candidate_groups=2
bit_fail_limit=3.49999994039535522461e-01
cascade_candidate_limit=1.00000000000000000000e+03
cascade_weight_multiplier=4.00000005960464477539e-01
cascade_activation_functions_count=10
cascade_activation_functions=3 5 7 8 10 11 14 15 16 17 
cascade_activation_steepnesses_count=4
cascade_activation_steepnesses=2.50000000000000000000e-01 5.00000000000000000000e-01 7.50000000000000000000e-01 1.00000000000000000000e+00 
layer_sizes=19 3 3 
scale_included=0
neurons (num_inputs, activation_function, activation_steepness)=(0, 0, 0.00000000000000000000e+00) (0, 0, 0.00000000000000000000e+00) (0, 0, 0.00000000000000000000e+00) (0, 0, 0.00000000000000000000e+00) (0, 0, 0.00000000000000000000e+00) (0, 0, 0.00000000000000000000e+00) (0, 0, 0.00000000000000000000e+00) (0, 0, 0.00000000000000000000e+00) (0, 0, 0.00000000000000000000e+00) (0, 0, 0.00000000000000000000e+00) (0, 0, 0.00000000000000000000e+00) (0, 0, 0.00000000000000000000e+00) (0, 0, 0.00000000000000000000e+00) (0, 0, 0.00000000000000000000e+00) (0, 0, 0.00000000000000000000e+00) (0, 0, 0.00000000000000000000e+00) (0, 0, 0.00000000000000000000e+00) (0, 0, 0.00000000000000000000e+00) (0, 0, 0.00000000000000000000e+00) (19, 3, 5.00000000000000000000e-01) (19, 3, 5.00000000000000000000e-01) (0, 3, 0.00000000000000000000e+00) (3, 0, 5.00000000000000000000e-01) (3, 0, 5.00000000000000000000e-01) (0, 0, 0.00000000000000000000e+00) 
connections (connected_to_neuron, weight)=(0, -1.72381132841110229492e-01) (1, -5.30618354678153991699e-02) (2, -1.49084806442260742188e-01) (3, -1.61560863256454467773e-01) (4, -2.05414921045303344727e-01) (5, -6.40757605433464050293e-02) (6, -1.16235353052616119385e-01) (7, -1.00428797304630279541e-01) (8, -8.93181189894676208496e-02) (9, -1.82652950286865234375e-01) (10, -8.00963565707206726074e-02) (11, -1.68616324663162231445e-01) (12, -1.06323257088661193848e-01) (13, -1.63250371813774108887e-01) (14, -1.07540406286716461182e-01) (15, -1.39906153082847595215e-01) (16, -4.36013862490653991699e-02) (17, -1.64325043559074401855e-01) (18, -1.30714178085327148438e-01) (0, 2.46118307113647460938e-02) (1, 7.16329365968704223633e-02) (2, 9.77654308080673217773e-02) (3, 1.28795132040977478027e-01) (4, 3.37142199277877807617e-02) (5, 2.10038423538208007812e-01) (6, 1.97454392910003662109e-01) (7, 2.52323001623153686523e-02) (8, 1.90025776624679565430e-01) (9, 1.76395267248153686523e-01) (10, 2.13050037622451782227e-01) (11, 2.09957450628280639648e-01) (12, 2.40141451358795166016e-02) (13, 1.79988205432891845703e-01) (14, 8.08726549148559570312e-02) (15, 8.24532806873321533203e-02) (16, 1.94573283195495605469e-01) (17, 3.67968901991844177246e-02) (18, 1.86217933893203735352e-01) (19, 1.14144474267959594727e-01) (20, 1.67478770017623901367e-01) (21, 2.35649943351745605469e-02) (19, 5.40481358766555786133e-02) (20, 2.18862473964691162109e-01) (21, 1.37241750955581665039e-01) 
