FANN_FLO_2.1
num_layers=3
learning_rate=0.100000
connection_rate=1.000000
network_type=0
learning_momentum=0.000000
training_algorithm=2
train_error_function=1
train_stop_function=0
cascade_output_change_fraction=0.010000
quickprop_decay=-0.000100
quickprop_mu=1.750000
rprop_increase_factor=1.200000
rprop_decrease_factor=0.500000
rprop_delta_min=0.000000
rprop_delta_max=50.000000
rprop_delta_zero=0.100000
cascade_output_stagnation_epochs=12
cascade_candidate_change_fraction=0.010000
cascade_candidate_stagnation_epochs=12
cascade_max_out_epochs=150
cascade_min_out_epochs=50
cascade_max_cand_epochs=150
cascade_min_cand_epochs=50
cascade_num_candidate_groups=2
bit_fail_limit=3.49999994039535522461e-01
cascade_candidate_limit=1.00000000000000000000e+03
cascade_weight_multiplier=4.00000005960464477539e-01
cascade_activation_functions_count=10
cascade_activation_functions=3 5 7 8 10 11 14 15 16 17 
cascade_activation_steepnesses_count=4
cascade_activation_steepnesses=2.50000000000000000000e-01 5.00000000000000000000e-01 7.50000000000000000000e-01 1.00000000000000000000e+00 
layer_sizes=19 3 3 
scale_included=0
neurons (num_inputs, activation_function, activation_steepness)=(0, 0, 0.00000000000000000000e+00) (0, 0, 0.00000000000000000000e+00) (0, 0, 0.00000000000000000000e+00) (0, 0, 0.00000000000000000000e+00) (0, 0, 0.00000000000000000000e+00) (0, 0, 0.00000000000000000000e+00) (0, 0, 0.00000000000000000000e+00) (0, 0, 0.00000000000000000000e+00) (0, 0, 0.00000000000000000000e+00) (0, 0, 0.00000000000000000000e+00) (0, 0, 0.00000000000000000000e+00) (0, 0, 0.00000000000000000000e+00) (0, 0, 0.00000000000000000000e+00) (0, 0, 0.00000000000000000000e+00) (0, 0, 0.00000000000000000000e+00) (0, 0, 0.00000000000000000000e+00) (0, 0, 0.00000000000000000000e+00) (0, 0, 0.00000000000000000000e+00) (0, 0, 0.00000000000000000000e+00) (19, 3, 5.00000000000000000000e-01) (19, 3, 5.00000000000000000000e-01) (0, 3, 0.00000000000000000000e+00) (3, 0, 5.00000000000000000000e-01) (3, 0, 5.00000000000000000000e-01) (0, 0, 0.00000000000000000000e+00) 
connections (connected_to_neuron, weight)=(0, -7.29212239384651184082e-02) (1, -2.01639741659164428711e-01) (2, -1.68077290058135986328e-01) (3, -1.97412580251693725586e-01) (4, -2.82819792628288269043e-02) (5, -8.34743008017539978027e-02) (6, -1.36631757020950317383e-01) (7, -1.24135062098503112793e-01) (8, -2.05311104655265808105e-01) (9, -5.62804266810417175293e-02) (10, -1.47557526826858520508e-01) (11, -7.73421302437782287598e-02) (12, -2.44528129696846008301e-02) (13, -9.34646502137184143066e-02) (14, -1.96111232042312622070e-01) (15, -8.21794196963310241699e-02) (16, -2.23263427615165710449e-02) (17, -1.13767042756080627441e-01) (18, -1.77287727594375610352e-01) (0, 8.28182101249694824219e-02) (1, 3.77092137932777404785e-02) (2, 1.63057714700698852539e-01) (3, 1.60831540822982788086e-01) (4, 1.69412881135940551758e-01) (5, 2.04644441604614257812e-01) (6, 1.13883711397647857666e-01) (7, 7.60818943381309509277e-02) (8, 1.20990350842475891113e-01) (9, 1.36386871337890625000e-01) (10, 1.32857918739318847656e-01) (11, 1.41758948564529418945e-01) (12, 8.34656506776809692383e-02) (13, 1.51218175888061523438e-01) (14, 1.93681657314300537109e-01) (15, 1.06053084135055541992e-01) (16, -9.70638021826744079590e-02) (17, 1.30207374691963195801e-01) (18, 1.89421325922012329102e-01) (19, 3.88011485338211059570e-02) (20, 1.44896268844604492188e-01) (21, 1.53140902519226074219e-01) (19, 1.11243627965450286865e-01) (20, 8.75541493296623229980e-02) (21, 1.48688107728958129883e-01) 
