FANN_FLO_2.1
num_layers=3
learning_rate=0.100000
connection_rate=1.000000
network_type=0
learning_momentum=0.000000
training_algorithm=2
train_error_function=1
train_stop_function=0
cascade_output_change_fraction=0.010000
quickprop_decay=-0.000100
quickprop_mu=1.750000
rprop_increase_factor=1.200000
rprop_decrease_factor=0.500000
rprop_delta_min=0.000000
rprop_delta_max=50.000000
rprop_delta_zero=0.100000
cascade_output_stagnation_epochs=12
cascade_candidate_change_fraction=0.010000
cascade_candidate_stagnation_epochs=12
cascade_max_out_epochs=150
cascade_min_out_epochs=50
cascade_max_cand_epochs=150
cascade_min_cand_epochs=50
cascade_num_candidate_groups=2
bit_fail_limit=3.49999994039535522461e-01
cascade_candidate_limit=1.00000000000000000000e+03
cascade_weight_multiplier=4.00000005960464477539e-01
cascade_activation_functions_count=10
cascade_activation_functions=3 5 7 8 10 11 14 15 16 17 
cascade_activation_steepnesses_count=4
cascade_activation_steepnesses=2.50000000000000000000e-01 5.00000000000000000000e-01 7.50000000000000000000e-01 1.00000000000000000000e+00 
layer_sizes=10 3 2 
scale_included=0
neurons (num_inputs, activation_function, activation_steepness)=(0, 0, 0.00000000000000000000e+00) (0, 0, 0.00000000000000000000e+00) (0, 0, 0.00000000000000000000e+00) (0, 0, 0.00000000000000000000e+00) (0, 0, 0.00000000000000000000e+00) (0, 0, 0.00000000000000000000e+00) (0, 0, 0.00000000000000000000e+00) (0, 0, 0.00000000000000000000e+00) (0, 0, 0.00000000000000000000e+00) (0, 0, 0.00000000000000000000e+00) (10, 3, 5.00000000000000000000e-01) (10, 3, 5.00000000000000000000e-01) (0, 3, 0.00000000000000000000e+00) (3, 0, 5.00000000000000000000e-01) (0, 0, 0.00000000000000000000e+00) 
connections (connected_to_neuron, weight)=(0, 8.37507694959640502930e-02) (1, 1.14478752017021179199e-01) (2, 5.51578849554061889648e-02) (3, 1.77715539932250976562e-01) (4, 1.60001307725906372070e-01) (5, 1.96729362010955810547e-01) (6, 2.32415348291397094727e-02) (7, 1.20079532265663146973e-01) (8, 2.03198671340942382812e-01) (9, 1.96101546287536621094e-01) (0, 5.40198832750320434570e-02) (1, 1.33268073201179504395e-01) (2, 6.07614405453205108643e-02) (3, 1.23737439513206481934e-01) (4, 1.54779225587844848633e-01) (5, 2.11802065372467041016e-01) (6, 9.70682650804519653320e-02) (7, 2.09905594587326049805e-01) (8, 1.78638756275177001953e-01) (9, 1.92204892635345458984e-01) (10, 1.20094440877437591553e-01) (11, 2.17161297798156738281e-01) (12, 2.07218438386917114258e-01) 
