FANN_FLO_2.1
num_layers=3
learning_rate=0.100000
connection_rate=1.000000
network_type=0
learning_momentum=0.000000
training_algorithm=2
train_error_function=1
train_stop_function=0
cascade_output_change_fraction=0.010000
quickprop_decay=-0.000100
quickprop_mu=1.750000
rprop_increase_factor=1.200000
rprop_decrease_factor=0.500000
rprop_delta_min=0.000000
rprop_delta_max=50.000000
rprop_delta_zero=0.100000
cascade_output_stagnation_epochs=12
cascade_candidate_change_fraction=0.010000
cascade_candidate_stagnation_epochs=12
cascade_max_out_epochs=150
cascade_min_out_epochs=50
cascade_max_cand_epochs=150
cascade_min_cand_epochs=50
cascade_num_candidate_groups=2
bit_fail_limit=3.49999994039535522461e-01
cascade_candidate_limit=1.00000000000000000000e+03
cascade_weight_multiplier=4.00000005960464477539e-01
cascade_activation_functions_count=10
cascade_activation_functions=3 5 7 8 10 11 14 15 16 17 
cascade_activation_steepnesses_count=4
cascade_activation_steepnesses=2.50000000000000000000e-01 5.00000000000000000000e-01 7.50000000000000000000e-01 1.00000000000000000000e+00 
layer_sizes=19 3 3 
scale_included=0
neurons (num_inputs, activation_function, activation_steepness)=(0, 0, 0.00000000000000000000e+00) (0, 0, 0.00000000000000000000e+00) (0, 0, 0.00000000000000000000e+00) (0, 0, 0.00000000000000000000e+00) (0, 0, 0.00000000000000000000e+00) (0, 0, 0.00000000000000000000e+00) (0, 0, 0.00000000000000000000e+00) (0, 0, 0.00000000000000000000e+00) (0, 0, 0.00000000000000000000e+00) (0, 0, 0.00000000000000000000e+00) (0, 0, 0.00000000000000000000e+00) (0, 0, 0.00000000000000000000e+00) (0, 0, 0.00000000000000000000e+00) (0, 0, 0.00000000000000000000e+00) (0, 0, 0.00000000000000000000e+00) (0, 0, 0.00000000000000000000e+00) (0, 0, 0.00000000000000000000e+00) (0, 0, 0.00000000000000000000e+00) (0, 0, 0.00000000000000000000e+00) (19, 3, 5.00000000000000000000e-01) (19, 3, 5.00000000000000000000e-01) (0, 3, 0.00000000000000000000e+00) (3, 0, 5.00000000000000000000e-01) (3, 0, 5.00000000000000000000e-01) (0, 0, 0.00000000000000000000e+00) 
connections (connected_to_neuron, weight)=(0, 1.86013638973236083984e-01) (1, 1.35289475321769714355e-01) (2, 1.15945704281330108643e-01) (3, 3.08830291032791137695e-02) (4, 5.81245943903923034668e-02) (5, 1.48625046014785766602e-01) (6, 1.73427313566207885742e-01) (7, 1.42182782292366027832e-01) (8, 3.19035276770591735840e-02) (9, 3.08720320463180541992e-02) (10, 3.20340394973754882812e-02) (11, 3.26985642313957214355e-02) (12, 4.83681932091712951660e-02) (13, 2.06286132335662841797e-01) (14, 1.99010342359542846680e-01) (15, 1.16488449275493621826e-01) (16, 6.81674182415008544922e-02) (17, 3.73253375291824340820e-02) (18, 2.19438016414642333984e-01) (0, -1.28191754221916198730e-01) (1, -2.11383432149887084961e-01) (2, -1.18223033845424652100e-01) (3, -1.34069666266441345215e-01) (4, -1.88531100749969482422e-01) (5, -1.50243148207664489746e-01) (6, -5.39095923304557800293e-02) (7, -1.38792484998703002930e-01) (8, -8.96568223834037780762e-02) (9, -3.04507538676261901855e-02) (10, -1.31089642643928527832e-01) (11, -2.26179584860801696777e-02) (12, -6.44371286034584045410e-02) (13, -2.15800166130065917969e-01) (14, -1.26672267913818359375e-01) (15, -5.35541102290153503418e-02) (16, -1.77675589919090270996e-01) (17, -1.98047220706939697266e-01) (18, -1.00126788020133972168e-01) (19, 1.84507191181182861328e-01) (20, 5.38563132286071777344e-02) (21, 1.50745242834091186523e-01) (19, 1.96541249752044677734e-01) (20, 6.65548741817474365234e-02) (21, 1.79113447666168212891e-01) 
