FANN_FLO_2.1
num_layers=3
learning_rate=0.100000
connection_rate=1.000000
network_type=0
learning_momentum=0.000000
training_algorithm=2
train_error_function=1
train_stop_function=0
cascade_output_change_fraction=0.010000
quickprop_decay=-0.000100
quickprop_mu=1.750000
rprop_increase_factor=1.200000
rprop_decrease_factor=0.500000
rprop_delta_min=0.000000
rprop_delta_max=50.000000
rprop_delta_zero=0.100000
cascade_output_stagnation_epochs=12
cascade_candidate_change_fraction=0.010000
cascade_candidate_stagnation_epochs=12
cascade_max_out_epochs=150
cascade_min_out_epochs=50
cascade_max_cand_epochs=150
cascade_min_cand_epochs=50
cascade_num_candidate_groups=2
bit_fail_limit=3.49999994039535522461e-01
cascade_candidate_limit=1.00000000000000000000e+03
cascade_weight_multiplier=4.00000005960464477539e-01
cascade_activation_functions_count=10
cascade_activation_functions=3 5 7 8 10 11 14 15 16 17 
cascade_activation_steepnesses_count=4
cascade_activation_steepnesses=2.50000000000000000000e-01 5.00000000000000000000e-01 7.50000000000000000000e-01 1.00000000000000000000e+00 
layer_sizes=19 3 3 
scale_included=0
neurons (num_inputs, activation_function, activation_steepness)=(0, 0, 0.00000000000000000000e+00) (0, 0, 0.00000000000000000000e+00) (0, 0, 0.00000000000000000000e+00) (0, 0, 0.00000000000000000000e+00) (0, 0, 0.00000000000000000000e+00) (0, 0, 0.00000000000000000000e+00) (0, 0, 0.00000000000000000000e+00) (0, 0, 0.00000000000000000000e+00) (0, 0, 0.00000000000000000000e+00) (0, 0, 0.00000000000000000000e+00) (0, 0, 0.00000000000000000000e+00) (0, 0, 0.00000000000000000000e+00) (0, 0, 0.00000000000000000000e+00) (0, 0, 0.00000000000000000000e+00) (0, 0, 0.00000000000000000000e+00) (0, 0, 0.00000000000000000000e+00) (0, 0, 0.00000000000000000000e+00) (0, 0, 0.00000000000000000000e+00) (0, 0, 0.00000000000000000000e+00) (19, 3, 5.00000000000000000000e-01) (19, 3, 5.00000000000000000000e-01) (0, 3, 0.00000000000000000000e+00) (3, 0, 5.00000000000000000000e-01) (3, 0, 5.00000000000000000000e-01) (0, 0, 0.00000000000000000000e+00) 
connections (connected_to_neuron, weight)=(0, 2.08822220563888549805e-01) (1, 1.46692574024200439453e-01) (2, 1.02643117308616638184e-01) (3, 8.13267752528190612793e-02) (4, 1.01871654391288757324e-01) (5, 1.31336152553558349609e-01) (6, 1.50622338056564331055e-01) (7, 1.72580420970916748047e-01) (8, 1.18912413716316223145e-01) (9, 1.99008852243423461914e-01) (10, 1.61082148551940917969e-01) (11, 1.57399654388427734375e-01) (12, 1.14070050418376922607e-01) (13, 1.29096239805221557617e-01) (14, 2.11391746997833251953e-01) (15, 1.28889858722686767578e-01) (16, 1.93698555231094360352e-01) (17, 8.08644592761993408203e-02) (18, 1.64447665214538574219e-01) (0, 9.90817695856094360352e-02) (1, 2.16496527194976806641e-01) (2, 1.42942875623703002930e-01) (3, 1.51319295167922973633e-01) (4, 1.53553277254104614258e-01) (5, -1.93731158971786499023e-01) (6, 7.74007588624954223633e-02) (7, 2.72000432014465332031e-02) (8, 1.43638551235198974609e-01) (9, 4.08817008137702941895e-02) (10, 1.96177333593368530273e-01) (11, 5.45072704553604125977e-02) (12, 2.97039002180099487305e-02) (13, 1.22869893908500671387e-01) (14, 1.37150391936302185059e-01) (15, 9.10306721925735473633e-02) (16, 2.04741537570953369141e-01) (17, 4.84865307807922363281e-02) (18, 2.16530114412307739258e-02) (19, 1.57321989536285400391e-01) (20, 1.47398948669433593750e-01) (21, 2.00661867856979370117e-01) (19, 9.84041243791580200195e-02) (20, 8.47985893487930297852e-02) (21, 9.47319120168685913086e-02) 
