FANN_FLO_2.1
num_layers=3
learning_rate=0.100000
connection_rate=1.000000
network_type=0
learning_momentum=0.000000
training_algorithm=2
train_error_function=1
train_stop_function=0
cascade_output_change_fraction=0.010000
quickprop_decay=-0.000100
quickprop_mu=1.750000
rprop_increase_factor=1.200000
rprop_decrease_factor=0.500000
rprop_delta_min=0.000000
rprop_delta_max=50.000000
rprop_delta_zero=0.100000
cascade_output_stagnation_epochs=12
cascade_candidate_change_fraction=0.010000
cascade_candidate_stagnation_epochs=12
cascade_max_out_epochs=150
cascade_min_out_epochs=50
cascade_max_cand_epochs=150
cascade_min_cand_epochs=50
cascade_num_candidate_groups=2
bit_fail_limit=3.49999994039535522461e-01
cascade_candidate_limit=1.00000000000000000000e+03
cascade_weight_multiplier=4.00000005960464477539e-01
cascade_activation_functions_count=10
cascade_activation_functions=3 5 7 8 10 11 14 15 16 17 
cascade_activation_steepnesses_count=4
cascade_activation_steepnesses=2.50000000000000000000e-01 5.00000000000000000000e-01 7.50000000000000000000e-01 1.00000000000000000000e+00 
layer_sizes=19 3 3 
scale_included=0
neurons (num_inputs, activation_function, activation_steepness)=(0, 0, 0.00000000000000000000e+00) (0, 0, 0.00000000000000000000e+00) (0, 0, 0.00000000000000000000e+00) (0, 0, 0.00000000000000000000e+00) (0, 0, 0.00000000000000000000e+00) (0, 0, 0.00000000000000000000e+00) (0, 0, 0.00000000000000000000e+00) (0, 0, 0.00000000000000000000e+00) (0, 0, 0.00000000000000000000e+00) (0, 0, 0.00000000000000000000e+00) (0, 0, 0.00000000000000000000e+00) (0, 0, 0.00000000000000000000e+00) (0, 0, 0.00000000000000000000e+00) (0, 0, 0.00000000000000000000e+00) (0, 0, 0.00000000000000000000e+00) (0, 0, 0.00000000000000000000e+00) (0, 0, 0.00000000000000000000e+00) (0, 0, 0.00000000000000000000e+00) (0, 0, 0.00000000000000000000e+00) (19, 3, 5.00000000000000000000e-01) (19, 3, 5.00000000000000000000e-01) (0, 3, 0.00000000000000000000e+00) (3, 0, 5.00000000000000000000e-01) (3, 0, 5.00000000000000000000e-01) (0, 0, 0.00000000000000000000e+00) 
connections (connected_to_neuron, weight)=(0, 7.29479417204856872559e-02) (1, -3.71572300791740417480e-02) (2, 1.85121297836303710938e-01) (3, 6.17682673037052154541e-02) (4, -1.73643186688423156738e-01) (5, 7.19128847122192382812e-02) (6, 8.79977196455001831055e-02) (7, -1.00928045809268951416e-01) (8, 1.79383218288421630859e-01) (9, 1.02632805705070495605e-01) (10, 1.51337593793869018555e-01) (11, 9.03478264808654785156e-02) (12, 2.07723230123519897461e-02) (13, 1.02605864405632019043e-01) (14, 1.89212620258331298828e-01) (15, 1.95149749517440795898e-01) (16, 2.16782912611961364746e-02) (17, 1.30859941244125366211e-01) (18, 1.18924997746944427490e-01) (0, 1.40199542045593261719e-01) (1, -8.36617723107337951660e-02) (2, 1.29821151494979858398e-01) (3, 1.33622825145721435547e-01) (4, 1.74829542636871337891e-01) (5, 1.45341843366622924805e-01) (6, 3.85508164763450622559e-02) (7, 1.92827820777893066406e-01) (8, 2.12797403335571289062e-01) (9, 2.40693241357803344727e-02) (10, 2.15768665075302124023e-01) (11, 3.50790321826934814453e-02) (12, 7.70172625780105590820e-02) (13, 1.98611438274383544922e-01) (14, 2.00200319290161132812e-01) (15, 1.18785522878170013428e-01) (16, 4.49682548642158508301e-02) (17, 5.21132051944732666016e-02) (18, 1.86783254146575927734e-01) (19, 1.64040207862854003906e-01) (20, 2.11496412754058837891e-01) (21, 6.94160312414169311523e-02) (19, 9.53778102993965148926e-02) (20, 8.18442329764366149902e-02) (21, 7.01883584260940551758e-02) 
