FANN_FLO_2.1
num_layers=3
learning_rate=0.100000
connection_rate=1.000000
network_type=0
learning_momentum=0.000000
training_algorithm=2
train_error_function=1
train_stop_function=0
cascade_output_change_fraction=0.010000
quickprop_decay=-0.000100
quickprop_mu=1.750000
rprop_increase_factor=1.200000
rprop_decrease_factor=0.500000
rprop_delta_min=0.000000
rprop_delta_max=50.000000
rprop_delta_zero=0.100000
cascade_output_stagnation_epochs=12
cascade_candidate_change_fraction=0.010000
cascade_candidate_stagnation_epochs=12
cascade_max_out_epochs=150
cascade_min_out_epochs=50
cascade_max_cand_epochs=150
cascade_min_cand_epochs=50
cascade_num_candidate_groups=2
bit_fail_limit=3.49999994039535522461e-01
cascade_candidate_limit=1.00000000000000000000e+03
cascade_weight_multiplier=4.00000005960464477539e-01
cascade_activation_functions_count=10
cascade_activation_functions=3 5 7 8 10 11 14 15 16 17 
cascade_activation_steepnesses_count=4
cascade_activation_steepnesses=2.50000000000000000000e-01 5.00000000000000000000e-01 7.50000000000000000000e-01 1.00000000000000000000e+00 
layer_sizes=19 3 3 
scale_included=0
neurons (num_inputs, activation_function, activation_steepness)=(0, 0, 0.00000000000000000000e+00) (0, 0, 0.00000000000000000000e+00) (0, 0, 0.00000000000000000000e+00) (0, 0, 0.00000000000000000000e+00) (0, 0, 0.00000000000000000000e+00) (0, 0, 0.00000000000000000000e+00) (0, 0, 0.00000000000000000000e+00) (0, 0, 0.00000000000000000000e+00) (0, 0, 0.00000000000000000000e+00) (0, 0, 0.00000000000000000000e+00) (0, 0, 0.00000000000000000000e+00) (0, 0, 0.00000000000000000000e+00) (0, 0, 0.00000000000000000000e+00) (0, 0, 0.00000000000000000000e+00) (0, 0, 0.00000000000000000000e+00) (0, 0, 0.00000000000000000000e+00) (0, 0, 0.00000000000000000000e+00) (0, 0, 0.00000000000000000000e+00) (0, 0, 0.00000000000000000000e+00) (19, 3, 5.00000000000000000000e-01) (19, 3, 5.00000000000000000000e-01) (0, 3, 0.00000000000000000000e+00) (3, 0, 5.00000000000000000000e-01) (3, 0, 5.00000000000000000000e-01) (0, 0, 0.00000000000000000000e+00) 
connections (connected_to_neuron, weight)=(0, -1.25162705779075622559e-01) (1, -1.74385070800781250000e-01) (2, -1.96459501981735229492e-01) (3, -2.78179571032524108887e-02) (4, -1.59953534603118896484e-01) (5, -9.91325750946998596191e-02) (6, -2.01188042759895324707e-01) (7, -1.78304404020309448242e-01) (8, -3.79482582211494445801e-02) (9, -8.59803631901741027832e-02) (10, -3.55115011334419250488e-02) (11, -1.44190534949302673340e-01) (12, -1.15063115954399108887e-01) (13, -2.17475816607475280762e-01) (14, -1.51681303977966308594e-01) (15, -1.24526903033256530762e-01) (16, -1.23955905437469482422e-01) (17, -2.03874796628952026367e-01) (18, -1.16685964167118072510e-01) (0, -1.58839389681816101074e-01) (1, -4.05473336577415466309e-02) (2, -1.19391128420829772949e-01) (3, -4.91514727473258972168e-02) (4, -1.02004423737525939941e-01) (5, -5.53929731249809265137e-02) (6, -7.74901434779167175293e-02) (7, -2.07301601767539978027e-02) (8, -1.75977528095245361328e-01) (9, -5.35658970475196838379e-02) (10, -1.58268347382545471191e-01) (11, -1.22560843825340270996e-01) (12, -1.58728599548339843750e-01) (13, -1.12653411924839019775e-01) (14, -9.90203395485877990723e-02) (15, -1.66546568274497985840e-01) (16, -5.26069328188896179199e-02) (17, -1.78152903914451599121e-01) (18, -1.47734597325325012207e-01) (19, 2.90886759757995605469e-02) (20, 4.38988506793975830078e-02) (21, 2.62850448489189147949e-02) (19, 2.13577181100845336914e-01) (20, 1.19708321988582611084e-01) (21, 1.31221935153007507324e-01) 
