FANN_FLO_2.1
num_layers=3
learning_rate=0.100000
connection_rate=1.000000
network_type=0
learning_momentum=0.000000
training_algorithm=2
train_error_function=1
train_stop_function=0
cascade_output_change_fraction=0.010000
quickprop_decay=-0.000100
quickprop_mu=1.750000
rprop_increase_factor=1.200000
rprop_decrease_factor=0.500000
rprop_delta_min=0.000000
rprop_delta_max=50.000000
rprop_delta_zero=0.100000
cascade_output_stagnation_epochs=12
cascade_candidate_change_fraction=0.010000
cascade_candidate_stagnation_epochs=12
cascade_max_out_epochs=150
cascade_min_out_epochs=50
cascade_max_cand_epochs=150
cascade_min_cand_epochs=50
cascade_num_candidate_groups=2
bit_fail_limit=3.49999994039535522461e-01
cascade_candidate_limit=1.00000000000000000000e+03
cascade_weight_multiplier=4.00000005960464477539e-01
cascade_activation_functions_count=10
cascade_activation_functions=3 5 7 8 10 11 14 15 16 17 
cascade_activation_steepnesses_count=4
cascade_activation_steepnesses=2.50000000000000000000e-01 5.00000000000000000000e-01 7.50000000000000000000e-01 1.00000000000000000000e+00 
layer_sizes=10 3 2 
scale_included=0
neurons (num_inputs, activation_function, activation_steepness)=(0, 0, 0.00000000000000000000e+00) (0, 0, 0.00000000000000000000e+00) (0, 0, 0.00000000000000000000e+00) (0, 0, 0.00000000000000000000e+00) (0, 0, 0.00000000000000000000e+00) (0, 0, 0.00000000000000000000e+00) (0, 0, 0.00000000000000000000e+00) (0, 0, 0.00000000000000000000e+00) (0, 0, 0.00000000000000000000e+00) (0, 0, 0.00000000000000000000e+00) (10, 3, 5.00000000000000000000e-01) (10, 3, 5.00000000000000000000e-01) (0, 3, 0.00000000000000000000e+00) (3, 0, 5.00000000000000000000e-01) (0, 0, 0.00000000000000000000e+00) 
connections (connected_to_neuron, weight)=(0, 1.12787142395973205566e-01) (1, 1.71545833349227905273e-01) (2, 3.13901528716087341309e-02) (3, 1.90829247236251831055e-01) (4, 2.03630566596984863281e-01) (5, 2.08806574344635009766e-01) (6, 4.40451800823211669922e-02) (7, 1.94993048906326293945e-01) (8, 1.80776357650756835938e-01) (9, 4.63443323969841003418e-02) (0, 2.01756685972213745117e-01) (1, 1.90427690744400024414e-01) (2, 5.72178363800048828125e-02) (3, 2.19280779361724853516e-01) (4, 1.55754894018173217773e-01) (5, 2.13328510522842407227e-01) (6, 6.05334900319576263428e-02) (7, 1.00245602428913116455e-01) (8, 1.32019490003585815430e-01) (9, 1.56538367271423339844e-01) (10, 1.75220370292663574219e-01) (11, 1.55995219945907592773e-01) (12, 3.07973474264144897461e-02) 
