FANN_FLO_2.1
num_layers=3
learning_rate=0.100000
connection_rate=1.000000
network_type=0
learning_momentum=0.000000
training_algorithm=2
train_error_function=1
train_stop_function=0
cascade_output_change_fraction=0.010000
quickprop_decay=-0.000100
quickprop_mu=1.750000
rprop_increase_factor=1.200000
rprop_decrease_factor=0.500000
rprop_delta_min=0.000000
rprop_delta_max=50.000000
rprop_delta_zero=0.100000
cascade_output_stagnation_epochs=12
cascade_candidate_change_fraction=0.010000
cascade_candidate_stagnation_epochs=12
cascade_max_out_epochs=150
cascade_min_out_epochs=50
cascade_max_cand_epochs=150
cascade_min_cand_epochs=50
cascade_num_candidate_groups=2
bit_fail_limit=3.49999994039535522461e-01
cascade_candidate_limit=1.00000000000000000000e+03
cascade_weight_multiplier=4.00000005960464477539e-01
cascade_activation_functions_count=10
cascade_activation_functions=3 5 7 8 10 11 14 15 16 17 
cascade_activation_steepnesses_count=4
cascade_activation_steepnesses=2.50000000000000000000e-01 5.00000000000000000000e-01 7.50000000000000000000e-01 1.00000000000000000000e+00 
layer_sizes=19 3 3 
scale_included=0
neurons (num_inputs, activation_function, activation_steepness)=(0, 0, 0.00000000000000000000e+00) (0, 0, 0.00000000000000000000e+00) (0, 0, 0.00000000000000000000e+00) (0, 0, 0.00000000000000000000e+00) (0, 0, 0.00000000000000000000e+00) (0, 0, 0.00000000000000000000e+00) (0, 0, 0.00000000000000000000e+00) (0, 0, 0.00000000000000000000e+00) (0, 0, 0.00000000000000000000e+00) (0, 0, 0.00000000000000000000e+00) (0, 0, 0.00000000000000000000e+00) (0, 0, 0.00000000000000000000e+00) (0, 0, 0.00000000000000000000e+00) (0, 0, 0.00000000000000000000e+00) (0, 0, 0.00000000000000000000e+00) (0, 0, 0.00000000000000000000e+00) (0, 0, 0.00000000000000000000e+00) (0, 0, 0.00000000000000000000e+00) (0, 0, 0.00000000000000000000e+00) (19, 3, 5.00000000000000000000e-01) (19, 3, 5.00000000000000000000e-01) (0, 3, 0.00000000000000000000e+00) (3, 0, 5.00000000000000000000e-01) (3, 0, 5.00000000000000000000e-01) (0, 0, 0.00000000000000000000e+00) 
connections (connected_to_neuron, weight)=(0, 1.63315594196319580078e-01) (1, 2.18861997127532958984e-01) (2, 2.12378710508346557617e-01) (3, 1.31996199488639831543e-01) (4, 1.59333318471908569336e-01) (5, 8.16234797239303588867e-02) (6, 1.94118291139602661133e-01) (7, 1.74160361289978027344e-01) (8, 1.63867712020874023438e-01) (9, 1.74235343933105468750e-01) (10, 7.42885991930961608887e-02) (11, 1.59729093313217163086e-01) (12, 1.52903020381927490234e-01) (13, 5.90409226715564727783e-02) (14, 1.31748586893081665039e-01) (15, 1.06915764510631561279e-01) (16, 1.18697270750999450684e-01) (17, 4.08236011862754821777e-02) (18, 1.79587304592132568359e-01) (0, -2.96296700835227966309e-02) (1, -1.28950744867324829102e-01) (2, -1.90577685832977294922e-01) (3, -1.32390007376670837402e-01) (4, 8.09894204139709472656e-02) (5, -1.26995295286178588867e-01) (6, -1.12542964518070220947e-01) (7, -8.01053866744041442871e-02) (8, -3.64478901028633117676e-02) (9, -1.71393141150474548340e-01) (10, 4.46184724569320678711e-02) (11, -1.80420070886611938477e-01) (12, -2.80775353312492370605e-02) (13, 4.34804484248161315918e-02) (14, -1.88041359186172485352e-01) (15, -1.16081342101097106934e-01) (16, -5.71862384676933288574e-02) (17, -1.26417890191078186035e-01) (18, -1.41963064670562744141e-01) (19, 1.36974126100540161133e-01) (20, 5.74498027563095092773e-02) (21, 5.22722750902175903320e-02) (19, 1.91262722015380859375e-01) (20, 1.97178900241851806641e-01) (21, 1.85175299644470214844e-01) 
