FANN_FLO_2.1
num_layers=3
learning_rate=0.100000
connection_rate=1.000000
network_type=0
learning_momentum=0.000000
training_algorithm=2
train_error_function=1
train_stop_function=0
cascade_output_change_fraction=0.010000
quickprop_decay=-0.000100
quickprop_mu=1.750000
rprop_increase_factor=1.200000
rprop_decrease_factor=0.500000
rprop_delta_min=0.000000
rprop_delta_max=50.000000
rprop_delta_zero=0.100000
cascade_output_stagnation_epochs=12
cascade_candidate_change_fraction=0.010000
cascade_candidate_stagnation_epochs=12
cascade_max_out_epochs=150
cascade_min_out_epochs=50
cascade_max_cand_epochs=150
cascade_min_cand_epochs=50
cascade_num_candidate_groups=2
bit_fail_limit=3.49999994039535522461e-01
cascade_candidate_limit=1.00000000000000000000e+03
cascade_weight_multiplier=4.00000005960464477539e-01
cascade_activation_functions_count=10
cascade_activation_functions=3 5 7 8 10 11 14 15 16 17 
cascade_activation_steepnesses_count=4
cascade_activation_steepnesses=2.50000000000000000000e-01 5.00000000000000000000e-01 7.50000000000000000000e-01 1.00000000000000000000e+00 
layer_sizes=10 3 2 
scale_included=0
neurons (num_inputs, activation_function, activation_steepness)=(0, 0, 0.00000000000000000000e+00) (0, 0, 0.00000000000000000000e+00) (0, 0, 0.00000000000000000000e+00) (0, 0, 0.00000000000000000000e+00) (0, 0, 0.00000000000000000000e+00) (0, 0, 0.00000000000000000000e+00) (0, 0, 0.00000000000000000000e+00) (0, 0, 0.00000000000000000000e+00) (0, 0, 0.00000000000000000000e+00) (0, 0, 0.00000000000000000000e+00) (10, 3, 5.00000000000000000000e-01) (10, 3, 5.00000000000000000000e-01) (0, 3, 0.00000000000000000000e+00) (3, 0, 5.00000000000000000000e-01) (0, 0, 0.00000000000000000000e+00) 
connections (connected_to_neuron, weight)=(0, 9.79598313570022583008e-02) (1, 1.21313072741031646729e-01) (2, 6.80809020996093750000e-02) (3, 1.71936154365539550781e-01) (4, 2.15014636516571044922e-01) (5, 1.10945664346218109131e-01) (6, 1.35211259126663208008e-01) (7, 7.05895945429801940918e-02) (8, 1.96544885635375976562e-01) (9, 1.97953134775161743164e-01) (0, -6.96658715605735778809e-02) (1, -1.88221693038940429688e-01) (2, -5.37365153431892395020e-02) (3, -1.86288893222808837891e-01) (4, -6.37862458825111389160e-02) (5, -1.70989483594894409180e-01) (6, -1.44618928432464599609e-01) (7, -8.37964341044425964355e-02) (8, -1.85812279582023620605e-01) (9, -1.30014032125473022461e-01) (10, 2.16759651899337768555e-01) (11, 9.16388928890228271484e-02) (12, 1.59178018569946289062e-01) 
