FANN_FLO_2.1
num_layers=3
learning_rate=0.100000
connection_rate=1.000000
network_type=0
learning_momentum=0.000000
training_algorithm=2
train_error_function=1
train_stop_function=0
cascade_output_change_fraction=0.010000
quickprop_decay=-0.000100
quickprop_mu=1.750000
rprop_increase_factor=1.200000
rprop_decrease_factor=0.500000
rprop_delta_min=0.000000
rprop_delta_max=50.000000
rprop_delta_zero=0.100000
cascade_output_stagnation_epochs=12
cascade_candidate_change_fraction=0.010000
cascade_candidate_stagnation_epochs=12
cascade_max_out_epochs=150
cascade_min_out_epochs=50
cascade_max_cand_epochs=150
cascade_min_cand_epochs=50
cascade_num_candidate_groups=2
bit_fail_limit=3.49999994039535522461e-01
cascade_candidate_limit=1.00000000000000000000e+03
cascade_weight_multiplier=4.00000005960464477539e-01
cascade_activation_functions_count=10
cascade_activation_functions=3 5 7 8 10 11 14 15 16 17 
cascade_activation_steepnesses_count=4
cascade_activation_steepnesses=2.50000000000000000000e-01 5.00000000000000000000e-01 7.50000000000000000000e-01 1.00000000000000000000e+00 
layer_sizes=10 3 2 
scale_included=0
neurons (num_inputs, activation_function, activation_steepness)=(0, 0, 0.00000000000000000000e+00) (0, 0, 0.00000000000000000000e+00) (0, 0, 0.00000000000000000000e+00) (0, 0, 0.00000000000000000000e+00) (0, 0, 0.00000000000000000000e+00) (0, 0, 0.00000000000000000000e+00) (0, 0, 0.00000000000000000000e+00) (0, 0, 0.00000000000000000000e+00) (0, 0, 0.00000000000000000000e+00) (0, 0, 0.00000000000000000000e+00) (10, 3, 5.00000000000000000000e-01) (10, 3, 5.00000000000000000000e-01) (0, 3, 0.00000000000000000000e+00) (3, 0, 5.00000000000000000000e-01) (0, 0, 0.00000000000000000000e+00) 
connections (connected_to_neuron, weight)=(0, 3.09323891997337341309e-02) (1, 1.38898581266403198242e-01) (2, 1.57056659460067749023e-01) (3, 1.56656503677368164062e-01) (4, 1.66814744472503662109e-01) (5, 3.52112725377082824707e-02) (6, 8.76394659280776977539e-02) (7, 8.14078003168106079102e-02) (8, 2.07458943128585815430e-01) (9, 7.08455890417098999023e-02) (0, -7.48051181435585021973e-02) (1, -2.19663858413696289062e-01) (2, -1.66319444775581359863e-01) (3, -5.20403012633323669434e-02) (4, -3.48919853568077087402e-02) (5, -3.64001914858818054199e-02) (6, -1.41873896121978759766e-01) (7, -2.06192657351493835449e-02) (8, -7.57168009877204895020e-02) (9, -1.41857251524925231934e-01) (10, 1.61098450422286987305e-01) (11, 9.85637232661247253418e-02) (12, 2.00865328311920166016e-01) 
