FANN_FLO_2.1
num_layers=3
learning_rate=0.100000
connection_rate=1.000000
network_type=0
learning_momentum=0.000000
training_algorithm=2
train_error_function=1
train_stop_function=0
cascade_output_change_fraction=0.010000
quickprop_decay=-0.000100
quickprop_mu=1.750000
rprop_increase_factor=1.200000
rprop_decrease_factor=0.500000
rprop_delta_min=0.000000
rprop_delta_max=50.000000
rprop_delta_zero=0.100000
cascade_output_stagnation_epochs=12
cascade_candidate_change_fraction=0.010000
cascade_candidate_stagnation_epochs=12
cascade_max_out_epochs=150
cascade_min_out_epochs=50
cascade_max_cand_epochs=150
cascade_min_cand_epochs=50
cascade_num_candidate_groups=2
bit_fail_limit=3.49999994039535522461e-01
cascade_candidate_limit=1.00000000000000000000e+03
cascade_weight_multiplier=4.00000005960464477539e-01
cascade_activation_functions_count=10
cascade_activation_functions=3 5 7 8 10 11 14 15 16 17 
cascade_activation_steepnesses_count=4
cascade_activation_steepnesses=2.50000000000000000000e-01 5.00000000000000000000e-01 7.50000000000000000000e-01 1.00000000000000000000e+00 
layer_sizes=19 3 3 
scale_included=0
neurons (num_inputs, activation_function, activation_steepness)=(0, 0, 0.00000000000000000000e+00) (0, 0, 0.00000000000000000000e+00) (0, 0, 0.00000000000000000000e+00) (0, 0, 0.00000000000000000000e+00) (0, 0, 0.00000000000000000000e+00) (0, 0, 0.00000000000000000000e+00) (0, 0, 0.00000000000000000000e+00) (0, 0, 0.00000000000000000000e+00) (0, 0, 0.00000000000000000000e+00) (0, 0, 0.00000000000000000000e+00) (0, 0, 0.00000000000000000000e+00) (0, 0, 0.00000000000000000000e+00) (0, 0, 0.00000000000000000000e+00) (0, 0, 0.00000000000000000000e+00) (0, 0, 0.00000000000000000000e+00) (0, 0, 0.00000000000000000000e+00) (0, 0, 0.00000000000000000000e+00) (0, 0, 0.00000000000000000000e+00) (0, 0, 0.00000000000000000000e+00) (19, 3, 5.00000000000000000000e-01) (19, 3, 5.00000000000000000000e-01) (0, 3, 0.00000000000000000000e+00) (3, 0, 5.00000000000000000000e-01) (3, 0, 5.00000000000000000000e-01) (0, 0, 0.00000000000000000000e+00) 
connections (connected_to_neuron, weight)=(0, 1.68472528457641601562e-01) (1, 1.66769921779632568359e-01) (2, 6.47651702165603637695e-02) (3, 3.63790094852447509766e-02) (4, 1.24594256281852722168e-01) (5, 2.83329263329505920410e-02) (6, 2.28384584188461303711e-02) (7, 9.58251208066940307617e-02) (8, 3.36371511220932006836e-02) (9, 2.10273563861846923828e-02) (10, 2.09042936563491821289e-01) (11, 1.16610988974571228027e-01) (12, 7.36230313777923583984e-02) (13, 1.69807314872741699219e-01) (14, 5.60319721698760986328e-02) (15, 1.56982064247131347656e-01) (16, 6.18987567722797393799e-02) (17, 1.88953101634979248047e-01) (18, 1.28887146711349487305e-01) (0, 5.15843033790588378906e-02) (1, 2.92295813560485839844e-02) (2, 2.04999119043350219727e-01) (3, 2.07655787467956542969e-01) (4, 1.92681670188903808594e-01) (5, 1.03837259113788604736e-01) (6, 5.73580265045166015625e-02) (7, 1.63260042667388916016e-01) (8, 5.65354526042938232422e-02) (9, 1.56388789415359497070e-01) (10, 2.07955420017242431641e-01) (11, 2.71330177783966064453e-02) (12, 1.04861304163932800293e-01) (13, 1.54725372791290283203e-01) (14, 7.18981847167015075684e-02) (15, 1.21240302920341491699e-01) (16, 5.93196190893650054932e-02) (17, 8.02311003208160400391e-02) (18, 1.24078765511512756348e-01) (19, 1.35144740343093872070e-01) (20, 9.38682556152343750000e-02) (21, 1.25106126070022583008e-01) (19, 1.24187663197517395020e-01) (20, 1.90479248762130737305e-01) (21, 1.78729146718978881836e-01) 
