FANN_FLO_2.1
num_layers=3
learning_rate=0.100000
connection_rate=1.000000
network_type=0
learning_momentum=0.000000
training_algorithm=2
train_error_function=1
train_stop_function=0
cascade_output_change_fraction=0.010000
quickprop_decay=-0.000100
quickprop_mu=1.750000
rprop_increase_factor=1.200000
rprop_decrease_factor=0.500000
rprop_delta_min=0.000000
rprop_delta_max=50.000000
rprop_delta_zero=0.100000
cascade_output_stagnation_epochs=12
cascade_candidate_change_fraction=0.010000
cascade_candidate_stagnation_epochs=12
cascade_max_out_epochs=150
cascade_min_out_epochs=50
cascade_max_cand_epochs=150
cascade_min_cand_epochs=50
cascade_num_candidate_groups=2
bit_fail_limit=3.49999994039535522461e-01
cascade_candidate_limit=1.00000000000000000000e+03
cascade_weight_multiplier=4.00000005960464477539e-01
cascade_activation_functions_count=10
cascade_activation_functions=3 5 7 8 10 11 14 15 16 17 
cascade_activation_steepnesses_count=4
cascade_activation_steepnesses=2.50000000000000000000e-01 5.00000000000000000000e-01 7.50000000000000000000e-01 1.00000000000000000000e+00 
layer_sizes=10 3 2 
scale_included=0
neurons (num_inputs, activation_function, activation_steepness)=(0, 0, 0.00000000000000000000e+00) (0, 0, 0.00000000000000000000e+00) (0, 0, 0.00000000000000000000e+00) (0, 0, 0.00000000000000000000e+00) (0, 0, 0.00000000000000000000e+00) (0, 0, 0.00000000000000000000e+00) (0, 0, 0.00000000000000000000e+00) (0, 0, 0.00000000000000000000e+00) (0, 0, 0.00000000000000000000e+00) (0, 0, 0.00000000000000000000e+00) (10, 3, 5.00000000000000000000e-01) (10, 3, 5.00000000000000000000e-01) (0, 3, 0.00000000000000000000e+00) (3, 0, 5.00000000000000000000e-01) (0, 0, 0.00000000000000000000e+00) 
connections (connected_to_neuron, weight)=(0, 1.80215060710906982422e-01) (1, 5.72312623262405395508e-02) (2, 3.62553745508193969727e-02) (3, 2.49607190489768981934e-02) (4, 1.16947971284389495850e-01) (5, 5.13497740030288696289e-02) (6, 5.37870228290557861328e-02) (7, 1.70231401920318603516e-01) (8, 1.33608967065811157227e-01) (9, 1.53610438108444213867e-01) (0, -3.97641435265541076660e-02) (1, -7.03169479966163635254e-02) (2, -1.00060209631919860840e-01) (3, -9.26982536911964416504e-02) (4, -1.89759194850921630859e-01) (5, -1.29944458603858947754e-01) (6, -5.02688363194465637207e-02) (7, -1.94122999906539916992e-01) (8, -1.25463247299194335938e-01) (9, -1.54154062271118164062e-01) (10, 1.23451292514801025391e-01) (11, 6.88627511262893676758e-02) (12, 1.01947598159313201904e-01) 
