FANN_FLO_2.1
num_layers=3
learning_rate=0.100000
connection_rate=1.000000
network_type=0
learning_momentum=0.000000
training_algorithm=2
train_error_function=1
train_stop_function=0
cascade_output_change_fraction=0.010000
quickprop_decay=-0.000100
quickprop_mu=1.750000
rprop_increase_factor=1.200000
rprop_decrease_factor=0.500000
rprop_delta_min=0.000000
rprop_delta_max=50.000000
rprop_delta_zero=0.100000
cascade_output_stagnation_epochs=12
cascade_candidate_change_fraction=0.010000
cascade_candidate_stagnation_epochs=12
cascade_max_out_epochs=150
cascade_min_out_epochs=50
cascade_max_cand_epochs=150
cascade_min_cand_epochs=50
cascade_num_candidate_groups=2
bit_fail_limit=3.49999994039535522461e-01
cascade_candidate_limit=1.00000000000000000000e+03
cascade_weight_multiplier=4.00000005960464477539e-01
cascade_activation_functions_count=10
cascade_activation_functions=3 5 7 8 10 11 14 15 16 17 
cascade_activation_steepnesses_count=4
cascade_activation_steepnesses=2.50000000000000000000e-01 5.00000000000000000000e-01 7.50000000000000000000e-01 1.00000000000000000000e+00 
layer_sizes=19 3 3 
scale_included=0
neurons (num_inputs, activation_function, activation_steepness)=(0, 0, 0.00000000000000000000e+00) (0, 0, 0.00000000000000000000e+00) (0, 0, 0.00000000000000000000e+00) (0, 0, 0.00000000000000000000e+00) (0, 0, 0.00000000000000000000e+00) (0, 0, 0.00000000000000000000e+00) (0, 0, 0.00000000000000000000e+00) (0, 0, 0.00000000000000000000e+00) (0, 0, 0.00000000000000000000e+00) (0, 0, 0.00000000000000000000e+00) (0, 0, 0.00000000000000000000e+00) (0, 0, 0.00000000000000000000e+00) (0, 0, 0.00000000000000000000e+00) (0, 0, 0.00000000000000000000e+00) (0, 0, 0.00000000000000000000e+00) (0, 0, 0.00000000000000000000e+00) (0, 0, 0.00000000000000000000e+00) (0, 0, 0.00000000000000000000e+00) (0, 0, 0.00000000000000000000e+00) (19, 3, 5.00000000000000000000e-01) (19, 3, 5.00000000000000000000e-01) (0, 3, 0.00000000000000000000e+00) (3, 0, 5.00000000000000000000e-01) (3, 0, 5.00000000000000000000e-01) (0, 0, 0.00000000000000000000e+00) 
connections (connected_to_neuron, weight)=(0, 1.85949802398681640625e-01) (1, 1.41869291663169860840e-01) (2, 6.33635073900222778320e-02) (3, 1.91354602575302124023e-01) (4, 1.82877123355865478516e-01) (5, 1.52886837720870971680e-01) (6, 1.79559320211410522461e-01) (7, 1.37744307518005371094e-01) (8, 1.18525728583335876465e-01) (9, 1.85643672943115234375e-01) (10, 5.55678755044937133789e-02) (11, 8.76412764191627502441e-02) (12, 1.85888141393661499023e-01) (13, 4.82941716909408569336e-02) (14, 1.29121035337448120117e-01) (15, 1.69581264257431030273e-01) (16, 7.09630548954010009766e-02) (17, 7.66788572072982788086e-02) (18, 1.14450454711914062500e-01) (0, 1.96068644523620605469e-01) (1, 1.65423899888992309570e-01) (2, 1.25658050179481506348e-01) (3, 1.36134594678878784180e-01) (4, 9.15658995509147644043e-02) (5, 1.84576481580734252930e-01) (6, 1.18450589478015899658e-01) (7, 2.12191432714462280273e-01) (8, 1.79724901914596557617e-01) (9, 2.00547397136688232422e-01) (10, 1.34005337953567504883e-01) (11, 1.40270859003067016602e-01) (12, 1.66497230529785156250e-01) (13, 5.58746159076690673828e-02) (14, 1.83634370565414428711e-01) (15, 1.37851819396018981934e-01) (16, 2.18751728534698486328e-01) (17, 1.16521194577217102051e-01) (18, 9.74111482501029968262e-02) (19, 1.36496022343635559082e-01) (20, 2.15046912431716918945e-01) (21, 6.30548074841499328613e-02) (19, 1.72063887119293212891e-01) (20, 8.26881825923919677734e-02) (21, 2.89429500699043273926e-02) 
