FANN_FLO_2.1
num_layers=3
learning_rate=0.100000
connection_rate=1.000000
network_type=0
learning_momentum=0.000000
training_algorithm=2
train_error_function=1
train_stop_function=0
cascade_output_change_fraction=0.010000
quickprop_decay=-0.000100
quickprop_mu=1.750000
rprop_increase_factor=1.200000
rprop_decrease_factor=0.500000
rprop_delta_min=0.000000
rprop_delta_max=50.000000
rprop_delta_zero=0.100000
cascade_output_stagnation_epochs=12
cascade_candidate_change_fraction=0.010000
cascade_candidate_stagnation_epochs=12
cascade_max_out_epochs=150
cascade_min_out_epochs=50
cascade_max_cand_epochs=150
cascade_min_cand_epochs=50
cascade_num_candidate_groups=2
bit_fail_limit=3.49999994039535522461e-01
cascade_candidate_limit=1.00000000000000000000e+03
cascade_weight_multiplier=4.00000005960464477539e-01
cascade_activation_functions_count=10
cascade_activation_functions=3 5 7 8 10 11 14 15 16 17 
cascade_activation_steepnesses_count=4
cascade_activation_steepnesses=2.50000000000000000000e-01 5.00000000000000000000e-01 7.50000000000000000000e-01 1.00000000000000000000e+00 
layer_sizes=19 3 3 
scale_included=0
neurons (num_inputs, activation_function, activation_steepness)=(0, 0, 0.00000000000000000000e+00) (0, 0, 0.00000000000000000000e+00) (0, 0, 0.00000000000000000000e+00) (0, 0, 0.00000000000000000000e+00) (0, 0, 0.00000000000000000000e+00) (0, 0, 0.00000000000000000000e+00) (0, 0, 0.00000000000000000000e+00) (0, 0, 0.00000000000000000000e+00) (0, 0, 0.00000000000000000000e+00) (0, 0, 0.00000000000000000000e+00) (0, 0, 0.00000000000000000000e+00) (0, 0, 0.00000000000000000000e+00) (0, 0, 0.00000000000000000000e+00) (0, 0, 0.00000000000000000000e+00) (0, 0, 0.00000000000000000000e+00) (0, 0, 0.00000000000000000000e+00) (0, 0, 0.00000000000000000000e+00) (0, 0, 0.00000000000000000000e+00) (0, 0, 0.00000000000000000000e+00) (19, 3, 5.00000000000000000000e-01) (19, 3, 5.00000000000000000000e-01) (0, 3, 0.00000000000000000000e+00) (3, 0, 5.00000000000000000000e-01) (3, 0, 5.00000000000000000000e-01) (0, 0, 0.00000000000000000000e+00) 
connections (connected_to_neuron, weight)=(0, 8.03862214088439941406e-02) (1, 9.35758352279663085938e-02) (2, 2.16634273529052734375e-01) (3, 1.59466624259948730469e-01) (4, 2.98016667366027832031e-02) (5, 1.99384242296218872070e-01) (6, 1.59504115581512451172e-01) (7, 1.61458671092987060547e-01) (8, 1.15993514657020568848e-01) (9, 6.91151469945907592773e-02) (10, 4.41234260797500610352e-02) (11, 1.25437587499618530273e-01) (12, 8.06259736418724060059e-02) (13, 1.04704469442367553711e-01) (14, 3.54996621608734130859e-02) (15, 1.73280388116836547852e-01) (16, 1.15733958780765533447e-01) (17, 1.77936196327209472656e-01) (18, 2.15182155370712280273e-01) (0, 1.67335897684097290039e-01) (1, 9.56019759178161621094e-02) (2, 3.60123068094253540039e-02) (3, 1.57391011714935302734e-01) (4, 4.85557019710540771484e-02) (5, 1.82027161121368408203e-01) (6, 5.69547414779663085938e-02) (7, 1.17529168725013732910e-01) (8, 6.13946877419948577881e-02) (9, 8.29139351844787597656e-02) (10, 9.67885851860046386719e-02) (11, 2.80507430434226989746e-02) (12, 1.43300145864486694336e-01) (13, 1.70364409685134887695e-01) (14, 2.46850028634071350098e-02) (15, 8.27667638659477233887e-02) (16, 1.80166065692901611328e-01) (17, 2.04069256782531738281e-01) (18, 2.22708657383918762207e-02) (19, 1.21624752879142761230e-01) (20, 1.00062765181064605713e-01) (21, 7.13860094547271728516e-02) (19, 1.45748168230056762695e-01) (20, 2.05500364303588867188e-01) (21, 1.32011979818344116211e-01) 
