FANN_FLO_2.1
num_layers=3
learning_rate=0.100000
connection_rate=1.000000
network_type=0
learning_momentum=0.000000
training_algorithm=2
train_error_function=1
train_stop_function=0
cascade_output_change_fraction=0.010000
quickprop_decay=-0.000100
quickprop_mu=1.750000
rprop_increase_factor=1.200000
rprop_decrease_factor=0.500000
rprop_delta_min=0.000000
rprop_delta_max=50.000000
rprop_delta_zero=0.100000
cascade_output_stagnation_epochs=12
cascade_candidate_change_fraction=0.010000
cascade_candidate_stagnation_epochs=12
cascade_max_out_epochs=150
cascade_min_out_epochs=50
cascade_max_cand_epochs=150
cascade_min_cand_epochs=50
cascade_num_candidate_groups=2
bit_fail_limit=3.49999994039535522461e-01
cascade_candidate_limit=1.00000000000000000000e+03
cascade_weight_multiplier=4.00000005960464477539e-01
cascade_activation_functions_count=10
cascade_activation_functions=3 5 7 8 10 11 14 15 16 17 
cascade_activation_steepnesses_count=4
cascade_activation_steepnesses=2.50000000000000000000e-01 5.00000000000000000000e-01 7.50000000000000000000e-01 1.00000000000000000000e+00 
layer_sizes=19 3 3 
scale_included=0
neurons (num_inputs, activation_function, activation_steepness)=(0, 0, 0.00000000000000000000e+00) (0, 0, 0.00000000000000000000e+00) (0, 0, 0.00000000000000000000e+00) (0, 0, 0.00000000000000000000e+00) (0, 0, 0.00000000000000000000e+00) (0, 0, 0.00000000000000000000e+00) (0, 0, 0.00000000000000000000e+00) (0, 0, 0.00000000000000000000e+00) (0, 0, 0.00000000000000000000e+00) (0, 0, 0.00000000000000000000e+00) (0, 0, 0.00000000000000000000e+00) (0, 0, 0.00000000000000000000e+00) (0, 0, 0.00000000000000000000e+00) (0, 0, 0.00000000000000000000e+00) (0, 0, 0.00000000000000000000e+00) (0, 0, 0.00000000000000000000e+00) (0, 0, 0.00000000000000000000e+00) (0, 0, 0.00000000000000000000e+00) (0, 0, 0.00000000000000000000e+00) (19, 3, 5.00000000000000000000e-01) (19, 3, 5.00000000000000000000e-01) (0, 3, 0.00000000000000000000e+00) (3, 0, 5.00000000000000000000e-01) (3, 0, 5.00000000000000000000e-01) (0, 0, 0.00000000000000000000e+00) 
connections (connected_to_neuron, weight)=(0, -9.91786494851112365723e-02) (1, -1.82450756430625915527e-01) (2, -1.12095296382904052734e-01) (3, -5.58867976069450378418e-02) (4, -1.95810288190841674805e-01) (5, -8.28367695212364196777e-02) (6, -1.83653324842453002930e-01) (7, -7.84321352839469909668e-02) (8, -1.66086181998252868652e-01) (9, -1.64261564612388610840e-01) (10, -3.16870883107185363770e-02) (11, -1.08144357800483703613e-01) (12, -3.44898179173469543457e-02) (13, -1.02837108075618743896e-01) (14, -1.44561097025871276855e-01) (15, -6.16009458899497985840e-02) (16, -2.78609320521354675293e-02) (17, -1.51139467954635620117e-01) (18, -8.22148695588111877441e-02) (0, -7.28598609566688537598e-02) (1, -1.15850135684013366699e-01) (2, -1.45788565278053283691e-01) (3, -1.44148677587509155273e-01) (4, -1.33406400680541992188e-01) (5, -3.09737250208854675293e-02) (6, -1.11759915947914123535e-01) (7, -3.45695242285728454590e-02) (8, -1.36091426014900207520e-01) (9, -1.29106715321540832520e-01) (10, -1.61035358905792236328e-01) (11, -7.14812651276588439941e-02) (12, -2.08285361528396606445e-01) (13, -1.23486116528511047363e-01) (14, -1.63576543331146240234e-01) (15, -4.41721603274345397949e-02) (16, -9.92964133620262145996e-02) (17, -2.64133140444755554199e-02) (18, -2.07825481891632080078e-01) (19, 8.22714567184448242188e-02) (20, 6.75005167722702026367e-02) (21, 8.79129767417907714844e-02) (19, 7.05843716859817504883e-02) (20, 1.79356157779693603516e-01) (21, 7.34231472015380859375e-02) 
