FANN_FLO_2.1
num_layers=3
learning_rate=0.100000
connection_rate=1.000000
network_type=0
learning_momentum=0.000000
training_algorithm=2
train_error_function=1
train_stop_function=0
cascade_output_change_fraction=0.010000
quickprop_decay=-0.000100
quickprop_mu=1.750000
rprop_increase_factor=1.200000
rprop_decrease_factor=0.500000
rprop_delta_min=0.000000
rprop_delta_max=50.000000
rprop_delta_zero=0.100000
cascade_output_stagnation_epochs=12
cascade_candidate_change_fraction=0.010000
cascade_candidate_stagnation_epochs=12
cascade_max_out_epochs=150
cascade_min_out_epochs=50
cascade_max_cand_epochs=150
cascade_min_cand_epochs=50
cascade_num_candidate_groups=2
bit_fail_limit=3.49999994039535522461e-01
cascade_candidate_limit=1.00000000000000000000e+03
cascade_weight_multiplier=4.00000005960464477539e-01
cascade_activation_functions_count=10
cascade_activation_functions=3 5 7 8 10 11 14 15 16 17 
cascade_activation_steepnesses_count=4
cascade_activation_steepnesses=2.50000000000000000000e-01 5.00000000000000000000e-01 7.50000000000000000000e-01 1.00000000000000000000e+00 
layer_sizes=19 3 3 
scale_included=0
neurons (num_inputs, activation_function, activation_steepness)=(0, 0, 0.00000000000000000000e+00) (0, 0, 0.00000000000000000000e+00) (0, 0, 0.00000000000000000000e+00) (0, 0, 0.00000000000000000000e+00) (0, 0, 0.00000000000000000000e+00) (0, 0, 0.00000000000000000000e+00) (0, 0, 0.00000000000000000000e+00) (0, 0, 0.00000000000000000000e+00) (0, 0, 0.00000000000000000000e+00) (0, 0, 0.00000000000000000000e+00) (0, 0, 0.00000000000000000000e+00) (0, 0, 0.00000000000000000000e+00) (0, 0, 0.00000000000000000000e+00) (0, 0, 0.00000000000000000000e+00) (0, 0, 0.00000000000000000000e+00) (0, 0, 0.00000000000000000000e+00) (0, 0, 0.00000000000000000000e+00) (0, 0, 0.00000000000000000000e+00) (0, 0, 0.00000000000000000000e+00) (19, 3, 5.00000000000000000000e-01) (19, 3, 5.00000000000000000000e-01) (0, 3, 0.00000000000000000000e+00) (3, 0, 5.00000000000000000000e-01) (3, 0, 5.00000000000000000000e-01) (0, 0, 0.00000000000000000000e+00) 
connections (connected_to_neuron, weight)=(0, 1.11774370074272155762e-01) (1, 6.38673305511474609375e-02) (2, 1.60462945699691772461e-01) (3, 1.03131182491779327393e-01) (4, 1.41463324427604675293e-01) (5, -8.56467559933662414551e-02) (6, 1.14676468074321746826e-01) (7, 2.14412838220596313477e-01) (8, 8.91501978039741516113e-02) (9, 2.07140475511550903320e-01) (10, 9.61712226271629333496e-02) (11, 1.69306904077529907227e-01) (12, 8.16190987825393676758e-02) (13, 2.09314256906509399414e-01) (14, 7.19677656888961791992e-02) (15, -2.14673504233360290527e-01) (16, 6.82296901941299438477e-02) (17, 3.29590588808059692383e-02) (18, 8.65102857351303100586e-02) (0, 5.70907294750213623047e-02) (1, 1.27339333295822143555e-01) (2, 2.66722962260246276855e-02) (3, 1.18674926459789276123e-01) (4, 1.91264152526855468750e-01) (5, -1.39191716909408569336e-01) (6, 1.60080552101135253906e-01) (7, 1.24456048011779785156e-01) (8, 1.32548719644546508789e-01) (9, 2.09005832672119140625e-01) (10, 2.03779280185699462891e-01) (11, 1.97431683540344238281e-01) (12, 1.00780196487903594971e-01) (13, 4.76465970277786254883e-02) (14, 1.37894615530967712402e-01) (15, 1.83911383152008056641e-01) (16, 1.69109910726547241211e-01) (17, 7.22478553652763366699e-02) (18, 7.85878300666809082031e-02) (19, 1.63522750139236450195e-01) (20, 1.41398042440414428711e-01) (21, 6.57283142209053039551e-02) (19, 3.96939739584922790527e-02) (20, 9.07049402594566345215e-02) (21, 1.27347409725189208984e-01) 
