FANN_FLO_2.1
num_layers=3
learning_rate=0.100000
connection_rate=1.000000
network_type=0
learning_momentum=0.000000
training_algorithm=2
train_error_function=1
train_stop_function=0
cascade_output_change_fraction=0.010000
quickprop_decay=-0.000100
quickprop_mu=1.750000
rprop_increase_factor=1.200000
rprop_decrease_factor=0.500000
rprop_delta_min=0.000000
rprop_delta_max=50.000000
rprop_delta_zero=0.100000
cascade_output_stagnation_epochs=12
cascade_candidate_change_fraction=0.010000
cascade_candidate_stagnation_epochs=12
cascade_max_out_epochs=150
cascade_min_out_epochs=50
cascade_max_cand_epochs=150
cascade_min_cand_epochs=50
cascade_num_candidate_groups=2
bit_fail_limit=3.49999994039535522461e-01
cascade_candidate_limit=1.00000000000000000000e+03
cascade_weight_multiplier=4.00000005960464477539e-01
cascade_activation_functions_count=10
cascade_activation_functions=3 5 7 8 10 11 14 15 16 17 
cascade_activation_steepnesses_count=4
cascade_activation_steepnesses=2.50000000000000000000e-01 5.00000000000000000000e-01 7.50000000000000000000e-01 1.00000000000000000000e+00 
layer_sizes=19 3 3 
scale_included=0
neurons (num_inputs, activation_function, activation_steepness)=(0, 0, 0.00000000000000000000e+00) (0, 0, 0.00000000000000000000e+00) (0, 0, 0.00000000000000000000e+00) (0, 0, 0.00000000000000000000e+00) (0, 0, 0.00000000000000000000e+00) (0, 0, 0.00000000000000000000e+00) (0, 0, 0.00000000000000000000e+00) (0, 0, 0.00000000000000000000e+00) (0, 0, 0.00000000000000000000e+00) (0, 0, 0.00000000000000000000e+00) (0, 0, 0.00000000000000000000e+00) (0, 0, 0.00000000000000000000e+00) (0, 0, 0.00000000000000000000e+00) (0, 0, 0.00000000000000000000e+00) (0, 0, 0.00000000000000000000e+00) (0, 0, 0.00000000000000000000e+00) (0, 0, 0.00000000000000000000e+00) (0, 0, 0.00000000000000000000e+00) (0, 0, 0.00000000000000000000e+00) (19, 3, 5.00000000000000000000e-01) (19, 3, 5.00000000000000000000e-01) (0, 3, 0.00000000000000000000e+00) (3, 0, 5.00000000000000000000e-01) (3, 0, 5.00000000000000000000e-01) (0, 0, 0.00000000000000000000e+00) 
connections (connected_to_neuron, weight)=(0, -1.92697227001190185547e-01) (1, -6.41234591603279113770e-02) (2, -7.30780884623527526855e-02) (3, -1.37793123722076416016e-01) (4, -2.11671561002731323242e-01) (5, -1.39693319797515869141e-01) (6, -3.75922992825508117676e-02) (7, -9.15027484297752380371e-02) (8, -1.60263061523437500000e-01) (9, -9.15024802088737487793e-02) (10, -1.17957316339015960693e-01) (11, -7.26875290274620056152e-02) (12, -2.14517921209335327148e-01) (13, -3.68878170847892761230e-02) (14, -7.85464569926261901855e-02) (15, -2.18995586037635803223e-01) (16, -8.95624384284019470215e-02) (17, -9.12441387772560119629e-02) (18, -3.56374755501747131348e-02) (0, 1.96052610874176025391e-01) (1, 1.60095751285552978516e-01) (2, 1.49134069681167602539e-01) (3, 2.78845429420471191406e-02) (4, 1.60156846046447753906e-01) (5, 7.10930153727531433105e-02) (6, 2.14624792337417602539e-01) (7, 1.69166833162307739258e-01) (8, 1.42107054591178894043e-01) (9, 1.54309213161468505859e-01) (10, 1.61653161048889160156e-01) (11, 8.16576629877090454102e-02) (12, 1.81611984968185424805e-01) (13, 1.17529705166816711426e-01) (14, 2.85795927047729492188e-02) (15, 6.38188719749450683594e-02) (16, 1.25858157873153686523e-01) (17, 1.08886271715164184570e-01) (18, 4.62265685200691223145e-02) (19, 5.43553978204727172852e-02) (20, 1.68623208999633789062e-01) (21, 1.74724072217941284180e-01) (19, 1.56398087739944458008e-01) (20, 1.15935675799846649170e-01) (21, 1.80206149816513061523e-01) 
