FANN_FLO_2.1
num_layers=3
learning_rate=0.100000
connection_rate=1.000000
network_type=0
learning_momentum=0.000000
training_algorithm=2
train_error_function=1
train_stop_function=0
cascade_output_change_fraction=0.010000
quickprop_decay=-0.000100
quickprop_mu=1.750000
rprop_increase_factor=1.200000
rprop_decrease_factor=0.500000
rprop_delta_min=0.000000
rprop_delta_max=50.000000
rprop_delta_zero=0.100000
cascade_output_stagnation_epochs=12
cascade_candidate_change_fraction=0.010000
cascade_candidate_stagnation_epochs=12
cascade_max_out_epochs=150
cascade_min_out_epochs=50
cascade_max_cand_epochs=150
cascade_min_cand_epochs=50
cascade_num_candidate_groups=2
bit_fail_limit=3.49999994039535522461e-01
cascade_candidate_limit=1.00000000000000000000e+03
cascade_weight_multiplier=4.00000005960464477539e-01
cascade_activation_functions_count=10
cascade_activation_functions=3 5 7 8 10 11 14 15 16 17 
cascade_activation_steepnesses_count=4
cascade_activation_steepnesses=2.50000000000000000000e-01 5.00000000000000000000e-01 7.50000000000000000000e-01 1.00000000000000000000e+00 
layer_sizes=19 3 3 
scale_included=0
neurons (num_inputs, activation_function, activation_steepness)=(0, 0, 0.00000000000000000000e+00) (0, 0, 0.00000000000000000000e+00) (0, 0, 0.00000000000000000000e+00) (0, 0, 0.00000000000000000000e+00) (0, 0, 0.00000000000000000000e+00) (0, 0, 0.00000000000000000000e+00) (0, 0, 0.00000000000000000000e+00) (0, 0, 0.00000000000000000000e+00) (0, 0, 0.00000000000000000000e+00) (0, 0, 0.00000000000000000000e+00) (0, 0, 0.00000000000000000000e+00) (0, 0, 0.00000000000000000000e+00) (0, 0, 0.00000000000000000000e+00) (0, 0, 0.00000000000000000000e+00) (0, 0, 0.00000000000000000000e+00) (0, 0, 0.00000000000000000000e+00) (0, 0, 0.00000000000000000000e+00) (0, 0, 0.00000000000000000000e+00) (0, 0, 0.00000000000000000000e+00) (19, 3, 5.00000000000000000000e-01) (19, 3, 5.00000000000000000000e-01) (0, 3, 0.00000000000000000000e+00) (3, 0, 5.00000000000000000000e-01) (3, 0, 5.00000000000000000000e-01) (0, 0, 0.00000000000000000000e+00) 
connections (connected_to_neuron, weight)=(0, -2.26961001753807067871e-02) (1, -1.82618230581283569336e-01) (2, -1.42943605780601501465e-01) (3, -2.01530516147613525391e-01) (4, -7.36371055245399475098e-02) (5, -1.17345929145812988281e-01) (6, -7.58261010050773620605e-02) (7, -1.33326947689056396484e-01) (8, -6.68542012572288513184e-02) (9, -5.62630072236061096191e-02) (10, -8.32758620381355285645e-02) (11, -2.03648090362548828125e-01) (12, -1.23754188418388366699e-01) (13, -5.88290318846702575684e-02) (14, -9.45700183510780334473e-02) (15, -4.56650778651237487793e-02) (16, -1.95992887020111083984e-01) (17, -1.76916733384132385254e-01) (18, -1.12962603569030761719e-01) (0, -4.20522615313529968262e-02) (1, -1.36990785598754882812e-01) (2, -2.03401342034339904785e-01) (3, -7.72342607378959655762e-02) (4, -1.16519071161746978760e-01) (5, -9.80699658393859863281e-02) (6, -9.96305346488952636719e-02) (7, -1.86699524521827697754e-01) (8, -3.95734235644340515137e-02) (9, -8.18233713507652282715e-02) (10, -2.03090906143188476562e-01) (11, -1.26118600368499755859e-01) (12, -8.45194682478904724121e-02) (13, -1.65709137916564941406e-01) (14, -4.90621849894523620605e-02) (15, -6.60499855875968933105e-02) (16, -2.19346225261688232422e-01) (17, -1.46408125758171081543e-01) (18, -1.21876075863838195801e-01) (19, 1.07326835393905639648e-01) (20, 4.67376857995986938477e-02) (21, 8.18609297275543212891e-02) (19, 4.40509766340255737305e-02) (20, 6.30896091461181640625e-02) (21, 1.78106755018234252930e-01) 
