FANN_FLO_2.1
num_layers=3
learning_rate=0.100000
connection_rate=1.000000
network_type=0
learning_momentum=0.000000
training_algorithm=2
train_error_function=1
train_stop_function=0
cascade_output_change_fraction=0.010000
quickprop_decay=-0.000100
quickprop_mu=1.750000
rprop_increase_factor=1.200000
rprop_decrease_factor=0.500000
rprop_delta_min=0.000000
rprop_delta_max=50.000000
rprop_delta_zero=0.100000
cascade_output_stagnation_epochs=12
cascade_candidate_change_fraction=0.010000
cascade_candidate_stagnation_epochs=12
cascade_max_out_epochs=150
cascade_min_out_epochs=50
cascade_max_cand_epochs=150
cascade_min_cand_epochs=50
cascade_num_candidate_groups=2
bit_fail_limit=3.49999994039535522461e-01
cascade_candidate_limit=1.00000000000000000000e+03
cascade_weight_multiplier=4.00000005960464477539e-01
cascade_activation_functions_count=10
cascade_activation_functions=3 5 7 8 10 11 14 15 16 17 
cascade_activation_steepnesses_count=4
cascade_activation_steepnesses=2.50000000000000000000e-01 5.00000000000000000000e-01 7.50000000000000000000e-01 1.00000000000000000000e+00 
layer_sizes=19 3 3 
scale_included=0
neurons (num_inputs, activation_function, activation_steepness)=(0, 0, 0.00000000000000000000e+00) (0, 0, 0.00000000000000000000e+00) (0, 0, 0.00000000000000000000e+00) (0, 0, 0.00000000000000000000e+00) (0, 0, 0.00000000000000000000e+00) (0, 0, 0.00000000000000000000e+00) (0, 0, 0.00000000000000000000e+00) (0, 0, 0.00000000000000000000e+00) (0, 0, 0.00000000000000000000e+00) (0, 0, 0.00000000000000000000e+00) (0, 0, 0.00000000000000000000e+00) (0, 0, 0.00000000000000000000e+00) (0, 0, 0.00000000000000000000e+00) (0, 0, 0.00000000000000000000e+00) (0, 0, 0.00000000000000000000e+00) (0, 0, 0.00000000000000000000e+00) (0, 0, 0.00000000000000000000e+00) (0, 0, 0.00000000000000000000e+00) (0, 0, 0.00000000000000000000e+00) (19, 3, 5.00000000000000000000e-01) (19, 3, 5.00000000000000000000e-01) (0, 3, 0.00000000000000000000e+00) (3, 0, 5.00000000000000000000e-01) (3, 0, 5.00000000000000000000e-01) (0, 0, 0.00000000000000000000e+00) 
connections (connected_to_neuron, weight)=(0, -1.92738518118858337402e-01) (1, -1.65527075529098510742e-01) (2, -1.04450009763240814209e-01) (3, -5.53218647837638854980e-02) (4, -1.29811599850654602051e-01) (5, -1.45175367593765258789e-01) (6, -2.08091855049133300781e-01) (7, -4.11544963717460632324e-02) (8, -2.36344262957572937012e-02) (9, -2.16604292392730712891e-01) (10, -1.50122940540313720703e-01) (11, -7.46782496571540832520e-02) (12, -6.47911354899406433105e-02) (13, -1.38799622654914855957e-01) (14, -1.07404269278049468994e-01) (15, -1.00336529314517974854e-01) (16, -1.44715785980224609375e-01) (17, -1.31263047456741333008e-01) (18, -1.35362431406974792480e-01) (0, -1.96770921349525451660e-01) (1, -1.71935036778450012207e-01) (2, -8.61127153038978576660e-02) (3, -1.10772833228111267090e-01) (4, -1.54882043600082397461e-01) (5, -1.41738668084144592285e-01) (6, -6.42032250761985778809e-02) (7, -8.31435546278953552246e-02) (8, -7.91141614317893981934e-02) (9, -1.48117169737815856934e-01) (10, -8.53206142783164978027e-02) (11, -1.15474030375480651855e-01) (12, -1.20855674147605895996e-01) (13, -3.08476760983467102051e-02) (14, -1.99924051761627197266e-01) (15, -1.56177535653114318848e-01) (16, -1.40659272670745849609e-01) (17, -1.25099390745162963867e-01) (18, -1.44269376993179321289e-01) (19, 7.81862288713455200195e-02) (20, 1.11266195774078369141e-01) (21, 9.91263389587402343750e-02) (19, 1.48063302040100097656e-01) (20, 5.65879493951797485352e-02) (21, 5.43352067470550537109e-02) 
