FANN_FLO_2.1
num_layers=3
learning_rate=0.100000
connection_rate=1.000000
network_type=0
learning_momentum=0.000000
training_algorithm=2
train_error_function=1
train_stop_function=0
cascade_output_change_fraction=0.010000
quickprop_decay=-0.000100
quickprop_mu=1.750000
rprop_increase_factor=1.200000
rprop_decrease_factor=0.500000
rprop_delta_min=0.000000
rprop_delta_max=50.000000
rprop_delta_zero=0.100000
cascade_output_stagnation_epochs=12
cascade_candidate_change_fraction=0.010000
cascade_candidate_stagnation_epochs=12
cascade_max_out_epochs=150
cascade_min_out_epochs=50
cascade_max_cand_epochs=150
cascade_min_cand_epochs=50
cascade_num_candidate_groups=2
bit_fail_limit=3.49999994039535522461e-01
cascade_candidate_limit=1.00000000000000000000e+03
cascade_weight_multiplier=4.00000005960464477539e-01
cascade_activation_functions_count=10
cascade_activation_functions=3 5 7 8 10 11 14 15 16 17 
cascade_activation_steepnesses_count=4
cascade_activation_steepnesses=2.50000000000000000000e-01 5.00000000000000000000e-01 7.50000000000000000000e-01 1.00000000000000000000e+00 
layer_sizes=10 3 2 
scale_included=0
neurons (num_inputs, activation_function, activation_steepness)=(0, 0, 0.00000000000000000000e+00) (0, 0, 0.00000000000000000000e+00) (0, 0, 0.00000000000000000000e+00) (0, 0, 0.00000000000000000000e+00) (0, 0, 0.00000000000000000000e+00) (0, 0, 0.00000000000000000000e+00) (0, 0, 0.00000000000000000000e+00) (0, 0, 0.00000000000000000000e+00) (0, 0, 0.00000000000000000000e+00) (0, 0, 0.00000000000000000000e+00) (10, 3, 5.00000000000000000000e-01) (10, 3, 5.00000000000000000000e-01) (0, 3, 0.00000000000000000000e+00) (3, 0, 5.00000000000000000000e-01) (0, 0, 0.00000000000000000000e+00) 
connections (connected_to_neuron, weight)=(0, -1.66970014572143554688e-01) (1, -9.81139689683914184570e-02) (2, -1.67808219790458679199e-01) (3, -1.96751460433006286621e-01) (4, -8.57469812035560607910e-02) (5, -1.99652791023254394531e-01) (6, -1.06906034052371978760e-01) (7, -3.89089807868003845215e-02) (8, -8.65433588624000549316e-02) (9, -1.37318477034568786621e-01) (0, -2.04886168241500854492e-01) (1, -9.40488502383232116699e-02) (2, -2.02214002609252929688e-01) (3, -2.13652610778808593750e-01) (4, -1.29763960838317871094e-01) (5, -9.84688028693199157715e-02) (6, -2.25387737154960632324e-02) (7, -2.02862396836280822754e-01) (8, -8.27909335494041442871e-02) (9, -9.10128578543663024902e-02) (10, 8.64144861698150634766e-02) (11, 8.31538587808609008789e-02) (12, 2.45252624154090881348e-02) 
