FANN_FLO_2.1
num_layers=3
learning_rate=0.100000
connection_rate=1.000000
network_type=0
learning_momentum=0.000000
training_algorithm=2
train_error_function=1
train_stop_function=0
cascade_output_change_fraction=0.010000
quickprop_decay=-0.000100
quickprop_mu=1.750000
rprop_increase_factor=1.200000
rprop_decrease_factor=0.500000
rprop_delta_min=0.000000
rprop_delta_max=50.000000
rprop_delta_zero=0.100000
cascade_output_stagnation_epochs=12
cascade_candidate_change_fraction=0.010000
cascade_candidate_stagnation_epochs=12
cascade_max_out_epochs=150
cascade_min_out_epochs=50
cascade_max_cand_epochs=150
cascade_min_cand_epochs=50
cascade_num_candidate_groups=2
bit_fail_limit=3.49999994039535522461e-01
cascade_candidate_limit=1.00000000000000000000e+03
cascade_weight_multiplier=4.00000005960464477539e-01
cascade_activation_functions_count=10
cascade_activation_functions=3 5 7 8 10 11 14 15 16 17 
cascade_activation_steepnesses_count=4
cascade_activation_steepnesses=2.50000000000000000000e-01 5.00000000000000000000e-01 7.50000000000000000000e-01 1.00000000000000000000e+00 
layer_sizes=10 3 2 
scale_included=0
neurons (num_inputs, activation_function, activation_steepness)=(0, 0, 0.00000000000000000000e+00) (0, 0, 0.00000000000000000000e+00) (0, 0, 0.00000000000000000000e+00) (0, 0, 0.00000000000000000000e+00) (0, 0, 0.00000000000000000000e+00) (0, 0, 0.00000000000000000000e+00) (0, 0, 0.00000000000000000000e+00) (0, 0, 0.00000000000000000000e+00) (0, 0, 0.00000000000000000000e+00) (0, 0, 0.00000000000000000000e+00) (10, 3, 5.00000000000000000000e-01) (10, 3, 5.00000000000000000000e-01) (0, 3, 0.00000000000000000000e+00) (3, 0, 5.00000000000000000000e-01) (0, 0, 0.00000000000000000000e+00) 
connections (connected_to_neuron, weight)=(0, 1.59904748201370239258e-01) (1, 1.06191664934158325195e-01) (2, 1.21611908078193664551e-01) (3, 1.91347122192382812500e-01) (4, 1.82507157325744628906e-01) (5, 9.21473652124404907227e-02) (6, 1.18511304259300231934e-01) (7, 1.92634701728820800781e-01) (8, 7.61532709002494812012e-02) (9, 4.84717264771461486816e-02) (0, 1.65433436632156372070e-01) (1, 1.52878969907760620117e-01) (2, 2.26381793618202209473e-02) (3, 1.06859609484672546387e-01) (4, 3.70957776904106140137e-02) (5, 2.46678516268730163574e-02) (6, 1.46433234214782714844e-01) (7, 1.87655210494995117188e-01) (8, 2.08807826042175292969e-01) (9, 1.66149079799652099609e-01) (10, 1.88437223434448242188e-01) (11, 2.07078099250793457031e-01) (12, 1.62750303745269775391e-01) 
