FANN_FLO_2.1
num_layers=3
learning_rate=0.100000
connection_rate=1.000000
network_type=0
learning_momentum=0.000000
training_algorithm=2
train_error_function=1
train_stop_function=0
cascade_output_change_fraction=0.010000
quickprop_decay=-0.000100
quickprop_mu=1.750000
rprop_increase_factor=1.200000
rprop_decrease_factor=0.500000
rprop_delta_min=0.000000
rprop_delta_max=50.000000
rprop_delta_zero=0.100000
cascade_output_stagnation_epochs=12
cascade_candidate_change_fraction=0.010000
cascade_candidate_stagnation_epochs=12
cascade_max_out_epochs=150
cascade_min_out_epochs=50
cascade_max_cand_epochs=150
cascade_min_cand_epochs=50
cascade_num_candidate_groups=2
bit_fail_limit=3.49999994039535522461e-01
cascade_candidate_limit=1.00000000000000000000e+03
cascade_weight_multiplier=4.00000005960464477539e-01
cascade_activation_functions_count=10
cascade_activation_functions=3 5 7 8 10 11 14 15 16 17 
cascade_activation_steepnesses_count=4
cascade_activation_steepnesses=2.50000000000000000000e-01 5.00000000000000000000e-01 7.50000000000000000000e-01 1.00000000000000000000e+00 
layer_sizes=19 3 3 
scale_included=0
neurons (num_inputs, activation_function, activation_steepness)=(0, 0, 0.00000000000000000000e+00) (0, 0, 0.00000000000000000000e+00) (0, 0, 0.00000000000000000000e+00) (0, 0, 0.00000000000000000000e+00) (0, 0, 0.00000000000000000000e+00) (0, 0, 0.00000000000000000000e+00) (0, 0, 0.00000000000000000000e+00) (0, 0, 0.00000000000000000000e+00) (0, 0, 0.00000000000000000000e+00) (0, 0, 0.00000000000000000000e+00) (0, 0, 0.00000000000000000000e+00) (0, 0, 0.00000000000000000000e+00) (0, 0, 0.00000000000000000000e+00) (0, 0, 0.00000000000000000000e+00) (0, 0, 0.00000000000000000000e+00) (0, 0, 0.00000000000000000000e+00) (0, 0, 0.00000000000000000000e+00) (0, 0, 0.00000000000000000000e+00) (0, 0, 0.00000000000000000000e+00) (19, 3, 5.00000000000000000000e-01) (19, 3, 5.00000000000000000000e-01) (0, 3, 0.00000000000000000000e+00) (3, 0, 5.00000000000000000000e-01) (3, 0, 5.00000000000000000000e-01) (0, 0, 0.00000000000000000000e+00) 
connections (connected_to_neuron, weight)=(0, 1.42290517687797546387e-01) (1, 1.72483593225479125977e-01) (2, 5.25860637426376342773e-02) (3, 2.10954129695892333984e-01) (4, 1.93164676427841186523e-01) (5, 5.59906139969825744629e-02) (6, 9.16726887226104736328e-02) (7, 1.74754589796066284180e-01) (8, 2.88237929344177246094e-02) (9, 1.85554593801498413086e-01) (10, 1.16201281547546386719e-01) (11, 6.04119189083576202393e-02) (12, 4.98775988817214965820e-02) (13, 2.08912998437881469727e-01) (14, 1.83275848627090454102e-01) (15, 2.06367790699005126953e-01) (16, 1.56889736652374267578e-01) (17, 1.94069951772689819336e-01) (18, 2.07415103912353515625e-01) (0, -1.72936201095581054688e-01) (1, -1.42789572477340698242e-01) (2, -2.89347842335700988770e-02) (3, -1.75490811467170715332e-01) (4, -1.55451178550720214844e-01) (5, -1.92575126886367797852e-01) (6, -4.83498647809028625488e-02) (7, -1.06888353824615478516e-01) (8, -1.31754428148269653320e-01) (9, -9.70827192068099975586e-02) (10, -1.46957710385322570801e-01) (11, -6.01724907755851745605e-02) (12, -1.74792215228080749512e-01) (13, -1.94474130868911743164e-01) (14, -2.75864377617835998535e-02) (15, -1.83838069438934326172e-01) (16, -2.13094577193260192871e-02) (17, -1.91595822572708129883e-01) (18, -1.12165391445159912109e-01) (19, 1.73445135354995727539e-01) (20, 5.72279691696166992188e-02) (21, 9.33892056345939636230e-02) (19, 6.96464180946350097656e-02) (20, 9.76398736238479614258e-02) (21, 1.23266793787479400635e-01) 
