FANN_FLO_2.1
num_layers=3
learning_rate=0.100000
connection_rate=1.000000
network_type=0
learning_momentum=0.000000
training_algorithm=2
train_error_function=1
train_stop_function=0
cascade_output_change_fraction=0.010000
quickprop_decay=-0.000100
quickprop_mu=1.750000
rprop_increase_factor=1.200000
rprop_decrease_factor=0.500000
rprop_delta_min=0.000000
rprop_delta_max=50.000000
rprop_delta_zero=0.100000
cascade_output_stagnation_epochs=12
cascade_candidate_change_fraction=0.010000
cascade_candidate_stagnation_epochs=12
cascade_max_out_epochs=150
cascade_min_out_epochs=50
cascade_max_cand_epochs=150
cascade_min_cand_epochs=50
cascade_num_candidate_groups=2
bit_fail_limit=3.49999994039535522461e-01
cascade_candidate_limit=1.00000000000000000000e+03
cascade_weight_multiplier=4.00000005960464477539e-01
cascade_activation_functions_count=10
cascade_activation_functions=3 5 7 8 10 11 14 15 16 17 
cascade_activation_steepnesses_count=4
cascade_activation_steepnesses=2.50000000000000000000e-01 5.00000000000000000000e-01 7.50000000000000000000e-01 1.00000000000000000000e+00 
layer_sizes=10 3 2 
scale_included=0
neurons (num_inputs, activation_function, activation_steepness)=(0, 0, 0.00000000000000000000e+00) (0, 0, 0.00000000000000000000e+00) (0, 0, 0.00000000000000000000e+00) (0, 0, 0.00000000000000000000e+00) (0, 0, 0.00000000000000000000e+00) (0, 0, 0.00000000000000000000e+00) (0, 0, 0.00000000000000000000e+00) (0, 0, 0.00000000000000000000e+00) (0, 0, 0.00000000000000000000e+00) (0, 0, 0.00000000000000000000e+00) (10, 3, 5.00000000000000000000e-01) (10, 3, 5.00000000000000000000e-01) (0, 3, 0.00000000000000000000e+00) (3, 0, 5.00000000000000000000e-01) (0, 0, 0.00000000000000000000e+00) 
connections (connected_to_neuron, weight)=(0, -1.99417561292648315430e-01) (1, -1.58296823501586914062e-01) (2, -9.82191413640975952148e-02) (3, -3.70238944888114929199e-02) (4, -7.94743075966835021973e-02) (5, -1.85717821121215820312e-01) (6, -2.07472592592239379883e-01) (7, -7.81033858656883239746e-02) (8, -1.55352324247360229492e-01) (9, -2.11208492517471313477e-01) (0, 1.75485640764236450195e-01) (1, 7.53155574202537536621e-02) (2, 1.47903442382812500000e-01) (3, 1.04588642716407775879e-01) (4, 1.35295480489730834961e-01) (5, 4.06186878681182861328e-02) (6, 5.17929196357727050781e-02) (7, 1.32293373346328735352e-01) (8, 1.67689293622970581055e-01) (9, 6.29900991916656494141e-02) (10, 1.13573409616947174072e-01) (11, 1.52864247560501098633e-01) (12, 2.50040888786315917969e-02) 
