FANN_FLO_2.1
num_layers=3
learning_rate=0.100000
connection_rate=1.000000
network_type=0
learning_momentum=0.000000
training_algorithm=2
train_error_function=1
train_stop_function=0
cascade_output_change_fraction=0.010000
quickprop_decay=-0.000100
quickprop_mu=1.750000
rprop_increase_factor=1.200000
rprop_decrease_factor=0.500000
rprop_delta_min=0.000000
rprop_delta_max=50.000000
rprop_delta_zero=0.100000
cascade_output_stagnation_epochs=12
cascade_candidate_change_fraction=0.010000
cascade_candidate_stagnation_epochs=12
cascade_max_out_epochs=150
cascade_min_out_epochs=50
cascade_max_cand_epochs=150
cascade_min_cand_epochs=50
cascade_num_candidate_groups=2
bit_fail_limit=3.49999994039535522461e-01
cascade_candidate_limit=1.00000000000000000000e+03
cascade_weight_multiplier=4.00000005960464477539e-01
cascade_activation_functions_count=10
cascade_activation_functions=3 5 7 8 10 11 14 15 16 17 
cascade_activation_steepnesses_count=4
cascade_activation_steepnesses=2.50000000000000000000e-01 5.00000000000000000000e-01 7.50000000000000000000e-01 1.00000000000000000000e+00 
layer_sizes=10 3 2 
scale_included=0
neurons (num_inputs, activation_function, activation_steepness)=(0, 0, 0.00000000000000000000e+00) (0, 0, 0.00000000000000000000e+00) (0, 0, 0.00000000000000000000e+00) (0, 0, 0.00000000000000000000e+00) (0, 0, 0.00000000000000000000e+00) (0, 0, 0.00000000000000000000e+00) (0, 0, 0.00000000000000000000e+00) (0, 0, 0.00000000000000000000e+00) (0, 0, 0.00000000000000000000e+00) (0, 0, 0.00000000000000000000e+00) (10, 3, 5.00000000000000000000e-01) (10, 3, 5.00000000000000000000e-01) (0, 3, 0.00000000000000000000e+00) (3, 0, 5.00000000000000000000e-01) (0, 0, 0.00000000000000000000e+00) 
connections (connected_to_neuron, weight)=(0, -1.86307117342948913574e-01) (1, -1.31574794650077819824e-01) (2, -4.06464561820030212402e-02) (3, -1.89535945653915405273e-01) (4, -1.66762769222259521484e-01) (5, -1.37002527713775634766e-01) (6, -1.04100748896598815918e-01) (7, -4.90797981619834899902e-02) (8, -1.86044603586196899414e-01) (9, -1.56069904565811157227e-01) (0, 6.55163824558258056641e-02) (1, 1.72885626554489135742e-01) (2, 8.98423790931701660156e-02) (3, 2.54100859165191650391e-02) (4, 1.85256481170654296875e-01) (5, 1.06224276125431060791e-01) (6, 1.17393925786018371582e-01) (7, 1.73655271530151367188e-01) (8, 1.21870771050453186035e-01) (9, 6.45022392272949218750e-02) (10, 5.84512129426002502441e-02) (11, 2.07235902547836303711e-01) (12, 1.34053274989128112793e-01) 
