FANN_FLO_2.1
num_layers=3
learning_rate=0.100000
connection_rate=1.000000
network_type=0
learning_momentum=0.000000
training_algorithm=2
train_error_function=1
train_stop_function=0
cascade_output_change_fraction=0.010000
quickprop_decay=-0.000100
quickprop_mu=1.750000
rprop_increase_factor=1.200000
rprop_decrease_factor=0.500000
rprop_delta_min=0.000000
rprop_delta_max=50.000000
rprop_delta_zero=0.100000
cascade_output_stagnation_epochs=12
cascade_candidate_change_fraction=0.010000
cascade_candidate_stagnation_epochs=12
cascade_max_out_epochs=150
cascade_min_out_epochs=50
cascade_max_cand_epochs=150
cascade_min_cand_epochs=50
cascade_num_candidate_groups=2
bit_fail_limit=3.49999994039535522461e-01
cascade_candidate_limit=1.00000000000000000000e+03
cascade_weight_multiplier=4.00000005960464477539e-01
cascade_activation_functions_count=10
cascade_activation_functions=3 5 7 8 10 11 14 15 16 17 
cascade_activation_steepnesses_count=4
cascade_activation_steepnesses=2.50000000000000000000e-01 5.00000000000000000000e-01 7.50000000000000000000e-01 1.00000000000000000000e+00 
layer_sizes=10 3 2 
scale_included=0
neurons (num_inputs, activation_function, activation_steepness)=(0, 0, 0.00000000000000000000e+00) (0, 0, 0.00000000000000000000e+00) (0, 0, 0.00000000000000000000e+00) (0, 0, 0.00000000000000000000e+00) (0, 0, 0.00000000000000000000e+00) (0, 0, 0.00000000000000000000e+00) (0, 0, 0.00000000000000000000e+00) (0, 0, 0.00000000000000000000e+00) (0, 0, 0.00000000000000000000e+00) (0, 0, 0.00000000000000000000e+00) (10, 3, 5.00000000000000000000e-01) (10, 3, 5.00000000000000000000e-01) (0, 3, 0.00000000000000000000e+00) (3, 0, 5.00000000000000000000e-01) (0, 0, 0.00000000000000000000e+00) 
connections (connected_to_neuron, weight)=(0, -4.37741652131080627441e-02) (1, -1.73425585031509399414e-01) (2, -2.16198086738586425781e-01) (3, -1.72358870506286621094e-01) (4, -7.27281793951988220215e-02) (5, -9.57513079047203063965e-02) (6, -4.65073361992835998535e-02) (7, -8.11874642968177795410e-02) (8, -1.04956254363059997559e-01) (9, -1.42912045121192932129e-01) (0, 8.89762863516807556152e-02) (1, 1.75800621509552001953e-01) (2, 2.00307846069335937500e-01) (3, 3.53169590234756469727e-02) (4, 1.46561503410339355469e-01) (5, 1.64356082677841186523e-01) (6, 7.61061757802963256836e-02) (7, 1.11139796674251556396e-01) (8, 3.83588224649429321289e-02) (9, 1.93255335092544555664e-01) (10, 1.07044257223606109619e-01) (11, 1.82283192873001098633e-01) (12, 2.07255661487579345703e-01) 
