FANN_FLO_2.1
num_layers=3
learning_rate=0.100000
connection_rate=1.000000
network_type=0
learning_momentum=0.000000
training_algorithm=2
train_error_function=1
train_stop_function=0
cascade_output_change_fraction=0.010000
quickprop_decay=-0.000100
quickprop_mu=1.750000
rprop_increase_factor=1.200000
rprop_decrease_factor=0.500000
rprop_delta_min=0.000000
rprop_delta_max=50.000000
rprop_delta_zero=0.100000
cascade_output_stagnation_epochs=12
cascade_candidate_change_fraction=0.010000
cascade_candidate_stagnation_epochs=12
cascade_max_out_epochs=150
cascade_min_out_epochs=50
cascade_max_cand_epochs=150
cascade_min_cand_epochs=50
cascade_num_candidate_groups=2
bit_fail_limit=3.49999994039535522461e-01
cascade_candidate_limit=1.00000000000000000000e+03
cascade_weight_multiplier=4.00000005960464477539e-01
cascade_activation_functions_count=10
cascade_activation_functions=3 5 7 8 10 11 14 15 16 17 
cascade_activation_steepnesses_count=4
cascade_activation_steepnesses=2.50000000000000000000e-01 5.00000000000000000000e-01 7.50000000000000000000e-01 1.00000000000000000000e+00 
layer_sizes=19 3 3 
scale_included=0
neurons (num_inputs, activation_function, activation_steepness)=(0, 0, 0.00000000000000000000e+00) (0, 0, 0.00000000000000000000e+00) (0, 0, 0.00000000000000000000e+00) (0, 0, 0.00000000000000000000e+00) (0, 0, 0.00000000000000000000e+00) (0, 0, 0.00000000000000000000e+00) (0, 0, 0.00000000000000000000e+00) (0, 0, 0.00000000000000000000e+00) (0, 0, 0.00000000000000000000e+00) (0, 0, 0.00000000000000000000e+00) (0, 0, 0.00000000000000000000e+00) (0, 0, 0.00000000000000000000e+00) (0, 0, 0.00000000000000000000e+00) (0, 0, 0.00000000000000000000e+00) (0, 0, 0.00000000000000000000e+00) (0, 0, 0.00000000000000000000e+00) (0, 0, 0.00000000000000000000e+00) (0, 0, 0.00000000000000000000e+00) (0, 0, 0.00000000000000000000e+00) (19, 3, 5.00000000000000000000e-01) (19, 3, 5.00000000000000000000e-01) (0, 3, 0.00000000000000000000e+00) (3, 0, 5.00000000000000000000e-01) (3, 0, 5.00000000000000000000e-01) (0, 0, 0.00000000000000000000e+00) 
connections (connected_to_neuron, weight)=(0, -9.53746885061264038086e-02) (1, -1.63361862301826477051e-01) (2, -1.06778621673583984375e-01) (3, -7.26777538657188415527e-02) (4, 4.99376133084297180176e-02) (5, -1.39467999339103698730e-01) (6, -1.23836241662502288818e-01) (7, 1.70851647853851318359e-01) (8, -1.24791964888572692871e-01) (9, -2.12698012590408325195e-01) (10, -8.50557014346122741699e-02) (11, -1.97495430707931518555e-01) (12, -7.35951736569404602051e-02) (13, -6.84088841080665588379e-02) (14, -1.08229026198387145996e-01) (15, -1.73640877008438110352e-01) (16, -2.09556400775909423828e-01) (17, -2.09436342120170593262e-01) (18, -7.79994055628776550293e-02) (0, 2.06558853387832641602e-01) (1, 1.96205735206604003906e-01) (2, 7.97535926103591918945e-02) (3, 4.52841743826866149902e-02) (4, 1.91943645477294921875e-01) (5, 1.35554417967796325684e-01) (6, 9.04649943113327026367e-02) (7, 1.86109066009521484375e-01) (8, 6.67631924152374267578e-02) (9, 1.00527822971343994141e-01) (10, 3.10153067111968994141e-02) (11, 7.68923610448837280273e-02) (12, 2.51531377434730529785e-02) (13, 8.76534506678581237793e-02) (14, 1.90113753080368041992e-01) (15, 1.72475397586822509766e-01) (16, 1.17591053247451782227e-01) (17, 7.06457495689392089844e-02) (18, 6.86391443014144897461e-02) (19, 6.84426873922348022461e-02) (20, 1.65853798389434814453e-01) (21, 7.59411454200744628906e-02) (19, 2.03386992216110229492e-01) (20, 1.88358366489410400391e-01) (21, 2.23459675908088684082e-02) 
