FANN_FLO_2.1
num_layers=3
learning_rate=0.100000
connection_rate=1.000000
network_type=0
learning_momentum=0.000000
training_algorithm=2
train_error_function=1
train_stop_function=0
cascade_output_change_fraction=0.010000
quickprop_decay=-0.000100
quickprop_mu=1.750000
rprop_increase_factor=1.200000
rprop_decrease_factor=0.500000
rprop_delta_min=0.000000
rprop_delta_max=50.000000
rprop_delta_zero=0.100000
cascade_output_stagnation_epochs=12
cascade_candidate_change_fraction=0.010000
cascade_candidate_stagnation_epochs=12
cascade_max_out_epochs=150
cascade_min_out_epochs=50
cascade_max_cand_epochs=150
cascade_min_cand_epochs=50
cascade_num_candidate_groups=2
bit_fail_limit=3.49999994039535522461e-01
cascade_candidate_limit=1.00000000000000000000e+03
cascade_weight_multiplier=4.00000005960464477539e-01
cascade_activation_functions_count=10
cascade_activation_functions=3 5 7 8 10 11 14 15 16 17 
cascade_activation_steepnesses_count=4
cascade_activation_steepnesses=2.50000000000000000000e-01 5.00000000000000000000e-01 7.50000000000000000000e-01 1.00000000000000000000e+00 
layer_sizes=10 3 2 
scale_included=0
neurons (num_inputs, activation_function, activation_steepness)=(0, 0, 0.00000000000000000000e+00) (0, 0, 0.00000000000000000000e+00) (0, 0, 0.00000000000000000000e+00) (0, 0, 0.00000000000000000000e+00) (0, 0, 0.00000000000000000000e+00) (0, 0, 0.00000000000000000000e+00) (0, 0, 0.00000000000000000000e+00) (0, 0, 0.00000000000000000000e+00) (0, 0, 0.00000000000000000000e+00) (0, 0, 0.00000000000000000000e+00) (10, 3, 5.00000000000000000000e-01) (10, 3, 5.00000000000000000000e-01) (0, 3, 0.00000000000000000000e+00) (3, 0, 5.00000000000000000000e-01) (0, 0, 0.00000000000000000000e+00) 
connections (connected_to_neuron, weight)=(0, 1.37159317731857299805e-01) (1, 1.27847135066986083984e-01) (2, 6.28700703382492065430e-02) (3, 7.57756680250167846680e-02) (4, 1.42152994871139526367e-01) (5, 1.27773389220237731934e-01) (6, 2.06946134567260742188e-02) (7, 1.76627933979034423828e-01) (8, 2.15006768703460693359e-01) (9, 1.71565473079681396484e-01) (0, 1.86132043600082397461e-01) (1, 1.41511127352714538574e-01) (2, 3.24932038784027099609e-02) (3, 1.99116438627243041992e-01) (4, 1.36807769536972045898e-01) (5, 2.74952799081802368164e-02) (6, 2.33966112136840820312e-02) (7, 9.18508023023605346680e-02) (8, 1.91719681024551391602e-01) (9, 1.82683467864990234375e-01) (10, 1.78786516189575195312e-01) (11, 1.78546249866485595703e-01) (12, 1.05836197733879089355e-01) 
