FANN_FLO_2.1
num_layers=3
learning_rate=0.100000
connection_rate=1.000000
network_type=0
learning_momentum=0.000000
training_algorithm=2
train_error_function=1
train_stop_function=0
cascade_output_change_fraction=0.010000
quickprop_decay=-0.000100
quickprop_mu=1.750000
rprop_increase_factor=1.200000
rprop_decrease_factor=0.500000
rprop_delta_min=0.000000
rprop_delta_max=50.000000
rprop_delta_zero=0.100000
cascade_output_stagnation_epochs=12
cascade_candidate_change_fraction=0.010000
cascade_candidate_stagnation_epochs=12
cascade_max_out_epochs=150
cascade_min_out_epochs=50
cascade_max_cand_epochs=150
cascade_min_cand_epochs=50
cascade_num_candidate_groups=2
bit_fail_limit=3.49999994039535522461e-01
cascade_candidate_limit=1.00000000000000000000e+03
cascade_weight_multiplier=4.00000005960464477539e-01
cascade_activation_functions_count=10
cascade_activation_functions=3 5 7 8 10 11 14 15 16 17 
cascade_activation_steepnesses_count=4
cascade_activation_steepnesses=2.50000000000000000000e-01 5.00000000000000000000e-01 7.50000000000000000000e-01 1.00000000000000000000e+00 
layer_sizes=10 3 2 
scale_included=0
neurons (num_inputs, activation_function, activation_steepness)=(0, 0, 0.00000000000000000000e+00) (0, 0, 0.00000000000000000000e+00) (0, 0, 0.00000000000000000000e+00) (0, 0, 0.00000000000000000000e+00) (0, 0, 0.00000000000000000000e+00) (0, 0, 0.00000000000000000000e+00) (0, 0, 0.00000000000000000000e+00) (0, 0, 0.00000000000000000000e+00) (0, 0, 0.00000000000000000000e+00) (0, 0, 0.00000000000000000000e+00) (10, 3, 5.00000000000000000000e-01) (10, 3, 5.00000000000000000000e-01) (0, 3, 0.00000000000000000000e+00) (3, 0, 5.00000000000000000000e-01) (0, 0, 0.00000000000000000000e+00) 
connections (connected_to_neuron, weight)=(0, 1.55423223972320556641e-01) (1, 1.89004004001617431641e-01) (2, 8.36298242211341857910e-02) (3, 8.40867459774017333984e-02) (4, 9.82683748006820678711e-02) (5, 1.67273730039596557617e-01) (6, 1.45656824111938476562e-01) (7, 2.15560376644134521484e-01) (8, 6.89200833439826965332e-02) (9, 1.46970361471176147461e-01) (0, -1.13577067852020263672e-01) (1, -3.87654826045036315918e-02) (2, -1.87682211399078369141e-01) (3, -2.87118181586265563965e-02) (4, -9.69794169068336486816e-02) (5, -2.03975528478622436523e-01) (6, -1.16855204105377197266e-01) (7, -5.17560169100761413574e-02) (8, -1.68236672878265380859e-01) (9, -1.46274745464324951172e-01) (10, 2.01980918645858764648e-01) (11, 4.24192100763320922852e-02) (12, 6.02120645344257354736e-02) 
