FANN_FLO_2.1
num_layers=3
learning_rate=0.100000
connection_rate=1.000000
network_type=0
learning_momentum=0.000000
training_algorithm=2
train_error_function=1
train_stop_function=0
cascade_output_change_fraction=0.010000
quickprop_decay=-0.000100
quickprop_mu=1.750000
rprop_increase_factor=1.200000
rprop_decrease_factor=0.500000
rprop_delta_min=0.000000
rprop_delta_max=50.000000
rprop_delta_zero=0.100000
cascade_output_stagnation_epochs=12
cascade_candidate_change_fraction=0.010000
cascade_candidate_stagnation_epochs=12
cascade_max_out_epochs=150
cascade_min_out_epochs=50
cascade_max_cand_epochs=150
cascade_min_cand_epochs=50
cascade_num_candidate_groups=2
bit_fail_limit=3.49999994039535522461e-01
cascade_candidate_limit=1.00000000000000000000e+03
cascade_weight_multiplier=4.00000005960464477539e-01
cascade_activation_functions_count=10
cascade_activation_functions=3 5 7 8 10 11 14 15 16 17 
cascade_activation_steepnesses_count=4
cascade_activation_steepnesses=2.50000000000000000000e-01 5.00000000000000000000e-01 7.50000000000000000000e-01 1.00000000000000000000e+00 
layer_sizes=10 3 2 
scale_included=0
neurons (num_inputs, activation_function, activation_steepness)=(0, 0, 0.00000000000000000000e+00) (0, 0, 0.00000000000000000000e+00) (0, 0, 0.00000000000000000000e+00) (0, 0, 0.00000000000000000000e+00) (0, 0, 0.00000000000000000000e+00) (0, 0, 0.00000000000000000000e+00) (0, 0, 0.00000000000000000000e+00) (0, 0, 0.00000000000000000000e+00) (0, 0, 0.00000000000000000000e+00) (0, 0, 0.00000000000000000000e+00) (10, 3, 5.00000000000000000000e-01) (10, 3, 5.00000000000000000000e-01) (0, 3, 0.00000000000000000000e+00) (3, 0, 5.00000000000000000000e-01) (0, 0, 0.00000000000000000000e+00) 
connections (connected_to_neuron, weight)=(0, -1.87512725591659545898e-01) (1, -4.49025556445121765137e-02) (2, -6.67971149086952209473e-02) (3, -9.20179262757301330566e-02) (4, -5.64145371317863464355e-02) (5, -1.55819132924079895020e-01) (6, -1.59473359584808349609e-01) (7, -1.22072577476501464844e-01) (8, -6.34774044156074523926e-02) (9, -6.63359537720680236816e-02) (0, 8.20116847753524780273e-02) (1, 1.78497195243835449219e-01) (2, 7.11864829063415527344e-02) (3, 5.95409609377384185791e-02) (4, 1.89005792140960693359e-01) (5, 1.22136555612087249756e-01) (6, 1.39886140823364257812e-01) (7, 1.79262965917587280273e-01) (8, 1.81475937366485595703e-01) (9, 8.88939574360847473145e-02) (10, 8.24778303503990173340e-02) (11, 2.08318978548049926758e-01) (12, 9.65995341539382934570e-02) 
