FANN_FLO_2.1
num_layers=3
learning_rate=0.100000
connection_rate=1.000000
network_type=0
learning_momentum=0.000000
training_algorithm=2
train_error_function=1
train_stop_function=0
cascade_output_change_fraction=0.010000
quickprop_decay=-0.000100
quickprop_mu=1.750000
rprop_increase_factor=1.200000
rprop_decrease_factor=0.500000
rprop_delta_min=0.000000
rprop_delta_max=50.000000
rprop_delta_zero=0.100000
cascade_output_stagnation_epochs=12
cascade_candidate_change_fraction=0.010000
cascade_candidate_stagnation_epochs=12
cascade_max_out_epochs=150
cascade_min_out_epochs=50
cascade_max_cand_epochs=150
cascade_min_cand_epochs=50
cascade_num_candidate_groups=2
bit_fail_limit=3.49999994039535522461e-01
cascade_candidate_limit=1.00000000000000000000e+03
cascade_weight_multiplier=4.00000005960464477539e-01
cascade_activation_functions_count=10
cascade_activation_functions=3 5 7 8 10 11 14 15 16 17 
cascade_activation_steepnesses_count=4
cascade_activation_steepnesses=2.50000000000000000000e-01 5.00000000000000000000e-01 7.50000000000000000000e-01 1.00000000000000000000e+00 
layer_sizes=19 3 3 
scale_included=0
neurons (num_inputs, activation_function, activation_steepness)=(0, 0, 0.00000000000000000000e+00) (0, 0, 0.00000000000000000000e+00) (0, 0, 0.00000000000000000000e+00) (0, 0, 0.00000000000000000000e+00) (0, 0, 0.00000000000000000000e+00) (0, 0, 0.00000000000000000000e+00) (0, 0, 0.00000000000000000000e+00) (0, 0, 0.00000000000000000000e+00) (0, 0, 0.00000000000000000000e+00) (0, 0, 0.00000000000000000000e+00) (0, 0, 0.00000000000000000000e+00) (0, 0, 0.00000000000000000000e+00) (0, 0, 0.00000000000000000000e+00) (0, 0, 0.00000000000000000000e+00) (0, 0, 0.00000000000000000000e+00) (0, 0, 0.00000000000000000000e+00) (0, 0, 0.00000000000000000000e+00) (0, 0, 0.00000000000000000000e+00) (0, 0, 0.00000000000000000000e+00) (19, 3, 5.00000000000000000000e-01) (19, 3, 5.00000000000000000000e-01) (0, 3, 0.00000000000000000000e+00) (3, 0, 5.00000000000000000000e-01) (3, 0, 5.00000000000000000000e-01) (0, 0, 0.00000000000000000000e+00) 
connections (connected_to_neuron, weight)=(0, -6.55878409743309020996e-02) (1, -2.19571948051452636719e-01) (2, -1.36770799756050109863e-01) (3, -1.63153797388076782227e-01) (4, -2.61551812291145324707e-02) (5, -2.14452236890792846680e-01) (6, -1.07090331614017486572e-01) (7, -1.41678035259246826172e-01) (8, -1.45208954811096191406e-01) (9, -2.08363324403762817383e-01) (10, -7.87859335541725158691e-02) (11, -7.03882947564125061035e-02) (12, -1.37547299265861511230e-01) (13, -1.36660605669021606445e-01) (14, -1.79212957620620727539e-01) (15, -1.71576008200645446777e-01) (16, -1.93526118993759155273e-01) (17, -1.74359515309333801270e-01) (18, -9.91716757416725158691e-02) (0, -2.07751765847206115723e-01) (1, -3.68097946047782897949e-02) (2, -1.59369304776191711426e-01) (3, -2.12777435779571533203e-01) (4, -7.44025781750679016113e-02) (5, -2.01587378978729248047e-01) (6, -4.57934811711311340332e-02) (7, -5.87130710482597351074e-02) (8, -1.11546218395233154297e-01) (9, -2.46126428246498107910e-02) (10, -2.13826596736907958984e-01) (11, -9.56591367721557617188e-02) (12, -7.02004805207252502441e-02) (13, -2.13398531079292297363e-01) (14, -2.12429925799369812012e-01) (15, -2.13354274630546569824e-01) (16, -2.19553709030151367188e-01) (17, -2.06882148981094360352e-01) (18, -1.00444599986076354980e-01) (19, 9.87682715058326721191e-02) (20, 1.07908904552459716797e-01) (21, 1.51192098855972290039e-01) (19, 3.99823486804962158203e-02) (20, 5.75206130743026733398e-02) (21, 3.36448028683662414551e-02) 
