FANN_FLO_2.1
num_layers=3
learning_rate=0.100000
connection_rate=1.000000
network_type=0
learning_momentum=0.000000
training_algorithm=2
train_error_function=1
train_stop_function=0
cascade_output_change_fraction=0.010000
quickprop_decay=-0.000100
quickprop_mu=1.750000
rprop_increase_factor=1.200000
rprop_decrease_factor=0.500000
rprop_delta_min=0.000000
rprop_delta_max=50.000000
rprop_delta_zero=0.100000
cascade_output_stagnation_epochs=12
cascade_candidate_change_fraction=0.010000
cascade_candidate_stagnation_epochs=12
cascade_max_out_epochs=150
cascade_min_out_epochs=50
cascade_max_cand_epochs=150
cascade_min_cand_epochs=50
cascade_num_candidate_groups=2
bit_fail_limit=3.49999994039535522461e-01
cascade_candidate_limit=1.00000000000000000000e+03
cascade_weight_multiplier=4.00000005960464477539e-01
cascade_activation_functions_count=10
cascade_activation_functions=3 5 7 8 10 11 14 15 16 17 
cascade_activation_steepnesses_count=4
cascade_activation_steepnesses=2.50000000000000000000e-01 5.00000000000000000000e-01 7.50000000000000000000e-01 1.00000000000000000000e+00 
layer_sizes=19 3 3 
scale_included=0
neurons (num_inputs, activation_function, activation_steepness)=(0, 0, 0.00000000000000000000e+00) (0, 0, 0.00000000000000000000e+00) (0, 0, 0.00000000000000000000e+00) (0, 0, 0.00000000000000000000e+00) (0, 0, 0.00000000000000000000e+00) (0, 0, 0.00000000000000000000e+00) (0, 0, 0.00000000000000000000e+00) (0, 0, 0.00000000000000000000e+00) (0, 0, 0.00000000000000000000e+00) (0, 0, 0.00000000000000000000e+00) (0, 0, 0.00000000000000000000e+00) (0, 0, 0.00000000000000000000e+00) (0, 0, 0.00000000000000000000e+00) (0, 0, 0.00000000000000000000e+00) (0, 0, 0.00000000000000000000e+00) (0, 0, 0.00000000000000000000e+00) (0, 0, 0.00000000000000000000e+00) (0, 0, 0.00000000000000000000e+00) (0, 0, 0.00000000000000000000e+00) (19, 3, 5.00000000000000000000e-01) (19, 3, 5.00000000000000000000e-01) (0, 3, 0.00000000000000000000e+00) (3, 0, 5.00000000000000000000e-01) (3, 0, 5.00000000000000000000e-01) (0, 0, 0.00000000000000000000e+00) 
connections (connected_to_neuron, weight)=(0, -1.84984564781188964844e-01) (1, -1.90601781010627746582e-01) (2, -1.73061385750770568848e-01) (3, -7.50296190381050109863e-02) (4, -5.00136539340019226074e-02) (5, -3.21109220385551452637e-02) (6, -4.94705662131309509277e-02) (7, -4.72306683659553527832e-02) (8, -1.41578882932662963867e-01) (9, -5.50335124135017395020e-02) (10, -3.84932532906532287598e-02) (11, -1.36279329657554626465e-01) (12, -1.13972619175910949707e-01) (13, -1.86263799667358398438e-01) (14, -1.12367749214172363281e-01) (15, -1.47463649511337280273e-01) (16, -1.33958905935287475586e-01) (17, -2.17809960246086120605e-01) (18, -5.02830669283866882324e-02) (0, 1.14221960306167602539e-01) (1, 1.72074794769287109375e-01) (2, 1.69180274009704589844e-01) (3, 5.09771704673767089844e-02) (4, -7.05143734812736511230e-02) (5, 6.28344565629959106445e-02) (6, 1.06600791215896606445e-01) (7, 1.93430632352828979492e-01) (8, 1.98560774326324462891e-01) (9, 2.75568515062332153320e-02) (10, 7.75396078824996948242e-02) (11, 1.89708441495895385742e-01) (12, 6.25722855329513549805e-02) (13, -1.33062183856964111328e-01) (14, 3.66470664739608764648e-02) (15, 2.07542657852172851562e-01) (16, 7.69241899251937866211e-02) (17, 2.45361477136611938477e-02) (18, 1.78072094917297363281e-01) (19, 4.96935099363327026367e-02) (20, 1.02957263588905334473e-01) (21, 1.43038600683212280273e-01) (19, 3.12002673745155334473e-02) (20, 1.86677932739257812500e-01) (21, 4.90659847855567932129e-02) 
