FANN_FLO_2.1
num_layers=3
learning_rate=0.100000
connection_rate=1.000000
network_type=0
learning_momentum=0.000000
training_algorithm=2
train_error_function=1
train_stop_function=0
cascade_output_change_fraction=0.010000
quickprop_decay=-0.000100
quickprop_mu=1.750000
rprop_increase_factor=1.200000
rprop_decrease_factor=0.500000
rprop_delta_min=0.000000
rprop_delta_max=50.000000
rprop_delta_zero=0.100000
cascade_output_stagnation_epochs=12
cascade_candidate_change_fraction=0.010000
cascade_candidate_stagnation_epochs=12
cascade_max_out_epochs=150
cascade_min_out_epochs=50
cascade_max_cand_epochs=150
cascade_min_cand_epochs=50
cascade_num_candidate_groups=2
bit_fail_limit=3.49999994039535522461e-01
cascade_candidate_limit=1.00000000000000000000e+03
cascade_weight_multiplier=4.00000005960464477539e-01
cascade_activation_functions_count=10
cascade_activation_functions=3 5 7 8 10 11 14 15 16 17 
cascade_activation_steepnesses_count=4
cascade_activation_steepnesses=2.50000000000000000000e-01 5.00000000000000000000e-01 7.50000000000000000000e-01 1.00000000000000000000e+00 
layer_sizes=19 3 3 
scale_included=0
neurons (num_inputs, activation_function, activation_steepness)=(0, 0, 0.00000000000000000000e+00) (0, 0, 0.00000000000000000000e+00) (0, 0, 0.00000000000000000000e+00) (0, 0, 0.00000000000000000000e+00) (0, 0, 0.00000000000000000000e+00) (0, 0, 0.00000000000000000000e+00) (0, 0, 0.00000000000000000000e+00) (0, 0, 0.00000000000000000000e+00) (0, 0, 0.00000000000000000000e+00) (0, 0, 0.00000000000000000000e+00) (0, 0, 0.00000000000000000000e+00) (0, 0, 0.00000000000000000000e+00) (0, 0, 0.00000000000000000000e+00) (0, 0, 0.00000000000000000000e+00) (0, 0, 0.00000000000000000000e+00) (0, 0, 0.00000000000000000000e+00) (0, 0, 0.00000000000000000000e+00) (0, 0, 0.00000000000000000000e+00) (0, 0, 0.00000000000000000000e+00) (19, 3, 5.00000000000000000000e-01) (19, 3, 5.00000000000000000000e-01) (0, 3, 0.00000000000000000000e+00) (3, 0, 5.00000000000000000000e-01) (3, 0, 5.00000000000000000000e-01) (0, 0, 0.00000000000000000000e+00) 
connections (connected_to_neuron, weight)=(0, 1.58388197422027587891e-01) (1, 1.95227026939392089844e-01) (2, 1.20073102414608001709e-01) (3, 1.33223503828048706055e-01) (4, 1.28676846623420715332e-01) (5, 1.19667492806911468506e-01) (6, 6.52028173208236694336e-02) (7, 1.78938180208206176758e-01) (8, 2.16567546129226684570e-01) (9, 1.11611582338809967041e-01) (10, 1.51563465595245361328e-01) (11, 8.42956453561782836914e-02) (12, 1.00481323897838592529e-01) (13, 6.03897497057914733887e-02) (14, 2.00868278741836547852e-01) (15, 1.12573400139808654785e-01) (16, 5.38945868611335754395e-02) (17, 2.09953010082244873047e-01) (18, 1.82775437831878662109e-01) (0, -1.45952865481376647949e-01) (1, -2.02616855502128601074e-01) (2, -1.57686337828636169434e-01) (3, -2.04762101173400878906e-01) (4, -1.02445065975189208984e-01) (5, -1.66926249861717224121e-01) (6, -1.59170359373092651367e-01) (7, -1.84293314814567565918e-01) (8, -5.75471147894859313965e-02) (9, -9.39047709107398986816e-02) (10, -8.66439267992973327637e-02) (11, -1.56095072627067565918e-01) (12, -1.55516564846038818359e-01) (13, -1.11416921019554138184e-01) (14, -5.60219809412956237793e-02) (15, -4.22930642962455749512e-02) (16, -2.02740073204040527344e-01) (17, -1.56354486942291259766e-01) (18, -1.97090238332748413086e-01) (19, 1.96198105812072753906e-01) (20, 8.02130699157714843750e-02) (21, 1.34521335363388061523e-01) (19, 1.27761557698249816895e-01) (20, 1.44508704543113708496e-01) (21, 2.15002655982971191406e-01) 
