FANN_FLO_2.1
num_layers=3
learning_rate=0.100000
connection_rate=1.000000
network_type=0
learning_momentum=0.000000
training_algorithm=2
train_error_function=1
train_stop_function=0
cascade_output_change_fraction=0.010000
quickprop_decay=-0.000100
quickprop_mu=1.750000
rprop_increase_factor=1.200000
rprop_decrease_factor=0.500000
rprop_delta_min=0.000000
rprop_delta_max=50.000000
rprop_delta_zero=0.100000
cascade_output_stagnation_epochs=12
cascade_candidate_change_fraction=0.010000
cascade_candidate_stagnation_epochs=12
cascade_max_out_epochs=150
cascade_min_out_epochs=50
cascade_max_cand_epochs=150
cascade_min_cand_epochs=50
cascade_num_candidate_groups=2
bit_fail_limit=3.49999994039535522461e-01
cascade_candidate_limit=1.00000000000000000000e+03
cascade_weight_multiplier=4.00000005960464477539e-01
cascade_activation_functions_count=10
cascade_activation_functions=3 5 7 8 10 11 14 15 16 17 
cascade_activation_steepnesses_count=4
cascade_activation_steepnesses=2.50000000000000000000e-01 5.00000000000000000000e-01 7.50000000000000000000e-01 1.00000000000000000000e+00 
layer_sizes=10 3 2 
scale_included=0
neurons (num_inputs, activation_function, activation_steepness)=(0, 0, 0.00000000000000000000e+00) (0, 0, 0.00000000000000000000e+00) (0, 0, 0.00000000000000000000e+00) (0, 0, 0.00000000000000000000e+00) (0, 0, 0.00000000000000000000e+00) (0, 0, 0.00000000000000000000e+00) (0, 0, 0.00000000000000000000e+00) (0, 0, 0.00000000000000000000e+00) (0, 0, 0.00000000000000000000e+00) (0, 0, 0.00000000000000000000e+00) (10, 3, 5.00000000000000000000e-01) (10, 3, 5.00000000000000000000e-01) (0, 3, 0.00000000000000000000e+00) (3, 0, 5.00000000000000000000e-01) (0, 0, 0.00000000000000000000e+00) 
connections (connected_to_neuron, weight)=(0, -5.37754669785499572754e-02) (1, -4.73891720175743103027e-02) (2, -2.16461032629013061523e-01) (3, -1.79826244711875915527e-01) (4, -1.62729084491729736328e-01) (5, -1.97720453143119812012e-01) (6, -1.99702829122543334961e-01) (7, -7.38766565918922424316e-02) (8, -7.75100663304328918457e-02) (9, -1.37776985764503479004e-01) (0, 1.78580433130264282227e-01) (1, 9.10075828433036804199e-02) (2, 9.16457623243331909180e-02) (3, 1.78562819957733154297e-01) (4, 6.10475316643714904785e-02) (5, 1.02500870823860168457e-01) (6, 2.91686207056045532227e-02) (7, 1.82491898536682128906e-01) (8, 2.68099308013916015625e-02) (9, 1.84541791677474975586e-01) (10, 2.00304239988327026367e-02) (11, 1.67907327413558959961e-01) (12, 1.19066365063190460205e-01) 
