FANN_FLO_2.1
num_layers=3
learning_rate=0.100000
connection_rate=1.000000
network_type=0
learning_momentum=0.000000
training_algorithm=2
train_error_function=1
train_stop_function=0
cascade_output_change_fraction=0.010000
quickprop_decay=-0.000100
quickprop_mu=1.750000
rprop_increase_factor=1.200000
rprop_decrease_factor=0.500000
rprop_delta_min=0.000000
rprop_delta_max=50.000000
rprop_delta_zero=0.100000
cascade_output_stagnation_epochs=12
cascade_candidate_change_fraction=0.010000
cascade_candidate_stagnation_epochs=12
cascade_max_out_epochs=150
cascade_min_out_epochs=50
cascade_max_cand_epochs=150
cascade_min_cand_epochs=50
cascade_num_candidate_groups=2
bit_fail_limit=3.49999994039535522461e-01
cascade_candidate_limit=1.00000000000000000000e+03
cascade_weight_multiplier=4.00000005960464477539e-01
cascade_activation_functions_count=10
cascade_activation_functions=3 5 7 8 10 11 14 15 16 17 
cascade_activation_steepnesses_count=4
cascade_activation_steepnesses=2.50000000000000000000e-01 5.00000000000000000000e-01 7.50000000000000000000e-01 1.00000000000000000000e+00 
layer_sizes=10 3 2 
scale_included=0
neurons (num_inputs, activation_function, activation_steepness)=(0, 0, 0.00000000000000000000e+00) (0, 0, 0.00000000000000000000e+00) (0, 0, 0.00000000000000000000e+00) (0, 0, 0.00000000000000000000e+00) (0, 0, 0.00000000000000000000e+00) (0, 0, 0.00000000000000000000e+00) (0, 0, 0.00000000000000000000e+00) (0, 0, 0.00000000000000000000e+00) (0, 0, 0.00000000000000000000e+00) (0, 0, 0.00000000000000000000e+00) (10, 3, 5.00000000000000000000e-01) (10, 3, 5.00000000000000000000e-01) (0, 3, 0.00000000000000000000e+00) (3, 0, 5.00000000000000000000e-01) (0, 0, 0.00000000000000000000e+00) 
connections (connected_to_neuron, weight)=(0, -1.31750583648681640625e-01) (1, -1.62180006504058837891e-01) (2, -9.83244925737380981445e-02) (3, -1.11036799848079681396e-01) (4, -1.55852049589157104492e-01) (5, -8.97525027394294738770e-02) (6, -2.17817962169647216797e-01) (7, -1.56466677784919738770e-01) (8, -1.24492242932319641113e-01) (9, -1.65988415479660034180e-01) (0, 2.17060983180999755859e-01) (1, 2.11239099502563476562e-01) (2, 1.67570680379867553711e-01) (3, 1.35230958461761474609e-01) (4, 1.50981217622756958008e-01) (5, 7.89181143045425415039e-02) (6, 4.41013574600219726562e-02) (7, 1.99622809886932373047e-01) (8, 1.05606123805046081543e-01) (9, 9.83859971165657043457e-02) (10, 1.02969072759151458740e-01) (11, 1.71390533447265625000e-01) (12, 2.09092348814010620117e-01) 
