FANN_FLO_2.1
num_layers=3
learning_rate=0.100000
connection_rate=1.000000
network_type=0
learning_momentum=0.000000
training_algorithm=2
train_error_function=1
train_stop_function=0
cascade_output_change_fraction=0.010000
quickprop_decay=-0.000100
quickprop_mu=1.750000
rprop_increase_factor=1.200000
rprop_decrease_factor=0.500000
rprop_delta_min=0.000000
rprop_delta_max=50.000000
rprop_delta_zero=0.100000
cascade_output_stagnation_epochs=12
cascade_candidate_change_fraction=0.010000
cascade_candidate_stagnation_epochs=12
cascade_max_out_epochs=150
cascade_min_out_epochs=50
cascade_max_cand_epochs=150
cascade_min_cand_epochs=50
cascade_num_candidate_groups=2
bit_fail_limit=3.49999994039535522461e-01
cascade_candidate_limit=1.00000000000000000000e+03
cascade_weight_multiplier=4.00000005960464477539e-01
cascade_activation_functions_count=10
cascade_activation_functions=3 5 7 8 10 11 14 15 16 17 
cascade_activation_steepnesses_count=4
cascade_activation_steepnesses=2.50000000000000000000e-01 5.00000000000000000000e-01 7.50000000000000000000e-01 1.00000000000000000000e+00 
layer_sizes=19 3 3 
scale_included=0
neurons (num_inputs, activation_function, activation_steepness)=(0, 0, 0.00000000000000000000e+00) (0, 0, 0.00000000000000000000e+00) (0, 0, 0.00000000000000000000e+00) (0, 0, 0.00000000000000000000e+00) (0, 0, 0.00000000000000000000e+00) (0, 0, 0.00000000000000000000e+00) (0, 0, 0.00000000000000000000e+00) (0, 0, 0.00000000000000000000e+00) (0, 0, 0.00000000000000000000e+00) (0, 0, 0.00000000000000000000e+00) (0, 0, 0.00000000000000000000e+00) (0, 0, 0.00000000000000000000e+00) (0, 0, 0.00000000000000000000e+00) (0, 0, 0.00000000000000000000e+00) (0, 0, 0.00000000000000000000e+00) (0, 0, 0.00000000000000000000e+00) (0, 0, 0.00000000000000000000e+00) (0, 0, 0.00000000000000000000e+00) (0, 0, 0.00000000000000000000e+00) (19, 3, 5.00000000000000000000e-01) (19, 3, 5.00000000000000000000e-01) (0, 3, 0.00000000000000000000e+00) (3, 0, 5.00000000000000000000e-01) (3, 0, 5.00000000000000000000e-01) (0, 0, 0.00000000000000000000e+00) 
connections (connected_to_neuron, weight)=(0, -2.10717499256134033203e-01) (1, -6.29564300179481506348e-02) (2, -1.13912522792816162109e-01) (3, -1.62282302975654602051e-01) (4, -1.13659635186195373535e-01) (5, -2.04082667827606201172e-01) (6, -9.90752950310707092285e-02) (7, -6.77343085408210754395e-02) (8, -2.17862725257873535156e-01) (9, -1.78923547267913818359e-01) (10, -5.00373020768165588379e-02) (11, -4.68898937106132507324e-02) (12, -1.31297498941421508789e-01) (13, -4.81264665722846984863e-02) (14, -1.03596135973930358887e-01) (15, -2.12649181485176086426e-02) (16, -1.45007371902465820312e-01) (17, -1.23899765312671661377e-01) (18, -1.65371745824813842773e-01) (0, -1.23660370707511901855e-01) (1, -1.85400128364562988281e-01) (2, -1.22749105095863342285e-01) (3, -1.99810966849327087402e-01) (4, -8.82064029574394226074e-02) (5, -2.05570980906486511230e-02) (6, -1.38265520334243774414e-01) (7, -1.84929788112640380859e-01) (8, -1.68977141380310058594e-01) (9, -2.69320681691169738770e-02) (10, -1.89425632357597351074e-01) (11, -1.38095319271087646484e-01) (12, -2.17649579048156738281e-01) (13, -3.23820486664772033691e-02) (14, -3.20078209042549133301e-02) (15, -1.59931868314743041992e-01) (16, -1.26041680574417114258e-01) (17, -2.16090500354766845703e-01) (18, -3.90071496367454528809e-02) (19, 6.62240087985992431641e-02) (20, 2.60467901825904846191e-02) (21, 4.20693084597587585449e-02) (19, 3.61867249011993408203e-02) (20, 1.99156880378723144531e-01) (21, 1.30771815776824951172e-01) 
