FANN_FLO_2.1
num_layers=3
learning_rate=0.100000
connection_rate=1.000000
network_type=0
learning_momentum=0.000000
training_algorithm=2
train_error_function=1
train_stop_function=0
cascade_output_change_fraction=0.010000
quickprop_decay=-0.000100
quickprop_mu=1.750000
rprop_increase_factor=1.200000
rprop_decrease_factor=0.500000
rprop_delta_min=0.000000
rprop_delta_max=50.000000
rprop_delta_zero=0.100000
cascade_output_stagnation_epochs=12
cascade_candidate_change_fraction=0.010000
cascade_candidate_stagnation_epochs=12
cascade_max_out_epochs=150
cascade_min_out_epochs=50
cascade_max_cand_epochs=150
cascade_min_cand_epochs=50
cascade_num_candidate_groups=2
bit_fail_limit=3.49999994039535522461e-01
cascade_candidate_limit=1.00000000000000000000e+03
cascade_weight_multiplier=4.00000005960464477539e-01
cascade_activation_functions_count=10
cascade_activation_functions=3 5 7 8 10 11 14 15 16 17 
cascade_activation_steepnesses_count=4
cascade_activation_steepnesses=2.50000000000000000000e-01 5.00000000000000000000e-01 7.50000000000000000000e-01 1.00000000000000000000e+00 
layer_sizes=10 3 2 
scale_included=0
neurons (num_inputs, activation_function, activation_steepness)=(0, 0, 0.00000000000000000000e+00) (0, 0, 0.00000000000000000000e+00) (0, 0, 0.00000000000000000000e+00) (0, 0, 0.00000000000000000000e+00) (0, 0, 0.00000000000000000000e+00) (0, 0, 0.00000000000000000000e+00) (0, 0, 0.00000000000000000000e+00) (0, 0, 0.00000000000000000000e+00) (0, 0, 0.00000000000000000000e+00) (0, 0, 0.00000000000000000000e+00) (10, 3, 5.00000000000000000000e-01) (10, 3, 5.00000000000000000000e-01) (0, 3, 0.00000000000000000000e+00) (3, 0, 5.00000000000000000000e-01) (0, 0, 0.00000000000000000000e+00) 
connections (connected_to_neuron, weight)=(0, 3.95431369543075561523e-02) (1, 1.38749793171882629395e-01) (2, 1.34659692645072937012e-01) (3, 1.17465518414974212646e-01) (4, 1.86282277107238769531e-01) (5, 1.25419080257415771484e-01) (6, 6.18869848549365997314e-02) (7, 1.80544525384902954102e-01) (8, 9.37780290842056274414e-02) (9, 2.07296982407569885254e-02) (0, -1.78195774555206298828e-01) (1, -1.84534430503845214844e-01) (2, -6.14315643906593322754e-02) (3, -8.29626098275184631348e-02) (4, -5.70060536265373229980e-02) (5, -1.20480284094810485840e-01) (6, -5.86473867297172546387e-02) (7, -1.41349256038665771484e-01) (8, -1.77321851253509521484e-01) (9, -7.66353532671928405762e-02) (10, 1.84454232454299926758e-01) (11, 1.00438736379146575928e-01) (12, 2.12863981723785400391e-01) 
