FANN_FLO_2.1
num_layers=3
learning_rate=0.100000
connection_rate=1.000000
network_type=0
learning_momentum=0.000000
training_algorithm=2
train_error_function=1
train_stop_function=0
cascade_output_change_fraction=0.010000
quickprop_decay=-0.000100
quickprop_mu=1.750000
rprop_increase_factor=1.200000
rprop_decrease_factor=0.500000
rprop_delta_min=0.000000
rprop_delta_max=50.000000
rprop_delta_zero=0.100000
cascade_output_stagnation_epochs=12
cascade_candidate_change_fraction=0.010000
cascade_candidate_stagnation_epochs=12
cascade_max_out_epochs=150
cascade_min_out_epochs=50
cascade_max_cand_epochs=150
cascade_min_cand_epochs=50
cascade_num_candidate_groups=2
bit_fail_limit=3.49999994039535522461e-01
cascade_candidate_limit=1.00000000000000000000e+03
cascade_weight_multiplier=4.00000005960464477539e-01
cascade_activation_functions_count=10
cascade_activation_functions=3 5 7 8 10 11 14 15 16 17 
cascade_activation_steepnesses_count=4
cascade_activation_steepnesses=2.50000000000000000000e-01 5.00000000000000000000e-01 7.50000000000000000000e-01 1.00000000000000000000e+00 
layer_sizes=10 3 2 
scale_included=0
neurons (num_inputs, activation_function, activation_steepness)=(0, 0, 0.00000000000000000000e+00) (0, 0, 0.00000000000000000000e+00) (0, 0, 0.00000000000000000000e+00) (0, 0, 0.00000000000000000000e+00) (0, 0, 0.00000000000000000000e+00) (0, 0, 0.00000000000000000000e+00) (0, 0, 0.00000000000000000000e+00) (0, 0, 0.00000000000000000000e+00) (0, 0, 0.00000000000000000000e+00) (0, 0, 0.00000000000000000000e+00) (10, 3, 5.00000000000000000000e-01) (10, 3, 5.00000000000000000000e-01) (0, 3, 0.00000000000000000000e+00) (3, 0, 5.00000000000000000000e-01) (0, 0, 0.00000000000000000000e+00) 
connections (connected_to_neuron, weight)=(0, -1.04713559150695800781e-01) (1, -6.92473575472831726074e-02) (2, -1.70379996299743652344e-01) (3, -9.05669257044792175293e-02) (4, -4.87965270876884460449e-02) (5, -1.36419609189033508301e-01) (6, -7.99010321497917175293e-02) (7, -2.07183122634887695312e-01) (8, -1.52427583932876586914e-01) (9, -3.42583879828453063965e-02) (0, 5.69073408842086791992e-02) (1, 9.73379164934158325195e-02) (2, 1.30308657884597778320e-01) (3, 2.09426522254943847656e-01) (4, 1.73161923885345458984e-01) (5, 1.31886988878250122070e-01) (6, 1.07498586177825927734e-01) (7, 2.07099795341491699219e-01) (8, 3.60812395811080932617e-02) (9, 8.00924748182296752930e-02) (10, 3.61944213509559631348e-02) (11, 2.12397336959838867188e-01) (12, 5.39107322692871093750e-02) 
