FANN_FLO_2.1
num_layers=3
learning_rate=0.100000
connection_rate=1.000000
network_type=0
learning_momentum=0.000000
training_algorithm=2
train_error_function=1
train_stop_function=0
cascade_output_change_fraction=0.010000
quickprop_decay=-0.000100
quickprop_mu=1.750000
rprop_increase_factor=1.200000
rprop_decrease_factor=0.500000
rprop_delta_min=0.000000
rprop_delta_max=50.000000
rprop_delta_zero=0.100000
cascade_output_stagnation_epochs=12
cascade_candidate_change_fraction=0.010000
cascade_candidate_stagnation_epochs=12
cascade_max_out_epochs=150
cascade_min_out_epochs=50
cascade_max_cand_epochs=150
cascade_min_cand_epochs=50
cascade_num_candidate_groups=2
bit_fail_limit=3.49999994039535522461e-01
cascade_candidate_limit=1.00000000000000000000e+03
cascade_weight_multiplier=4.00000005960464477539e-01
cascade_activation_functions_count=10
cascade_activation_functions=3 5 7 8 10 11 14 15 16 17 
cascade_activation_steepnesses_count=4
cascade_activation_steepnesses=2.50000000000000000000e-01 5.00000000000000000000e-01 7.50000000000000000000e-01 1.00000000000000000000e+00 
layer_sizes=19 3 3 
scale_included=0
neurons (num_inputs, activation_function, activation_steepness)=(0, 0, 0.00000000000000000000e+00) (0, 0, 0.00000000000000000000e+00) (0, 0, 0.00000000000000000000e+00) (0, 0, 0.00000000000000000000e+00) (0, 0, 0.00000000000000000000e+00) (0, 0, 0.00000000000000000000e+00) (0, 0, 0.00000000000000000000e+00) (0, 0, 0.00000000000000000000e+00) (0, 0, 0.00000000000000000000e+00) (0, 0, 0.00000000000000000000e+00) (0, 0, 0.00000000000000000000e+00) (0, 0, 0.00000000000000000000e+00) (0, 0, 0.00000000000000000000e+00) (0, 0, 0.00000000000000000000e+00) (0, 0, 0.00000000000000000000e+00) (0, 0, 0.00000000000000000000e+00) (0, 0, 0.00000000000000000000e+00) (0, 0, 0.00000000000000000000e+00) (0, 0, 0.00000000000000000000e+00) (19, 3, 5.00000000000000000000e-01) (19, 3, 5.00000000000000000000e-01) (0, 3, 0.00000000000000000000e+00) (3, 0, 5.00000000000000000000e-01) (3, 0, 5.00000000000000000000e-01) (0, 0, 0.00000000000000000000e+00) 
connections (connected_to_neuron, weight)=(0, 1.52380675077438354492e-01) (1, 9.94673818349838256836e-02) (2, 6.07243664562702178955e-02) (3, 3.36287468671798706055e-02) (4, 1.77745103836059570312e-01) (5, 1.25817671418190002441e-01) (6, 6.79240822792053222656e-02) (7, 2.66768634319305419922e-02) (8, 9.67802852392196655273e-02) (9, 2.00153052806854248047e-01) (10, 8.91264230012893676758e-02) (11, 9.30509716272354125977e-02) (12, 9.79345217347145080566e-02) (13, 2.17467755079269409180e-01) (14, 1.59784674644470214844e-01) (15, 1.65084183216094970703e-01) (16, 8.36123228073120117188e-02) (17, 1.84886097908020019531e-01) (18, 8.13229978084564208984e-02) (0, -1.08291551470756530762e-01) (1, -1.53196960687637329102e-01) (2, -1.52853086590766906738e-01) (3, -5.17500117421150207520e-02) (4, -1.96080192923545837402e-01) (5, -1.65896832942962646484e-01) (6, -6.82049915194511413574e-02) (7, -5.31673356890678405762e-02) (8, -6.24965205788612365723e-02) (9, -1.95658907294273376465e-01) (10, -1.49899482727050781250e-01) (11, -1.90259546041488647461e-01) (12, -6.32782354950904846191e-02) (13, -7.04321041703224182129e-02) (14, -1.49535179138183593750e-01) (15, -4.96494844555854797363e-02) (16, -1.12687014043331146240e-01) (17, -4.37175109982490539551e-02) (18, -2.01725408434867858887e-01) (19, 1.33989855647087097168e-01) (20, 7.30627775192260742188e-02) (21, 2.18427658081054687500e-01) (19, 2.03116267919540405273e-01) (20, 1.46113753318786621094e-01) (21, 9.63621810078620910645e-02) 
