FANN_FLO_2.1
num_layers=3
learning_rate=0.100000
connection_rate=1.000000
network_type=0
learning_momentum=0.000000
training_algorithm=2
train_error_function=1
train_stop_function=0
cascade_output_change_fraction=0.010000
quickprop_decay=-0.000100
quickprop_mu=1.750000
rprop_increase_factor=1.200000
rprop_decrease_factor=0.500000
rprop_delta_min=0.000000
rprop_delta_max=50.000000
rprop_delta_zero=0.100000
cascade_output_stagnation_epochs=12
cascade_candidate_change_fraction=0.010000
cascade_candidate_stagnation_epochs=12
cascade_max_out_epochs=150
cascade_min_out_epochs=50
cascade_max_cand_epochs=150
cascade_min_cand_epochs=50
cascade_num_candidate_groups=2
bit_fail_limit=3.49999994039535522461e-01
cascade_candidate_limit=1.00000000000000000000e+03
cascade_weight_multiplier=4.00000005960464477539e-01
cascade_activation_functions_count=10
cascade_activation_functions=3 5 7 8 10 11 14 15 16 17 
cascade_activation_steepnesses_count=4
cascade_activation_steepnesses=2.50000000000000000000e-01 5.00000000000000000000e-01 7.50000000000000000000e-01 1.00000000000000000000e+00 
layer_sizes=19 3 3 
scale_included=0
neurons (num_inputs, activation_function, activation_steepness)=(0, 0, 0.00000000000000000000e+00) (0, 0, 0.00000000000000000000e+00) (0, 0, 0.00000000000000000000e+00) (0, 0, 0.00000000000000000000e+00) (0, 0, 0.00000000000000000000e+00) (0, 0, 0.00000000000000000000e+00) (0, 0, 0.00000000000000000000e+00) (0, 0, 0.00000000000000000000e+00) (0, 0, 0.00000000000000000000e+00) (0, 0, 0.00000000000000000000e+00) (0, 0, 0.00000000000000000000e+00) (0, 0, 0.00000000000000000000e+00) (0, 0, 0.00000000000000000000e+00) (0, 0, 0.00000000000000000000e+00) (0, 0, 0.00000000000000000000e+00) (0, 0, 0.00000000000000000000e+00) (0, 0, 0.00000000000000000000e+00) (0, 0, 0.00000000000000000000e+00) (0, 0, 0.00000000000000000000e+00) (19, 3, 5.00000000000000000000e-01) (19, 3, 5.00000000000000000000e-01) (0, 3, 0.00000000000000000000e+00) (3, 0, 5.00000000000000000000e-01) (3, 0, 5.00000000000000000000e-01) (0, 0, 0.00000000000000000000e+00) 
connections (connected_to_neuron, weight)=(0, -1.15318343043327331543e-01) (1, -1.20792478322982788086e-01) (2, -6.08448460698127746582e-02) (3, -7.34862312674522399902e-02) (4, -1.96500718593597412109e-01) (5, -2.05586582422256469727e-01) (6, -2.12222114205360412598e-02) (7, -8.27414914965629577637e-02) (8, -1.03128552436828613281e-01) (9, -7.78608396649360656738e-02) (10, -1.56634122133255004883e-01) (11, -1.75117224454879760742e-01) (12, -1.35942488908767700195e-01) (13, -9.19654592871665954590e-02) (14, -1.47433713078498840332e-01) (15, -1.49101629853248596191e-01) (16, -1.44515782594680786133e-01) (17, -2.36039534211158752441e-02) (18, -1.57537162303924560547e-01) (0, -1.47240936756134033203e-01) (1, -7.80710354447364807129e-02) (2, -5.28274103999137878418e-02) (3, -1.10720314085483551025e-01) (4, -1.21241807937622070312e-01) (5, -1.53543010354042053223e-01) (6, -2.23950669169425964355e-02) (7, -4.37954440712928771973e-02) (8, -7.36702457070350646973e-02) (9, -1.83997616171836853027e-01) (10, -5.85656240582466125488e-02) (11, -7.18330666422843933105e-02) (12, -7.93159529566764831543e-02) (13, -1.59358099102973937988e-01) (14, -1.12677909433841705322e-01) (15, -1.32802188396453857422e-01) (16, -1.35858803987503051758e-01) (17, -9.82644781470298767090e-02) (18, -1.34024381637573242188e-01) (19, 4.13997024297714233398e-02) (20, 5.86069896817207336426e-02) (21, 4.81147766113281250000e-02) (19, 1.04765579104423522949e-01) (20, 1.03489778935909271240e-01) (21, 1.32172286510467529297e-01) 
