FANN_FLO_2.1
num_layers=3
learning_rate=0.100000
connection_rate=1.000000
network_type=0
learning_momentum=0.000000
training_algorithm=2
train_error_function=1
train_stop_function=0
cascade_output_change_fraction=0.010000
quickprop_decay=-0.000100
quickprop_mu=1.750000
rprop_increase_factor=1.200000
rprop_decrease_factor=0.500000
rprop_delta_min=0.000000
rprop_delta_max=50.000000
rprop_delta_zero=0.100000
cascade_output_stagnation_epochs=12
cascade_candidate_change_fraction=0.010000
cascade_candidate_stagnation_epochs=12
cascade_max_out_epochs=150
cascade_min_out_epochs=50
cascade_max_cand_epochs=150
cascade_min_cand_epochs=50
cascade_num_candidate_groups=2
bit_fail_limit=3.49999994039535522461e-01
cascade_candidate_limit=1.00000000000000000000e+03
cascade_weight_multiplier=4.00000005960464477539e-01
cascade_activation_functions_count=10
cascade_activation_functions=3 5 7 8 10 11 14 15 16 17 
cascade_activation_steepnesses_count=4
cascade_activation_steepnesses=2.50000000000000000000e-01 5.00000000000000000000e-01 7.50000000000000000000e-01 1.00000000000000000000e+00 
layer_sizes=19 3 3 
scale_included=0
neurons (num_inputs, activation_function, activation_steepness)=(0, 0, 0.00000000000000000000e+00) (0, 0, 0.00000000000000000000e+00) (0, 0, 0.00000000000000000000e+00) (0, 0, 0.00000000000000000000e+00) (0, 0, 0.00000000000000000000e+00) (0, 0, 0.00000000000000000000e+00) (0, 0, 0.00000000000000000000e+00) (0, 0, 0.00000000000000000000e+00) (0, 0, 0.00000000000000000000e+00) (0, 0, 0.00000000000000000000e+00) (0, 0, 0.00000000000000000000e+00) (0, 0, 0.00000000000000000000e+00) (0, 0, 0.00000000000000000000e+00) (0, 0, 0.00000000000000000000e+00) (0, 0, 0.00000000000000000000e+00) (0, 0, 0.00000000000000000000e+00) (0, 0, 0.00000000000000000000e+00) (0, 0, 0.00000000000000000000e+00) (0, 0, 0.00000000000000000000e+00) (19, 3, 5.00000000000000000000e-01) (19, 3, 5.00000000000000000000e-01) (0, 3, 0.00000000000000000000e+00) (3, 0, 5.00000000000000000000e-01) (3, 0, 5.00000000000000000000e-01) (0, 0, 0.00000000000000000000e+00) 
connections (connected_to_neuron, weight)=(0, 2.00019359588623046875e-01) (1, 7.63732716441154479980e-02) (2, 1.97780132293701171875e-01) (3, 1.38302847743034362793e-01) (4, 1.29731267690658569336e-01) (5, -1.14571548998355865479e-01) (6, 2.16355919837951660156e-01) (7, 2.11999505758285522461e-01) (8, 5.82487732172012329102e-02) (9, 2.15998142957687377930e-01) (10, 1.66069030761718750000e-01) (11, 6.69715553522109985352e-02) (12, 7.32492953538894653320e-02) (13, 9.61728841066360473633e-02) (14, 9.98165905475616455078e-02) (15, -6.18016049265861511230e-02) (16, 1.88014894723892211914e-01) (17, 2.19587564468383789062e-01) (18, 5.86461089551448822021e-02) (0, 1.29515036940574645996e-01) (1, 6.45676255226135253906e-02) (2, 1.57270431518554687500e-01) (3, 1.55655890703201293945e-01) (4, 9.06321555376052856445e-02) (5, -2.10714623332023620605e-01) (6, 1.96580529212951660156e-01) (7, 2.06564456224441528320e-01) (8, 3.75576913356781005859e-02) (9, 8.91496688127517700195e-02) (10, 1.84461295604705810547e-01) (11, 6.63825124502182006836e-02) (12, 6.91690295934677124023e-02) (13, 4.08345535397529602051e-02) (14, 4.41626533865928649902e-02) (15, -5.25281354784965515137e-02) (16, 1.50565832853317260742e-01) (17, 1.49591118097305297852e-01) (18, 1.83827787637710571289e-01) (19, 1.42565339803695678711e-01) (20, 1.87839865684509277344e-01) (21, 1.79825901985168457031e-01) (19, 8.86343643069267272949e-02) (20, 3.48114296793937683105e-02) (21, 3.30751985311508178711e-02) 
