FANN_FLO_2.1
num_layers=3
learning_rate=0.100000
connection_rate=1.000000
network_type=0
learning_momentum=0.000000
training_algorithm=2
train_error_function=1
train_stop_function=0
cascade_output_change_fraction=0.010000
quickprop_decay=-0.000100
quickprop_mu=1.750000
rprop_increase_factor=1.200000
rprop_decrease_factor=0.500000
rprop_delta_min=0.000000
rprop_delta_max=50.000000
rprop_delta_zero=0.100000
cascade_output_stagnation_epochs=12
cascade_candidate_change_fraction=0.010000
cascade_candidate_stagnation_epochs=12
cascade_max_out_epochs=150
cascade_min_out_epochs=50
cascade_max_cand_epochs=150
cascade_min_cand_epochs=50
cascade_num_candidate_groups=2
bit_fail_limit=3.49999994039535522461e-01
cascade_candidate_limit=1.00000000000000000000e+03
cascade_weight_multiplier=4.00000005960464477539e-01
cascade_activation_functions_count=10
cascade_activation_functions=3 5 7 8 10 11 14 15 16 17 
cascade_activation_steepnesses_count=4
cascade_activation_steepnesses=2.50000000000000000000e-01 5.00000000000000000000e-01 7.50000000000000000000e-01 1.00000000000000000000e+00 
layer_sizes=10 3 2 
scale_included=0
neurons (num_inputs, activation_function, activation_steepness)=(0, 0, 0.00000000000000000000e+00) (0, 0, 0.00000000000000000000e+00) (0, 0, 0.00000000000000000000e+00) (0, 0, 0.00000000000000000000e+00) (0, 0, 0.00000000000000000000e+00) (0, 0, 0.00000000000000000000e+00) (0, 0, 0.00000000000000000000e+00) (0, 0, 0.00000000000000000000e+00) (0, 0, 0.00000000000000000000e+00) (0, 0, 0.00000000000000000000e+00) (10, 3, 5.00000000000000000000e-01) (10, 3, 5.00000000000000000000e-01) (0, 3, 0.00000000000000000000e+00) (3, 0, 5.00000000000000000000e-01) (0, 0, 0.00000000000000000000e+00) 
connections (connected_to_neuron, weight)=(0, -6.90107867121696472168e-02) (1, -2.09968701004981994629e-01) (2, -1.17909952998161315918e-01) (3, -9.82018709182739257812e-02) (4, -1.79174244403839111328e-01) (5, -3.50109860301017761230e-02) (6, -2.02212154865264892578e-01) (7, -2.96271517872810363770e-02) (8, -6.40941932797431945801e-02) (9, -1.12969018518924713135e-01) (0, -2.01132178306579589844e-01) (1, -8.66692438721656799316e-02) (2, -1.13019004464149475098e-01) (3, -7.22450986504554748535e-02) (4, -1.72774806618690490723e-01) (5, -9.13964584469795227051e-02) (6, -9.73132401704788208008e-02) (7, -8.61825719475746154785e-02) (8, -2.62594297528266906738e-02) (9, -1.23517513275146484375e-01) (10, 3.44125479459762573242e-02) (11, 1.11186698079109191895e-01) (12, 1.50220960378646850586e-01) 
