FANN_FLO_2.1
num_layers=3
learning_rate=0.100000
connection_rate=1.000000
network_type=0
learning_momentum=0.000000
training_algorithm=2
train_error_function=1
train_stop_function=0
cascade_output_change_fraction=0.010000
quickprop_decay=-0.000100
quickprop_mu=1.750000
rprop_increase_factor=1.200000
rprop_decrease_factor=0.500000
rprop_delta_min=0.000000
rprop_delta_max=50.000000
rprop_delta_zero=0.100000
cascade_output_stagnation_epochs=12
cascade_candidate_change_fraction=0.010000
cascade_candidate_stagnation_epochs=12
cascade_max_out_epochs=150
cascade_min_out_epochs=50
cascade_max_cand_epochs=150
cascade_min_cand_epochs=50
cascade_num_candidate_groups=2
bit_fail_limit=3.49999994039535522461e-01
cascade_candidate_limit=1.00000000000000000000e+03
cascade_weight_multiplier=4.00000005960464477539e-01
cascade_activation_functions_count=10
cascade_activation_functions=3 5 7 8 10 11 14 15 16 17 
cascade_activation_steepnesses_count=4
cascade_activation_steepnesses=2.50000000000000000000e-01 5.00000000000000000000e-01 7.50000000000000000000e-01 1.00000000000000000000e+00 
layer_sizes=19 3 3 
scale_included=0
neurons (num_inputs, activation_function, activation_steepness)=(0, 0, 0.00000000000000000000e+00) (0, 0, 0.00000000000000000000e+00) (0, 0, 0.00000000000000000000e+00) (0, 0, 0.00000000000000000000e+00) (0, 0, 0.00000000000000000000e+00) (0, 0, 0.00000000000000000000e+00) (0, 0, 0.00000000000000000000e+00) (0, 0, 0.00000000000000000000e+00) (0, 0, 0.00000000000000000000e+00) (0, 0, 0.00000000000000000000e+00) (0, 0, 0.00000000000000000000e+00) (0, 0, 0.00000000000000000000e+00) (0, 0, 0.00000000000000000000e+00) (0, 0, 0.00000000000000000000e+00) (0, 0, 0.00000000000000000000e+00) (0, 0, 0.00000000000000000000e+00) (0, 0, 0.00000000000000000000e+00) (0, 0, 0.00000000000000000000e+00) (0, 0, 0.00000000000000000000e+00) (19, 3, 5.00000000000000000000e-01) (19, 3, 5.00000000000000000000e-01) (0, 3, 0.00000000000000000000e+00) (3, 0, 5.00000000000000000000e-01) (3, 0, 5.00000000000000000000e-01) (0, 0, 0.00000000000000000000e+00) 
connections (connected_to_neuron, weight)=(0, 6.90889358520507812500e-02) (1, 8.74904543161392211914e-02) (2, 6.58170506358146667480e-02) (3, 1.02764159440994262695e-01) (4, 1.76235735416412353516e-01) (5, 8.01960080862045288086e-02) (6, 1.07618793845176696777e-01) (7, 1.13405518233776092529e-01) (8, 1.94998085498809814453e-01) (9, 8.27612802386283874512e-02) (10, 6.42492398619651794434e-02) (11, 1.73571527004241943359e-01) (12, 1.68653726577758789062e-01) (13, 9.94512140750885009766e-02) (14, 1.22797727584838867188e-01) (15, 1.35700866580009460449e-01) (16, 9.71200019121170043945e-02) (17, 1.18225648999214172363e-01) (18, 1.95443928241729736328e-01) (0, -3.63497510552406311035e-02) (1, -2.07687735557556152344e-01) (2, -1.76232248544692993164e-01) (3, -6.57656863331794738770e-02) (4, -1.71379938721656799316e-01) (5, -2.28663608431816101074e-02) (6, -1.54825747013092041016e-01) (7, -1.72898173332214355469e-01) (8, -9.63424667716026306152e-02) (9, -1.00543096661567687988e-01) (10, -1.95849180221557617188e-01) (11, 5.82483783364295959473e-02) (12, 1.88545852899551391602e-01) (13, -1.28358736634254455566e-01) (14, -1.35934576392173767090e-01) (15, -1.68690010905265808105e-01) (16, -1.72123000025749206543e-01) (17, 1.64261430501937866211e-01) (18, -8.10712054371833801270e-02) (19, 1.61282539367675781250e-01) (20, 1.39259502291679382324e-01) (21, 2.16900706291198730469e-02) (19, 2.05531775951385498047e-01) (20, 9.28310453891754150391e-02) (21, 1.70343786478042602539e-01) 
