FANN_FLO_2.1
num_layers=3
learning_rate=0.100000
connection_rate=1.000000
network_type=0
learning_momentum=0.000000
training_algorithm=2
train_error_function=1
train_stop_function=0
cascade_output_change_fraction=0.010000
quickprop_decay=-0.000100
quickprop_mu=1.750000
rprop_increase_factor=1.200000
rprop_decrease_factor=0.500000
rprop_delta_min=0.000000
rprop_delta_max=50.000000
rprop_delta_zero=0.100000
cascade_output_stagnation_epochs=12
cascade_candidate_change_fraction=0.010000
cascade_candidate_stagnation_epochs=12
cascade_max_out_epochs=150
cascade_min_out_epochs=50
cascade_max_cand_epochs=150
cascade_min_cand_epochs=50
cascade_num_candidate_groups=2
bit_fail_limit=3.49999994039535522461e-01
cascade_candidate_limit=1.00000000000000000000e+03
cascade_weight_multiplier=4.00000005960464477539e-01
cascade_activation_functions_count=10
cascade_activation_functions=3 5 7 8 10 11 14 15 16 17 
cascade_activation_steepnesses_count=4
cascade_activation_steepnesses=2.50000000000000000000e-01 5.00000000000000000000e-01 7.50000000000000000000e-01 1.00000000000000000000e+00 
layer_sizes=19 3 3 
scale_included=0
neurons (num_inputs, activation_function, activation_steepness)=(0, 0, 0.00000000000000000000e+00) (0, 0, 0.00000000000000000000e+00) (0, 0, 0.00000000000000000000e+00) (0, 0, 0.00000000000000000000e+00) (0, 0, 0.00000000000000000000e+00) (0, 0, 0.00000000000000000000e+00) (0, 0, 0.00000000000000000000e+00) (0, 0, 0.00000000000000000000e+00) (0, 0, 0.00000000000000000000e+00) (0, 0, 0.00000000000000000000e+00) (0, 0, 0.00000000000000000000e+00) (0, 0, 0.00000000000000000000e+00) (0, 0, 0.00000000000000000000e+00) (0, 0, 0.00000000000000000000e+00) (0, 0, 0.00000000000000000000e+00) (0, 0, 0.00000000000000000000e+00) (0, 0, 0.00000000000000000000e+00) (0, 0, 0.00000000000000000000e+00) (0, 0, 0.00000000000000000000e+00) (19, 3, 5.00000000000000000000e-01) (19, 3, 5.00000000000000000000e-01) (0, 3, 0.00000000000000000000e+00) (3, 0, 5.00000000000000000000e-01) (3, 0, 5.00000000000000000000e-01) (0, 0, 0.00000000000000000000e+00) 
connections (connected_to_neuron, weight)=(0, -2.14909374713897705078e-01) (1, -9.51281785964965820312e-02) (2, -2.08995044231414794922e-01) (3, -1.54586821794509887695e-01) (4, -1.91564157605171203613e-01) (5, -7.12897703051567077637e-02) (6, -1.14730760455131530762e-01) (7, -6.07477203011512756348e-02) (8, -6.09452351927757263184e-02) (9, -1.29172071814537048340e-01) (10, -1.39456361532211303711e-01) (11, -1.23450525104999542236e-01) (12, -7.25476518273353576660e-02) (13, -1.55432224273681640625e-01) (14, -1.48829370737075805664e-01) (15, -2.12503001093864440918e-02) (16, -9.39581319689750671387e-02) (17, -6.34540244936943054199e-02) (18, -4.15559038519859313965e-02) (0, -1.69417947530746459961e-01) (1, -8.80361571907997131348e-02) (2, -2.08574131131172180176e-01) (3, -6.65199533104896545410e-02) (4, -6.58336803317070007324e-02) (5, -1.88529133796691894531e-01) (6, -1.26952141523361206055e-01) (7, -1.53407678008079528809e-01) (8, -3.25047299265861511230e-02) (9, -1.82756483554840087891e-01) (10, -1.08618378639221191406e-01) (11, -5.91311529278755187988e-02) (12, -1.77665844559669494629e-01) (13, -1.83746561408042907715e-01) (14, -4.81261983513832092285e-02) (15, -1.12252667546272277832e-01) (16, -1.55310705304145812988e-01) (17, -9.94159579277038574219e-02) (18, -2.06983432173728942871e-01) (19, 4.39415872097015380859e-02) (20, 9.96388196945190429688e-02) (21, 1.23844504356384277344e-01) (19, 1.24485239386558532715e-01) (20, 1.96188300848007202148e-01) (21, 7.12968558073043823242e-02) 
