FANN_FLO_2.1
num_layers=3
learning_rate=0.100000
connection_rate=1.000000
network_type=0
learning_momentum=0.000000
training_algorithm=2
train_error_function=1
train_stop_function=0
cascade_output_change_fraction=0.010000
quickprop_decay=-0.000100
quickprop_mu=1.750000
rprop_increase_factor=1.200000
rprop_decrease_factor=0.500000
rprop_delta_min=0.000000
rprop_delta_max=50.000000
rprop_delta_zero=0.100000
cascade_output_stagnation_epochs=12
cascade_candidate_change_fraction=0.010000
cascade_candidate_stagnation_epochs=12
cascade_max_out_epochs=150
cascade_min_out_epochs=50
cascade_max_cand_epochs=150
cascade_min_cand_epochs=50
cascade_num_candidate_groups=2
bit_fail_limit=3.49999994039535522461e-01
cascade_candidate_limit=1.00000000000000000000e+03
cascade_weight_multiplier=4.00000005960464477539e-01
cascade_activation_functions_count=10
cascade_activation_functions=3 5 7 8 10 11 14 15 16 17 
cascade_activation_steepnesses_count=4
cascade_activation_steepnesses=2.50000000000000000000e-01 5.00000000000000000000e-01 7.50000000000000000000e-01 1.00000000000000000000e+00 
layer_sizes=19 3 3 
scale_included=0
neurons (num_inputs, activation_function, activation_steepness)=(0, 0, 0.00000000000000000000e+00) (0, 0, 0.00000000000000000000e+00) (0, 0, 0.00000000000000000000e+00) (0, 0, 0.00000000000000000000e+00) (0, 0, 0.00000000000000000000e+00) (0, 0, 0.00000000000000000000e+00) (0, 0, 0.00000000000000000000e+00) (0, 0, 0.00000000000000000000e+00) (0, 0, 0.00000000000000000000e+00) (0, 0, 0.00000000000000000000e+00) (0, 0, 0.00000000000000000000e+00) (0, 0, 0.00000000000000000000e+00) (0, 0, 0.00000000000000000000e+00) (0, 0, 0.00000000000000000000e+00) (0, 0, 0.00000000000000000000e+00) (0, 0, 0.00000000000000000000e+00) (0, 0, 0.00000000000000000000e+00) (0, 0, 0.00000000000000000000e+00) (0, 0, 0.00000000000000000000e+00) (19, 3, 5.00000000000000000000e-01) (19, 3, 5.00000000000000000000e-01) (0, 3, 0.00000000000000000000e+00) (3, 0, 5.00000000000000000000e-01) (3, 0, 5.00000000000000000000e-01) (0, 0, 0.00000000000000000000e+00) 
connections (connected_to_neuron, weight)=(0, -2.18438208103179931641e-01) (1, -9.35050621628761291504e-02) (2, -4.87476959824562072754e-02) (3, -2.13824212551116943359e-01) (4, -3.40779051184654235840e-02) (5, -7.60942026972770690918e-02) (6, -3.37458029389381408691e-02) (7, -1.41817167401313781738e-01) (8, -1.33545070886611938477e-01) (9, -1.97664141654968261719e-01) (10, -5.32575175166130065918e-02) (11, -1.24486647546291351318e-01) (12, -8.71712937951087951660e-02) (13, -7.99910649657249450684e-02) (14, -6.18334487080574035645e-02) (15, -1.11008659005165100098e-01) (16, -2.64092609286308288574e-02) (17, -1.72628313302993774414e-01) (18, -5.18655106425285339355e-02) (0, 1.33534863591194152832e-01) (1, 1.59291714429855346680e-01) (2, 2.18889474868774414062e-01) (3, 5.58100342750549316406e-02) (4, 1.97624117136001586914e-01) (5, 3.62138897180557250977e-02) (6, 3.99872064590454101562e-02) (7, 1.88025772571563720703e-01) (8, 1.04642823338508605957e-01) (9, 1.99283391237258911133e-01) (10, 8.47217142581939697266e-02) (11, 1.75969213247299194336e-01) (12, 2.00845181941986083984e-01) (13, 2.11216658353805541992e-01) (14, 1.47221505641937255859e-01) (15, 2.07020968198776245117e-01) (16, 1.97138756513595581055e-01) (17, 9.11273136734962463379e-02) (18, 1.93275153636932373047e-01) (19, 7.53215849399566650391e-02) (20, 1.77582234144210815430e-01) (21, 2.15611040592193603516e-01) (19, 4.20640707015991210938e-02) (20, 7.30956047773361206055e-02) (21, 1.48439764976501464844e-01) 
