FANN_FLO_2.1
num_layers=3
learning_rate=0.100000
connection_rate=1.000000
network_type=0
learning_momentum=0.000000
training_algorithm=2
train_error_function=1
train_stop_function=0
cascade_output_change_fraction=0.010000
quickprop_decay=-0.000100
quickprop_mu=1.750000
rprop_increase_factor=1.200000
rprop_decrease_factor=0.500000
rprop_delta_min=0.000000
rprop_delta_max=50.000000
rprop_delta_zero=0.100000
cascade_output_stagnation_epochs=12
cascade_candidate_change_fraction=0.010000
cascade_candidate_stagnation_epochs=12
cascade_max_out_epochs=150
cascade_min_out_epochs=50
cascade_max_cand_epochs=150
cascade_min_cand_epochs=50
cascade_num_candidate_groups=2
bit_fail_limit=3.49999994039535522461e-01
cascade_candidate_limit=1.00000000000000000000e+03
cascade_weight_multiplier=4.00000005960464477539e-01
cascade_activation_functions_count=10
cascade_activation_functions=3 5 7 8 10 11 14 15 16 17 
cascade_activation_steepnesses_count=4
cascade_activation_steepnesses=2.50000000000000000000e-01 5.00000000000000000000e-01 7.50000000000000000000e-01 1.00000000000000000000e+00 
layer_sizes=19 3 3 
scale_included=0
neurons (num_inputs, activation_function, activation_steepness)=(0, 0, 0.00000000000000000000e+00) (0, 0, 0.00000000000000000000e+00) (0, 0, 0.00000000000000000000e+00) (0, 0, 0.00000000000000000000e+00) (0, 0, 0.00000000000000000000e+00) (0, 0, 0.00000000000000000000e+00) (0, 0, 0.00000000000000000000e+00) (0, 0, 0.00000000000000000000e+00) (0, 0, 0.00000000000000000000e+00) (0, 0, 0.00000000000000000000e+00) (0, 0, 0.00000000000000000000e+00) (0, 0, 0.00000000000000000000e+00) (0, 0, 0.00000000000000000000e+00) (0, 0, 0.00000000000000000000e+00) (0, 0, 0.00000000000000000000e+00) (0, 0, 0.00000000000000000000e+00) (0, 0, 0.00000000000000000000e+00) (0, 0, 0.00000000000000000000e+00) (0, 0, 0.00000000000000000000e+00) (19, 3, 5.00000000000000000000e-01) (19, 3, 5.00000000000000000000e-01) (0, 3, 0.00000000000000000000e+00) (3, 0, 5.00000000000000000000e-01) (3, 0, 5.00000000000000000000e-01) (0, 0, 0.00000000000000000000e+00) 
connections (connected_to_neuron, weight)=(0, 1.37290403246879577637e-01) (1, 1.06249049305915832520e-01) (2, 1.76921069622039794922e-01) (3, 3.59866619110107421875e-02) (4, 2.16856688261032104492e-01) (5, 2.03734487295150756836e-02) (6, 5.62303513288497924805e-02) (7, 1.44755706191062927246e-01) (8, 1.61352813243865966797e-01) (9, 2.06019461154937744141e-01) (10, 4.39157336950302124023e-02) (11, 2.52401158213615417480e-02) (12, 2.80328392982482910156e-02) (13, 1.08426377177238464355e-01) (14, 1.65631294250488281250e-01) (15, 1.54389470815658569336e-01) (16, 1.85063719749450683594e-01) (17, 1.79923534393310546875e-01) (18, 5.03129884600639343262e-02) (0, 1.18057154119014739990e-01) (1, 1.41942769289016723633e-01) (2, 9.86390560865402221680e-02) (3, 1.91619217395782470703e-01) (4, 1.52188807725906372070e-01) (5, 8.83777290582656860352e-02) (6, 7.34588652849197387695e-02) (7, 1.57706171274185180664e-01) (8, 1.95638924837112426758e-01) (9, 1.61388456821441650391e-01) (10, 1.38708487153053283691e-01) (11, 2.57936492562294006348e-02) (12, 7.86788612604141235352e-02) (13, 2.49575227499008178711e-02) (14, 1.82714700698852539062e-01) (15, 9.46655124425888061523e-02) (16, 2.18142122030258178711e-02) (17, 1.83088153600692749023e-01) (18, 1.30895867943763732910e-01) (19, 1.46569907665252685547e-01) (20, 1.24440968036651611328e-01) (21, 1.16915300488471984863e-01) (19, 1.70485645532608032227e-01) (20, 1.29681080579757690430e-01) (21, 1.24948143959045410156e-01) 
