FANN_FLO_2.1
num_layers=3
learning_rate=0.100000
connection_rate=1.000000
network_type=0
learning_momentum=0.000000
training_algorithm=2
train_error_function=1
train_stop_function=0
cascade_output_change_fraction=0.010000
quickprop_decay=-0.000100
quickprop_mu=1.750000
rprop_increase_factor=1.200000
rprop_decrease_factor=0.500000
rprop_delta_min=0.000000
rprop_delta_max=50.000000
rprop_delta_zero=0.100000
cascade_output_stagnation_epochs=12
cascade_candidate_change_fraction=0.010000
cascade_candidate_stagnation_epochs=12
cascade_max_out_epochs=150
cascade_min_out_epochs=50
cascade_max_cand_epochs=150
cascade_min_cand_epochs=50
cascade_num_candidate_groups=2
bit_fail_limit=3.49999994039535522461e-01
cascade_candidate_limit=1.00000000000000000000e+03
cascade_weight_multiplier=4.00000005960464477539e-01
cascade_activation_functions_count=10
cascade_activation_functions=3 5 7 8 10 11 14 15 16 17 
cascade_activation_steepnesses_count=4
cascade_activation_steepnesses=2.50000000000000000000e-01 5.00000000000000000000e-01 7.50000000000000000000e-01 1.00000000000000000000e+00 
layer_sizes=10 3 2 
scale_included=0
neurons (num_inputs, activation_function, activation_steepness)=(0, 0, 0.00000000000000000000e+00) (0, 0, 0.00000000000000000000e+00) (0, 0, 0.00000000000000000000e+00) (0, 0, 0.00000000000000000000e+00) (0, 0, 0.00000000000000000000e+00) (0, 0, 0.00000000000000000000e+00) (0, 0, 0.00000000000000000000e+00) (0, 0, 0.00000000000000000000e+00) (0, 0, 0.00000000000000000000e+00) (0, 0, 0.00000000000000000000e+00) (10, 3, 5.00000000000000000000e-01) (10, 3, 5.00000000000000000000e-01) (0, 3, 0.00000000000000000000e+00) (3, 0, 5.00000000000000000000e-01) (0, 0, 0.00000000000000000000e+00) 
connections (connected_to_neuron, weight)=(0, -8.65653082728385925293e-02) (1, -5.85830733180046081543e-02) (2, -9.97397452592849731445e-02) (3, -3.69624271988868713379e-02) (4, -9.40895900130271911621e-02) (5, -2.59730592370033264160e-02) (6, -1.51971876621246337891e-01) (7, -8.32128450274467468262e-02) (8, -9.81687083840370178223e-02) (9, -1.12872682511806488037e-01) (0, -1.18322513997554779053e-01) (1, -1.78492277860641479492e-01) (2, -1.54527887701988220215e-01) (3, -4.82735559344291687012e-02) (4, -8.82724002003669738770e-02) (5, -7.65334293246269226074e-02) (6, -2.15983361005783081055e-01) (7, -2.89710834622383117676e-02) (8, -1.06905221939086914062e-01) (9, -1.58932283520698547363e-01) (10, 5.73789179325103759766e-02) (11, 7.93726891279220581055e-02) (12, 1.26321583986282348633e-01) 
