FANN_FLO_2.1
num_layers=3
learning_rate=0.100000
connection_rate=1.000000
network_type=0
learning_momentum=0.000000
training_algorithm=2
train_error_function=1
train_stop_function=0
cascade_output_change_fraction=0.010000
quickprop_decay=-0.000100
quickprop_mu=1.750000
rprop_increase_factor=1.200000
rprop_decrease_factor=0.500000
rprop_delta_min=0.000000
rprop_delta_max=50.000000
rprop_delta_zero=0.100000
cascade_output_stagnation_epochs=12
cascade_candidate_change_fraction=0.010000
cascade_candidate_stagnation_epochs=12
cascade_max_out_epochs=150
cascade_min_out_epochs=50
cascade_max_cand_epochs=150
cascade_min_cand_epochs=50
cascade_num_candidate_groups=2
bit_fail_limit=3.49999994039535522461e-01
cascade_candidate_limit=1.00000000000000000000e+03
cascade_weight_multiplier=4.00000005960464477539e-01
cascade_activation_functions_count=10
cascade_activation_functions=3 5 7 8 10 11 14 15 16 17 
cascade_activation_steepnesses_count=4
cascade_activation_steepnesses=2.50000000000000000000e-01 5.00000000000000000000e-01 7.50000000000000000000e-01 1.00000000000000000000e+00 
layer_sizes=10 3 2 
scale_included=0
neurons (num_inputs, activation_function, activation_steepness)=(0, 0, 0.00000000000000000000e+00) (0, 0, 0.00000000000000000000e+00) (0, 0, 0.00000000000000000000e+00) (0, 0, 0.00000000000000000000e+00) (0, 0, 0.00000000000000000000e+00) (0, 0, 0.00000000000000000000e+00) (0, 0, 0.00000000000000000000e+00) (0, 0, 0.00000000000000000000e+00) (0, 0, 0.00000000000000000000e+00) (0, 0, 0.00000000000000000000e+00) (10, 3, 5.00000000000000000000e-01) (10, 3, 5.00000000000000000000e-01) (0, 3, 0.00000000000000000000e+00) (3, 0, 5.00000000000000000000e-01) (0, 0, 0.00000000000000000000e+00) 
connections (connected_to_neuron, weight)=(0, -2.01385274529457092285e-01) (1, -2.02995240688323974609e-01) (2, -1.25999495387077331543e-01) (3, -2.93739512562751770020e-02) (4, -1.97176903486251831055e-01) (5, -1.94062530994415283203e-01) (6, -1.08659781515598297119e-01) (7, -1.26808360219001770020e-01) (8, -8.49537774920463562012e-02) (9, -2.04074934124946594238e-01) (0, 1.27647668123245239258e-01) (1, 1.76306933164596557617e-01) (2, 1.21975161135196685791e-01) (3, 1.05515837669372558594e-01) (4, 1.09686151146888732910e-01) (5, 8.65558907389640808105e-02) (6, 1.87689036130905151367e-01) (7, 8.22225958108901977539e-02) (8, 2.05832540988922119141e-01) (9, 1.53081595897674560547e-01) (10, 1.02503843605518341064e-01) (11, 2.04968869686126708984e-01) (12, 1.60893231630325317383e-01) 
