FANN_FLO_2.1
num_layers=3
learning_rate=0.100000
connection_rate=1.000000
network_type=0
learning_momentum=0.000000
training_algorithm=2
train_error_function=1
train_stop_function=0
cascade_output_change_fraction=0.010000
quickprop_decay=-0.000100
quickprop_mu=1.750000
rprop_increase_factor=1.200000
rprop_decrease_factor=0.500000
rprop_delta_min=0.000000
rprop_delta_max=50.000000
rprop_delta_zero=0.100000
cascade_output_stagnation_epochs=12
cascade_candidate_change_fraction=0.010000
cascade_candidate_stagnation_epochs=12
cascade_max_out_epochs=150
cascade_min_out_epochs=50
cascade_max_cand_epochs=150
cascade_min_cand_epochs=50
cascade_num_candidate_groups=2
bit_fail_limit=3.49999994039535522461e-01
cascade_candidate_limit=1.00000000000000000000e+03
cascade_weight_multiplier=4.00000005960464477539e-01
cascade_activation_functions_count=10
cascade_activation_functions=3 5 7 8 10 11 14 15 16 17 
cascade_activation_steepnesses_count=4
cascade_activation_steepnesses=2.50000000000000000000e-01 5.00000000000000000000e-01 7.50000000000000000000e-01 1.00000000000000000000e+00 
layer_sizes=19 3 3 
scale_included=0
neurons (num_inputs, activation_function, activation_steepness)=(0, 0, 0.00000000000000000000e+00) (0, 0, 0.00000000000000000000e+00) (0, 0, 0.00000000000000000000e+00) (0, 0, 0.00000000000000000000e+00) (0, 0, 0.00000000000000000000e+00) (0, 0, 0.00000000000000000000e+00) (0, 0, 0.00000000000000000000e+00) (0, 0, 0.00000000000000000000e+00) (0, 0, 0.00000000000000000000e+00) (0, 0, 0.00000000000000000000e+00) (0, 0, 0.00000000000000000000e+00) (0, 0, 0.00000000000000000000e+00) (0, 0, 0.00000000000000000000e+00) (0, 0, 0.00000000000000000000e+00) (0, 0, 0.00000000000000000000e+00) (0, 0, 0.00000000000000000000e+00) (0, 0, 0.00000000000000000000e+00) (0, 0, 0.00000000000000000000e+00) (0, 0, 0.00000000000000000000e+00) (19, 3, 5.00000000000000000000e-01) (19, 3, 5.00000000000000000000e-01) (0, 3, 0.00000000000000000000e+00) (3, 0, 5.00000000000000000000e-01) (3, 0, 5.00000000000000000000e-01) (0, 0, 0.00000000000000000000e+00) 
connections (connected_to_neuron, weight)=(0, -1.59261107444763183594e-01) (1, -1.90080583095550537109e-01) (2, -6.61338642239570617676e-02) (3, -4.06138077378273010254e-02) (4, -1.98606520891189575195e-01) (5, -1.05772554874420166016e-01) (6, -1.46147489547729492188e-01) (7, -1.29949957132339477539e-01) (8, -2.11463570594787597656e-01) (9, -9.23370644450187683105e-02) (10, -1.58944502472877502441e-01) (11, -5.36925122141838073730e-02) (12, -6.53516873717308044434e-02) (13, -1.41942337155342102051e-01) (14, -1.84109151363372802734e-01) (15, -1.95183157920837402344e-01) (16, -1.35027870535850524902e-01) (17, -7.98408016562461853027e-02) (18, -1.53959736227989196777e-01) (0, -5.29535934329032897949e-02) (1, -1.42004206776618957520e-01) (2, -1.78858488798141479492e-01) (3, -1.48673683404922485352e-01) (4, -1.31592482328414916992e-01) (5, -1.03913523256778717041e-01) (6, -4.27103862166404724121e-02) (7, -2.13402628898620605469e-01) (8, -6.73037692904472351074e-02) (9, -1.59217506647109985352e-01) (10, -1.58756956458091735840e-01) (11, -4.75243851542472839355e-02) (12, -9.84786301851272583008e-02) (13, -1.28837540745735168457e-01) (14, -9.36582610011100769043e-02) (15, -1.19092427194118499756e-01) (16, -1.07444047927856445312e-01) (17, -1.79430812597274780273e-01) (18, -4.52399179339408874512e-02) (19, 2.26060077548027038574e-02) (20, 6.91056475043296813965e-02) (21, 1.22423037886619567871e-01) (19, 8.36615115404129028320e-02) (20, 3.54131385684013366699e-02) (21, 7.70713537931442260742e-02) 
