FANN_FLO_2.1
num_layers=3
learning_rate=0.100000
connection_rate=1.000000
network_type=0
learning_momentum=0.000000
training_algorithm=2
train_error_function=1
train_stop_function=0
cascade_output_change_fraction=0.010000
quickprop_decay=-0.000100
quickprop_mu=1.750000
rprop_increase_factor=1.200000
rprop_decrease_factor=0.500000
rprop_delta_min=0.000000
rprop_delta_max=50.000000
rprop_delta_zero=0.100000
cascade_output_stagnation_epochs=12
cascade_candidate_change_fraction=0.010000
cascade_candidate_stagnation_epochs=12
cascade_max_out_epochs=150
cascade_min_out_epochs=50
cascade_max_cand_epochs=150
cascade_min_cand_epochs=50
cascade_num_candidate_groups=2
bit_fail_limit=3.49999994039535522461e-01
cascade_candidate_limit=1.00000000000000000000e+03
cascade_weight_multiplier=4.00000005960464477539e-01
cascade_activation_functions_count=10
cascade_activation_functions=3 5 7 8 10 11 14 15 16 17 
cascade_activation_steepnesses_count=4
cascade_activation_steepnesses=2.50000000000000000000e-01 5.00000000000000000000e-01 7.50000000000000000000e-01 1.00000000000000000000e+00 
layer_sizes=19 3 3 
scale_included=0
neurons (num_inputs, activation_function, activation_steepness)=(0, 0, 0.00000000000000000000e+00) (0, 0, 0.00000000000000000000e+00) (0, 0, 0.00000000000000000000e+00) (0, 0, 0.00000000000000000000e+00) (0, 0, 0.00000000000000000000e+00) (0, 0, 0.00000000000000000000e+00) (0, 0, 0.00000000000000000000e+00) (0, 0, 0.00000000000000000000e+00) (0, 0, 0.00000000000000000000e+00) (0, 0, 0.00000000000000000000e+00) (0, 0, 0.00000000000000000000e+00) (0, 0, 0.00000000000000000000e+00) (0, 0, 0.00000000000000000000e+00) (0, 0, 0.00000000000000000000e+00) (0, 0, 0.00000000000000000000e+00) (0, 0, 0.00000000000000000000e+00) (0, 0, 0.00000000000000000000e+00) (0, 0, 0.00000000000000000000e+00) (0, 0, 0.00000000000000000000e+00) (19, 3, 5.00000000000000000000e-01) (19, 3, 5.00000000000000000000e-01) (0, 3, 0.00000000000000000000e+00) (3, 0, 5.00000000000000000000e-01) (3, 0, 5.00000000000000000000e-01) (0, 0, 0.00000000000000000000e+00) 
connections (connected_to_neuron, weight)=(0, 1.34285822510719299316e-01) (1, 9.47771668434143066406e-02) (2, -5.02371862530708312988e-02) (3, 4.66762706637382507324e-02) (4, 2.02220022678375244141e-01) (5, -3.27999517321586608887e-02) (6, -1.89792275428771972656e-01) (7, -2.00506955385208129883e-01) (8, 2.94601619243621826172e-02) (9, -1.03262685239315032959e-01) (10, -7.60686621069908142090e-02) (11, -2.11337640881538391113e-01) (12, -2.15989351272583007812e-01) (13, -1.88683152198791503906e-01) (14, -1.48344904184341430664e-01) (15, 9.83705818653106689453e-02) (16, -2.13909447193145751953e-01) (17, -1.64593458175659179688e-01) (18, -2.09699749946594238281e-01) (0, 1.49152576923370361328e-01) (1, 5.80136552453041076660e-02) (2, 6.67214989662170410156e-02) (3, 1.46235644817352294922e-01) (4, 8.33777934312820434570e-02) (5, 9.69406068325042724609e-02) (6, 1.35431244969367980957e-01) (7, 1.98754131793975830078e-01) (8, 1.56894296407699584961e-01) (9, 1.50122553110122680664e-01) (10, 1.78237408399581909180e-01) (11, 2.19996929168701171875e-01) (12, 6.44083619117736816406e-02) (13, 5.30145689845085144043e-02) (14, 1.89759731292724609375e-01) (15, 9.10846292972564697266e-02) (16, 3.52345854043960571289e-02) (17, 1.76959782838821411133e-01) (18, 1.21292352676391601562e-01) (19, 5.47276437282562255859e-02) (20, 1.86419934034347534180e-01) (21, 3.80296707153320312500e-02) (19, 1.98658972978591918945e-01) (20, 1.95082306861877441406e-01) (21, 4.20403182506561279297e-02) 
