FANN_FLO_2.1
num_layers=3
learning_rate=0.100000
connection_rate=1.000000
network_type=0
learning_momentum=0.000000
training_algorithm=2
train_error_function=1
train_stop_function=0
cascade_output_change_fraction=0.010000
quickprop_decay=-0.000100
quickprop_mu=1.750000
rprop_increase_factor=1.200000
rprop_decrease_factor=0.500000
rprop_delta_min=0.000000
rprop_delta_max=50.000000
rprop_delta_zero=0.100000
cascade_output_stagnation_epochs=12
cascade_candidate_change_fraction=0.010000
cascade_candidate_stagnation_epochs=12
cascade_max_out_epochs=150
cascade_min_out_epochs=50
cascade_max_cand_epochs=150
cascade_min_cand_epochs=50
cascade_num_candidate_groups=2
bit_fail_limit=3.49999994039535522461e-01
cascade_candidate_limit=1.00000000000000000000e+03
cascade_weight_multiplier=4.00000005960464477539e-01
cascade_activation_functions_count=10
cascade_activation_functions=3 5 7 8 10 11 14 15 16 17 
cascade_activation_steepnesses_count=4
cascade_activation_steepnesses=2.50000000000000000000e-01 5.00000000000000000000e-01 7.50000000000000000000e-01 1.00000000000000000000e+00 
layer_sizes=19 3 3 
scale_included=0
neurons (num_inputs, activation_function, activation_steepness)=(0, 0, 0.00000000000000000000e+00) (0, 0, 0.00000000000000000000e+00) (0, 0, 0.00000000000000000000e+00) (0, 0, 0.00000000000000000000e+00) (0, 0, 0.00000000000000000000e+00) (0, 0, 0.00000000000000000000e+00) (0, 0, 0.00000000000000000000e+00) (0, 0, 0.00000000000000000000e+00) (0, 0, 0.00000000000000000000e+00) (0, 0, 0.00000000000000000000e+00) (0, 0, 0.00000000000000000000e+00) (0, 0, 0.00000000000000000000e+00) (0, 0, 0.00000000000000000000e+00) (0, 0, 0.00000000000000000000e+00) (0, 0, 0.00000000000000000000e+00) (0, 0, 0.00000000000000000000e+00) (0, 0, 0.00000000000000000000e+00) (0, 0, 0.00000000000000000000e+00) (0, 0, 0.00000000000000000000e+00) (19, 3, 5.00000000000000000000e-01) (19, 3, 5.00000000000000000000e-01) (0, 3, 0.00000000000000000000e+00) (3, 0, 5.00000000000000000000e-01) (3, 0, 5.00000000000000000000e-01) (0, 0, 0.00000000000000000000e+00) 
connections (connected_to_neuron, weight)=(0, -1.75512835383415222168e-01) (1, -1.41297191381454467773e-01) (2, -1.66888266801834106445e-01) (3, -2.19247251749038696289e-01) (4, -1.61097869277000427246e-01) (5, -1.90267294645309448242e-01) (6, -4.78533431887626647949e-02) (7, -1.33933365345001220703e-01) (8, -1.70253679156303405762e-01) (9, -1.54188409447669982910e-01) (10, -1.38355761766433715820e-01) (11, -5.64066097140312194824e-02) (12, -8.71261730790138244629e-02) (13, -2.07670599222183227539e-01) (14, -1.99352622032165527344e-01) (15, -1.73076674342155456543e-01) (16, -1.19184397161006927490e-01) (17, -1.11586317420005798340e-01) (18, -7.75993242859840393066e-02) (0, 1.25492587685585021973e-01) (1, 3.80942597985267639160e-02) (2, 9.73896309733390808105e-02) (3, 1.09457969665527343750e-01) (4, 2.93397679924964904785e-02) (5, 8.84291008114814758301e-02) (6, 7.74130746722221374512e-02) (7, 1.30856364965438842773e-01) (8, 1.06507010757923126221e-01) (9, 3.67187410593032836914e-02) (10, 6.50157630443572998047e-02) (11, 1.94517642259597778320e-01) (12, 8.12059044837951660156e-02) (13, 1.43718570470809936523e-01) (14, 4.76293861865997314453e-02) (15, 8.19586664438247680664e-02) (16, 2.02620714902877807617e-01) (17, 7.73620903491973876953e-02) (18, 5.41053116321563720703e-02) (19, 8.86873453855514526367e-02) (20, 1.27108424901962280273e-01) (21, 1.19916908442974090576e-01) (19, 1.70331597328186035156e-01) (20, 9.07018184661865234375e-02) (21, 5.27907460927963256836e-02) 
