FANN_FLO_2.1
num_layers=3
learning_rate=0.100000
connection_rate=1.000000
network_type=0
learning_momentum=0.000000
training_algorithm=2
train_error_function=1
train_stop_function=0
cascade_output_change_fraction=0.010000
quickprop_decay=-0.000100
quickprop_mu=1.750000
rprop_increase_factor=1.200000
rprop_decrease_factor=0.500000
rprop_delta_min=0.000000
rprop_delta_max=50.000000
rprop_delta_zero=0.100000
cascade_output_stagnation_epochs=12
cascade_candidate_change_fraction=0.010000
cascade_candidate_stagnation_epochs=12
cascade_max_out_epochs=150
cascade_min_out_epochs=50
cascade_max_cand_epochs=150
cascade_min_cand_epochs=50
cascade_num_candidate_groups=2
bit_fail_limit=3.49999994039535522461e-01
cascade_candidate_limit=1.00000000000000000000e+03
cascade_weight_multiplier=4.00000005960464477539e-01
cascade_activation_functions_count=10
cascade_activation_functions=3 5 7 8 10 11 14 15 16 17 
cascade_activation_steepnesses_count=4
cascade_activation_steepnesses=2.50000000000000000000e-01 5.00000000000000000000e-01 7.50000000000000000000e-01 1.00000000000000000000e+00 
layer_sizes=19 3 3 
scale_included=0
neurons (num_inputs, activation_function, activation_steepness)=(0, 0, 0.00000000000000000000e+00) (0, 0, 0.00000000000000000000e+00) (0, 0, 0.00000000000000000000e+00) (0, 0, 0.00000000000000000000e+00) (0, 0, 0.00000000000000000000e+00) (0, 0, 0.00000000000000000000e+00) (0, 0, 0.00000000000000000000e+00) (0, 0, 0.00000000000000000000e+00) (0, 0, 0.00000000000000000000e+00) (0, 0, 0.00000000000000000000e+00) (0, 0, 0.00000000000000000000e+00) (0, 0, 0.00000000000000000000e+00) (0, 0, 0.00000000000000000000e+00) (0, 0, 0.00000000000000000000e+00) (0, 0, 0.00000000000000000000e+00) (0, 0, 0.00000000000000000000e+00) (0, 0, 0.00000000000000000000e+00) (0, 0, 0.00000000000000000000e+00) (0, 0, 0.00000000000000000000e+00) (19, 3, 5.00000000000000000000e-01) (19, 3, 5.00000000000000000000e-01) (0, 3, 0.00000000000000000000e+00) (3, 0, 5.00000000000000000000e-01) (3, 0, 5.00000000000000000000e-01) (0, 0, 0.00000000000000000000e+00) 
connections (connected_to_neuron, weight)=(0, -4.89191636443138122559e-02) (1, -1.36055380105972290039e-01) (2, -1.49812370538711547852e-01) (3, -1.69004544615745544434e-01) (4, -1.63475692272186279297e-01) (5, -1.00997447967529296875e-01) (6, -1.14632442593574523926e-01) (7, -1.69134318828582763672e-01) (8, -1.40670105814933776855e-01) (9, -1.40813931822776794434e-01) (10, -1.41677126288414001465e-01) (11, -1.87303811311721801758e-01) (12, -2.55228057503700256348e-02) (13, -2.17293649911880493164e-01) (14, -1.79276645183563232422e-01) (15, -4.69048544764518737793e-02) (16, -1.01758435368537902832e-01) (17, -7.99498632550239562988e-02) (18, -1.64152964949607849121e-01) (0, -1.49239242076873779297e-01) (1, -1.96429401636123657227e-01) (2, -1.95162072777748107910e-01) (3, -1.65314093232154846191e-01) (4, -4.17373701930046081543e-02) (5, -3.03403660655021667480e-02) (6, -1.77966564893722534180e-01) (7, -2.54979804158210754395e-02) (8, -1.72354057431221008301e-01) (9, -2.61699482798576354980e-02) (10, -2.04393565654754638672e-01) (11, -2.50036343932151794434e-02) (12, -5.50891086459159851074e-02) (13, -1.20448932051658630371e-01) (14, -1.54816001653671264648e-01) (15, -2.04093664884567260742e-01) (16, -6.39246329665184020996e-02) (17, -3.58134433627128601074e-02) (18, -9.87260937690734863281e-02) (19, 2.69410535693168640137e-02) (20, 8.35164561867713928223e-02) (21, 2.04599946737289428711e-02) (19, 1.05263940989971160889e-01) (20, 1.16212658584117889404e-01) (21, 2.14937210083007812500e-01) 
