FANN_FLO_2.1
num_layers=3
learning_rate=0.100000
connection_rate=1.000000
network_type=0
learning_momentum=0.000000
training_algorithm=2
train_error_function=1
train_stop_function=0
cascade_output_change_fraction=0.010000
quickprop_decay=-0.000100
quickprop_mu=1.750000
rprop_increase_factor=1.200000
rprop_decrease_factor=0.500000
rprop_delta_min=0.000000
rprop_delta_max=50.000000
rprop_delta_zero=0.100000
cascade_output_stagnation_epochs=12
cascade_candidate_change_fraction=0.010000
cascade_candidate_stagnation_epochs=12
cascade_max_out_epochs=150
cascade_min_out_epochs=50
cascade_max_cand_epochs=150
cascade_min_cand_epochs=50
cascade_num_candidate_groups=2
bit_fail_limit=3.49999994039535522461e-01
cascade_candidate_limit=1.00000000000000000000e+03
cascade_weight_multiplier=4.00000005960464477539e-01
cascade_activation_functions_count=10
cascade_activation_functions=3 5 7 8 10 11 14 15 16 17 
cascade_activation_steepnesses_count=4
cascade_activation_steepnesses=2.50000000000000000000e-01 5.00000000000000000000e-01 7.50000000000000000000e-01 1.00000000000000000000e+00 
layer_sizes=10 3 2 
scale_included=0
neurons (num_inputs, activation_function, activation_steepness)=(0, 0, 0.00000000000000000000e+00) (0, 0, 0.00000000000000000000e+00) (0, 0, 0.00000000000000000000e+00) (0, 0, 0.00000000000000000000e+00) (0, 0, 0.00000000000000000000e+00) (0, 0, 0.00000000000000000000e+00) (0, 0, 0.00000000000000000000e+00) (0, 0, 0.00000000000000000000e+00) (0, 0, 0.00000000000000000000e+00) (0, 0, 0.00000000000000000000e+00) (10, 3, 5.00000000000000000000e-01) (10, 3, 5.00000000000000000000e-01) (0, 3, 0.00000000000000000000e+00) (3, 0, 5.00000000000000000000e-01) (0, 0, 0.00000000000000000000e+00) 
connections (connected_to_neuron, weight)=(0, -4.02247980237007141113e-02) (1, -8.35767909884452819824e-02) (2, -1.33394211530685424805e-01) (3, -3.19999232888221740723e-02) (4, -1.45544901490211486816e-01) (5, -1.03202104568481445312e-01) (6, -3.58956679701805114746e-02) (7, -1.27102762460708618164e-01) (8, -1.18842124938964843750e-01) (9, -1.51636123657226562500e-01) (0, -2.07405552268028259277e-01) (1, -1.00269749760627746582e-01) (2, -5.64698502421379089355e-02) (3, -1.34288251399993896484e-01) (4, -2.02183246612548828125e-01) (5, -9.26585122942924499512e-02) (6, -1.76425024867057800293e-01) (7, -5.32089546322822570801e-02) (8, -1.13704800605773925781e-01) (9, -1.02703765034675598145e-01) (10, 4.96577173471450805664e-02) (11, 5.97645938396453857422e-02) (12, 7.36171007156372070312e-02) 
