FANN_FLO_2.1
num_layers=3
learning_rate=0.100000
connection_rate=1.000000
network_type=0
learning_momentum=0.000000
training_algorithm=2
train_error_function=1
train_stop_function=0
cascade_output_change_fraction=0.010000
quickprop_decay=-0.000100
quickprop_mu=1.750000
rprop_increase_factor=1.200000
rprop_decrease_factor=0.500000
rprop_delta_min=0.000000
rprop_delta_max=50.000000
rprop_delta_zero=0.100000
cascade_output_stagnation_epochs=12
cascade_candidate_change_fraction=0.010000
cascade_candidate_stagnation_epochs=12
cascade_max_out_epochs=150
cascade_min_out_epochs=50
cascade_max_cand_epochs=150
cascade_min_cand_epochs=50
cascade_num_candidate_groups=2
bit_fail_limit=3.49999994039535522461e-01
cascade_candidate_limit=1.00000000000000000000e+03
cascade_weight_multiplier=4.00000005960464477539e-01
cascade_activation_functions_count=10
cascade_activation_functions=3 5 7 8 10 11 14 15 16 17 
cascade_activation_steepnesses_count=4
cascade_activation_steepnesses=2.50000000000000000000e-01 5.00000000000000000000e-01 7.50000000000000000000e-01 1.00000000000000000000e+00 
layer_sizes=10 3 2 
scale_included=0
neurons (num_inputs, activation_function, activation_steepness)=(0, 0, 0.00000000000000000000e+00) (0, 0, 0.00000000000000000000e+00) (0, 0, 0.00000000000000000000e+00) (0, 0, 0.00000000000000000000e+00) (0, 0, 0.00000000000000000000e+00) (0, 0, 0.00000000000000000000e+00) (0, 0, 0.00000000000000000000e+00) (0, 0, 0.00000000000000000000e+00) (0, 0, 0.00000000000000000000e+00) (0, 0, 0.00000000000000000000e+00) (10, 3, 5.00000000000000000000e-01) (10, 3, 5.00000000000000000000e-01) (0, 3, 0.00000000000000000000e+00) (3, 0, 5.00000000000000000000e-01) (0, 0, 0.00000000000000000000e+00) 
connections (connected_to_neuron, weight)=(0, -8.43453928828239440918e-02) (1, -2.70042493939399719238e-02) (2, -2.27787271142005920410e-02) (3, -2.06523433327674865723e-01) (4, -4.75631877779960632324e-02) (5, -2.09402680397033691406e-01) (6, -1.77639082074165344238e-01) (7, -1.31269618868827819824e-01) (8, -4.36553284525871276855e-02) (9, -2.11445450782775878906e-01) (0, 2.11643099784851074219e-01) (1, 9.57611352205276489258e-02) (2, 1.04992605745792388916e-01) (3, 2.12373822927474975586e-01) (4, 8.56430232524871826172e-02) (5, 1.68060034513473510742e-01) (6, 4.37278598546981811523e-02) (7, 1.61602467298507690430e-01) (8, 1.30468010902404785156e-01) (9, 3.38275432586669921875e-02) (10, 1.05270855128765106201e-01) (11, 1.38250991702079772949e-01) (12, 1.25874906778335571289e-01) 
