FANN_FLO_2.1
num_layers=3
learning_rate=0.100000
connection_rate=1.000000
network_type=0
learning_momentum=0.000000
training_algorithm=2
train_error_function=1
train_stop_function=0
cascade_output_change_fraction=0.010000
quickprop_decay=-0.000100
quickprop_mu=1.750000
rprop_increase_factor=1.200000
rprop_decrease_factor=0.500000
rprop_delta_min=0.000000
rprop_delta_max=50.000000
rprop_delta_zero=0.100000
cascade_output_stagnation_epochs=12
cascade_candidate_change_fraction=0.010000
cascade_candidate_stagnation_epochs=12
cascade_max_out_epochs=150
cascade_min_out_epochs=50
cascade_max_cand_epochs=150
cascade_min_cand_epochs=50
cascade_num_candidate_groups=2
bit_fail_limit=3.49999994039535522461e-01
cascade_candidate_limit=1.00000000000000000000e+03
cascade_weight_multiplier=4.00000005960464477539e-01
cascade_activation_functions_count=10
cascade_activation_functions=3 5 7 8 10 11 14 15 16 17 
cascade_activation_steepnesses_count=4
cascade_activation_steepnesses=2.50000000000000000000e-01 5.00000000000000000000e-01 7.50000000000000000000e-01 1.00000000000000000000e+00 
layer_sizes=19 3 3 
scale_included=0
neurons (num_inputs, activation_function, activation_steepness)=(0, 0, 0.00000000000000000000e+00) (0, 0, 0.00000000000000000000e+00) (0, 0, 0.00000000000000000000e+00) (0, 0, 0.00000000000000000000e+00) (0, 0, 0.00000000000000000000e+00) (0, 0, 0.00000000000000000000e+00) (0, 0, 0.00000000000000000000e+00) (0, 0, 0.00000000000000000000e+00) (0, 0, 0.00000000000000000000e+00) (0, 0, 0.00000000000000000000e+00) (0, 0, 0.00000000000000000000e+00) (0, 0, 0.00000000000000000000e+00) (0, 0, 0.00000000000000000000e+00) (0, 0, 0.00000000000000000000e+00) (0, 0, 0.00000000000000000000e+00) (0, 0, 0.00000000000000000000e+00) (0, 0, 0.00000000000000000000e+00) (0, 0, 0.00000000000000000000e+00) (0, 0, 0.00000000000000000000e+00) (19, 3, 5.00000000000000000000e-01) (19, 3, 5.00000000000000000000e-01) (0, 3, 0.00000000000000000000e+00) (3, 0, 5.00000000000000000000e-01) (3, 0, 5.00000000000000000000e-01) (0, 0, 0.00000000000000000000e+00) 
connections (connected_to_neuron, weight)=(0, 4.51500862836837768555e-02) (1, 6.59779533743858337402e-02) (2, 4.52191680669784545898e-02) (3, 1.78903162479400634766e-01) (4, 9.47791412472724914551e-02) (5, 1.39105454087257385254e-01) (6, 7.12764412164688110352e-02) (7, 1.68719679117202758789e-01) (8, 9.16158631443977355957e-02) (9, 2.37814486026763916016e-02) (10, 5.60047477483749389648e-02) (11, 7.41765424609184265137e-02) (12, 1.70493155717849731445e-01) (13, 1.44794210791587829590e-01) (14, 1.71072661876678466797e-01) (15, 2.10008442401885986328e-01) (16, 1.78416013717651367188e-01) (17, 4.54859286546707153320e-02) (18, 3.04583385586738586426e-02) (0, 1.73602163791656494141e-01) (1, 1.83921217918395996094e-01) (2, 1.99407726526260375977e-01) (3, 1.65413022041320800781e-01) (4, 7.93189406394958496094e-02) (5, 7.83083140850067138672e-02) (6, 4.47543486952781677246e-02) (7, 6.03264011442661285400e-02) (8, 8.76725092530250549316e-02) (9, 1.25620514154434204102e-01) (10, 6.26428797841072082520e-02) (11, 1.94798737764358520508e-01) (12, 1.50770574808120727539e-01) (13, 1.08620829880237579346e-01) (14, 2.00179070234298706055e-02) (15, 1.09673753380775451660e-01) (16, 1.83399975299835205078e-01) (17, 1.39123350381851196289e-01) (18, 1.60950183868408203125e-01) (19, 1.32119640707969665527e-01) (20, 2.10739225149154663086e-01) (21, 1.64731621742248535156e-01) (19, 1.68124377727508544922e-01) (20, 6.49157464504241943359e-02) (21, 1.15224786102771759033e-01) 
