FANN_FLO_2.1
num_layers=3
learning_rate=0.100000
connection_rate=1.000000
network_type=0
learning_momentum=0.000000
training_algorithm=2
train_error_function=1
train_stop_function=0
cascade_output_change_fraction=0.010000
quickprop_decay=-0.000100
quickprop_mu=1.750000
rprop_increase_factor=1.200000
rprop_decrease_factor=0.500000
rprop_delta_min=0.000000
rprop_delta_max=50.000000
rprop_delta_zero=0.100000
cascade_output_stagnation_epochs=12
cascade_candidate_change_fraction=0.010000
cascade_candidate_stagnation_epochs=12
cascade_max_out_epochs=150
cascade_min_out_epochs=50
cascade_max_cand_epochs=150
cascade_min_cand_epochs=50
cascade_num_candidate_groups=2
bit_fail_limit=3.49999994039535522461e-01
cascade_candidate_limit=1.00000000000000000000e+03
cascade_weight_multiplier=4.00000005960464477539e-01
cascade_activation_functions_count=10
cascade_activation_functions=3 5 7 8 10 11 14 15 16 17 
cascade_activation_steepnesses_count=4
cascade_activation_steepnesses=2.50000000000000000000e-01 5.00000000000000000000e-01 7.50000000000000000000e-01 1.00000000000000000000e+00 
layer_sizes=10 3 2 
scale_included=0
neurons (num_inputs, activation_function, activation_steepness)=(0, 0, 0.00000000000000000000e+00) (0, 0, 0.00000000000000000000e+00) (0, 0, 0.00000000000000000000e+00) (0, 0, 0.00000000000000000000e+00) (0, 0, 0.00000000000000000000e+00) (0, 0, 0.00000000000000000000e+00) (0, 0, 0.00000000000000000000e+00) (0, 0, 0.00000000000000000000e+00) (0, 0, 0.00000000000000000000e+00) (0, 0, 0.00000000000000000000e+00) (10, 3, 5.00000000000000000000e-01) (10, 3, 5.00000000000000000000e-01) (0, 3, 0.00000000000000000000e+00) (3, 0, 5.00000000000000000000e-01) (0, 0, 0.00000000000000000000e+00) 
connections (connected_to_neuron, weight)=(0, 1.99776798486709594727e-01) (1, 2.87356302142143249512e-02) (2, 1.78400009870529174805e-01) (3, 1.16877123713493347168e-01) (4, 1.30365446209907531738e-01) (5, 1.32436558604240417480e-01) (6, 8.05452316999435424805e-02) (7, 1.58429622650146484375e-01) (8, 1.59134984016418457031e-01) (9, 8.91354754567146301270e-02) (0, -1.78254351019859313965e-01) (1, -1.06889605522155761719e-01) (2, -1.36334463953971862793e-01) (3, -1.86465293169021606445e-01) (4, -1.51865497231483459473e-01) (5, -2.06025809049606323242e-01) (6, -1.70195937156677246094e-01) (7, -2.38186046481132507324e-02) (8, -9.87213104963302612305e-02) (9, -6.48808553814888000488e-02) (10, 1.60473912954330444336e-01) (11, 1.17361113429069519043e-01) (12, 1.08091071248054504395e-01) 
