FANN_FLO_2.1
num_layers=3
learning_rate=0.100000
connection_rate=1.000000
network_type=0
learning_momentum=0.000000
training_algorithm=2
train_error_function=1
train_stop_function=0
cascade_output_change_fraction=0.010000
quickprop_decay=-0.000100
quickprop_mu=1.750000
rprop_increase_factor=1.200000
rprop_decrease_factor=0.500000
rprop_delta_min=0.000000
rprop_delta_max=50.000000
rprop_delta_zero=0.100000
cascade_output_stagnation_epochs=12
cascade_candidate_change_fraction=0.010000
cascade_candidate_stagnation_epochs=12
cascade_max_out_epochs=150
cascade_min_out_epochs=50
cascade_max_cand_epochs=150
cascade_min_cand_epochs=50
cascade_num_candidate_groups=2
bit_fail_limit=3.49999994039535522461e-01
cascade_candidate_limit=1.00000000000000000000e+03
cascade_weight_multiplier=4.00000005960464477539e-01
cascade_activation_functions_count=10
cascade_activation_functions=3 5 7 8 10 11 14 15 16 17 
cascade_activation_steepnesses_count=4
cascade_activation_steepnesses=2.50000000000000000000e-01 5.00000000000000000000e-01 7.50000000000000000000e-01 1.00000000000000000000e+00 
layer_sizes=19 3 3 
scale_included=0
neurons (num_inputs, activation_function, activation_steepness)=(0, 0, 0.00000000000000000000e+00) (0, 0, 0.00000000000000000000e+00) (0, 0, 0.00000000000000000000e+00) (0, 0, 0.00000000000000000000e+00) (0, 0, 0.00000000000000000000e+00) (0, 0, 0.00000000000000000000e+00) (0, 0, 0.00000000000000000000e+00) (0, 0, 0.00000000000000000000e+00) (0, 0, 0.00000000000000000000e+00) (0, 0, 0.00000000000000000000e+00) (0, 0, 0.00000000000000000000e+00) (0, 0, 0.00000000000000000000e+00) (0, 0, 0.00000000000000000000e+00) (0, 0, 0.00000000000000000000e+00) (0, 0, 0.00000000000000000000e+00) (0, 0, 0.00000000000000000000e+00) (0, 0, 0.00000000000000000000e+00) (0, 0, 0.00000000000000000000e+00) (0, 0, 0.00000000000000000000e+00) (19, 3, 5.00000000000000000000e-01) (19, 3, 5.00000000000000000000e-01) (0, 3, 0.00000000000000000000e+00) (3, 0, 5.00000000000000000000e-01) (3, 0, 5.00000000000000000000e-01) (0, 0, 0.00000000000000000000e+00) 
connections (connected_to_neuron, weight)=(0, 5.13990893959999084473e-02) (1, 1.35020747780799865723e-01) (2, 4.49353083968162536621e-02) (3, 3.75952646136283874512e-02) (4, 7.09473341703414916992e-02) (5, 9.23411622643470764160e-02) (6, 1.05834864079952239990e-01) (7, 1.95750772953033447266e-01) (8, 1.77624404430389404297e-01) (9, 1.05287984013557434082e-01) (10, 8.01166445016860961914e-02) (11, 1.11482031643390655518e-01) (12, 7.26772397756576538086e-02) (13, 1.74819052219390869141e-01) (14, 8.07371363043785095215e-02) (15, 1.02163150906562805176e-01) (16, 6.28431066870689392090e-02) (17, 2.03797310590744018555e-01) (18, 8.86522680521011352539e-02) (0, -2.18323349952697753906e-01) (1, -1.71911418437957763672e-01) (2, -8.97689238190650939941e-02) (3, -1.46772041916847229004e-01) (4, -4.89409938454627990723e-02) (5, -1.52429416775703430176e-01) (6, -4.78029772639274597168e-02) (7, -4.45704683661460876465e-02) (8, -1.08656004071235656738e-01) (9, -1.08671650290489196777e-01) (10, -6.70331045985221862793e-02) (11, -3.73969301581382751465e-02) (12, -7.72725716233253479004e-02) (13, -1.52012377977371215820e-01) (14, -2.12461620569229125977e-01) (15, -5.96772953867912292480e-02) (16, -1.01065039634704589844e-01) (17, -1.40120461583137512207e-01) (18, -1.73842445015907287598e-01) (19, 1.14685744047164916992e-01) (20, 5.75039274990558624268e-02) (21, 1.51445537805557250977e-01) (19, 1.74802392721176147461e-01) (20, 1.48985952138900756836e-01) (21, 2.04122781753540039062e-01) 
