FANN_FLO_2.1
num_layers=3
learning_rate=0.100000
connection_rate=1.000000
network_type=0
learning_momentum=0.000000
training_algorithm=2
train_error_function=1
train_stop_function=0
cascade_output_change_fraction=0.010000
quickprop_decay=-0.000100
quickprop_mu=1.750000
rprop_increase_factor=1.200000
rprop_decrease_factor=0.500000
rprop_delta_min=0.000000
rprop_delta_max=50.000000
rprop_delta_zero=0.100000
cascade_output_stagnation_epochs=12
cascade_candidate_change_fraction=0.010000
cascade_candidate_stagnation_epochs=12
cascade_max_out_epochs=150
cascade_min_out_epochs=50
cascade_max_cand_epochs=150
cascade_min_cand_epochs=50
cascade_num_candidate_groups=2
bit_fail_limit=3.49999994039535522461e-01
cascade_candidate_limit=1.00000000000000000000e+03
cascade_weight_multiplier=4.00000005960464477539e-01
cascade_activation_functions_count=10
cascade_activation_functions=3 5 7 8 10 11 14 15 16 17 
cascade_activation_steepnesses_count=4
cascade_activation_steepnesses=2.50000000000000000000e-01 5.00000000000000000000e-01 7.50000000000000000000e-01 1.00000000000000000000e+00 
layer_sizes=10 3 2 
scale_included=0
neurons (num_inputs, activation_function, activation_steepness)=(0, 0, 0.00000000000000000000e+00) (0, 0, 0.00000000000000000000e+00) (0, 0, 0.00000000000000000000e+00) (0, 0, 0.00000000000000000000e+00) (0, 0, 0.00000000000000000000e+00) (0, 0, 0.00000000000000000000e+00) (0, 0, 0.00000000000000000000e+00) (0, 0, 0.00000000000000000000e+00) (0, 0, 0.00000000000000000000e+00) (0, 0, 0.00000000000000000000e+00) (10, 3, 5.00000000000000000000e-01) (10, 3, 5.00000000000000000000e-01) (0, 3, 0.00000000000000000000e+00) (3, 0, 5.00000000000000000000e-01) (0, 0, 0.00000000000000000000e+00) 
connections (connected_to_neuron, weight)=(0, 2.33151242136955261230e-02) (1, 1.05356119573116302490e-01) (2, 2.97562628984451293945e-02) (3, 1.55388653278350830078e-01) (4, 2.07362025976181030273e-01) (5, 1.24332353472709655762e-01) (6, 4.28065508604049682617e-02) (7, 2.08155810832977294922e-01) (8, 9.85156744718551635742e-02) (9, 1.08144208788871765137e-01) (0, 1.93349003791809082031e-01) (1, 6.18458501994609832764e-02) (2, 1.19429238140583038330e-01) (3, 7.74701759219169616699e-02) (4, 1.78820222616195678711e-01) (5, 1.13808445632457733154e-01) (6, 6.95220381021499633789e-02) (7, 1.70398205518722534180e-01) (8, 3.15039902925491333008e-02) (9, 1.82384490966796875000e-01) (10, 1.44522875547409057617e-01) (11, 2.07719385623931884766e-01) (12, 1.66939496994018554688e-01) 
