FANN_FLO_2.1
num_layers=3
learning_rate=0.100000
connection_rate=1.000000
network_type=0
learning_momentum=0.000000
training_algorithm=2
train_error_function=1
train_stop_function=0
cascade_output_change_fraction=0.010000
quickprop_decay=-0.000100
quickprop_mu=1.750000
rprop_increase_factor=1.200000
rprop_decrease_factor=0.500000
rprop_delta_min=0.000000
rprop_delta_max=50.000000
rprop_delta_zero=0.100000
cascade_output_stagnation_epochs=12
cascade_candidate_change_fraction=0.010000
cascade_candidate_stagnation_epochs=12
cascade_max_out_epochs=150
cascade_min_out_epochs=50
cascade_max_cand_epochs=150
cascade_min_cand_epochs=50
cascade_num_candidate_groups=2
bit_fail_limit=3.49999994039535522461e-01
cascade_candidate_limit=1.00000000000000000000e+03
cascade_weight_multiplier=4.00000005960464477539e-01
cascade_activation_functions_count=10
cascade_activation_functions=3 5 7 8 10 11 14 15 16 17 
cascade_activation_steepnesses_count=4
cascade_activation_steepnesses=2.50000000000000000000e-01 5.00000000000000000000e-01 7.50000000000000000000e-01 1.00000000000000000000e+00 
layer_sizes=10 3 2 
scale_included=0
neurons (num_inputs, activation_function, activation_steepness)=(0, 0, 0.00000000000000000000e+00) (0, 0, 0.00000000000000000000e+00) (0, 0, 0.00000000000000000000e+00) (0, 0, 0.00000000000000000000e+00) (0, 0, 0.00000000000000000000e+00) (0, 0, 0.00000000000000000000e+00) (0, 0, 0.00000000000000000000e+00) (0, 0, 0.00000000000000000000e+00) (0, 0, 0.00000000000000000000e+00) (0, 0, 0.00000000000000000000e+00) (10, 3, 5.00000000000000000000e-01) (10, 3, 5.00000000000000000000e-01) (0, 3, 0.00000000000000000000e+00) (3, 0, 5.00000000000000000000e-01) (0, 0, 0.00000000000000000000e+00) 
connections (connected_to_neuron, weight)=(0, 2.16620326042175292969e-01) (1, 1.18181094527244567871e-01) (2, 1.37532562017440795898e-01) (3, 1.63999557495117187500e-01) (4, 1.33450895547866821289e-01) (5, 1.15853063762187957764e-01) (6, 3.09281572699546813965e-02) (7, 2.15505957603454589844e-01) (8, 2.14742034673690795898e-01) (9, 6.41572624444961547852e-02) (0, -2.04040184617042541504e-01) (1, -9.43808183073997497559e-02) (2, -1.19465269148349761963e-01) (3, -1.48562401533126831055e-01) (4, -1.82894334197044372559e-01) (5, -5.68401440978050231934e-02) (6, -1.82707399129867553711e-01) (7, -1.31199359893798828125e-01) (8, -5.20807579159736633301e-02) (9, -1.94812759757041931152e-01) (10, 1.63350403308868408203e-01) (11, 7.84904062747955322266e-02) (12, 2.82783731818199157715e-02) 
