FANN_FLO_2.1
num_layers=3
learning_rate=0.100000
connection_rate=1.000000
network_type=0
learning_momentum=0.000000
training_algorithm=2
train_error_function=1
train_stop_function=0
cascade_output_change_fraction=0.010000
quickprop_decay=-0.000100
quickprop_mu=1.750000
rprop_increase_factor=1.200000
rprop_decrease_factor=0.500000
rprop_delta_min=0.000000
rprop_delta_max=50.000000
rprop_delta_zero=0.100000
cascade_output_stagnation_epochs=12
cascade_candidate_change_fraction=0.010000
cascade_candidate_stagnation_epochs=12
cascade_max_out_epochs=150
cascade_min_out_epochs=50
cascade_max_cand_epochs=150
cascade_min_cand_epochs=50
cascade_num_candidate_groups=2
bit_fail_limit=3.49999994039535522461e-01
cascade_candidate_limit=1.00000000000000000000e+03
cascade_weight_multiplier=4.00000005960464477539e-01
cascade_activation_functions_count=10
cascade_activation_functions=3 5 7 8 10 11 14 15 16 17 
cascade_activation_steepnesses_count=4
cascade_activation_steepnesses=2.50000000000000000000e-01 5.00000000000000000000e-01 7.50000000000000000000e-01 1.00000000000000000000e+00 
layer_sizes=10 3 2 
scale_included=0
neurons (num_inputs, activation_function, activation_steepness)=(0, 0, 0.00000000000000000000e+00) (0, 0, 0.00000000000000000000e+00) (0, 0, 0.00000000000000000000e+00) (0, 0, 0.00000000000000000000e+00) (0, 0, 0.00000000000000000000e+00) (0, 0, 0.00000000000000000000e+00) (0, 0, 0.00000000000000000000e+00) (0, 0, 0.00000000000000000000e+00) (0, 0, 0.00000000000000000000e+00) (0, 0, 0.00000000000000000000e+00) (10, 3, 5.00000000000000000000e-01) (10, 3, 5.00000000000000000000e-01) (0, 3, 0.00000000000000000000e+00) (3, 0, 5.00000000000000000000e-01) (0, 0, 0.00000000000000000000e+00) 
connections (connected_to_neuron, weight)=(0, 1.06651000678539276123e-01) (1, 1.96214139461517333984e-01) (2, 1.57306909561157226562e-01) (3, 1.63908451795578002930e-01) (4, 9.28411930799484252930e-02) (5, 8.44343304634094238281e-02) (6, 1.25986948609352111816e-01) (7, 1.09182596206665039062e-01) (8, 7.00192153453826904297e-02) (9, 1.36093854904174804688e-01) (0, -1.02139458060264587402e-01) (1, -8.06996151804924011230e-02) (2, -2.10761517286300659180e-01) (3, -6.00351318717002868652e-02) (4, -1.30487576127052307129e-01) (5, -3.97934690117835998535e-02) (6, -8.12429562211036682129e-02) (7, -1.97237297892570495605e-01) (8, -5.03158494830131530762e-02) (9, -1.13840416073799133301e-01) (10, 1.53870552778244018555e-01) (11, 5.00304996967315673828e-02) (12, 2.14928209781646728516e-01) 
