FANN_FLO_2.1
num_layers=3
learning_rate=0.100000
connection_rate=1.000000
network_type=0
learning_momentum=0.000000
training_algorithm=2
train_error_function=1
train_stop_function=0
cascade_output_change_fraction=0.010000
quickprop_decay=-0.000100
quickprop_mu=1.750000
rprop_increase_factor=1.200000
rprop_decrease_factor=0.500000
rprop_delta_min=0.000000
rprop_delta_max=50.000000
rprop_delta_zero=0.100000
cascade_output_stagnation_epochs=12
cascade_candidate_change_fraction=0.010000
cascade_candidate_stagnation_epochs=12
cascade_max_out_epochs=150
cascade_min_out_epochs=50
cascade_max_cand_epochs=150
cascade_min_cand_epochs=50
cascade_num_candidate_groups=2
bit_fail_limit=3.49999994039535522461e-01
cascade_candidate_limit=1.00000000000000000000e+03
cascade_weight_multiplier=4.00000005960464477539e-01
cascade_activation_functions_count=10
cascade_activation_functions=3 5 7 8 10 11 14 15 16 17 
cascade_activation_steepnesses_count=4
cascade_activation_steepnesses=2.50000000000000000000e-01 5.00000000000000000000e-01 7.50000000000000000000e-01 1.00000000000000000000e+00 
layer_sizes=19 3 3 
scale_included=0
neurons (num_inputs, activation_function, activation_steepness)=(0, 0, 0.00000000000000000000e+00) (0, 0, 0.00000000000000000000e+00) (0, 0, 0.00000000000000000000e+00) (0, 0, 0.00000000000000000000e+00) (0, 0, 0.00000000000000000000e+00) (0, 0, 0.00000000000000000000e+00) (0, 0, 0.00000000000000000000e+00) (0, 0, 0.00000000000000000000e+00) (0, 0, 0.00000000000000000000e+00) (0, 0, 0.00000000000000000000e+00) (0, 0, 0.00000000000000000000e+00) (0, 0, 0.00000000000000000000e+00) (0, 0, 0.00000000000000000000e+00) (0, 0, 0.00000000000000000000e+00) (0, 0, 0.00000000000000000000e+00) (0, 0, 0.00000000000000000000e+00) (0, 0, 0.00000000000000000000e+00) (0, 0, 0.00000000000000000000e+00) (0, 0, 0.00000000000000000000e+00) (19, 3, 5.00000000000000000000e-01) (19, 3, 5.00000000000000000000e-01) (0, 3, 0.00000000000000000000e+00) (3, 0, 5.00000000000000000000e-01) (3, 0, 5.00000000000000000000e-01) (0, 0, 0.00000000000000000000e+00) 
connections (connected_to_neuron, weight)=(0, 1.00516982376575469971e-01) (1, 1.45056694746017456055e-01) (2, 1.75667524337768554688e-01) (3, 1.89559191465377807617e-01) (4, 1.05724379420280456543e-01) (5, 1.61314725875854492188e-01) (6, 2.48745977878570556641e-02) (7, 1.80958688259124755859e-01) (8, 5.77277094125747680664e-02) (9, 6.13832101225852966309e-02) (10, 2.34426930546760559082e-02) (11, 1.64666891098022460938e-01) (12, 2.19290196895599365234e-01) (13, 8.02986770868301391602e-02) (14, 1.96341544389724731445e-01) (15, 3.73526662588119506836e-02) (16, 2.08012700080871582031e-01) (17, 2.03956067562103271484e-01) (18, 2.11141854524612426758e-01) (0, -1.24016955494880676270e-01) (1, -7.07455500960350036621e-02) (2, -1.22513309121131896973e-01) (3, -5.47637268900871276855e-02) (4, -1.60134702920913696289e-01) (5, -1.84513762593269348145e-01) (6, -7.33342245221138000488e-02) (7, -3.15056666731834411621e-02) (8, 1.99175953865051269531e-01) (9, -1.51566952466964721680e-01) (10, -1.98207959532737731934e-01) (11, -1.53132200241088867188e-01) (12, -7.10499808192253112793e-02) (13, -7.31512680649757385254e-02) (14, -1.97464674711227416992e-01) (15, -1.01490795612335205078e-01) (16, -1.87426880002021789551e-01) (17, -5.61499521136283874512e-02) (18, -9.66161936521530151367e-02) (19, 2.13531821966171264648e-01) (20, 2.15777531266212463379e-02) (21, 1.84767007827758789062e-01) (19, 2.16974526643753051758e-01) (20, 1.66244626045227050781e-01) (21, 1.84057205915451049805e-01) 
