FANN_FLO_2.1
num_layers=3
learning_rate=0.100000
connection_rate=1.000000
network_type=0
learning_momentum=0.000000
training_algorithm=2
train_error_function=1
train_stop_function=0
cascade_output_change_fraction=0.010000
quickprop_decay=-0.000100
quickprop_mu=1.750000
rprop_increase_factor=1.200000
rprop_decrease_factor=0.500000
rprop_delta_min=0.000000
rprop_delta_max=50.000000
rprop_delta_zero=0.100000
cascade_output_stagnation_epochs=12
cascade_candidate_change_fraction=0.010000
cascade_candidate_stagnation_epochs=12
cascade_max_out_epochs=150
cascade_min_out_epochs=50
cascade_max_cand_epochs=150
cascade_min_cand_epochs=50
cascade_num_candidate_groups=2
bit_fail_limit=3.49999994039535522461e-01
cascade_candidate_limit=1.00000000000000000000e+03
cascade_weight_multiplier=4.00000005960464477539e-01
cascade_activation_functions_count=10
cascade_activation_functions=3 5 7 8 10 11 14 15 16 17 
cascade_activation_steepnesses_count=4
cascade_activation_steepnesses=2.50000000000000000000e-01 5.00000000000000000000e-01 7.50000000000000000000e-01 1.00000000000000000000e+00 
layer_sizes=19 3 3 
scale_included=0
neurons (num_inputs, activation_function, activation_steepness)=(0, 0, 0.00000000000000000000e+00) (0, 0, 0.00000000000000000000e+00) (0, 0, 0.00000000000000000000e+00) (0, 0, 0.00000000000000000000e+00) (0, 0, 0.00000000000000000000e+00) (0, 0, 0.00000000000000000000e+00) (0, 0, 0.00000000000000000000e+00) (0, 0, 0.00000000000000000000e+00) (0, 0, 0.00000000000000000000e+00) (0, 0, 0.00000000000000000000e+00) (0, 0, 0.00000000000000000000e+00) (0, 0, 0.00000000000000000000e+00) (0, 0, 0.00000000000000000000e+00) (0, 0, 0.00000000000000000000e+00) (0, 0, 0.00000000000000000000e+00) (0, 0, 0.00000000000000000000e+00) (0, 0, 0.00000000000000000000e+00) (0, 0, 0.00000000000000000000e+00) (0, 0, 0.00000000000000000000e+00) (19, 3, 5.00000000000000000000e-01) (19, 3, 5.00000000000000000000e-01) (0, 3, 0.00000000000000000000e+00) (3, 0, 5.00000000000000000000e-01) (3, 0, 5.00000000000000000000e-01) (0, 0, 0.00000000000000000000e+00) 
connections (connected_to_neuron, weight)=(0, 1.85237795114517211914e-01) (1, 7.64017850160598754883e-02) (2, 1.81482613086700439453e-01) (3, 7.00632482767105102539e-02) (4, 1.82980597019195556641e-01) (5, 1.57569736242294311523e-01) (6, 1.30718439817428588867e-01) (7, 5.66556304693222045898e-02) (8, 7.80067294836044311523e-02) (9, 4.58607375621795654297e-02) (10, 8.86911377310752868652e-02) (11, 1.25186190009117126465e-01) (12, 4.53660860657691955566e-02) (13, 5.92054240405559539795e-02) (14, 8.92587155103683471680e-02) (15, 2.10323184728622436523e-01) (16, 5.15843257308006286621e-02) (17, 6.93896710872650146484e-02) (18, 1.98712468147277832031e-01) (0, -1.17821656167507171631e-01) (1, -1.27999514341354370117e-01) (2, -7.99538567662239074707e-02) (3, -2.09877297282218933105e-01) (4, -6.21053799986839294434e-02) (5, -1.89562708139419555664e-01) (6, -2.52900049090385437012e-02) (7, -1.48951053619384765625e-01) (8, -1.11189879477024078369e-01) (9, -1.50783285498619079590e-01) (10, -1.61931961774826049805e-01) (11, -5.82279041409492492676e-02) (12, -1.85545504093170166016e-01) (13, -1.05530180037021636963e-01) (14, -9.67453271150588989258e-02) (15, -1.35482251644134521484e-01) (16, -1.42549604177474975586e-01) (17, -1.59175589680671691895e-01) (18, -2.47638151049613952637e-02) (19, 1.34106040000915527344e-01) (20, 1.38831138610839843750e-01) (21, 4.10969257354736328125e-02) (19, 2.02797174453735351562e-01) (20, 4.40173298120498657227e-02) (21, 6.64630085229873657227e-02) 
