FANN_FLO_2.1
num_layers=3
learning_rate=0.100000
connection_rate=1.000000
network_type=0
learning_momentum=0.000000
training_algorithm=2
train_error_function=1
train_stop_function=0
cascade_output_change_fraction=0.010000
quickprop_decay=-0.000100
quickprop_mu=1.750000
rprop_increase_factor=1.200000
rprop_decrease_factor=0.500000
rprop_delta_min=0.000000
rprop_delta_max=50.000000
rprop_delta_zero=0.100000
cascade_output_stagnation_epochs=12
cascade_candidate_change_fraction=0.010000
cascade_candidate_stagnation_epochs=12
cascade_max_out_epochs=150
cascade_min_out_epochs=50
cascade_max_cand_epochs=150
cascade_min_cand_epochs=50
cascade_num_candidate_groups=2
bit_fail_limit=3.49999994039535522461e-01
cascade_candidate_limit=1.00000000000000000000e+03
cascade_weight_multiplier=4.00000005960464477539e-01
cascade_activation_functions_count=10
cascade_activation_functions=3 5 7 8 10 11 14 15 16 17 
cascade_activation_steepnesses_count=4
cascade_activation_steepnesses=2.50000000000000000000e-01 5.00000000000000000000e-01 7.50000000000000000000e-01 1.00000000000000000000e+00 
layer_sizes=19 3 3 
scale_included=0
neurons (num_inputs, activation_function, activation_steepness)=(0, 0, 0.00000000000000000000e+00) (0, 0, 0.00000000000000000000e+00) (0, 0, 0.00000000000000000000e+00) (0, 0, 0.00000000000000000000e+00) (0, 0, 0.00000000000000000000e+00) (0, 0, 0.00000000000000000000e+00) (0, 0, 0.00000000000000000000e+00) (0, 0, 0.00000000000000000000e+00) (0, 0, 0.00000000000000000000e+00) (0, 0, 0.00000000000000000000e+00) (0, 0, 0.00000000000000000000e+00) (0, 0, 0.00000000000000000000e+00) (0, 0, 0.00000000000000000000e+00) (0, 0, 0.00000000000000000000e+00) (0, 0, 0.00000000000000000000e+00) (0, 0, 0.00000000000000000000e+00) (0, 0, 0.00000000000000000000e+00) (0, 0, 0.00000000000000000000e+00) (0, 0, 0.00000000000000000000e+00) (19, 3, 5.00000000000000000000e-01) (19, 3, 5.00000000000000000000e-01) (0, 3, 0.00000000000000000000e+00) (3, 0, 5.00000000000000000000e-01) (3, 0, 5.00000000000000000000e-01) (0, 0, 0.00000000000000000000e+00) 
connections (connected_to_neuron, weight)=(0, -2.95136347413063049316e-02) (1, -1.19317546486854553223e-01) (2, -2.75480225682258605957e-02) (3, 1.41013517975807189941e-01) (4, -2.12945416569709777832e-02) (5, -9.08075049519538879395e-02) (6, -2.10257157683372497559e-01) (7, -2.03803554177284240723e-02) (8, -3.36781963706016540527e-02) (9, -1.47927731275558471680e-01) (10, -1.59307152032852172852e-01) (11, -2.44294777512550354004e-02) (12, -1.10109232366085052490e-01) (13, -9.19049456715583801270e-02) (14, -1.96059450507164001465e-01) (15, -1.50798678398132324219e-01) (16, -1.51184454560279846191e-01) (17, -7.58918449282646179199e-02) (18, -1.56892433762550354004e-01) (0, 1.74665391445159912109e-01) (1, 1.02318808436393737793e-01) (2, 1.19446329772472381592e-01) (3, 3.97853627800941467285e-02) (4, 2.16007053852081298828e-01) (5, 1.37259691953659057617e-01) (6, 9.90678891539573669434e-02) (7, 9.38149914145469665527e-02) (8, 9.81186181306838989258e-02) (9, 1.05418570339679718018e-01) (10, 1.80381625890731811523e-01) (11, 2.66202539205551147461e-02) (12, 9.59049314260482788086e-02) (13, 8.10640752315521240234e-02) (14, 2.19072222709655761719e-01) (15, 2.16918438673019409180e-01) (16, 7.97695368528366088867e-02) (17, 1.48264735937118530273e-01) (18, 2.66612917184829711914e-02) (19, 7.93891772627830505371e-02) (20, 1.34586542844772338867e-01) (21, 9.87335592508316040039e-02) (19, 1.40082031488418579102e-01) (20, 1.30157068371772766113e-01) (21, 2.08624333143234252930e-01) 
