FANN_FLO_2.1
num_layers=3
learning_rate=0.100000
connection_rate=1.000000
network_type=0
learning_momentum=0.000000
training_algorithm=2
train_error_function=1
train_stop_function=0
cascade_output_change_fraction=0.010000
quickprop_decay=-0.000100
quickprop_mu=1.750000
rprop_increase_factor=1.200000
rprop_decrease_factor=0.500000
rprop_delta_min=0.000000
rprop_delta_max=50.000000
rprop_delta_zero=0.100000
cascade_output_stagnation_epochs=12
cascade_candidate_change_fraction=0.010000
cascade_candidate_stagnation_epochs=12
cascade_max_out_epochs=150
cascade_min_out_epochs=50
cascade_max_cand_epochs=150
cascade_min_cand_epochs=50
cascade_num_candidate_groups=2
bit_fail_limit=3.49999994039535522461e-01
cascade_candidate_limit=1.00000000000000000000e+03
cascade_weight_multiplier=4.00000005960464477539e-01
cascade_activation_functions_count=10
cascade_activation_functions=3 5 7 8 10 11 14 15 16 17 
cascade_activation_steepnesses_count=4
cascade_activation_steepnesses=2.50000000000000000000e-01 5.00000000000000000000e-01 7.50000000000000000000e-01 1.00000000000000000000e+00 
layer_sizes=19 3 3 
scale_included=0
neurons (num_inputs, activation_function, activation_steepness)=(0, 0, 0.00000000000000000000e+00) (0, 0, 0.00000000000000000000e+00) (0, 0, 0.00000000000000000000e+00) (0, 0, 0.00000000000000000000e+00) (0, 0, 0.00000000000000000000e+00) (0, 0, 0.00000000000000000000e+00) (0, 0, 0.00000000000000000000e+00) (0, 0, 0.00000000000000000000e+00) (0, 0, 0.00000000000000000000e+00) (0, 0, 0.00000000000000000000e+00) (0, 0, 0.00000000000000000000e+00) (0, 0, 0.00000000000000000000e+00) (0, 0, 0.00000000000000000000e+00) (0, 0, 0.00000000000000000000e+00) (0, 0, 0.00000000000000000000e+00) (0, 0, 0.00000000000000000000e+00) (0, 0, 0.00000000000000000000e+00) (0, 0, 0.00000000000000000000e+00) (0, 0, 0.00000000000000000000e+00) (19, 3, 5.00000000000000000000e-01) (19, 3, 5.00000000000000000000e-01) (0, 3, 0.00000000000000000000e+00) (3, 0, 5.00000000000000000000e-01) (3, 0, 5.00000000000000000000e-01) (0, 0, 0.00000000000000000000e+00) 
connections (connected_to_neuron, weight)=(0, 2.11388692259788513184e-02) (1, 1.38659328222274780273e-01) (2, 6.23057931661605834961e-02) (3, 1.71690225601196289062e-01) (4, 1.87367439270019531250e-01) (5, 9.14241150021553039551e-02) (6, 3.29177677631378173828e-02) (7, 3.23244631290435791016e-02) (8, 8.86837244033813476562e-02) (9, 1.41972675919532775879e-01) (10, 1.82614803314208984375e-01) (11, 8.54126065969467163086e-02) (12, 1.70850336551666259766e-01) (13, 1.19703970849514007568e-01) (14, 1.75520420074462890625e-01) (15, 2.85392552614212036133e-02) (16, 7.89724439382553100586e-02) (17, 1.42631158232688903809e-01) (18, 2.04870074987411499023e-01) (0, 5.36038279533386230469e-02) (1, 1.59346580505371093750e-01) (2, 1.35728687047958374023e-01) (3, 4.97374981641769409180e-02) (4, 2.82444581389427185059e-02) (5, 2.40849629044532775879e-02) (6, 1.50614440441131591797e-01) (7, 3.03137749433517456055e-02) (8, 5.93563094735145568848e-02) (9, 6.56436011195182800293e-02) (10, 9.24108922481536865234e-02) (11, 2.46157571673393249512e-02) (12, 6.67824670672416687012e-02) (13, 2.11070209741592407227e-01) (14, 6.69215470552444458008e-02) (15, 2.18472689390182495117e-01) (16, 1.78437680006027221680e-01) (17, 1.38345658779144287109e-01) (18, 3.13904508948326110840e-02) (19, 1.90762132406234741211e-01) (20, 2.07029372453689575195e-01) (21, 1.53363138437271118164e-01) (19, 1.53376936912536621094e-01) (20, 7.24419802427291870117e-02) (21, 1.04213461279869079590e-01) 
