FANN_FLO_2.1
num_layers=3
learning_rate=0.100000
connection_rate=1.000000
network_type=0
learning_momentum=0.000000
training_algorithm=2
train_error_function=1
train_stop_function=0
cascade_output_change_fraction=0.010000
quickprop_decay=-0.000100
quickprop_mu=1.750000
rprop_increase_factor=1.200000
rprop_decrease_factor=0.500000
rprop_delta_min=0.000000
rprop_delta_max=50.000000
rprop_delta_zero=0.100000
cascade_output_stagnation_epochs=12
cascade_candidate_change_fraction=0.010000
cascade_candidate_stagnation_epochs=12
cascade_max_out_epochs=150
cascade_min_out_epochs=50
cascade_max_cand_epochs=150
cascade_min_cand_epochs=50
cascade_num_candidate_groups=2
bit_fail_limit=3.49999994039535522461e-01
cascade_candidate_limit=1.00000000000000000000e+03
cascade_weight_multiplier=4.00000005960464477539e-01
cascade_activation_functions_count=10
cascade_activation_functions=3 5 7 8 10 11 14 15 16 17 
cascade_activation_steepnesses_count=4
cascade_activation_steepnesses=2.50000000000000000000e-01 5.00000000000000000000e-01 7.50000000000000000000e-01 1.00000000000000000000e+00 
layer_sizes=10 3 2 
scale_included=0
neurons (num_inputs, activation_function, activation_steepness)=(0, 0, 0.00000000000000000000e+00) (0, 0, 0.00000000000000000000e+00) (0, 0, 0.00000000000000000000e+00) (0, 0, 0.00000000000000000000e+00) (0, 0, 0.00000000000000000000e+00) (0, 0, 0.00000000000000000000e+00) (0, 0, 0.00000000000000000000e+00) (0, 0, 0.00000000000000000000e+00) (0, 0, 0.00000000000000000000e+00) (0, 0, 0.00000000000000000000e+00) (10, 3, 5.00000000000000000000e-01) (10, 3, 5.00000000000000000000e-01) (0, 3, 0.00000000000000000000e+00) (3, 0, 5.00000000000000000000e-01) (0, 0, 0.00000000000000000000e+00) 
connections (connected_to_neuron, weight)=(0, 7.67318755388259887695e-02) (1, 7.39288926124572753906e-02) (2, 2.13793039321899414062e-01) (3, 2.06226229667663574219e-01) (4, 1.61067754030227661133e-01) (5, 1.47271126508712768555e-01) (6, 1.78198218345642089844e-01) (7, 1.42856076359748840332e-01) (8, 1.83337509632110595703e-01) (9, 2.10934728384017944336e-01) (0, -3.83210405707359313965e-02) (1, -6.28378018736839294434e-02) (2, -1.64748698472976684570e-01) (3, -8.07020440697669982910e-02) (4, -1.82434335350990295410e-01) (5, -1.78511664271354675293e-01) (6, -9.62111502885818481445e-02) (7, -1.11200883984565734863e-01) (8, -1.34699687361717224121e-01) (9, -1.14497222006320953369e-01) (10, 1.53013110160827636719e-01) (11, 8.83274525403976440430e-02) (12, 2.11282849311828613281e-01) 
