FANN_FLO_2.1
num_layers=3
learning_rate=0.100000
connection_rate=1.000000
network_type=0
learning_momentum=0.000000
training_algorithm=2
train_error_function=1
train_stop_function=0
cascade_output_change_fraction=0.010000
quickprop_decay=-0.000100
quickprop_mu=1.750000
rprop_increase_factor=1.200000
rprop_decrease_factor=0.500000
rprop_delta_min=0.000000
rprop_delta_max=50.000000
rprop_delta_zero=0.100000
cascade_output_stagnation_epochs=12
cascade_candidate_change_fraction=0.010000
cascade_candidate_stagnation_epochs=12
cascade_max_out_epochs=150
cascade_min_out_epochs=50
cascade_max_cand_epochs=150
cascade_min_cand_epochs=50
cascade_num_candidate_groups=2
bit_fail_limit=3.49999994039535522461e-01
cascade_candidate_limit=1.00000000000000000000e+03
cascade_weight_multiplier=4.00000005960464477539e-01
cascade_activation_functions_count=10
cascade_activation_functions=3 5 7 8 10 11 14 15 16 17 
cascade_activation_steepnesses_count=4
cascade_activation_steepnesses=2.50000000000000000000e-01 5.00000000000000000000e-01 7.50000000000000000000e-01 1.00000000000000000000e+00 
layer_sizes=19 3 3 
scale_included=0
neurons (num_inputs, activation_function, activation_steepness)=(0, 0, 0.00000000000000000000e+00) (0, 0, 0.00000000000000000000e+00) (0, 0, 0.00000000000000000000e+00) (0, 0, 0.00000000000000000000e+00) (0, 0, 0.00000000000000000000e+00) (0, 0, 0.00000000000000000000e+00) (0, 0, 0.00000000000000000000e+00) (0, 0, 0.00000000000000000000e+00) (0, 0, 0.00000000000000000000e+00) (0, 0, 0.00000000000000000000e+00) (0, 0, 0.00000000000000000000e+00) (0, 0, 0.00000000000000000000e+00) (0, 0, 0.00000000000000000000e+00) (0, 0, 0.00000000000000000000e+00) (0, 0, 0.00000000000000000000e+00) (0, 0, 0.00000000000000000000e+00) (0, 0, 0.00000000000000000000e+00) (0, 0, 0.00000000000000000000e+00) (0, 0, 0.00000000000000000000e+00) (19, 3, 5.00000000000000000000e-01) (19, 3, 5.00000000000000000000e-01) (0, 3, 0.00000000000000000000e+00) (3, 0, 5.00000000000000000000e-01) (3, 0, 5.00000000000000000000e-01) (0, 0, 0.00000000000000000000e+00) 
connections (connected_to_neuron, weight)=(0, -9.47964712977409362793e-02) (1, -1.33775144815444946289e-01) (2, -1.71685576438903808594e-01) (3, -1.21039509773254394531e-01) (4, -1.58131331205368041992e-01) (5, -1.37139052152633666992e-01) (6, -3.04672494530677795410e-02) (7, -3.15288379788398742676e-02) (8, -1.51316702365875244141e-01) (9, -3.08290794491767883301e-02) (10, -1.52005165815353393555e-01) (11, -1.69821798801422119141e-01) (12, -1.97671413421630859375e-01) (13, -8.47717151045799255371e-02) (14, -3.13314124941825866699e-02) (15, -1.80240154266357421875e-01) (16, -7.63526782393455505371e-02) (17, -2.67239287495613098145e-02) (18, -1.31227001547813415527e-01) (0, -1.13531984388828277588e-01) (1, -1.73182636499404907227e-01) (2, -8.63800719380378723145e-02) (3, -1.89138516783714294434e-01) (4, -1.77155748009681701660e-01) (5, -8.36045071482658386230e-02) (6, -4.42345514893531799316e-02) (7, -8.72906967997550964355e-02) (8, -9.86745953559875488281e-02) (9, -1.03305958211421966553e-01) (10, -1.27382397651672363281e-01) (11, -1.31156682968139648438e-01) (12, -1.78102433681488037109e-01) (13, -4.11575362086296081543e-02) (14, -8.28422531485557556152e-02) (15, -7.91419222950935363770e-02) (16, -1.79288864135742187500e-01) (17, -1.99981302022933959961e-01) (18, -8.96091833710670471191e-02) (19, 4.91823181509971618652e-02) (20, 1.08702003955841064453e-01) (21, 1.39561757445335388184e-01) (19, 1.17177151143550872803e-01) (20, 1.58880203962326049805e-01) (21, 1.61890357732772827148e-01) 
