FANN_FLO_2.1
num_layers=3
learning_rate=0.100000
connection_rate=1.000000
network_type=0
learning_momentum=0.000000
training_algorithm=2
train_error_function=1
train_stop_function=0
cascade_output_change_fraction=0.010000
quickprop_decay=-0.000100
quickprop_mu=1.750000
rprop_increase_factor=1.200000
rprop_decrease_factor=0.500000
rprop_delta_min=0.000000
rprop_delta_max=50.000000
rprop_delta_zero=0.100000
cascade_output_stagnation_epochs=12
cascade_candidate_change_fraction=0.010000
cascade_candidate_stagnation_epochs=12
cascade_max_out_epochs=150
cascade_min_out_epochs=50
cascade_max_cand_epochs=150
cascade_min_cand_epochs=50
cascade_num_candidate_groups=2
bit_fail_limit=3.49999994039535522461e-01
cascade_candidate_limit=1.00000000000000000000e+03
cascade_weight_multiplier=4.00000005960464477539e-01
cascade_activation_functions_count=10
cascade_activation_functions=3 5 7 8 10 11 14 15 16 17 
cascade_activation_steepnesses_count=4
cascade_activation_steepnesses=2.50000000000000000000e-01 5.00000000000000000000e-01 7.50000000000000000000e-01 1.00000000000000000000e+00 
layer_sizes=19 3 3 
scale_included=0
neurons (num_inputs, activation_function, activation_steepness)=(0, 0, 0.00000000000000000000e+00) (0, 0, 0.00000000000000000000e+00) (0, 0, 0.00000000000000000000e+00) (0, 0, 0.00000000000000000000e+00) (0, 0, 0.00000000000000000000e+00) (0, 0, 0.00000000000000000000e+00) (0, 0, 0.00000000000000000000e+00) (0, 0, 0.00000000000000000000e+00) (0, 0, 0.00000000000000000000e+00) (0, 0, 0.00000000000000000000e+00) (0, 0, 0.00000000000000000000e+00) (0, 0, 0.00000000000000000000e+00) (0, 0, 0.00000000000000000000e+00) (0, 0, 0.00000000000000000000e+00) (0, 0, 0.00000000000000000000e+00) (0, 0, 0.00000000000000000000e+00) (0, 0, 0.00000000000000000000e+00) (0, 0, 0.00000000000000000000e+00) (0, 0, 0.00000000000000000000e+00) (19, 3, 5.00000000000000000000e-01) (19, 3, 5.00000000000000000000e-01) (0, 3, 0.00000000000000000000e+00) (3, 0, 5.00000000000000000000e-01) (3, 0, 5.00000000000000000000e-01) (0, 0, 0.00000000000000000000e+00) 
connections (connected_to_neuron, weight)=(0, 1.06192536652088165283e-01) (1, 1.17468364536762237549e-01) (2, 5.33409938216209411621e-02) (3, 9.42015349864959716797e-02) (4, 1.52237534523010253906e-01) (5, 1.53788685798645019531e-01) (6, 4.94000464677810668945e-02) (7, 8.86448994278907775879e-02) (8, 2.02124342322349548340e-02) (9, 8.90382081270217895508e-02) (10, 2.15009391307830810547e-01) (11, 1.53924196958541870117e-01) (12, 1.68686717748641967773e-01) (13, 1.39376997947692871094e-01) (14, 1.81371569633483886719e-01) (15, 2.06478089094161987305e-01) (16, 1.04264050722122192383e-01) (17, 9.67986360192298889160e-02) (18, 1.67747139930725097656e-01) (0, 7.81220048666000366211e-02) (1, -1.04861259460449218750e-01) (2, -3.95417436957359313965e-02) (3, 2.08977282047271728516e-01) (4, 1.83112412691116333008e-01) (5, -4.92572411894798278809e-02) (6, 1.82305485010147094727e-01) (7, -7.81489834189414978027e-02) (8, 1.01978480815887451172e-01) (9, 1.92169010639190673828e-01) (10, 1.01154729723930358887e-01) (11, -1.55644550919532775879e-01) (12, -1.61638483405113220215e-01) (13, -4.13769260048866271973e-02) (14, 1.17696456611156463623e-01) (15, 1.52563065290451049805e-01) (16, -1.09139367938041687012e-01) (17, -1.88514873385429382324e-01) (18, -5.80369159579277038574e-02) (19, 1.99505507946014404297e-01) (20, 5.16975671052932739258e-02) (21, 5.10012954473495483398e-02) (19, 1.94514900445938110352e-01) (20, 1.85621738433837890625e-01) (21, 1.99688017368316650391e-01) 
