FANN_FLO_2.1
num_layers=3
learning_rate=0.100000
connection_rate=1.000000
network_type=0
learning_momentum=0.000000
training_algorithm=2
train_error_function=1
train_stop_function=0
cascade_output_change_fraction=0.010000
quickprop_decay=-0.000100
quickprop_mu=1.750000
rprop_increase_factor=1.200000
rprop_decrease_factor=0.500000
rprop_delta_min=0.000000
rprop_delta_max=50.000000
rprop_delta_zero=0.100000
cascade_output_stagnation_epochs=12
cascade_candidate_change_fraction=0.010000
cascade_candidate_stagnation_epochs=12
cascade_max_out_epochs=150
cascade_min_out_epochs=50
cascade_max_cand_epochs=150
cascade_min_cand_epochs=50
cascade_num_candidate_groups=2
bit_fail_limit=3.49999994039535522461e-01
cascade_candidate_limit=1.00000000000000000000e+03
cascade_weight_multiplier=4.00000005960464477539e-01
cascade_activation_functions_count=10
cascade_activation_functions=3 5 7 8 10 11 14 15 16 17 
cascade_activation_steepnesses_count=4
cascade_activation_steepnesses=2.50000000000000000000e-01 5.00000000000000000000e-01 7.50000000000000000000e-01 1.00000000000000000000e+00 
layer_sizes=10 3 2 
scale_included=0
neurons (num_inputs, activation_function, activation_steepness)=(0, 0, 0.00000000000000000000e+00) (0, 0, 0.00000000000000000000e+00) (0, 0, 0.00000000000000000000e+00) (0, 0, 0.00000000000000000000e+00) (0, 0, 0.00000000000000000000e+00) (0, 0, 0.00000000000000000000e+00) (0, 0, 0.00000000000000000000e+00) (0, 0, 0.00000000000000000000e+00) (0, 0, 0.00000000000000000000e+00) (0, 0, 0.00000000000000000000e+00) (10, 3, 5.00000000000000000000e-01) (10, 3, 5.00000000000000000000e-01) (0, 3, 0.00000000000000000000e+00) (3, 0, 5.00000000000000000000e-01) (0, 0, 0.00000000000000000000e+00) 
connections (connected_to_neuron, weight)=(0, -1.95998966693878173828e-01) (1, -7.49618932604789733887e-02) (2, -3.70783582329750061035e-02) (3, -8.93850699067115783691e-02) (4, -2.11425215005874633789e-01) (5, -4.60699573159217834473e-02) (6, -1.29982173442840576172e-01) (7, -2.34203860163688659668e-02) (8, -8.39309468865394592285e-02) (9, -1.15887865424156188965e-01) (0, -9.56749171018600463867e-02) (1, -1.15267097949981689453e-01) (2, -8.42630192637443542480e-02) (3, -5.59525862336158752441e-02) (4, -1.48256257176399230957e-01) (5, -1.70331284403800964355e-01) (6, -2.16948881745338439941e-01) (7, -1.78540155291557312012e-01) (8, -6.67884871363639831543e-02) (9, -2.07919210195541381836e-01) (10, 1.10894612967967987061e-01) (11, 5.97239211201667785645e-02) (12, 3.08278948068618774414e-02) 
