FANN_FLO_2.1
num_layers=3
learning_rate=0.100000
connection_rate=1.000000
network_type=0
learning_momentum=0.000000
training_algorithm=2
train_error_function=1
train_stop_function=0
cascade_output_change_fraction=0.010000
quickprop_decay=-0.000100
quickprop_mu=1.750000
rprop_increase_factor=1.200000
rprop_decrease_factor=0.500000
rprop_delta_min=0.000000
rprop_delta_max=50.000000
rprop_delta_zero=0.100000
cascade_output_stagnation_epochs=12
cascade_candidate_change_fraction=0.010000
cascade_candidate_stagnation_epochs=12
cascade_max_out_epochs=150
cascade_min_out_epochs=50
cascade_max_cand_epochs=150
cascade_min_cand_epochs=50
cascade_num_candidate_groups=2
bit_fail_limit=3.49999994039535522461e-01
cascade_candidate_limit=1.00000000000000000000e+03
cascade_weight_multiplier=4.00000005960464477539e-01
cascade_activation_functions_count=10
cascade_activation_functions=3 5 7 8 10 11 14 15 16 17 
cascade_activation_steepnesses_count=4
cascade_activation_steepnesses=2.50000000000000000000e-01 5.00000000000000000000e-01 7.50000000000000000000e-01 1.00000000000000000000e+00 
layer_sizes=19 3 3 
scale_included=0
neurons (num_inputs, activation_function, activation_steepness)=(0, 0, 0.00000000000000000000e+00) (0, 0, 0.00000000000000000000e+00) (0, 0, 0.00000000000000000000e+00) (0, 0, 0.00000000000000000000e+00) (0, 0, 0.00000000000000000000e+00) (0, 0, 0.00000000000000000000e+00) (0, 0, 0.00000000000000000000e+00) (0, 0, 0.00000000000000000000e+00) (0, 0, 0.00000000000000000000e+00) (0, 0, 0.00000000000000000000e+00) (0, 0, 0.00000000000000000000e+00) (0, 0, 0.00000000000000000000e+00) (0, 0, 0.00000000000000000000e+00) (0, 0, 0.00000000000000000000e+00) (0, 0, 0.00000000000000000000e+00) (0, 0, 0.00000000000000000000e+00) (0, 0, 0.00000000000000000000e+00) (0, 0, 0.00000000000000000000e+00) (0, 0, 0.00000000000000000000e+00) (19, 3, 5.00000000000000000000e-01) (19, 3, 5.00000000000000000000e-01) (0, 3, 0.00000000000000000000e+00) (3, 0, 5.00000000000000000000e-01) (3, 0, 5.00000000000000000000e-01) (0, 0, 0.00000000000000000000e+00) 
connections (connected_to_neuron, weight)=(0, 4.33873087167739868164e-02) (1, 1.94253921508789062500e-01) (2, 1.16442009806632995605e-01) (3, 1.04394845664501190186e-01) (4, 2.40103527903556823730e-02) (5, 1.94285333156585693359e-01) (6, 8.76467600464820861816e-02) (7, 1.20733305811882019043e-01) (8, 1.29306286573410034180e-01) (9, 3.24993208050727844238e-02) (10, 5.89721128344535827637e-02) (11, 4.31547313928604125977e-02) (12, 4.81875389814376831055e-02) (13, 1.77005618810653686523e-01) (14, 1.80534839630126953125e-01) (15, 2.10213541984558105469e-01) (16, 4.49836701154708862305e-02) (17, 2.07768768072128295898e-01) (18, 3.18546146154403686523e-02) (0, 1.67274773120880126953e-01) (1, 8.73564034700393676758e-02) (2, 1.25015825033187866211e-01) (3, 2.37182527780532836914e-02) (4, 2.04160302877426147461e-01) (5, 1.44552186131477355957e-01) (6, 1.19867786765098571777e-01) (7, 1.49767190217971801758e-01) (8, 1.46804839372634887695e-01) (9, 3.95946130156517028809e-02) (10, 3.76693755388259887695e-02) (11, 1.60729885101318359375e-01) (12, 6.29819184541702270508e-02) (13, 2.11923301219940185547e-01) (14, 5.71718886494636535645e-02) (15, 1.47376775741577148438e-01) (16, 2.15933650732040405273e-01) (17, 3.14572006464004516602e-02) (18, 2.15023517608642578125e-01) (19, 1.16666957736015319824e-01) (20, 1.40763491392135620117e-01) (21, 2.75228321552276611328e-02) (19, 1.55639082193374633789e-01) (20, 1.63918226957321166992e-01) (21, 5.57103604078292846680e-02) 
