FANN_FLO_2.1
num_layers=3
learning_rate=0.100000
connection_rate=1.000000
network_type=0
learning_momentum=0.000000
training_algorithm=2
train_error_function=1
train_stop_function=0
cascade_output_change_fraction=0.010000
quickprop_decay=-0.000100
quickprop_mu=1.750000
rprop_increase_factor=1.200000
rprop_decrease_factor=0.500000
rprop_delta_min=0.000000
rprop_delta_max=50.000000
rprop_delta_zero=0.100000
cascade_output_stagnation_epochs=12
cascade_candidate_change_fraction=0.010000
cascade_candidate_stagnation_epochs=12
cascade_max_out_epochs=150
cascade_min_out_epochs=50
cascade_max_cand_epochs=150
cascade_min_cand_epochs=50
cascade_num_candidate_groups=2
bit_fail_limit=3.49999994039535522461e-01
cascade_candidate_limit=1.00000000000000000000e+03
cascade_weight_multiplier=4.00000005960464477539e-01
cascade_activation_functions_count=10
cascade_activation_functions=3 5 7 8 10 11 14 15 16 17 
cascade_activation_steepnesses_count=4
cascade_activation_steepnesses=2.50000000000000000000e-01 5.00000000000000000000e-01 7.50000000000000000000e-01 1.00000000000000000000e+00 
layer_sizes=19 3 3 
scale_included=0
neurons (num_inputs, activation_function, activation_steepness)=(0, 0, 0.00000000000000000000e+00) (0, 0, 0.00000000000000000000e+00) (0, 0, 0.00000000000000000000e+00) (0, 0, 0.00000000000000000000e+00) (0, 0, 0.00000000000000000000e+00) (0, 0, 0.00000000000000000000e+00) (0, 0, 0.00000000000000000000e+00) (0, 0, 0.00000000000000000000e+00) (0, 0, 0.00000000000000000000e+00) (0, 0, 0.00000000000000000000e+00) (0, 0, 0.00000000000000000000e+00) (0, 0, 0.00000000000000000000e+00) (0, 0, 0.00000000000000000000e+00) (0, 0, 0.00000000000000000000e+00) (0, 0, 0.00000000000000000000e+00) (0, 0, 0.00000000000000000000e+00) (0, 0, 0.00000000000000000000e+00) (0, 0, 0.00000000000000000000e+00) (0, 0, 0.00000000000000000000e+00) (19, 3, 5.00000000000000000000e-01) (19, 3, 5.00000000000000000000e-01) (0, 3, 0.00000000000000000000e+00) (3, 0, 5.00000000000000000000e-01) (3, 0, 5.00000000000000000000e-01) (0, 0, 0.00000000000000000000e+00) 
connections (connected_to_neuron, weight)=(0, -4.47209998965263366699e-02) (1, -1.19076609611511230469e-01) (2, -6.14168420433998107910e-02) (3, -1.95440173149108886719e-01) (4, -2.40099802613258361816e-02) (5, -1.88607215881347656250e-01) (6, -2.73570939898490905762e-02) (7, -2.08341255784034729004e-01) (8, -3.72932180762290954590e-02) (9, -1.49830818176269531250e-01) (10, -1.53645619750022888184e-01) (11, -1.55877292156219482422e-01) (12, -9.92786884307861328125e-02) (13, -2.20819339156150817871e-02) (14, -1.93858191370964050293e-01) (15, -8.15922543406486511230e-02) (16, -1.93977117538452148438e-01) (17, -2.17946380376815795898e-01) (18, -9.33571532368659973145e-02) (0, 1.40021532773971557617e-01) (1, 4.81240451335906982422e-02) (2, 1.81851983070373535156e-01) (3, 9.77015271782875061035e-02) (4, -1.59393474459648132324e-01) (5, -1.61871120333671569824e-01) (6, -4.24205139279365539551e-02) (7, -1.19004569947719573975e-01) (8, 1.26584336161613464355e-01) (9, -1.92702621221542358398e-01) (10, -8.93417671322822570801e-02) (11, -1.12345084547996520996e-01) (12, -2.17423647642135620117e-01) (13, 5.15816360712051391602e-02) (14, -1.53761923313140869141e-01) (15, 4.71362099051475524902e-02) (16, -1.92428350448608398438e-01) (17, 1.17630876600742340088e-01) (18, -2.00220882892608642578e-01) (19, 5.92304132878780364990e-02) (20, 1.00337661802768707275e-01) (21, 1.09948299825191497803e-01) (19, 1.25584796071052551270e-01) (20, 1.64460361003875732422e-01) (21, 3.06696146726608276367e-02) 
