FANN_FLO_2.1
num_layers=3
learning_rate=0.100000
connection_rate=1.000000
network_type=0
learning_momentum=0.000000
training_algorithm=2
train_error_function=1
train_stop_function=0
cascade_output_change_fraction=0.010000
quickprop_decay=-0.000100
quickprop_mu=1.750000
rprop_increase_factor=1.200000
rprop_decrease_factor=0.500000
rprop_delta_min=0.000000
rprop_delta_max=50.000000
rprop_delta_zero=0.100000
cascade_output_stagnation_epochs=12
cascade_candidate_change_fraction=0.010000
cascade_candidate_stagnation_epochs=12
cascade_max_out_epochs=150
cascade_min_out_epochs=50
cascade_max_cand_epochs=150
cascade_min_cand_epochs=50
cascade_num_candidate_groups=2
bit_fail_limit=3.49999994039535522461e-01
cascade_candidate_limit=1.00000000000000000000e+03
cascade_weight_multiplier=4.00000005960464477539e-01
cascade_activation_functions_count=10
cascade_activation_functions=3 5 7 8 10 11 14 15 16 17 
cascade_activation_steepnesses_count=4
cascade_activation_steepnesses=2.50000000000000000000e-01 5.00000000000000000000e-01 7.50000000000000000000e-01 1.00000000000000000000e+00 
layer_sizes=10 3 2 
scale_included=0
neurons (num_inputs, activation_function, activation_steepness)=(0, 0, 0.00000000000000000000e+00) (0, 0, 0.00000000000000000000e+00) (0, 0, 0.00000000000000000000e+00) (0, 0, 0.00000000000000000000e+00) (0, 0, 0.00000000000000000000e+00) (0, 0, 0.00000000000000000000e+00) (0, 0, 0.00000000000000000000e+00) (0, 0, 0.00000000000000000000e+00) (0, 0, 0.00000000000000000000e+00) (0, 0, 0.00000000000000000000e+00) (10, 3, 5.00000000000000000000e-01) (10, 3, 5.00000000000000000000e-01) (0, 3, 0.00000000000000000000e+00) (3, 0, 5.00000000000000000000e-01) (0, 0, 0.00000000000000000000e+00) 
connections (connected_to_neuron, weight)=(0, 6.29987493157386779785e-02) (1, 1.89936578273773193359e-01) (2, 1.08287438750267028809e-01) (3, 1.08608499169349670410e-01) (4, 1.67678266763687133789e-01) (5, 1.81465297937393188477e-01) (6, 1.17917694151401519775e-01) (7, 1.61505758762359619141e-01) (8, 2.13166296482086181641e-01) (9, 2.20668762922286987305e-02) (0, -1.24562382698059082031e-01) (1, -1.65935069322586059570e-01) (2, -1.25766068696975708008e-01) (3, -1.77231088280677795410e-01) (4, -8.97482261061668395996e-02) (5, -2.03238978981971740723e-01) (6, -1.03379048407077789307e-01) (7, -2.08959847688674926758e-01) (8, -8.40991511940956115723e-02) (9, -1.44469738006591796875e-01) (10, 1.24574899673461914062e-01) (11, 1.09799504280090332031e-01) (12, 6.06554932892322540283e-02) 
