FANN_FLO_2.1
num_layers=3
learning_rate=0.100000
connection_rate=1.000000
network_type=0
learning_momentum=0.000000
training_algorithm=2
train_error_function=1
train_stop_function=0
cascade_output_change_fraction=0.010000
quickprop_decay=-0.000100
quickprop_mu=1.750000
rprop_increase_factor=1.200000
rprop_decrease_factor=0.500000
rprop_delta_min=0.000000
rprop_delta_max=50.000000
rprop_delta_zero=0.100000
cascade_output_stagnation_epochs=12
cascade_candidate_change_fraction=0.010000
cascade_candidate_stagnation_epochs=12
cascade_max_out_epochs=150
cascade_min_out_epochs=50
cascade_max_cand_epochs=150
cascade_min_cand_epochs=50
cascade_num_candidate_groups=2
bit_fail_limit=3.49999994039535522461e-01
cascade_candidate_limit=1.00000000000000000000e+03
cascade_weight_multiplier=4.00000005960464477539e-01
cascade_activation_functions_count=10
cascade_activation_functions=3 5 7 8 10 11 14 15 16 17 
cascade_activation_steepnesses_count=4
cascade_activation_steepnesses=2.50000000000000000000e-01 5.00000000000000000000e-01 7.50000000000000000000e-01 1.00000000000000000000e+00 
layer_sizes=19 3 3 
scale_included=0
neurons (num_inputs, activation_function, activation_steepness)=(0, 0, 0.00000000000000000000e+00) (0, 0, 0.00000000000000000000e+00) (0, 0, 0.00000000000000000000e+00) (0, 0, 0.00000000000000000000e+00) (0, 0, 0.00000000000000000000e+00) (0, 0, 0.00000000000000000000e+00) (0, 0, 0.00000000000000000000e+00) (0, 0, 0.00000000000000000000e+00) (0, 0, 0.00000000000000000000e+00) (0, 0, 0.00000000000000000000e+00) (0, 0, 0.00000000000000000000e+00) (0, 0, 0.00000000000000000000e+00) (0, 0, 0.00000000000000000000e+00) (0, 0, 0.00000000000000000000e+00) (0, 0, 0.00000000000000000000e+00) (0, 0, 0.00000000000000000000e+00) (0, 0, 0.00000000000000000000e+00) (0, 0, 0.00000000000000000000e+00) (0, 0, 0.00000000000000000000e+00) (19, 3, 5.00000000000000000000e-01) (19, 3, 5.00000000000000000000e-01) (0, 3, 0.00000000000000000000e+00) (3, 0, 5.00000000000000000000e-01) (3, 0, 5.00000000000000000000e-01) (0, 0, 0.00000000000000000000e+00) 
connections (connected_to_neuron, weight)=(0, 2.10347592830657958984e-01) (1, 1.58473014831542968750e-01) (2, 1.38400048017501831055e-01) (3, 7.72194489836692810059e-02) (4, 5.67187964916229248047e-02) (5, 7.98551589250564575195e-02) (6, 1.12027347087860107422e-01) (7, 6.56125098466873168945e-02) (8, 2.18812525272369384766e-02) (9, 6.94075524806976318359e-02) (10, 1.98238134384155273438e-01) (11, 1.12038530409336090088e-01) (12, 2.11315691471099853516e-01) (13, 2.11327016353607177734e-01) (14, 6.48195743560791015625e-02) (15, 1.33525580167770385742e-01) (16, 1.68981194496154785156e-01) (17, 9.14019718766212463379e-02) (18, 3.07924300432205200195e-02) (0, 1.92065775394439697266e-01) (1, 9.75459069013595581055e-02) (2, 1.56010806560516357422e-01) (3, 1.77841722965240478516e-01) (4, 4.89794537425041198730e-02) (5, -9.21577140688896179199e-02) (6, 1.41187578439712524414e-01) (7, 2.94946581125259399414e-02) (8, 1.43499597907066345215e-01) (9, 1.27181708812713623047e-01) (10, 1.21563591063022613525e-01) (11, -1.18311263620853424072e-01) (12, 1.17529302835464477539e-01) (13, 6.00366033613681793213e-02) (14, -1.99911206960678100586e-01) (15, 1.74748748540878295898e-01) (16, 9.67554003000259399414e-02) (17, 9.99439507722854614258e-02) (18, 6.67760893702507019043e-02) (19, 1.42367899417877197266e-01) (20, 1.01825192570686340332e-01) (21, 1.16183638572692871094e-01) (19, 1.20606042444705963135e-01) (20, 1.93863719701766967773e-01) (21, 1.07499338686466217041e-01) 
