FANN_FLO_2.1
num_layers=3
learning_rate=0.100000
connection_rate=1.000000
network_type=0
learning_momentum=0.000000
training_algorithm=2
train_error_function=1
train_stop_function=0
cascade_output_change_fraction=0.010000
quickprop_decay=-0.000100
quickprop_mu=1.750000
rprop_increase_factor=1.200000
rprop_decrease_factor=0.500000
rprop_delta_min=0.000000
rprop_delta_max=50.000000
rprop_delta_zero=0.100000
cascade_output_stagnation_epochs=12
cascade_candidate_change_fraction=0.010000
cascade_candidate_stagnation_epochs=12
cascade_max_out_epochs=150
cascade_min_out_epochs=50
cascade_max_cand_epochs=150
cascade_min_cand_epochs=50
cascade_num_candidate_groups=2
bit_fail_limit=3.49999994039535522461e-01
cascade_candidate_limit=1.00000000000000000000e+03
cascade_weight_multiplier=4.00000005960464477539e-01
cascade_activation_functions_count=10
cascade_activation_functions=3 5 7 8 10 11 14 15 16 17 
cascade_activation_steepnesses_count=4
cascade_activation_steepnesses=2.50000000000000000000e-01 5.00000000000000000000e-01 7.50000000000000000000e-01 1.00000000000000000000e+00 
layer_sizes=19 3 3 
scale_included=0
neurons (num_inputs, activation_function, activation_steepness)=(0, 0, 0.00000000000000000000e+00) (0, 0, 0.00000000000000000000e+00) (0, 0, 0.00000000000000000000e+00) (0, 0, 0.00000000000000000000e+00) (0, 0, 0.00000000000000000000e+00) (0, 0, 0.00000000000000000000e+00) (0, 0, 0.00000000000000000000e+00) (0, 0, 0.00000000000000000000e+00) (0, 0, 0.00000000000000000000e+00) (0, 0, 0.00000000000000000000e+00) (0, 0, 0.00000000000000000000e+00) (0, 0, 0.00000000000000000000e+00) (0, 0, 0.00000000000000000000e+00) (0, 0, 0.00000000000000000000e+00) (0, 0, 0.00000000000000000000e+00) (0, 0, 0.00000000000000000000e+00) (0, 0, 0.00000000000000000000e+00) (0, 0, 0.00000000000000000000e+00) (0, 0, 0.00000000000000000000e+00) (19, 3, 5.00000000000000000000e-01) (19, 3, 5.00000000000000000000e-01) (0, 3, 0.00000000000000000000e+00) (3, 0, 5.00000000000000000000e-01) (3, 0, 5.00000000000000000000e-01) (0, 0, 0.00000000000000000000e+00) 
connections (connected_to_neuron, weight)=(0, -1.18847273290157318115e-01) (1, -2.02151939272880554199e-01) (2, -1.51755809783935546875e-01) (3, -7.44450613856315612793e-02) (4, -2.03120723366737365723e-01) (5, -1.10057950019836425781e-01) (6, -5.88169917464256286621e-02) (7, -2.04913035035133361816e-01) (8, -2.07740783691406250000e-01) (9, -5.36899045109748840332e-02) (10, -1.81953698396682739258e-01) (11, -4.63917031884193420410e-02) (12, -7.35297575592994689941e-02) (13, -1.76439166069030761719e-01) (14, -9.23805162310600280762e-02) (15, -1.75516277551651000977e-01) (16, -9.82119441032409667969e-02) (17, -1.32900416851043701172e-01) (18, -1.17641106247901916504e-01) (0, 3.34030687808990478516e-02) (1, 7.73196369409561157227e-02) (2, 1.54178649187088012695e-01) (3, 1.31068080663681030273e-01) (4, 8.59467685222625732422e-02) (5, 6.14558123052120208740e-02) (6, 2.11175382137298583984e-01) (7, 6.40038847923278808594e-02) (8, 9.03885886073112487793e-02) (9, 2.19185978174209594727e-01) (10, 1.85136973857879638672e-01) (11, 2.06804007291793823242e-01) (12, 1.20338715612888336182e-01) (13, 2.02985048294067382812e-01) (14, 7.50482007861137390137e-02) (15, 6.58936575055122375488e-02) (16, 2.19864308834075927734e-01) (17, 1.84990257024765014648e-01) (18, 2.70766615867614746094e-02) (19, 3.49512919783592224121e-02) (20, 1.97249472141265869141e-01) (21, 1.93386763334274291992e-01) (19, 7.29976147413253784180e-02) (20, 1.70857787132263183594e-01) (21, 1.39857023954391479492e-01) 
