FANN_FLO_2.1
num_layers=3
learning_rate=0.100000
connection_rate=1.000000
network_type=0
learning_momentum=0.000000
training_algorithm=2
train_error_function=1
train_stop_function=0
cascade_output_change_fraction=0.010000
quickprop_decay=-0.000100
quickprop_mu=1.750000
rprop_increase_factor=1.200000
rprop_decrease_factor=0.500000
rprop_delta_min=0.000000
rprop_delta_max=50.000000
rprop_delta_zero=0.100000
cascade_output_stagnation_epochs=12
cascade_candidate_change_fraction=0.010000
cascade_candidate_stagnation_epochs=12
cascade_max_out_epochs=150
cascade_min_out_epochs=50
cascade_max_cand_epochs=150
cascade_min_cand_epochs=50
cascade_num_candidate_groups=2
bit_fail_limit=3.49999994039535522461e-01
cascade_candidate_limit=1.00000000000000000000e+03
cascade_weight_multiplier=4.00000005960464477539e-01
cascade_activation_functions_count=10
cascade_activation_functions=3 5 7 8 10 11 14 15 16 17 
cascade_activation_steepnesses_count=4
cascade_activation_steepnesses=2.50000000000000000000e-01 5.00000000000000000000e-01 7.50000000000000000000e-01 1.00000000000000000000e+00 
layer_sizes=10 3 2 
scale_included=0
neurons (num_inputs, activation_function, activation_steepness)=(0, 0, 0.00000000000000000000e+00) (0, 0, 0.00000000000000000000e+00) (0, 0, 0.00000000000000000000e+00) (0, 0, 0.00000000000000000000e+00) (0, 0, 0.00000000000000000000e+00) (0, 0, 0.00000000000000000000e+00) (0, 0, 0.00000000000000000000e+00) (0, 0, 0.00000000000000000000e+00) (0, 0, 0.00000000000000000000e+00) (0, 0, 0.00000000000000000000e+00) (10, 3, 5.00000000000000000000e-01) (10, 3, 5.00000000000000000000e-01) (0, 3, 0.00000000000000000000e+00) (3, 0, 5.00000000000000000000e-01) (0, 0, 0.00000000000000000000e+00) 
connections (connected_to_neuron, weight)=(0, -6.97914436459541320801e-02) (1, -1.19388654828071594238e-01) (2, -1.03767670691013336182e-01) (3, -1.01712390780448913574e-01) (4, -1.61844864487648010254e-01) (5, -1.93360000848770141602e-01) (6, -2.10341542959213256836e-01) (7, -2.66849473118782043457e-02) (8, -2.00859129428863525391e-01) (9, -7.52626433968544006348e-02) (0, 2.11129248142242431641e-01) (1, 1.39548510313034057617e-01) (2, 1.71270072460174560547e-01) (3, 1.22805044054985046387e-01) (4, 8.69738310575485229492e-02) (5, 5.77669255435466766357e-02) (6, 3.94012778997421264648e-02) (7, 4.19510379433631896973e-02) (8, 8.10751318931579589844e-02) (9, 3.94500344991683959961e-02) (10, 2.81713232398033142090e-02) (11, 1.68758273124694824219e-01) (12, 1.77598536014556884766e-01) 
