FANN_FLO_2.1
num_layers=3
learning_rate=0.100000
connection_rate=1.000000
network_type=0
learning_momentum=0.000000
training_algorithm=2
train_error_function=1
train_stop_function=0
cascade_output_change_fraction=0.010000
quickprop_decay=-0.000100
quickprop_mu=1.750000
rprop_increase_factor=1.200000
rprop_decrease_factor=0.500000
rprop_delta_min=0.000000
rprop_delta_max=50.000000
rprop_delta_zero=0.100000
cascade_output_stagnation_epochs=12
cascade_candidate_change_fraction=0.010000
cascade_candidate_stagnation_epochs=12
cascade_max_out_epochs=150
cascade_min_out_epochs=50
cascade_max_cand_epochs=150
cascade_min_cand_epochs=50
cascade_num_candidate_groups=2
bit_fail_limit=3.49999994039535522461e-01
cascade_candidate_limit=1.00000000000000000000e+03
cascade_weight_multiplier=4.00000005960464477539e-01
cascade_activation_functions_count=10
cascade_activation_functions=3 5 7 8 10 11 14 15 16 17 
cascade_activation_steepnesses_count=4
cascade_activation_steepnesses=2.50000000000000000000e-01 5.00000000000000000000e-01 7.50000000000000000000e-01 1.00000000000000000000e+00 
layer_sizes=10 3 2 
scale_included=0
neurons (num_inputs, activation_function, activation_steepness)=(0, 0, 0.00000000000000000000e+00) (0, 0, 0.00000000000000000000e+00) (0, 0, 0.00000000000000000000e+00) (0, 0, 0.00000000000000000000e+00) (0, 0, 0.00000000000000000000e+00) (0, 0, 0.00000000000000000000e+00) (0, 0, 0.00000000000000000000e+00) (0, 0, 0.00000000000000000000e+00) (0, 0, 0.00000000000000000000e+00) (0, 0, 0.00000000000000000000e+00) (10, 3, 5.00000000000000000000e-01) (10, 3, 5.00000000000000000000e-01) (0, 3, 0.00000000000000000000e+00) (3, 0, 5.00000000000000000000e-01) (0, 0, 0.00000000000000000000e+00) 
connections (connected_to_neuron, weight)=(0, 6.59789592027664184570e-02) (1, 1.18217460811138153076e-01) (2, 4.86255958676338195801e-02) (3, 7.64141529798507690430e-02) (4, 1.76218241453170776367e-01) (5, 1.15504793822765350342e-01) (6, 1.78437888622283935547e-01) (7, 1.98601394891738891602e-01) (8, 1.08091302216053009033e-01) (9, 4.61014211177825927734e-02) (0, -2.47532054781913757324e-02) (1, -1.47601008415222167969e-01) (2, -1.87540203332901000977e-01) (3, -1.94937616586685180664e-01) (4, -1.99525862932205200195e-01) (5, -2.05362915992736816406e-01) (6, -7.84928873181343078613e-02) (7, -1.16825804114341735840e-01) (8, -2.00760290026664733887e-01) (9, -3.09835597872734069824e-02) (10, 1.43232971429824829102e-01) (11, 9.11343097686767578125e-02) (12, 8.94740298390388488770e-02) 
