FANN_FLO_2.1
num_layers=3
learning_rate=0.100000
connection_rate=1.000000
network_type=0
learning_momentum=0.000000
training_algorithm=2
train_error_function=1
train_stop_function=0
cascade_output_change_fraction=0.010000
quickprop_decay=-0.000100
quickprop_mu=1.750000
rprop_increase_factor=1.200000
rprop_decrease_factor=0.500000
rprop_delta_min=0.000000
rprop_delta_max=50.000000
rprop_delta_zero=0.100000
cascade_output_stagnation_epochs=12
cascade_candidate_change_fraction=0.010000
cascade_candidate_stagnation_epochs=12
cascade_max_out_epochs=150
cascade_min_out_epochs=50
cascade_max_cand_epochs=150
cascade_min_cand_epochs=50
cascade_num_candidate_groups=2
bit_fail_limit=3.49999994039535522461e-01
cascade_candidate_limit=1.00000000000000000000e+03
cascade_weight_multiplier=4.00000005960464477539e-01
cascade_activation_functions_count=10
cascade_activation_functions=3 5 7 8 10 11 14 15 16 17 
cascade_activation_steepnesses_count=4
cascade_activation_steepnesses=2.50000000000000000000e-01 5.00000000000000000000e-01 7.50000000000000000000e-01 1.00000000000000000000e+00 
layer_sizes=19 3 3 
scale_included=0
neurons (num_inputs, activation_function, activation_steepness)=(0, 0, 0.00000000000000000000e+00) (0, 0, 0.00000000000000000000e+00) (0, 0, 0.00000000000000000000e+00) (0, 0, 0.00000000000000000000e+00) (0, 0, 0.00000000000000000000e+00) (0, 0, 0.00000000000000000000e+00) (0, 0, 0.00000000000000000000e+00) (0, 0, 0.00000000000000000000e+00) (0, 0, 0.00000000000000000000e+00) (0, 0, 0.00000000000000000000e+00) (0, 0, 0.00000000000000000000e+00) (0, 0, 0.00000000000000000000e+00) (0, 0, 0.00000000000000000000e+00) (0, 0, 0.00000000000000000000e+00) (0, 0, 0.00000000000000000000e+00) (0, 0, 0.00000000000000000000e+00) (0, 0, 0.00000000000000000000e+00) (0, 0, 0.00000000000000000000e+00) (0, 0, 0.00000000000000000000e+00) (19, 3, 5.00000000000000000000e-01) (19, 3, 5.00000000000000000000e-01) (0, 3, 0.00000000000000000000e+00) (3, 0, 5.00000000000000000000e-01) (3, 0, 5.00000000000000000000e-01) (0, 0, 0.00000000000000000000e+00) 
connections (connected_to_neuron, weight)=(0, -2.03309118747711181641e-01) (1, -1.96309447288513183594e-01) (2, -8.86323079466819763184e-02) (3, -8.10806378722190856934e-02) (4, -1.38293772935867309570e-01) (5, -2.14065551757812500000e-01) (6, -1.68702736496925354004e-01) (7, -1.87733456492424011230e-01) (8, -1.75365537405014038086e-01) (9, -3.09716388583183288574e-02) (10, -3.33310440182685852051e-02) (11, -3.40560004115104675293e-02) (12, -2.17943534255027770996e-01) (13, -4.61469516158103942871e-02) (14, -1.29503831267356872559e-01) (15, -1.66364431381225585938e-01) (16, -4.68900129199028015137e-02) (17, -1.53408631682395935059e-01) (18, -2.06851929426193237305e-01) (0, 2.02500402927398681641e-01) (1, 1.77754938602447509766e-01) (2, 1.21859475970268249512e-01) (3, 1.80309057235717773438e-01) (4, 5.73038607835769653320e-02) (5, 2.15098172426223754883e-01) (6, 8.85209739208221435547e-02) (7, 1.16855837404727935791e-01) (8, 2.54204273223876953125e-02) (9, 6.40015229582786560059e-02) (10, 1.35836169123649597168e-01) (11, 2.12518751621246337891e-01) (12, 8.06924104690551757812e-02) (13, 1.59526735544204711914e-01) (14, 1.43886446952819824219e-01) (15, 2.19611763954162597656e-01) (16, 4.12329807877540588379e-02) (17, 1.49820894002914428711e-01) (18, 7.09090456366539001465e-02) (19, 7.34995305538177490234e-02) (20, 1.94455355405807495117e-01) (21, 5.99373988807201385498e-02) (19, 6.01684935390949249268e-02) (20, 1.80399358272552490234e-01) (21, 6.19938671588897705078e-02) 
