FANN_FLO_2.1
num_layers=3
learning_rate=0.100000
connection_rate=1.000000
network_type=0
learning_momentum=0.000000
training_algorithm=2
train_error_function=1
train_stop_function=0
cascade_output_change_fraction=0.010000
quickprop_decay=-0.000100
quickprop_mu=1.750000
rprop_increase_factor=1.200000
rprop_decrease_factor=0.500000
rprop_delta_min=0.000000
rprop_delta_max=50.000000
rprop_delta_zero=0.100000
cascade_output_stagnation_epochs=12
cascade_candidate_change_fraction=0.010000
cascade_candidate_stagnation_epochs=12
cascade_max_out_epochs=150
cascade_min_out_epochs=50
cascade_max_cand_epochs=150
cascade_min_cand_epochs=50
cascade_num_candidate_groups=2
bit_fail_limit=3.49999994039535522461e-01
cascade_candidate_limit=1.00000000000000000000e+03
cascade_weight_multiplier=4.00000005960464477539e-01
cascade_activation_functions_count=10
cascade_activation_functions=3 5 7 8 10 11 14 15 16 17 
cascade_activation_steepnesses_count=4
cascade_activation_steepnesses=2.50000000000000000000e-01 5.00000000000000000000e-01 7.50000000000000000000e-01 1.00000000000000000000e+00 
layer_sizes=19 3 3 
scale_included=0
neurons (num_inputs, activation_function, activation_steepness)=(0, 0, 0.00000000000000000000e+00) (0, 0, 0.00000000000000000000e+00) (0, 0, 0.00000000000000000000e+00) (0, 0, 0.00000000000000000000e+00) (0, 0, 0.00000000000000000000e+00) (0, 0, 0.00000000000000000000e+00) (0, 0, 0.00000000000000000000e+00) (0, 0, 0.00000000000000000000e+00) (0, 0, 0.00000000000000000000e+00) (0, 0, 0.00000000000000000000e+00) (0, 0, 0.00000000000000000000e+00) (0, 0, 0.00000000000000000000e+00) (0, 0, 0.00000000000000000000e+00) (0, 0, 0.00000000000000000000e+00) (0, 0, 0.00000000000000000000e+00) (0, 0, 0.00000000000000000000e+00) (0, 0, 0.00000000000000000000e+00) (0, 0, 0.00000000000000000000e+00) (0, 0, 0.00000000000000000000e+00) (19, 3, 5.00000000000000000000e-01) (19, 3, 5.00000000000000000000e-01) (0, 3, 0.00000000000000000000e+00) (3, 0, 5.00000000000000000000e-01) (3, 0, 5.00000000000000000000e-01) (0, 0, 0.00000000000000000000e+00) 
connections (connected_to_neuron, weight)=(0, -2.16813504695892333984e-01) (1, -1.78630799055099487305e-01) (2, -1.76684096455574035645e-01) (3, -1.47786632180213928223e-01) (4, -1.26633673906326293945e-01) (5, -2.21793577075004577637e-02) (6, -1.83255285024642944336e-01) (7, -1.75663352012634277344e-01) (8, -1.43405720591545104980e-01) (9, -1.97669357061386108398e-01) (10, -2.88761928677558898926e-02) (11, -1.38769626617431640625e-01) (12, -8.59447792172431945801e-02) (13, -1.78643956780433654785e-01) (14, -1.66253238916397094727e-01) (15, -7.72734209895133972168e-02) (16, -5.49596622586250305176e-02) (17, -6.79969117045402526855e-02) (18, -1.04060530662536621094e-01) (0, -1.99117392301559448242e-01) (1, -1.87069118022918701172e-01) (2, -1.78550049662590026855e-01) (3, -1.95387870073318481445e-01) (4, -1.25563740730285644531e-01) (5, -3.85766997933387756348e-02) (6, -1.16203084588050842285e-01) (7, -7.02322348952293395996e-02) (8, -3.57378050684928894043e-02) (9, -1.64859116077423095703e-01) (10, -1.80442020297050476074e-01) (11, -1.21281519532203674316e-01) (12, -1.61672621965408325195e-01) (13, -1.39072805643081665039e-01) (14, -7.79656097292900085449e-02) (15, -8.94592329859733581543e-02) (16, -4.57064732909202575684e-02) (17, -8.01449641585350036621e-02) (18, -5.27145192027091979980e-02) (19, 3.86301875114440917969e-02) (20, 3.64493280649185180664e-02) (21, 2.09616124629974365234e-01) (19, 2.97539904713630676270e-02) (20, 1.17679700255393981934e-01) (21, 1.43671363592147827148e-01) 
