FANN_FLO_2.1
num_layers=3
learning_rate=0.100000
connection_rate=1.000000
network_type=0
learning_momentum=0.000000
training_algorithm=2
train_error_function=1
train_stop_function=0
cascade_output_change_fraction=0.010000
quickprop_decay=-0.000100
quickprop_mu=1.750000
rprop_increase_factor=1.200000
rprop_decrease_factor=0.500000
rprop_delta_min=0.000000
rprop_delta_max=50.000000
rprop_delta_zero=0.100000
cascade_output_stagnation_epochs=12
cascade_candidate_change_fraction=0.010000
cascade_candidate_stagnation_epochs=12
cascade_max_out_epochs=150
cascade_min_out_epochs=50
cascade_max_cand_epochs=150
cascade_min_cand_epochs=50
cascade_num_candidate_groups=2
bit_fail_limit=3.49999994039535522461e-01
cascade_candidate_limit=1.00000000000000000000e+03
cascade_weight_multiplier=4.00000005960464477539e-01
cascade_activation_functions_count=10
cascade_activation_functions=3 5 7 8 10 11 14 15 16 17 
cascade_activation_steepnesses_count=4
cascade_activation_steepnesses=2.50000000000000000000e-01 5.00000000000000000000e-01 7.50000000000000000000e-01 1.00000000000000000000e+00 
layer_sizes=10 3 2 
scale_included=0
neurons (num_inputs, activation_function, activation_steepness)=(0, 0, 0.00000000000000000000e+00) (0, 0, 0.00000000000000000000e+00) (0, 0, 0.00000000000000000000e+00) (0, 0, 0.00000000000000000000e+00) (0, 0, 0.00000000000000000000e+00) (0, 0, 0.00000000000000000000e+00) (0, 0, 0.00000000000000000000e+00) (0, 0, 0.00000000000000000000e+00) (0, 0, 0.00000000000000000000e+00) (0, 0, 0.00000000000000000000e+00) (10, 3, 5.00000000000000000000e-01) (10, 3, 5.00000000000000000000e-01) (0, 3, 0.00000000000000000000e+00) (3, 0, 5.00000000000000000000e-01) (0, 0, 0.00000000000000000000e+00) 
connections (connected_to_neuron, weight)=(0, -1.50953695178031921387e-01) (1, -1.65492042899131774902e-01) (2, -5.55172488093376159668e-02) (3, -2.05203831195831298828e-01) (4, -1.01384557783603668213e-01) (5, -1.05625011026859283447e-01) (6, -1.37219682335853576660e-01) (7, -2.08137601613998413086e-01) (8, -6.81354030966758728027e-02) (9, -1.06907807290554046631e-01) (0, 2.04484939575195312500e-01) (1, 1.29890084266662597656e-01) (2, 1.10004812479019165039e-01) (3, 6.75901323556900024414e-02) (4, 1.51802957057952880859e-01) (5, 2.99345552921295166016e-02) (6, 2.70511135458946228027e-02) (7, 4.69012260437011718750e-02) (8, 4.34824675321578979492e-02) (9, 2.02401846647262573242e-01) (10, 8.44320803880691528320e-02) (11, 1.95604264736175537109e-01) (12, 1.43200069665908813477e-01) 
