FANN_FLO_2.1
num_layers=3
learning_rate=0.100000
connection_rate=1.000000
network_type=0
learning_momentum=0.000000
training_algorithm=2
train_error_function=1
train_stop_function=0
cascade_output_change_fraction=0.010000
quickprop_decay=-0.000100
quickprop_mu=1.750000
rprop_increase_factor=1.200000
rprop_decrease_factor=0.500000
rprop_delta_min=0.000000
rprop_delta_max=50.000000
rprop_delta_zero=0.100000
cascade_output_stagnation_epochs=12
cascade_candidate_change_fraction=0.010000
cascade_candidate_stagnation_epochs=12
cascade_max_out_epochs=150
cascade_min_out_epochs=50
cascade_max_cand_epochs=150
cascade_min_cand_epochs=50
cascade_num_candidate_groups=2
bit_fail_limit=3.49999994039535522461e-01
cascade_candidate_limit=1.00000000000000000000e+03
cascade_weight_multiplier=4.00000005960464477539e-01
cascade_activation_functions_count=10
cascade_activation_functions=3 5 7 8 10 11 14 15 16 17 
cascade_activation_steepnesses_count=4
cascade_activation_steepnesses=2.50000000000000000000e-01 5.00000000000000000000e-01 7.50000000000000000000e-01 1.00000000000000000000e+00 
layer_sizes=10 3 2 
scale_included=0
neurons (num_inputs, activation_function, activation_steepness)=(0, 0, 0.00000000000000000000e+00) (0, 0, 0.00000000000000000000e+00) (0, 0, 0.00000000000000000000e+00) (0, 0, 0.00000000000000000000e+00) (0, 0, 0.00000000000000000000e+00) (0, 0, 0.00000000000000000000e+00) (0, 0, 0.00000000000000000000e+00) (0, 0, 0.00000000000000000000e+00) (0, 0, 0.00000000000000000000e+00) (0, 0, 0.00000000000000000000e+00) (10, 3, 5.00000000000000000000e-01) (10, 3, 5.00000000000000000000e-01) (0, 3, 0.00000000000000000000e+00) (3, 0, 5.00000000000000000000e-01) (0, 0, 0.00000000000000000000e+00) 
connections (connected_to_neuron, weight)=(0, -1.52068853378295898438e-01) (1, -6.36684969067573547363e-02) (2, -5.40936663746833801270e-02) (3, -1.98433011770248413086e-01) (4, -2.92683318257331848145e-02) (5, -8.96949991583824157715e-02) (6, -1.81195601820945739746e-01) (7, -2.06536337733268737793e-01) (8, -5.07143661379814147949e-02) (9, -5.52661940455436706543e-02) (0, -1.90002888441085815430e-01) (1, -2.15931385755538940430e-01) (2, -1.53190463781356811523e-01) (3, -1.41337946057319641113e-01) (4, -6.87505528330802917480e-02) (5, -1.27290904521942138672e-01) (6, -1.89812183380126953125e-01) (7, -5.65281584858894348145e-02) (8, -1.93942368030548095703e-01) (9, -1.62542819976806640625e-01) (10, 3.83847877383232116699e-02) (11, 8.29167217016220092773e-02) (12, 2.15954422950744628906e-01) 
