FANN_FLO_2.1
num_layers=3
learning_rate=0.100000
connection_rate=1.000000
network_type=0
learning_momentum=0.000000
training_algorithm=2
train_error_function=1
train_stop_function=0
cascade_output_change_fraction=0.010000
quickprop_decay=-0.000100
quickprop_mu=1.750000
rprop_increase_factor=1.200000
rprop_decrease_factor=0.500000
rprop_delta_min=0.000000
rprop_delta_max=50.000000
rprop_delta_zero=0.100000
cascade_output_stagnation_epochs=12
cascade_candidate_change_fraction=0.010000
cascade_candidate_stagnation_epochs=12
cascade_max_out_epochs=150
cascade_min_out_epochs=50
cascade_max_cand_epochs=150
cascade_min_cand_epochs=50
cascade_num_candidate_groups=2
bit_fail_limit=3.49999994039535522461e-01
cascade_candidate_limit=1.00000000000000000000e+03
cascade_weight_multiplier=4.00000005960464477539e-01
cascade_activation_functions_count=10
cascade_activation_functions=3 5 7 8 10 11 14 15 16 17 
cascade_activation_steepnesses_count=4
cascade_activation_steepnesses=2.50000000000000000000e-01 5.00000000000000000000e-01 7.50000000000000000000e-01 1.00000000000000000000e+00 
layer_sizes=19 3 3 
scale_included=0
neurons (num_inputs, activation_function, activation_steepness)=(0, 0, 0.00000000000000000000e+00) (0, 0, 0.00000000000000000000e+00) (0, 0, 0.00000000000000000000e+00) (0, 0, 0.00000000000000000000e+00) (0, 0, 0.00000000000000000000e+00) (0, 0, 0.00000000000000000000e+00) (0, 0, 0.00000000000000000000e+00) (0, 0, 0.00000000000000000000e+00) (0, 0, 0.00000000000000000000e+00) (0, 0, 0.00000000000000000000e+00) (0, 0, 0.00000000000000000000e+00) (0, 0, 0.00000000000000000000e+00) (0, 0, 0.00000000000000000000e+00) (0, 0, 0.00000000000000000000e+00) (0, 0, 0.00000000000000000000e+00) (0, 0, 0.00000000000000000000e+00) (0, 0, 0.00000000000000000000e+00) (0, 0, 0.00000000000000000000e+00) (0, 0, 0.00000000000000000000e+00) (19, 3, 5.00000000000000000000e-01) (19, 3, 5.00000000000000000000e-01) (0, 3, 0.00000000000000000000e+00) (3, 0, 5.00000000000000000000e-01) (3, 0, 5.00000000000000000000e-01) (0, 0, 0.00000000000000000000e+00) 
connections (connected_to_neuron, weight)=(0, -1.21686451137065887451e-01) (1, -3.10815647244453430176e-02) (2, -1.76956638693809509277e-01) (3, -1.39075875282287597656e-01) (4, -1.42155289649963378906e-01) (5, -2.35955342650413513184e-02) (6, -4.96833994984626770020e-02) (7, -2.54095420241355895996e-02) (8, -1.74356922507286071777e-01) (9, -1.92777380347251892090e-01) (10, -1.85193926095962524414e-01) (11, -1.73386663198471069336e-01) (12, -7.52832666039466857910e-02) (13, -2.77307555079460144043e-02) (14, -4.43248674273490905762e-02) (15, -4.96826842427253723145e-02) (16, -8.77223536372184753418e-02) (17, -1.23484067618846893311e-01) (18, -1.12649559974670410156e-01) (0, 1.39052897691726684570e-01) (1, -7.60243460536003112793e-02) (2, -1.28377750515937805176e-01) (3, 1.93709284067153930664e-01) (4, 5.31625598669052124023e-02) (5, -6.21640160679817199707e-02) (6, 7.90993720293045043945e-02) (7, -2.05216437578201293945e-01) (8, 9.10807996988296508789e-02) (9, 1.18216834962368011475e-01) (10, 1.80832147598266601562e-01) (11, -3.28198000788688659668e-02) (12, -2.34696194529533386230e-02) (13, -7.02494308352470397949e-02) (14, 5.02235740423202514648e-02) (15, 9.74545255303382873535e-02) (16, -1.92404717206954956055e-01) (17, -1.93371966481208801270e-01) (18, -1.72228872776031494141e-01) (19, 4.21857610344886779785e-02) (20, 9.22711268067359924316e-02) (21, 9.49937552213668823242e-02) (19, 7.69918411970138549805e-02) (20, 1.38884454965591430664e-01) (21, 3.97104918956756591797e-02) 
