FANN_FLO_2.1
num_layers=3
learning_rate=0.100000
connection_rate=1.000000
network_type=0
learning_momentum=0.000000
training_algorithm=2
train_error_function=1
train_stop_function=0
cascade_output_change_fraction=0.010000
quickprop_decay=-0.000100
quickprop_mu=1.750000
rprop_increase_factor=1.200000
rprop_decrease_factor=0.500000
rprop_delta_min=0.000000
rprop_delta_max=50.000000
rprop_delta_zero=0.100000
cascade_output_stagnation_epochs=12
cascade_candidate_change_fraction=0.010000
cascade_candidate_stagnation_epochs=12
cascade_max_out_epochs=150
cascade_min_out_epochs=50
cascade_max_cand_epochs=150
cascade_min_cand_epochs=50
cascade_num_candidate_groups=2
bit_fail_limit=3.49999994039535522461e-01
cascade_candidate_limit=1.00000000000000000000e+03
cascade_weight_multiplier=4.00000005960464477539e-01
cascade_activation_functions_count=10
cascade_activation_functions=3 5 7 8 10 11 14 15 16 17 
cascade_activation_steepnesses_count=4
cascade_activation_steepnesses=2.50000000000000000000e-01 5.00000000000000000000e-01 7.50000000000000000000e-01 1.00000000000000000000e+00 
layer_sizes=19 3 3 
scale_included=0
neurons (num_inputs, activation_function, activation_steepness)=(0, 0, 0.00000000000000000000e+00) (0, 0, 0.00000000000000000000e+00) (0, 0, 0.00000000000000000000e+00) (0, 0, 0.00000000000000000000e+00) (0, 0, 0.00000000000000000000e+00) (0, 0, 0.00000000000000000000e+00) (0, 0, 0.00000000000000000000e+00) (0, 0, 0.00000000000000000000e+00) (0, 0, 0.00000000000000000000e+00) (0, 0, 0.00000000000000000000e+00) (0, 0, 0.00000000000000000000e+00) (0, 0, 0.00000000000000000000e+00) (0, 0, 0.00000000000000000000e+00) (0, 0, 0.00000000000000000000e+00) (0, 0, 0.00000000000000000000e+00) (0, 0, 0.00000000000000000000e+00) (0, 0, 0.00000000000000000000e+00) (0, 0, 0.00000000000000000000e+00) (0, 0, 0.00000000000000000000e+00) (19, 3, 5.00000000000000000000e-01) (19, 3, 5.00000000000000000000e-01) (0, 3, 0.00000000000000000000e+00) (3, 0, 5.00000000000000000000e-01) (3, 0, 5.00000000000000000000e-01) (0, 0, 0.00000000000000000000e+00) 
connections (connected_to_neuron, weight)=(0, -6.68987110257148742676e-02) (1, -5.66858127713203430176e-02) (2, -1.50020018219947814941e-01) (3, -9.13609042763710021973e-02) (4, -1.33072078227996826172e-01) (5, -1.52969673275947570801e-01) (6, -1.46529123187065124512e-01) (7, -1.25525370240211486816e-01) (8, -1.21418274939060211182e-01) (9, -1.83196246623992919922e-01) (10, -5.29197975993156433105e-02) (11, -8.61628875136375427246e-02) (12, -5.35828992724418640137e-02) (13, -1.39341801404953002930e-01) (14, -8.18777605891227722168e-02) (15, -1.44122093915939331055e-01) (16, -4.65491935610771179199e-02) (17, -2.00935691595077514648e-01) (18, -1.72395557165145874023e-01) (0, 5.50524890422821044922e-02) (1, 1.19251683354377746582e-01) (2, 1.86535120010375976562e-01) (3, 2.10108637809753417969e-01) (4, 1.25932678580284118652e-01) (5, 3.26801463961601257324e-02) (6, 1.73045635223388671875e-01) (7, 5.32787293195724487305e-02) (8, 1.45912617444992065430e-01) (9, 4.49498072266578674316e-02) (10, 1.23729303479194641113e-01) (11, 1.40342801809310913086e-01) (12, 1.98051095008850097656e-01) (13, 8.70434790849685668945e-02) (14, 2.10322797298431396484e-01) (15, 1.26690194010734558105e-01) (16, 1.73971414566040039062e-01) (17, 7.73531198501586914062e-02) (18, 2.00161069631576538086e-01) (19, 6.84460401535034179688e-02) (20, 1.75934851169586181641e-01) (21, 3.69648262858390808105e-02) (19, 3.55262458324432373047e-02) (20, 1.09771959483623504639e-01) (21, 2.03381955623626708984e-01) 
