FANN_FLO_2.1
num_layers=3
learning_rate=0.100000
connection_rate=1.000000
network_type=0
learning_momentum=0.000000
training_algorithm=2
train_error_function=1
train_stop_function=0
cascade_output_change_fraction=0.010000
quickprop_decay=-0.000100
quickprop_mu=1.750000
rprop_increase_factor=1.200000
rprop_decrease_factor=0.500000
rprop_delta_min=0.000000
rprop_delta_max=50.000000
rprop_delta_zero=0.100000
cascade_output_stagnation_epochs=12
cascade_candidate_change_fraction=0.010000
cascade_candidate_stagnation_epochs=12
cascade_max_out_epochs=150
cascade_min_out_epochs=50
cascade_max_cand_epochs=150
cascade_min_cand_epochs=50
cascade_num_candidate_groups=2
bit_fail_limit=3.49999994039535522461e-01
cascade_candidate_limit=1.00000000000000000000e+03
cascade_weight_multiplier=4.00000005960464477539e-01
cascade_activation_functions_count=10
cascade_activation_functions=3 5 7 8 10 11 14 15 16 17 
cascade_activation_steepnesses_count=4
cascade_activation_steepnesses=2.50000000000000000000e-01 5.00000000000000000000e-01 7.50000000000000000000e-01 1.00000000000000000000e+00 
layer_sizes=19 3 3 
scale_included=0
neurons (num_inputs, activation_function, activation_steepness)=(0, 0, 0.00000000000000000000e+00) (0, 0, 0.00000000000000000000e+00) (0, 0, 0.00000000000000000000e+00) (0, 0, 0.00000000000000000000e+00) (0, 0, 0.00000000000000000000e+00) (0, 0, 0.00000000000000000000e+00) (0, 0, 0.00000000000000000000e+00) (0, 0, 0.00000000000000000000e+00) (0, 0, 0.00000000000000000000e+00) (0, 0, 0.00000000000000000000e+00) (0, 0, 0.00000000000000000000e+00) (0, 0, 0.00000000000000000000e+00) (0, 0, 0.00000000000000000000e+00) (0, 0, 0.00000000000000000000e+00) (0, 0, 0.00000000000000000000e+00) (0, 0, 0.00000000000000000000e+00) (0, 0, 0.00000000000000000000e+00) (0, 0, 0.00000000000000000000e+00) (0, 0, 0.00000000000000000000e+00) (19, 3, 5.00000000000000000000e-01) (19, 3, 5.00000000000000000000e-01) (0, 3, 0.00000000000000000000e+00) (3, 0, 5.00000000000000000000e-01) (3, 0, 5.00000000000000000000e-01) (0, 0, 0.00000000000000000000e+00) 
connections (connected_to_neuron, weight)=(0, 1.87647402286529541016e-01) (1, 1.44814893603324890137e-01) (2, 5.67243248224258422852e-02) (3, 1.42244994640350341797e-01) (4, 1.19654946029186248779e-01) (5, 1.37488335371017456055e-01) (6, 1.31859004497528076172e-01) (7, 1.39166489243507385254e-01) (8, 1.99269086122512817383e-01) (9, 2.11894929409027099609e-01) (10, 1.96047365665435791016e-01) (11, 8.11528265476226806641e-02) (12, 2.16802775859832763672e-01) (13, 1.14006780087947845459e-01) (14, 9.87713187932968139648e-02) (15, 7.18058645725250244141e-02) (16, 1.34531646966934204102e-01) (17, 1.98400318622589111328e-01) (18, 1.77424043416976928711e-01) (0, 5.27328476309776306152e-02) (1, 4.65018674731254577637e-02) (2, 1.79600417613983154297e-01) (3, 6.07282519340515136719e-02) (4, 6.88663497567176818848e-02) (5, 2.26512625813484191895e-02) (6, 6.47250562906265258789e-02) (7, 1.79536789655685424805e-01) (8, 1.49455636739730834961e-01) (9, 2.00129210948944091797e-01) (10, 3.66109386086463928223e-02) (11, 2.08111643791198730469e-01) (12, 1.67776584625244140625e-01) (13, 1.61425828933715820312e-01) (14, 4.48359847068786621094e-02) (15, 9.00215804576873779297e-02) (16, 6.10807649791240692139e-02) (17, 1.62324309349060058594e-01) (18, 2.01880574226379394531e-01) (19, 1.80247247219085693359e-01) (20, 1.41593396663665771484e-01) (21, 1.93775475025177001953e-01) (19, 1.56294614076614379883e-01) (20, 2.02746212482452392578e-01) (21, 1.90578281879425048828e-01) 
