FANN_FLO_2.1
num_layers=3
learning_rate=0.100000
connection_rate=1.000000
network_type=0
learning_momentum=0.000000
training_algorithm=2
train_error_function=1
train_stop_function=0
cascade_output_change_fraction=0.010000
quickprop_decay=-0.000100
quickprop_mu=1.750000
rprop_increase_factor=1.200000
rprop_decrease_factor=0.500000
rprop_delta_min=0.000000
rprop_delta_max=50.000000
rprop_delta_zero=0.100000
cascade_output_stagnation_epochs=12
cascade_candidate_change_fraction=0.010000
cascade_candidate_stagnation_epochs=12
cascade_max_out_epochs=150
cascade_min_out_epochs=50
cascade_max_cand_epochs=150
cascade_min_cand_epochs=50
cascade_num_candidate_groups=2
bit_fail_limit=3.49999994039535522461e-01
cascade_candidate_limit=1.00000000000000000000e+03
cascade_weight_multiplier=4.00000005960464477539e-01
cascade_activation_functions_count=10
cascade_activation_functions=3 5 7 8 10 11 14 15 16 17 
cascade_activation_steepnesses_count=4
cascade_activation_steepnesses=2.50000000000000000000e-01 5.00000000000000000000e-01 7.50000000000000000000e-01 1.00000000000000000000e+00 
layer_sizes=19 3 3 
scale_included=0
neurons (num_inputs, activation_function, activation_steepness)=(0, 0, 0.00000000000000000000e+00) (0, 0, 0.00000000000000000000e+00) (0, 0, 0.00000000000000000000e+00) (0, 0, 0.00000000000000000000e+00) (0, 0, 0.00000000000000000000e+00) (0, 0, 0.00000000000000000000e+00) (0, 0, 0.00000000000000000000e+00) (0, 0, 0.00000000000000000000e+00) (0, 0, 0.00000000000000000000e+00) (0, 0, 0.00000000000000000000e+00) (0, 0, 0.00000000000000000000e+00) (0, 0, 0.00000000000000000000e+00) (0, 0, 0.00000000000000000000e+00) (0, 0, 0.00000000000000000000e+00) (0, 0, 0.00000000000000000000e+00) (0, 0, 0.00000000000000000000e+00) (0, 0, 0.00000000000000000000e+00) (0, 0, 0.00000000000000000000e+00) (0, 0, 0.00000000000000000000e+00) (19, 3, 5.00000000000000000000e-01) (19, 3, 5.00000000000000000000e-01) (0, 3, 0.00000000000000000000e+00) (3, 0, 5.00000000000000000000e-01) (3, 0, 5.00000000000000000000e-01) (0, 0, 0.00000000000000000000e+00) 
connections (connected_to_neuron, weight)=(0, -2.01560333371162414551e-02) (1, -5.84885552525520324707e-02) (2, -1.78618758916854858398e-01) (3, -6.34872838854789733887e-02) (4, -5.73469027876853942871e-02) (5, -4.13069352507591247559e-02) (6, 2.09930747747421264648e-01) (7, -2.14408218860626220703e-01) (8, -1.20805412530899047852e-01) (9, -2.00258493423461914062e-01) (10, -6.33169338107109069824e-02) (11, -1.86924546957015991211e-01) (12, -1.24588772654533386230e-01) (13, -1.71282023191452026367e-01) (14, 1.57801121473312377930e-01) (15, -4.89838942885398864746e-02) (16, -1.31648495793342590332e-01) (17, -9.16230604052543640137e-02) (18, -9.68091636896133422852e-02) (0, -1.85600310564041137695e-01) (1, -2.00792580842971801758e-01) (2, -1.01337030529975891113e-01) (3, -8.16951170563697814941e-02) (4, -2.07239627838134765625e-01) (5, -1.05659410357475280762e-01) (6, -1.25039607286453247070e-01) (7, -7.34821483492851257324e-02) (8, -1.67681157588958740234e-01) (9, -1.80332273244857788086e-01) (10, -3.12026068568229675293e-02) (11, -9.37641784548759460449e-02) (12, -1.80488318204879760742e-01) (13, -6.96911588311195373535e-02) (14, -5.23829385638236999512e-02) (15, -2.39755883812904357910e-02) (16, -1.07038058340549468994e-01) (17, -7.36898705363273620605e-02) (18, -3.40448543429374694824e-02) (19, 1.38553738594055175781e-01) (20, 6.55047222971916198730e-02) (21, 2.56966650485992431641e-02) (19, 9.52368155121803283691e-02) (20, 9.85801741480827331543e-02) (21, 1.21107898652553558350e-01) 
