FANN_FLO_2.1
num_layers=3
learning_rate=0.100000
connection_rate=1.000000
network_type=0
learning_momentum=0.000000
training_algorithm=2
train_error_function=1
train_stop_function=0
cascade_output_change_fraction=0.010000
quickprop_decay=-0.000100
quickprop_mu=1.750000
rprop_increase_factor=1.200000
rprop_decrease_factor=0.500000
rprop_delta_min=0.000000
rprop_delta_max=50.000000
rprop_delta_zero=0.100000
cascade_output_stagnation_epochs=12
cascade_candidate_change_fraction=0.010000
cascade_candidate_stagnation_epochs=12
cascade_max_out_epochs=150
cascade_min_out_epochs=50
cascade_max_cand_epochs=150
cascade_min_cand_epochs=50
cascade_num_candidate_groups=2
bit_fail_limit=3.49999994039535522461e-01
cascade_candidate_limit=1.00000000000000000000e+03
cascade_weight_multiplier=4.00000005960464477539e-01
cascade_activation_functions_count=10
cascade_activation_functions=3 5 7 8 10 11 14 15 16 17 
cascade_activation_steepnesses_count=4
cascade_activation_steepnesses=2.50000000000000000000e-01 5.00000000000000000000e-01 7.50000000000000000000e-01 1.00000000000000000000e+00 
layer_sizes=10 3 2 
scale_included=0
neurons (num_inputs, activation_function, activation_steepness)=(0, 0, 0.00000000000000000000e+00) (0, 0, 0.00000000000000000000e+00) (0, 0, 0.00000000000000000000e+00) (0, 0, 0.00000000000000000000e+00) (0, 0, 0.00000000000000000000e+00) (0, 0, 0.00000000000000000000e+00) (0, 0, 0.00000000000000000000e+00) (0, 0, 0.00000000000000000000e+00) (0, 0, 0.00000000000000000000e+00) (0, 0, 0.00000000000000000000e+00) (10, 3, 5.00000000000000000000e-01) (10, 3, 5.00000000000000000000e-01) (0, 3, 0.00000000000000000000e+00) (3, 0, 5.00000000000000000000e-01) (0, 0, 0.00000000000000000000e+00) 
connections (connected_to_neuron, weight)=(0, -1.10002256929874420166e-01) (1, -1.69538736343383789062e-01) (2, -5.17389401793479919434e-02) (3, -1.17351308465003967285e-01) (4, -2.06424206495285034180e-01) (5, -1.51991039514541625977e-01) (6, -1.79845601320266723633e-01) (7, -5.52819445729255676270e-02) (8, -1.37091964483261108398e-01) (9, -1.41457155346870422363e-01) (0, 1.14254921674728393555e-01) (1, 1.38321965932846069336e-01) (2, 3.79847213625907897949e-02) (3, 5.90016059577465057373e-02) (4, 1.79425477981567382812e-01) (5, 1.57052874565124511719e-01) (6, 3.56248915195465087891e-02) (7, 2.51090452075004577637e-02) (8, 1.56542420387268066406e-01) (9, 6.98818266391754150391e-02) (10, 5.47630414366722106934e-02) (11, 1.32170170545578002930e-01) (12, 1.43715292215347290039e-01) 
