FANN_FLO_2.1
num_layers=3
learning_rate=0.100000
connection_rate=1.000000
network_type=0
learning_momentum=0.000000
training_algorithm=2
train_error_function=1
train_stop_function=0
cascade_output_change_fraction=0.010000
quickprop_decay=-0.000100
quickprop_mu=1.750000
rprop_increase_factor=1.200000
rprop_decrease_factor=0.500000
rprop_delta_min=0.000000
rprop_delta_max=50.000000
rprop_delta_zero=0.100000
cascade_output_stagnation_epochs=12
cascade_candidate_change_fraction=0.010000
cascade_candidate_stagnation_epochs=12
cascade_max_out_epochs=150
cascade_min_out_epochs=50
cascade_max_cand_epochs=150
cascade_min_cand_epochs=50
cascade_num_candidate_groups=2
bit_fail_limit=3.49999994039535522461e-01
cascade_candidate_limit=1.00000000000000000000e+03
cascade_weight_multiplier=4.00000005960464477539e-01
cascade_activation_functions_count=10
cascade_activation_functions=3 5 7 8 10 11 14 15 16 17 
cascade_activation_steepnesses_count=4
cascade_activation_steepnesses=2.50000000000000000000e-01 5.00000000000000000000e-01 7.50000000000000000000e-01 1.00000000000000000000e+00 
layer_sizes=19 3 3 
scale_included=0
neurons (num_inputs, activation_function, activation_steepness)=(0, 0, 0.00000000000000000000e+00) (0, 0, 0.00000000000000000000e+00) (0, 0, 0.00000000000000000000e+00) (0, 0, 0.00000000000000000000e+00) (0, 0, 0.00000000000000000000e+00) (0, 0, 0.00000000000000000000e+00) (0, 0, 0.00000000000000000000e+00) (0, 0, 0.00000000000000000000e+00) (0, 0, 0.00000000000000000000e+00) (0, 0, 0.00000000000000000000e+00) (0, 0, 0.00000000000000000000e+00) (0, 0, 0.00000000000000000000e+00) (0, 0, 0.00000000000000000000e+00) (0, 0, 0.00000000000000000000e+00) (0, 0, 0.00000000000000000000e+00) (0, 0, 0.00000000000000000000e+00) (0, 0, 0.00000000000000000000e+00) (0, 0, 0.00000000000000000000e+00) (0, 0, 0.00000000000000000000e+00) (19, 3, 5.00000000000000000000e-01) (19, 3, 5.00000000000000000000e-01) (0, 3, 0.00000000000000000000e+00) (3, 0, 5.00000000000000000000e-01) (3, 0, 5.00000000000000000000e-01) (0, 0, 0.00000000000000000000e+00) 
connections (connected_to_neuron, weight)=(0, 1.91020339727401733398e-01) (1, 1.11649148166179656982e-01) (2, 1.89317673444747924805e-01) (3, 1.39837384223937988281e-01) (4, 8.18990692496299743652e-02) (5, 1.74167752265930175781e-01) (6, 1.68983936309814453125e-01) (7, 3.01642492413520812988e-02) (8, 4.53399941325187683105e-02) (9, 2.09324717521667480469e-01) (10, 7.01882392168045043945e-02) (11, 1.40955358743667602539e-01) (12, 6.24699927866458892822e-02) (13, 1.98765188455581665039e-01) (14, 1.17425963282585144043e-01) (15, 2.89456397294998168945e-02) (16, 1.12924635410308837891e-01) (17, 1.41740024089813232422e-01) (18, 2.08119511604309082031e-01) (0, -1.00423097610473632812e-01) (1, -9.60719436407089233398e-02) (2, -1.95177346467971801758e-01) (3, -1.75565034151077270508e-01) (4, -8.59980508685111999512e-02) (5, -2.15337872505187988281e-01) (6, -1.82599112391471862793e-01) (7, -1.71108156442642211914e-01) (8, -2.38721892237663269043e-02) (9, -1.45824551582336425781e-01) (10, -2.08295330405235290527e-01) (11, -5.71267828345298767090e-02) (12, -1.74804225564002990723e-01) (13, -1.16646185517311096191e-01) (14, -8.78091081976890563965e-02) (15, -5.49668446183204650879e-02) (16, -5.47471120953559875488e-02) (17, -1.33641362190246582031e-01) (18, -1.05982914566993713379e-01) (19, 1.95417135953903198242e-01) (20, 1.31698638200759887695e-01) (21, 1.23341798782348632812e-01) (19, 4.56053763628005981445e-02) (20, 5.26539906859397888184e-02) (21, 1.65811777114868164062e-01) 
