FANN_FLO_2.1
num_layers=3
learning_rate=0.100000
connection_rate=1.000000
network_type=0
learning_momentum=0.000000
training_algorithm=2
train_error_function=1
train_stop_function=0
cascade_output_change_fraction=0.010000
quickprop_decay=-0.000100
quickprop_mu=1.750000
rprop_increase_factor=1.200000
rprop_decrease_factor=0.500000
rprop_delta_min=0.000000
rprop_delta_max=50.000000
rprop_delta_zero=0.100000
cascade_output_stagnation_epochs=12
cascade_candidate_change_fraction=0.010000
cascade_candidate_stagnation_epochs=12
cascade_max_out_epochs=150
cascade_min_out_epochs=50
cascade_max_cand_epochs=150
cascade_min_cand_epochs=50
cascade_num_candidate_groups=2
bit_fail_limit=3.49999994039535522461e-01
cascade_candidate_limit=1.00000000000000000000e+03
cascade_weight_multiplier=4.00000005960464477539e-01
cascade_activation_functions_count=10
cascade_activation_functions=3 5 7 8 10 11 14 15 16 17 
cascade_activation_steepnesses_count=4
cascade_activation_steepnesses=2.50000000000000000000e-01 5.00000000000000000000e-01 7.50000000000000000000e-01 1.00000000000000000000e+00 
layer_sizes=19 3 3 
scale_included=0
neurons (num_inputs, activation_function, activation_steepness)=(0, 0, 0.00000000000000000000e+00) (0, 0, 0.00000000000000000000e+00) (0, 0, 0.00000000000000000000e+00) (0, 0, 0.00000000000000000000e+00) (0, 0, 0.00000000000000000000e+00) (0, 0, 0.00000000000000000000e+00) (0, 0, 0.00000000000000000000e+00) (0, 0, 0.00000000000000000000e+00) (0, 0, 0.00000000000000000000e+00) (0, 0, 0.00000000000000000000e+00) (0, 0, 0.00000000000000000000e+00) (0, 0, 0.00000000000000000000e+00) (0, 0, 0.00000000000000000000e+00) (0, 0, 0.00000000000000000000e+00) (0, 0, 0.00000000000000000000e+00) (0, 0, 0.00000000000000000000e+00) (0, 0, 0.00000000000000000000e+00) (0, 0, 0.00000000000000000000e+00) (0, 0, 0.00000000000000000000e+00) (19, 3, 5.00000000000000000000e-01) (19, 3, 5.00000000000000000000e-01) (0, 3, 0.00000000000000000000e+00) (3, 0, 5.00000000000000000000e-01) (3, 0, 5.00000000000000000000e-01) (0, 0, 0.00000000000000000000e+00) 
connections (connected_to_neuron, weight)=(0, -1.90757751464843750000e-01) (1, -9.66277569532394409180e-02) (2, -7.49124810099601745605e-02) (3, -9.24815908074378967285e-02) (4, -7.85016790032386779785e-02) (5, -4.19645830988883972168e-02) (6, -1.55353233218193054199e-01) (7, -1.94934964179992675781e-01) (8, -7.57059678435325622559e-02) (9, -2.11543470621109008789e-01) (10, -1.90081357955932617188e-01) (11, -1.58251389861106872559e-01) (12, -1.11983992159366607666e-01) (13, -1.07196331024169921875e-01) (14, -8.70884582400321960449e-02) (15, -1.26472860574722290039e-01) (16, -5.09179756045341491699e-02) (17, -7.26836845278739929199e-02) (18, -7.25619271397590637207e-02) (0, 2.04307615756988525391e-01) (1, 1.98996841907501220703e-01) (2, 1.99897944927215576172e-01) (3, 4.04657274484634399414e-02) (4, 1.14718303084373474121e-01) (5, 9.99778360128402709961e-02) (6, 4.95334565639495849609e-02) (7, 1.14196009933948516846e-01) (8, 1.77029341459274291992e-01) (9, 1.82153522968292236328e-01) (10, 1.70786201953887939453e-01) (11, 8.78262370824813842773e-02) (12, 2.11395770311355590820e-01) (13, 9.41584408283233642578e-02) (14, 3.29137593507766723633e-02) (15, 1.38914182782173156738e-01) (16, 3.56567651033401489258e-02) (17, 2.10949182510375976562e-01) (18, 2.03560948371887207031e-01) (19, 6.07217960059642791748e-02) (20, 1.55243217945098876953e-01) (21, 2.12017476558685302734e-01) (19, 9.06404480338096618652e-02) (20, 2.16991841793060302734e-01) (21, 1.20033502578735351562e-01) 
