FANN_FLO_2.1
num_layers=3
learning_rate=0.100000
connection_rate=1.000000
network_type=0
learning_momentum=0.000000
training_algorithm=2
train_error_function=1
train_stop_function=0
cascade_output_change_fraction=0.010000
quickprop_decay=-0.000100
quickprop_mu=1.750000
rprop_increase_factor=1.200000
rprop_decrease_factor=0.500000
rprop_delta_min=0.000000
rprop_delta_max=50.000000
rprop_delta_zero=0.100000
cascade_output_stagnation_epochs=12
cascade_candidate_change_fraction=0.010000
cascade_candidate_stagnation_epochs=12
cascade_max_out_epochs=150
cascade_min_out_epochs=50
cascade_max_cand_epochs=150
cascade_min_cand_epochs=50
cascade_num_candidate_groups=2
bit_fail_limit=3.49999994039535522461e-01
cascade_candidate_limit=1.00000000000000000000e+03
cascade_weight_multiplier=4.00000005960464477539e-01
cascade_activation_functions_count=10
cascade_activation_functions=3 5 7 8 10 11 14 15 16 17 
cascade_activation_steepnesses_count=4
cascade_activation_steepnesses=2.50000000000000000000e-01 5.00000000000000000000e-01 7.50000000000000000000e-01 1.00000000000000000000e+00 
layer_sizes=19 3 3 
scale_included=0
neurons (num_inputs, activation_function, activation_steepness)=(0, 0, 0.00000000000000000000e+00) (0, 0, 0.00000000000000000000e+00) (0, 0, 0.00000000000000000000e+00) (0, 0, 0.00000000000000000000e+00) (0, 0, 0.00000000000000000000e+00) (0, 0, 0.00000000000000000000e+00) (0, 0, 0.00000000000000000000e+00) (0, 0, 0.00000000000000000000e+00) (0, 0, 0.00000000000000000000e+00) (0, 0, 0.00000000000000000000e+00) (0, 0, 0.00000000000000000000e+00) (0, 0, 0.00000000000000000000e+00) (0, 0, 0.00000000000000000000e+00) (0, 0, 0.00000000000000000000e+00) (0, 0, 0.00000000000000000000e+00) (0, 0, 0.00000000000000000000e+00) (0, 0, 0.00000000000000000000e+00) (0, 0, 0.00000000000000000000e+00) (0, 0, 0.00000000000000000000e+00) (19, 3, 5.00000000000000000000e-01) (19, 3, 5.00000000000000000000e-01) (0, 3, 0.00000000000000000000e+00) (3, 0, 5.00000000000000000000e-01) (3, 0, 5.00000000000000000000e-01) (0, 0, 0.00000000000000000000e+00) 
connections (connected_to_neuron, weight)=(0, 1.58838063478469848633e-01) (1, 2.14778125286102294922e-01) (2, 5.86268045008182525635e-02) (3, 1.41654223203659057617e-01) (4, 1.01714931428432464600e-01) (5, 2.02205508947372436523e-01) (6, 5.12504726648330688477e-02) (7, 4.72606420516967773438e-02) (8, 1.48433357477188110352e-01) (9, 1.75542771816253662109e-01) (10, 4.72186133265495300293e-02) (11, 3.76728177070617675781e-02) (12, 1.50560975074768066406e-01) (13, 1.62582129240036010742e-01) (14, 1.85215830802917480469e-01) (15, 2.16871500015258789062e-02) (16, 5.75995929539203643799e-02) (17, 2.07402825355529785156e-01) (18, 9.57107618451118469238e-02) (0, 1.17590226233005523682e-01) (1, 1.70666664838790893555e-01) (2, 1.67888522148132324219e-01) (3, 1.13842189311981201172e-01) (4, 2.18799352645874023438e-01) (5, 1.43035218119621276855e-01) (6, 1.99212014675140380859e-01) (7, 2.11768358945846557617e-01) (8, 8.24843347072601318359e-02) (9, 2.15671509504318237305e-01) (10, 2.92060226202011108398e-02) (11, 2.91279777884483337402e-02) (12, 1.54509544372558593750e-01) (13, 2.39841490983963012695e-02) (14, 6.77547752857208251953e-02) (15, 7.61637687683105468750e-02) (16, 1.05699077248573303223e-01) (17, 4.99602779746055603027e-02) (18, 1.07414245605468750000e-01) (19, 1.32959708571434020996e-01) (20, 1.78393632173538208008e-01) (21, 6.29570111632347106934e-02) (19, 1.60178303718566894531e-01) (20, 1.96066439151763916016e-01) (21, 1.93517982959747314453e-01) 
